{"learner":{"attributes":{"best_iteration":"99","best_ntree_limit":"100","best_score":"0.5121944656244666","scikit_learn":"{\"use_label_encoder\": false, \"n_estimators\": 100, \"objective\": \"binary:logistic\", \"max_depth\": 2, \"max_leaves\": null, \"max_bin\": null, \"grow_policy\": null, \"learning_rate\": 0.1, \"verbosity\": null, \"booster\": null, \"tree_method\": null, \"gamma\": null, \"min_child_weight\": null, \"max_delta_step\": null, \"subsample\": null, \"sampling_method\": null, \"colsample_bytree\": null, \"colsample_bylevel\": null, \"colsample_bynode\": null, \"reg_alpha\": null, \"reg_lambda\": null, \"scale_pos_weight\": null, \"base_score\": null, \"missing\": NaN, \"num_parallel_tree\": null, \"random_state\": null, \"n_jobs\": null, \"monotone_constraints\": null, \"interaction_constraints\": null, \"importance_type\": null, \"gpu_id\": null, \"validate_parameters\": null, \"predictor\": null, \"enable_categorical\": false, \"max_cat_to_onehot\": null, \"eval_metric\": null, \"early_stopping_rounds\": null, \"callbacks\": null, \"kwargs\": {\"nthread\": 4, \"seed\": 42}, \"classes_\": [0, 1], \"n_classes_\": 2, \"evals_result_\": {\"validation_0\": {\"logloss\": [0.6827624573747616, 0.6741394216875486, 0.6665096501414771, 0.6599257126542416, 0.6534114095912764, 0.6480286856534995, 0.6424126379974787, 0.6342056327985522, 0.6296739867568478, 0.625482784842238, 0.6208065938970474, 0.615374268335069, 0.6118317133106814, 0.607528231805256, 0.6012506934455355, 0.597952767465434, 0.5944787512979262, 0.5916336434945585, 0.5890820905082812, 0.5849379732756346, 0.5750983640637859, 0.5726168309827188, 0.5651482145921035, 0.5629488014156843, 0.5602069359465619, 0.5579855922776357, 0.5532292103051618, 0.5506502654250621, 0.5488363430249571, 0.5469884327575378, 0.5410765768855849, 0.5386436381177345, 0.5369626322696285, 0.5339022259545924, 0.5267377178750526, 0.5249534875957933, 0.5233070423849998, 0.5195416990337284, 0.5175416933541884, 0.516237567099228, 0.5147796276081379, 0.5103768654478751, 0.5090002856924399, 0.5076592746578814, 0.5062954190921389, 0.50391758171138, 0.5022033104720957, 0.5009996494737594, 0.497377943153166, 0.4962917090887705, 0.4953354621412635, 0.4939525141313268, 0.4930667653596767, 0.48992527336720393, 0.48773265700663665, 0.4854966561040697, 0.48459834434271054, 0.48357108749097244, 0.4826947174047283, 0.47843330860181643, 0.4758911825185967, 0.47508933716072155, 0.47436859163399864, 0.47329446157623567, 0.46969167866333184, 0.4689984188560972, 0.4682087282325862, 0.46682836336947975, 0.4656443821062118, 0.46353616863040936, 0.46299294031517374, 0.4624601941516886, 0.46187293105073574, 0.46008960501577606, 0.45945674074576803, 0.4564852977689956, 0.4547073170498035, 0.4541975343725758, 0.4533455684092274, 0.45283414131435823, 0.4523972600747377, 0.4512767903012461, 0.45072713464658887, 0.4481872525732178, 0.44668554903592694, 0.4460636052853006, 0.44559857373289097, 0.4450020900413624, 0.44240582337064244, 0.4419749440337949, 0.4404980057208735, 0.4397966439516792, 0.437002240614322, 0.43477164818277914, 0.43382875032375406, 0.43345245615484046, 0.43223136812089996, 0.4309640611710594, 0.4285883943209641, 0.4266776523293418]}, \"validation_1\": {\"logloss\": [0.6845864933729172, 0.6760904767560959, 0.6701940568423271, 0.6650082535922527, 0.6594235754442215, 0.6544856286096573, 0.6503437605690956, 0.6451506492602825, 0.640705209633112, 0.638230634342432, 0.6345270109009743, 0.6311900227403641, 0.6285040547573566, 0.6256608285868168, 0.6216636729204654, 0.6188821219110489, 0.6167048295533657, 0.6151233466410637, 0.6130925084650517, 0.6106105009496212, 0.6046712306928634, 0.6028480870109797, 0.5983047672891617, 0.596548120650053, 0.5947346247631311, 0.5930779599690438, 0.5900634067511559, 0.5884816286998987, 0.5870593691742421, 0.5856960335114598, 0.5815756902450323, 0.5800640127307176, 0.5788116102397441, 0.577029248829484, 0.5726505514717102, 0.5713680934229494, 0.5707608646073937, 0.5684142503401637, 0.5672169861033559, 0.566371585201323, 0.5648152546194196, 0.5620896009370685, 0.561467234904468, 0.5604866145294904, 0.559556772427857, 0.5581101864764094, 0.5571332026678324, 0.5562572780755162, 0.5541194159740209, 0.553110862544179, 0.5525766482894122, 0.5519334274400771, 0.5513064595614374, 0.5495487183551491, 0.5482764863763749, 0.5470532174295187, 0.5464115962950885, 0.5457906013144552, 0.5449596845503152, 0.5422568354362249, 0.5408775307978689, 0.5407074714358151, 0.5401639115731418, 0.5396867086614668, 0.537378674300909, 0.5365740224705636, 0.5361119313946366, 0.5353631355433166, 0.5347757822655141, 0.5335615520499647, 0.5334157851356268, 0.533065875314176, 0.5327767068728805, 0.5318441830773651, 0.5315071638531983, 0.5295960874525457, 0.5286842458184063, 0.5282280170694739, 0.527873628262505, 0.5272743503020704, 0.5270067046046257, 0.5264191229029744, 0.5261762362377346, 0.5245510029629618, 0.5237098757447303, 0.5234480762355029, 0.5232975868839026, 0.5230133876815438, 0.5215505695120245, 0.5209931337997318, 0.5202484352985024, 0.5199697160547226, 0.5182027431984246, 0.5169544070104509, 0.516472589155212, 0.5160672044450044, 0.5153387980630248, 0.514713287930414, 0.5132469580762088, 0.5121944656244666]}}, \"_estimator_type\": \"classifier\"}"},"feature_names":["loan_amnt","term","grade","emp_length","home_ownership","annual_inc","verification_status","purpose","dti","open_acc","revol_bal","revol_util","initial_list_status","application_type","mort_acc","pub_rec_bankruptcies","time_paid_back","cr_line"],"feature_types":["float","int","int","int","int","float","int","int","float","float","float","float","int","int","float","float","float","float"],"gradient_booster":{"model":{"gbtree_model_param":{"num_parallel_tree":"1","num_trees":"100","size_leaf_vector":"0"},"tree_info":[0,0,0,0,0,0,0,0,0,0,0,0,0,0,0,0,0,0,0,0,0,0,0,0,0,0,0,0,0,0,0,0,0,0,0,0,0,0,0,0,0,0,0,0,0,0,0,0,0,0,0,0,0,0,0,0,0,0,0,0,0,0,0,0,0,0,0,0,0,0,0,0,0,0,0,0,0,0,0,0,0,0,0,0,0,0,0,0,0,0,0,0,0,0,0,0,0,0,0,0],"trees":[{"base_weights":[-0E0,-2.8567842E-1,8.409267E-1,-5.5112606E-1,4.9754548E-1,6.214139E-1,1.5920235E0],"categories":[],"categories_nodes":[],"categories_segments":[],"categories_sizes":[],"default_left":[1,1,1,0,0,0,0],"id":0,"left_children":[1,3,5,-1,-1,-1,-1],"loss_changes":[6.4098203E3,4.1408564E3,1.1145161E3,0E0,0E0,0E0,0E0],"parents":[2147483647,0,0,1,1,2,2],"right_children":[2,4,6,-1,-1,-1,-1],"split_conditions":[1.7018784E1,9.5E0,3.4954094E1,-5.5112608E-2,4.975455E-2,6.214139E-2,1.5920235E-1],"split_indices":[16,3,16,0,0,0,0],"split_type":[0,0,0,0,0,0,0],"sum_hessian":[2.66795E4,1.991475E4,6.76475E3,1.4874E4,5.04075E3,5.23625E3,1.5285E3],"tree_param":{"num_deleted":"0","num_feature":"18","num_nodes":"7","size_leaf_vector":"0"}},{"base_weights":[2.5524047E-5,-2.5730467E-1,7.5860584E-1,9.8143804E-1,-4.0023515E-1,1.1710496E0,4.1392565E-1],"categories":[],"categories_nodes":[],"categories_segments":[],"categories_sizes":[],"default_left":[1,1,1,0,0,0,0],"id":1,"left_children":[1,3,5,-1,-1,-1,-1],"loss_changes":[5.2026978E3,3.5240066E3,9.592532E2,0E0,0E0,0E0,0E0],"parents":[2147483647,0,0,1,1,2,2],"right_children":[2,4,6,-1,-1,-1,-1],"split_conditions":[1.7018784E1,1.5E0,2.5E0,9.814381E-2,-4.0023517E-2,1.1710496E-1,4.1392565E-2],"split_indices":[16,2,2,0,0,0,0],"split_type":[0,0,0,0,0,0,0],"sum_hessian":[2.6650396E4,1.9900344E4,6.7500537E3,2.0580315E3,1.7842312E4,3.0718662E3,3.6781877E3],"tree_param":{"num_deleted":"0","num_feature":"18","num_nodes":"7","size_leaf_vector":"0"}},{"base_weights":[7.5490774E-5,-2.1483314E-1,7.5402707E-1,-4.539868E-1,4.8443556E-1,5.472461E-1,1.408802E0],"categories":[],"categories_nodes":[],"categories_segments":[],"categories_sizes":[],"default_left":[1,1,1,0,0,0,0],"id":2,"left_children":[1,3,5,-1,-1,-1,-1],"loss_changes":[4.309807E3,3.4617173E3,7.9806177E2,0E0,0E0,0E0,0E0],"parents":[2147483647,0,0,1,1,2,2],"right_children":[2,4,6,-1,-1,-1,-1],"split_conditions":[1.7938301E1,9.5E0,3.5969524E1,-4.539868E-2,4.8443556E-2,5.472461E-2,1.4088021E-1],"split_indices":[16,3,16,0,0,0,0],"split_type":[0,0,0,0,0,0,0],"sum_hessian":[2.6596709E4,2.0697691E4,5.899017E3,1.5423218E4,5.274473E3,4.4845967E3,1.4144204E3],"tree_param":{"num_deleted":"0","num_feature":"18","num_nodes":"7","size_leaf_vector":"0"}},{"base_weights":[1.4757272E-4,1.0609078E0,-1.4021002E-1,1.3477656E0,7.7165467E-1,-3.5943854E-1,4.8184332E-1],"categories":[],"categories_nodes":[],"categories_segments":[],"categories_sizes":[],"default_left":[1,1,1,0,0,0,0],"id":3,"left_children":[1,3,5,-1,-1,-1,-1],"loss_changes":[3.9465957E3,2.5597852E2,3.1926353E3,0E0,0E0,0E0,0E0],"parents":[2147483647,0,0,1,1,2,2],"right_children":[2,4,6,-1,-1,-1,-1],"split_conditions":[1.5E0,3.3303425E1,9.5E0,1.3477656E-1,7.716547E-2,-3.5943855E-2,4.818433E-2],"split_indices":[2,11,3,0,0,0,0],"split_type":[0,0,0,0,0,0,0],"sum_hessian":[2.6505545E4,3.0965603E3,2.3408984E4,1.5528802E3,1.5436802E3,1.730918E4,6.099803E3],"tree_param":{"num_deleted":"0","num_feature":"18","num_nodes":"7","size_leaf_vector":"0"}},{"base_weights":[1.996513E-4,-1.9208194E-1,6.78559E-1,1.3359528E0,-2.9158694E-1,3.5504773E-1,1.0689936E0],"categories":[],"categories_nodes":[],"categories_segments":[],"categories_sizes":[],"default_left":[1,1,1,0,0,0,0],"id":4,"left_children":[1,3,5,-1,-1,-1,-1],"loss_changes":[3.447918E3,3.131931E3,7.370078E2,0E0,0E0,0E0,0E0],"parents":[2147483647,0,0,1,1,2,2],"right_children":[2,4,6,-1,-1,-1,-1],"split_conditions":[1.7938301E1,2.037487E0,5E-1,1.3359527E-1,-2.9158695E-2,3.5504773E-2,1.0689936E-1],"split_indices":[16,16,12,0,0,0,0],"split_type":[0,0,0,0,0,0,0],"sum_hessian":[2.6431787E4,2.059487E4,5.836918E3,1.2583752E3,1.9336494E4,3.1930713E3,2.6438467E3],"tree_param":{"num_deleted":"0","num_feature":"18","num_nodes":"7","size_leaf_vector":"0"}},{"base_weights":[2.6709697E-4,4.3486476E-1,-2.7945012E-1,9.5768076E-1,2.1492763E-1,-4.6766478E-1,2.693723E-1],"categories":[],"categories_nodes":[],"categories_segments":[],"categories_sizes":[],"default_left":[1,1,1,0,0,0,0],"id":5,"left_children":[1,3,5,-1,-1,-1,-1],"loss_changes":[3.2033328E3,1.1863069E3,1.6561953E3,0E0,0E0,0E0,0E0],"parents":[2147483647,0,0,1,1,2,2],"right_children":[2,4,6,-1,-1,-1,-1],"split_conditions":[2.5E0,1.5E0,9.5E0,9.576808E-2,2.1492762E-2,-4.676648E-2,2.6937231E-2],"split_indices":[2,2,3,0,0,0,0],"split_type":[0,0,0,0,0,0,0],"sum_hessian":[2.6348902E4,1.03177E4,1.6031202E4,3.0541877E3,7.263512E3,1.1937479E4,4.0937234E3],"tree_param":{"num_deleted":"0","num_feature":"18","num_nodes":"7","size_leaf_vector":"0"}},{"base_weights":[2.8989124E-4,-1.905379E-1,5.611737E-1,-6.359318E-1,1.1795699E-1,3.77896E-1,1.2195061E0],"categories":[],"categories_nodes":[],"categories_segments":[],"categories_sizes":[],"default_left":[1,1,1,0,0,0,0],"id":6,"left_children":[1,3,5,-1,-1,-1,-1],"loss_changes":[2.8108591E3,2.692468E3,8.0393506E2,0E0,0E0,0E0,0E0],"parents":[2147483647,0,0,1,1,2,2],"right_children":[2,4,6,-1,-1,-1,-1],"split_conditions":[1.6952442E1,5E-1,3.4954094E1,-6.359318E-2,1.1795699E-2,3.77896E-2,1.2195062E-1],"split_indices":[16,12,16,0,0,0,0],"split_type":[0,0,0,0,0,0,0],"sum_hessian":[2.6259805E4,1.9594043E4,6.665761E3,8.0175415E3,1.1576501E4,5.215388E3,1.4503735E3],"tree_param":{"num_deleted":"0","num_feature":"18","num_nodes":"7","size_leaf_vector":"0"}},{"base_weights":[3.3138596E-4,-2.3017891E-1,4.320614E-1,-3.82568E-2,-1.8955965E0,9.8812985E-1,2.0220722E-1],"categories":[],"categories_nodes":[],"categories_segments":[],"categories_sizes":[],"default_left":[1,1,1,0,0,0,0],"id":7,"left_children":[1,3,5,-1,-1,-1,-1],"loss_changes":[2.603096E3,5.450378E3,1.1635055E3,0E0,0E0,0E0,0E0],"parents":[2147483647,0,0,1,1,2,2],"right_children":[2,4,6,-1,-1,-1,-1],"split_conditions":[1.9998953E0,1.0000057E0,2.0001016E0,-3.8256801E-3,-1.8955965E-1,9.881299E-2,2.0220723E-2],"split_indices":[14,14,14,0,0,0,0],"split_type":[0,0,0,0,0,0,0],"sum_hessian":[2.615498E4,1.7051352E4,9.10363E3,1.5290323E4,1.7610282E3,2.6615205E3,6.4421094E3],"tree_param":{"num_deleted":"0","num_feature":"18","num_nodes":"7","size_leaf_vector":"0"}},{"base_weights":[2.0968466E-4,3.8509402E-1,-2.4705108E-1,8.5241276E-1,1.5640306E-1,1.0923278E0,-3.182536E-1],"categories":[],"categories_nodes":[],"categories_segments":[],"categories_sizes":[],"default_left":[1,1,1,0,0,0,0],"id":8,"left_children":[1,3,5,-1,-1,-1,-1],"loss_changes":[2.4835945E3,1.0907943E3,1.5156788E3,0E0,0E0,0E0,0E0],"parents":[2147483647,0,0,1,1,2,2],"right_children":[2,4,6,-1,-1,-1,-1],"split_conditions":[2.5E0,3.3300774E1,2.037487E0,8.524128E-2,1.5640307E-2,1.0923278E-1,-3.182536E-2],"split_indices":[2,11,16,0,0,0,0],"split_type":[0,0,0,0,0,0,0],"sum_hessian":[2.6095283E4,1.0206837E4,1.5888445E4,3.3528086E3,6.854028E3,8.0128394E2,1.5087162E4],"tree_param":{"num_deleted":"0","num_feature":"18","num_nodes":"7","size_leaf_vector":"0"}},{"base_weights":[2.3460638E-4,-1.8037765E-1,4.935985E-1,-5.149949E-1,1.0295574E-1,8.348611E-1,2.4964567E-1],"categories":[],"categories_nodes":[],"categories_segments":[],"categories_sizes":[],"default_left":[1,1,1,0,0,0,0],"id":9,"left_children":[1,3,5,-1,-1,-1,-1],"loss_changes":[2.3198984E3,1.8069082E3,5.806251E2,0E0,0E0,0E0,0E0],"parents":[2147483647,0,0,1,1,2,2],"right_children":[2,4,6,-1,-1,-1,-1],"split_conditions":[9.5E0,5E-1,2.5E0,-5.1499493E-2,1.0295575E-2,8.348611E-2,2.4964567E-2],"split_indices":[3,12,2,0,0,0,0],"split_type":[0,0,0,0,0,0,0],"sum_hessian":[2.603281E4,1.9056996E4,6.975813E3,8.737352E3,1.03196455E4,2.906927E3,4.068886E3],"tree_param":{"num_deleted":"0","num_feature":"18","num_nodes":"7","size_leaf_vector":"0"}},{"base_weights":[2.5563914E-4,-1.7176078E-1,5.0923276E-1,8.633594E-1,-2.8528488E-1,3.4554935E-1,1.162641E0],"categories":[],"categories_nodes":[],"categories_segments":[],"categories_sizes":[],"default_left":[1,1,1,0,0,0,0],"id":10,"left_children":[1,3,5,-1,-1,-1,-1],"loss_changes":[2.271803E3,2.2792063E3,7.0059937E2,0E0,0E0,0E0,0E0],"parents":[2147483647,0,0,1,1,2,2],"right_children":[2,4,6,-1,-1,-1,-1],"split_conditions":[1.6952442E1,3.022948E0,3.5969524E1,8.633594E-2,-2.8528487E-2,3.4554936E-2,1.16264105E-1],"split_indices":[16,16,16,0,0,0,0],"split_type":[0,0,0,0,0,0,0],"sum_hessian":[2.5945918E4,1.9392572E4,6.5533467E3,1.9159757E3,1.7476596E4,5.2417734E3,1.311573E3],"tree_param":{"num_deleted":"0","num_feature":"18","num_nodes":"7","size_leaf_vector":"0"}},{"base_weights":[3.50671E-4,-1.4707054E-1,5.656024E-1,-5.4192804E-2,-1.9117892E0,1.0247598E0,3.2446516E-1],"categories":[],"categories_nodes":[],"categories_segments":[],"categories_sizes":[],"default_left":[1,1,1,0,0,0,0],"id":11,"left_children":[1,3,5,-1,-1,-1,-1],"loss_changes":[2.1521733E3,3.357382E3,5.911897E2,0E0,0E0,0E0,0E0],"parents":[2147483647,0,0,1,1,2,2],"right_children":[2,4,6,-1,-1,-1,-1],"split_conditions":[2.9998846E0,2.0001016E0,3.0001557E0,-5.4192804E-3,-1.9117892E-1,1.0247598E-1,3.2446515E-2],"split_indices":[14,14,14,0,0,0,0],"split_type":[0,0,0,0,0,0,0],"sum_hessian":[2.5825084E4,2.0483578E4,5.3415063E3,1.9460402E4,1.0231768E3,1.8381587E3,3.503348E3],"tree_param":{"num_deleted":"0","num_feature":"18","num_nodes":"7","size_leaf_vector":"0"}},{"base_weights":[2.8736953E-4,7.885253E-1,-1.0018192E-1,1.0548444E0,5.4728687E-1,-1.9567372E-1,7.016204E-1],"categories":[],"categories_nodes":[],"categories_segments":[],"categories_sizes":[],"default_left":[1,1,1,0,0,0,0],"id":12,"left_children":[1,3,5,-1,-1,-1,-1],"loss_changes":[2.0413292E3,1.8664001E2,1.7506064E3,0E0,0E0,0E0,0E0],"parents":[2147483647,0,0,1,1,2,2],"right_children":[2,4,6,-1,-1,-1,-1],"split_conditions":[1.5E0,3.2035477E1,9.999465E-1,1.0548444E-1,5.4728687E-2,-1.9567372E-2,7.016204E-2],"split_indices":[2,11,15,0,0,0,0],"split_type":[0,0,0,0,0,0,0],"sum_hessian":[2.577441E4,2.9130503E3,2.286136E4,1.3829486E3,1.5301017E3,2.0429086E4,2.4322751E3],"tree_param":{"num_deleted":"0","num_feature":"18","num_nodes":"7","size_leaf_vector":"0"}},{"base_weights":[3.600711E-4,-3.0136073E-1,2.3501787E-1,-4.3542886E-1,9.239028E-1,8.997809E-2,7.911281E-1],"categories":[],"categories_nodes":[],"categories_segments":[],"categories_sizes":[],"default_left":[1,1,1,0,0,0,0],"id":13,"left_children":[1,3,5,-1,-1,-1,-1],"loss_changes":[1.8196464E3,1.8473956E3,1.1660093E3,0E0,0E0,0E0,0E0],"parents":[2147483647,0,0,1,1,2,2],"right_children":[2,4,6,-1,-1,-1,-1],"split_conditions":[5E-1,3.196317E1,1.701867E1,-4.3542888E-2,9.2390284E-2,8.997809E-3,7.911281E-2],"split_indices":[12,16,16,0,0,0,0],"split_type":[0,0,0,0,0,0,0],"sum_hessian":[2.5698805E4,1.1242727E4,1.4456078E4,1.0134461E4,1.1082662E3,1.1466617E4,2.9894604E3],"tree_param":{"num_deleted":"0","num_feature":"18","num_nodes":"7","size_leaf_vector":"0"}},{"base_weights":[4.387844E-4,-1.8977848E-1,3.5965022E-1,-1.9290017E-2,-1.706642E0,8.756348E-1,1.4596574E-1],"categories":[],"categories_nodes":[],"categories_segments":[],"categories_sizes":[],"default_left":[1,1,1,0,0,0,0],"id":14,"left_children":[1,3,5,-1,-1,-1,-1],"loss_changes":[1.7476389E3,4.3244277E3,9.762095E2,0E0,0E0,0E0,0E0],"parents":[2147483647,0,0,1,1,2,2],"right_children":[2,4,6,-1,-1,-1,-1],"split_conditions":[1.9998953E0,1.0000057E0,2.0001016E0,-1.9290018E-3,-1.706642E-1,8.756348E-2,1.4596574E-2],"split_indices":[14,14,14,0,0,0,0],"split_type":[0,0,0,0,0,0,0],"sum_hessian":[2.557512E4,1.6721086E4,8.854032E3,1.5032514E4,1.6885724E3,2.5920073E3,6.262025E3],"tree_param":{"num_deleted":"0","num_feature":"18","num_nodes":"7","size_leaf_vector":"0"}},{"base_weights":[2.3425659E-4,4.749816E-1,-1.3583334E-1,7.3272425E-1,1.7447662E-1,-2.9179668E-1,3.8823795E-1],"categories":[],"categories_nodes":[],"categories_segments":[],"categories_sizes":[],"default_left":[1,1,1,0,0,0,0],"id":15,"left_children":[1,3,5,-1,-1,-1,-1],"loss_changes":[1.6459115E3,4.3948682E2,1.6187708E3,0E0,0E0,0E0,0E0],"parents":[2147483647,0,0,1,1,2,2],"right_children":[2,4,6,-1,-1,-1,-1],"split_conditions":[3.2100616E1,2.5E0,1.7937534E1,7.327243E-2,1.7447663E-2,-2.9179668E-2,3.8823795E-2],"split_indices":[11,2,16,0,0,0,0],"split_type":[0,0,0,0,0,0,0],"sum_hessian":[2.54774E4,5.6748936E3,1.9802506E4,3.054024E3,2.6208694E3,1.5261219E4,4.541287E3],"tree_param":{"num_deleted":"0","num_feature":"18","num_nodes":"7","size_leaf_vector":"0"}},{"base_weights":[2.7289236E-4,-8.999326E-2,7.050954E-1,-4.194306E-2,-1.9520011E0,1.0912411E0,4.5625263E-1],"categories":[],"categories_nodes":[],"categories_segments":[],"categories_sizes":[],"default_left":[1,1,1,0,0,0,0],"id":16,"left_children":[1,3,5,-1,-1,-1,-1],"loss_changes":[1.6136362E3,2.0115193E3,2.7618774E2,0E0,0E0,0E0,0E0],"parents":[2147483647,0,0,1,1,2,2],"right_children":[2,4,6,-1,-1,-1,-1],"split_conditions":[3.9994226E0,3.0001557E0,4.0005474E0,-4.1943057E-3,-1.9520012E-1,1.0912412E-1,4.5625266E-2],"split_indices":[14,14,14,0,0,0,0],"split_type":[0,0,0,0,0,0,0],"sum_hessian":[2.5361018E4,2.2482564E4,2.8784546E3,2.191798E4,5.645838E2,1.1266981E3,1.7517566E3],"tree_param":{"num_deleted":"0","num_feature":"18","num_nodes":"7","size_leaf_vector":"0"}},{"base_weights":[2.5745528E-4,-1.4850229E-1,4.0995938E-1,-1.9078152E-2,-6.718278E-1,7.010222E-1,2.0935038E-1],"categories":[],"categories_nodes":[],"categories_segments":[],"categories_sizes":[],"default_left":[1,1,1,0,0,0,0],"id":17,"left_children":[1,3,5,-1,-1,-1,-1],"loss_changes":[1.5433751E3,1.2582748E3,3.9371802E2,0E0,0E0,0E0,0E0],"parents":[2147483647,0,0,1,1,2,2],"right_children":[2,4,6,-1,-1,-1,-1],"split_conditions":[9.5E0,4.663401E-5,2.5E0,-1.9078152E-3,-6.718278E-2,7.010222E-2,2.0935038E-2],"split_indices":[3,15,2,0,0,0,0],"split_type":[0,0,0,0,0,0,0],"sum_hessian":[2.532117E4,1.8576732E4,6.7444375E3,1.4894256E4,3.6824766E3,2.7508071E3,3.9936304E3],"tree_param":{"num_deleted":"0","num_feature":"18","num_nodes":"7","size_leaf_vector":"0"}},{"base_weights":[2.6767983E-4,3.273479E-1,-1.7278421E-1,6.1787404E-2,5.1669633E-1,1.3729954E0,-2.1190597E-1],"categories":[],"categories_nodes":[],"categories_segments":[],"categories_sizes":[],"default_left":[1,1,1,0,0,0,0],"id":18,"left_children":[1,3,5,-1,-1,-1,-1],"loss_changes":[1.4283895E3,4.3903717E2,9.983391E2,0E0,0E0,0E0,0E0],"parents":[2147483647,0,0,1,1,2,2],"right_children":[2,4,6,-1,-1,-1,-1],"split_conditions":[1.5050186E1,5E-1,1.0211318E0,6.1787404E-3,5.1669635E-2,1.3729954E-1,-2.1190597E-2],"split_indices":[8,12,16,0,0,0,0],"split_type":[0,0,0,0,0,0,0],"sum_hessian":[2.523374E4,8.730877E3,1.6502863E4,3.6346375E3,5.09624E3,4.065156E2,1.6096348E4],"tree_param":{"num_deleted":"0","num_feature":"18","num_nodes":"7","size_leaf_vector":"0"}},{"base_weights":[2.8974185E-4,-1.19337454E-1,4.6461165E-1,-3.5186186E-2,-1.741341E0,9.0186733E-1,2.3448974E-1],"categories":[],"categories_nodes":[],"categories_segments":[],"categories_sizes":[],"default_left":[1,1,1,0,0,0,0],"id":19,"left_children":[1,3,5,-1,-1,-1,-1],"loss_changes":[1.3994642E3,2.7343848E3,5.191395E2,0E0,0E0,0E0,0E0],"parents":[2147483647,0,0,1,1,2,2],"right_children":[2,4,6,-1,-1,-1,-1],"split_conditions":[2.9998846E0,2.0001016E0,3.0001557E0,-3.5186186E-3,-1.741341E-1,9.018674E-2,2.3448974E-2],"split_indices":[14,14,14,0,0,0,0],"split_type":[0,0,0,0,0,0,0],"sum_hessian":[2.5192904E4,2.0032504E4,5.160401E3,1.9045428E4,9.870754E2,1.7783779E3,3.382023E3],"tree_param":{"num_deleted":"0","num_feature":"18","num_nodes":"7","size_leaf_vector":"0"}},{"base_weights":[1.9168806E-4,-2.4877587E-1,2.1459314E-1,1.959177E-1,-1.7836998E0,8.541273E-1,9.218323E-3],"categories":[],"categories_nodes":[],"categories_segments":[],"categories_sizes":[],"default_left":[1,1,1,0,0,0,0],"id":20,"left_children":[1,3,5,-1,-1,-1,-1],"loss_changes":[1.3410295E3,7.9347905E3,1.7729341E3,0E0,0E0,0E0,0E0],"parents":[2147483647,0,0,1,1,2,2],"right_children":[2,4,6,-1,-1,-1,-1],"split_conditions":[9.999465E-1,5.663394E-5,1.0000057E0,1.959177E-2,-1.7836998E-1,8.541273E-2,9.2183234E-4],"split_indices":[14,14,14,0,0,0,0],"split_type":[0,0,0,0,0,0,0],"sum_hessian":[2.512079E4,1.1623348E4,1.3497441E4,9.013001E3,2.6103472E3,3.2800999E3,1.0217341E4],"tree_param":{"num_deleted":"0","num_feature":"18","num_nodes":"7","size_leaf_vector":"0"}},{"base_weights":[-8.6783955E-5,6.5056515E-1,-7.963931E-2,7.264482E-1,-6.2113885E-2,-1.6446654E-1,6.3073933E-1],"categories":[],"categories_nodes":[],"categories_segments":[],"categories_sizes":[],"default_left":[1,1,1,0,0,0,0],"id":21,"left_children":[1,3,5,-1,-1,-1,-1],"loss_changes":[1.2955027E3,1.4750842E2,1.3439982E3,0E0,0E0,0E0,0E0],"parents":[2147483647,0,0,1,1,2,2],"right_children":[2,4,6,-1,-1,-1,-1],"split_conditions":[1.5E0,5.755463E-5,9.999465E-1,7.264482E-2,-6.2113884E-3,-1.6446656E-2,6.307393E-2],"split_indices":[2,15,15,0,0,0,0],"split_type":[0,0,0,0,0,0,0],"sum_hessian":[2.5026547E4,2.725749E3,2.2300799E4,2.4634336E3,2.6231537E2,1.9922586E4,2.3782134E3],"tree_param":{"num_deleted":"0","num_feature":"18","num_nodes":"7","size_leaf_vector":"0"}},{"base_weights":[1.0447955E-5,1.0835233E-1,-4.5884E-1,-3.6417924E-2,4.427389E-1,-1.6715945E0,6.082971E-1],"categories":[],"categories_nodes":[],"categories_segments":[],"categories_sizes":[],"default_left":[1,1,1,0,0,0,0],"id":22,"left_children":[1,3,5,-1,-1,-1,-1],"loss_changes":[1.2401565E3,9.769787E2,6.1679326E3,0E0,0E0,0E0,0E0],"parents":[2147483647,0,0,1,1,2,2],"right_children":[2,4,6,-1,-1,-1,-1],"split_conditions":[4.663401E-5,1.5932909E1,9.999465E-1,-3.6417923E-3,4.427389E-2,-1.6715945E-1,6.082971E-2],"split_indices":[15,16,15,0,0,0,0],"split_type":[0,0,0,0,0,0,0],"sum_hessian":[2.4944459E4,2.0180328E4,4.764132E3,1.4083757E4,6.0965703E3,2.2296577E3,2.5344744E3],"tree_param":{"num_deleted":"0","num_feature":"18","num_nodes":"7","size_leaf_vector":"0"}},{"base_weights":[-2.3186298E-4,1.2986554E0,-3.713949E-2,1.6614156E0,1.1541196E0,-1.8571723E-1,3.1141564E-1],"categories":[],"categories_nodes":[],"categories_segments":[],"categories_sizes":[],"default_left":[1,1,1,0,0,0,0],"id":23,"left_children":[1,3,5,-1,-1,-1,-1],"loss_changes":[1.1878944E3,3.397986E1,1.2478636E3,0E0,0E0,0E0,0E0],"parents":[2147483647,0,0,1,1,2,2],"right_children":[2,4,6,-1,-1,-1,-1],"split_conditions":[1.0197363E0,9.527917E-1,1.5933472E1,1.6614155E-1,1.1541196E-1,-1.8571723E-2,3.1141564E-2],"split_indices":[16,16,16,0,0,0,0],"split_type":[0,0,0,0,0,0,0],"sum_hessian":[2.4777363E4,6.8364685E2,2.4093717E4,1.9179057E2,4.9185626E2,1.6893174E4,7.200544E3],"tree_param":{"num_deleted":"0","num_feature":"18","num_nodes":"7","size_leaf_vector":"0"}},{"base_weights":[-1.2607512E-4,-2.4790964E-1,1.911985E-1,-3.4965146E-1,7.908576E-1,5.512462E-1,3.7092365E-2],"categories":[],"categories_nodes":[],"categories_segments":[],"categories_sizes":[],"default_left":[1,1,1,0,0,0,0],"id":24,"left_children":[1,3,5,-1,-1,-1,-1],"loss_changes":[1.1700166E3,1.1367666E3,7.727132E2,0E0,0E0,0E0,0E0],"parents":[2147483647,0,0,1,1,2,2],"right_children":[2,4,6,-1,-1,-1,-1],"split_conditions":[5E-1,3.294944E1,9.600936E3,-3.4965146E-2,7.908576E-2,5.512462E-2,3.7092366E-3],"split_indices":[12,16,0,0,0,0,0],"split_type":[0,0,0,0,0,0,0],"sum_hessian":[2.4678205E4,1.0752455E4,1.392575E4,9.793861E3,9.58594E2,4.17316E3,9.75259E3],"tree_param":{"num_deleted":"0","num_feature":"18","num_nodes":"7","size_leaf_vector":"0"}},{"base_weights":[-6.954317E-5,3.663692E-1,-1.2719378E-1,5.80184E-1,1.3373482E-1,-1.8691406E-1,8.215207E-1],"categories":[],"categories_nodes":[],"categories_segments":[],"categories_sizes":[],"default_left":[1,1,1,0,0,0,0],"id":25,"left_children":[1,3,5,-1,-1,-1,-1],"loss_changes":[1.1453112E3,3.1490833E2,1.0343661E3,0E0,0E0,0E0,0E0],"parents":[2147483647,0,0,1,1,2,2],"right_children":[2,4,6,-1,-1,-1,-1],"split_conditions":[3.5000137E1,2.5E0,3.3966377E1,5.8018398E-2,1.3373482E-2,-1.8691406E-2,8.215207E-2],"split_indices":[11,2,16,0,0,0,0],"split_type":[0,0,0,0,0,0,0],"sum_hessian":[2.4584332E4,6.331563E3,1.8252768E4,3.2984534E3,3.0331099E3,1.717258E4,1.0801874E3],"tree_param":{"num_deleted":"0","num_feature":"18","num_nodes":"7","size_leaf_vector":"0"}},{"base_weights":[4.5464352E-5,-1.5501422E-1,2.9571876E-1,-4.624888E-3,-1.5607314E0,7.7784103E-1,9.3668E-2],"categories":[],"categories_nodes":[],"categories_segments":[],"categories_sizes":[],"default_left":[1,1,1,0,0,0,0],"id":26,"left_children":[1,3,5,-1,-1,-1,-1],"loss_changes":[1.1227174E3,3.3959888E3,8.205747E2,0E0,0E0,0E0,0E0],"parents":[2147483647,0,0,1,1,2,2],"right_children":[2,4,6,-1,-1,-1,-1],"split_conditions":[1.9998953E0,1.0000057E0,2.0001016E0,-4.624888E-4,-1.5607314E-1,7.7784106E-2,9.3668E-3],"split_indices":[14,14,14,0,0,0,0],"split_type":[0,0,0,0,0,0,0],"sum_hessian":[2.4486344E4,1.6062944E4,8.423399E3,1.4511453E4,1.551491E3,2.4867664E3,5.9366333E3],"tree_param":{"num_deleted":"0","num_feature":"18","num_nodes":"7","size_leaf_vector":"0"}},{"base_weights":[-1.629173E-4,-7.418534E-2,5.8160436E-1,-3.0137379E-2,-1.7766293E0,9.4053936E-1,3.5374182E-1],"categories":[],"categories_nodes":[],"categories_segments":[],"categories_sizes":[],"default_left":[1,1,1,0,0,0,0],"id":27,"left_children":[1,3,5,-1,-1,-1,-1],"loss_changes":[1.0495623E3,1.6213043E3,2.2466754E2,0E0,0E0,0E0,0E0],"parents":[2147483647,0,0,1,1,2,2],"right_children":[2,4,6,-1,-1,-1,-1],"split_conditions":[3.9994226E0,3.0001557E0,4.0005474E0,-3.013738E-3,-1.7766294E-1,9.405394E-2,3.5374183E-2],"split_indices":[14,14,14,0,0,0,0],"split_type":[0,0,0,0,0,0,0],"sum_hessian":[2.4370246E4,2.1620223E4,2.7500234E3,2.1075934E4,5.442878E2,1.066662E3,1.6833615E3],"tree_param":{"num_deleted":"0","num_feature":"18","num_nodes":"7","size_leaf_vector":"0"}},{"base_weights":[-1.6425205E-4,3.1087762E-1,-1.3325879E-1,4.705365E-1,3.00674E-2,-3.5036585E-1,5.7115655E-2],"categories":[],"categories_nodes":[],"categories_segments":[],"categories_sizes":[],"default_left":[1,1,1,0,0,0,0],"id":28,"left_children":[1,3,5,-1,-1,-1,-1],"loss_changes":[1.0068094E3,3.2673773E2,7.039884E2,0E0,0E0,0E0,0E0],"parents":[2147483647,0,0,1,1,2,2],"right_children":[2,4,6,-1,-1,-1,-1],"split_conditions":[1.40216055E1,1.5003268E4,9.9979734E-1,4.705365E-2,3.00674E-3,-3.5036586E-2,5.7115657E-3],"split_indices":[8,0,14,0,0,0,0],"split_type":[0,0,0,0,0,0,0],"sum_hessian":[2.4318256E4,7.287061E3,1.7031195E4,4.6452554E3,2.6418057E3,7.9565435E3,9.074651E3],"tree_param":{"num_deleted":"0","num_feature":"18","num_nodes":"7","size_leaf_vector":"0"}},{"base_weights":[-1.5216574E-4,8.991916E-1,-4.472652E-2,1.1951425E0,5.050401E-1,-1.7958993E-1,2.658331E-1],"categories":[],"categories_nodes":[],"categories_segments":[],"categories_sizes":[],"default_left":[1,1,1,0,0,0,0],"id":29,"left_children":[1,3,5,-1,-1,-1,-1],"loss_changes":[9.731775E2,1.3312207E2,9.687978E2,0E0,0E0,0E0,0E0],"parents":[2147483647,0,0,1,1,2,2],"right_children":[2,4,6,-1,-1,-1,-1],"split_conditions":[2.037487E0,1.0197363E0,1.5933472E1,1.1951425E-1,5.050401E-2,-1.7958993E-2,2.6583312E-2],"split_indices":[16,16,16,0,0,0,0],"split_type":[0,0,0,0,0,0,0],"sum_hessian":[2.4274229E4,1.1453889E3,2.3128838E4,6.5302747E2,4.9236142E2,1.6126275E4,7.0025635E3],"tree_param":{"num_deleted":"0","num_feature":"18","num_nodes":"7","size_leaf_vector":"0"}},{"base_weights":[-6.0620838E-5,9.552611E-2,-4.1433457E-1,3.4351334E-1,-6.761556E-2,-1.5480461E0,5.361537E-1],"categories":[],"categories_nodes":[],"categories_segments":[],"categories_sizes":[],"default_left":[1,1,1,0,0,0,0],"id":30,"left_children":[1,3,5,-1,-1,-1,-1],"loss_changes":[9.572507E2,7.9466394E2,4.8843823E3,0E0,0E0,0E0,0E0],"parents":[2147483647,0,0,1,1,2,2],"right_children":[2,4,6,-1,-1,-1,-1],"split_conditions":[4.663401E-5,2.5E0,9.999465E-1,3.4351334E-2,-6.761556E-3,-1.5480462E-1,5.361537E-2],"split_indices":[15,2,15,0,0,0,0],"split_type":[0,0,0,0,0,0,0],"sum_hessian":[2.417155E4,1.9640586E4,4.530965E3,7.793219E3,1.1847367E4,2.0660356E3,2.464929E3],"tree_param":{"num_deleted":"0","num_feature":"18","num_nodes":"7","size_leaf_vector":"0"}},{"base_weights":[-3.599509E-4,4.0626436E-1,-9.090329E-2,2.2555667E-1,8.95757E-1,-1.6395352E0,-4.284017E-2],"categories":[],"categories_nodes":[],"categories_segments":[],"categories_sizes":[],"default_left":[1,1,1,0,0,0,0],"id":31,"left_children":[1,3,5,-1,-1,-1,-1],"loss_changes":[8.837581E2,3.864853E2,1.461212E3,0E0,0E0,0E0,0E0],"parents":[2147483647,0,0,1,1,2,2],"right_children":[2,4,6,-1,-1,-1,-1],"split_conditions":[7.000079E0,6.999894E0,7.9999094E0,2.2555668E-2,8.95757E-2,-1.6395353E-1,-4.2840173E-3],"split_indices":[9,9,9,0,0,0,0],"split_type":[0,0,0,0,0,0,0],"sum_hessian":[2.4001992E4,4.3705674E3,1.9631426E4,3.193188E3,1.1773794E3,5.899411E2,1.9041484E4],"tree_param":{"num_deleted":"0","num_feature":"18","num_nodes":"7","size_leaf_vector":"0"}},{"base_weights":[-3.939532E-4,4.118931E-1,-8.772332E-2,6.240349E-1,1.929852E-1,2.5870866E-1,-2.0901483E-1],"categories":[],"categories_nodes":[],"categories_segments":[],"categories_sizes":[],"default_left":[1,1,1,0,0,0,0],"id":32,"left_children":[1,3,5,-1,-1,-1,-1],"loss_changes":[8.6280035E2,1.9439838E2,8.3097864E2,0E0,0E0,0E0,0E0],"parents":[2147483647,0,0,1,1,2,2],"right_children":[2,4,6,-1,-1,-1,-1],"split_conditions":[2.7901152E1,1.0000939E4,8.000187E0,6.240349E-2,1.9298522E-2,2.5870865E-2,-2.0901484E-2],"split_indices":[11,0,9,0,0,0,0],"split_type":[0,0,0,0,0,0,0],"sum_hessian":[2.39615E4,4.187649E3,1.9773852E4,2.125751E3,2.061898E3,5.1275234E3,1.4646328E4],"tree_param":{"num_deleted":"0","num_feature":"18","num_nodes":"7","size_leaf_vector":"0"}},{"base_weights":[-3.309362E-4,-9.701676E-2,3.7682045E-1,-2.1865191E-2,-1.5970571E0,7.7886933E-1,1.6453946E-1],"categories":[],"categories_nodes":[],"categories_segments":[],"categories_sizes":[],"default_left":[1,1,1,0,0,0,0],"id":33,"left_children":[1,3,5,-1,-1,-1,-1],"loss_changes":[8.723875E2,2.146601E3,4.1650574E2,0E0,0E0,0E0,0E0],"parents":[2147483647,0,0,1,1,2,2],"right_children":[2,4,6,-1,-1,-1,-1],"split_conditions":[2.9998846E0,2.0001016E0,3.0001557E0,-2.186519E-3,-1.5970571E-1,7.788693E-2,1.6453946E-2],"split_indices":[14,14,14,0,0,0,0],"split_type":[0,0,0,0,0,0,0],"sum_hessian":[2.3921842E4,1.9041215E4,4.8806274E3,1.8133734E4,9.0748004E2,1.6855728E3,3.1950547E3],"tree_param":{"num_deleted":"0","num_feature":"18","num_nodes":"7","size_leaf_vector":"0"}},{"base_weights":[-4.0081397E-4,-2.0052369E-1,1.7448841E-1,1.8023473E-1,-1.5945088E0,7.315567E-1,-9.836511E-3],"categories":[],"categories_nodes":[],"categories_segments":[],"categories_sizes":[],"default_left":[1,1,1,0,0,0,0],"id":34,"left_children":[1,3,5,-1,-1,-1,-1],"loss_changes":[8.344587E2,5.901896E3,1.3064458E3,0E0,0E0,0E0,0E0],"parents":[2147483647,0,0,1,1,2,2],"right_children":[2,4,6,-1,-1,-1,-1],"split_conditions":[9.999465E-1,5.663394E-5,1.0000057E0,1.8023474E-2,-1.5945087E-1,7.315567E-2,-9.836511E-4],"split_indices":[14,14,14,0,0,0,0],"split_type":[0,0,0,0,0,0,0],"sum_hessian":[2.384013E4,1.1117925E4,1.2722206E4,8.733339E3,2.384587E3,3.1622524E3,9.559953E3],"tree_param":{"num_deleted":"0","num_feature":"18","num_nodes":"7","size_leaf_vector":"0"}},{"base_weights":[-7.1667874E-4,-2.0938735E-1,1.5856989E-1,-2.8398386E-1,7.140938E-1,2.5449264E-1,-2.3615173E-1],"categories":[],"categories_nodes":[],"categories_segments":[],"categories_sizes":[],"default_left":[1,1,1,0,0,0,0],"id":35,"left_children":[1,3,5,-1,-1,-1,-1],"loss_changes":[7.878563E2,7.0706506E2,5.0901956E2,0E0,0E0,0E0,0E0],"parents":[2147483647,0,0,1,1,2,2],"right_children":[2,4,6,-1,-1,-1,-1],"split_conditions":[5E-1,3.4976883E1,3.5E0,-2.8398385E-2,7.140938E-2,2.5449265E-2,-2.3615172E-2],"split_indices":[12,16,2,0,0,0,0],"split_type":[0,0,0,0,0,0,0],"sum_hessian":[2.3701174E4,1.0259966E4,1.3441209E4,9.493774E3,7.66191E2,1.0813689E4,2.6275195E3],"tree_param":{"num_deleted":"0","num_feature":"18","num_nodes":"7","size_leaf_vector":"0"}},{"base_weights":[-6.167414E-4,-1.08308956E-1,2.978442E-1,-2.7652878E-1,1.8654445E-1,5.518593E-1,1.5335938E-1],"categories":[],"categories_nodes":[],"categories_segments":[],"categories_sizes":[],"default_left":[1,1,1,0,0,0,0],"id":36,"left_children":[1,3,5,-1,-1,-1,-1],"loss_changes":[7.5893115E2,8.6067163E2,2.2969257E2,0E0,0E0,0E0,0E0],"parents":[2147483647,0,0,1,1,2,2],"right_children":[2,4,6,-1,-1,-1,-1],"split_conditions":[9.5E0,1.5E0,1.0000191E4,-2.7652878E-2,1.8654445E-2,5.5185933E-2,1.5335939E-2],"split_indices":[3,4,0,0,0,0,0],"split_type":[0,0,0,0,0,0,0],"sum_hessian":[2.3609875E4,1.7350145E4,6.259731E3,1.1047426E4,6.3027183E3,2.2685793E3,3.9911516E3],"tree_param":{"num_deleted":"0","num_feature":"18","num_nodes":"7","size_leaf_vector":"0"}},{"base_weights":[-5.351575E-4,-1.3225472E-1,2.518611E-1,2.2582451E-3,-1.4671599E0,6.9246536E-1,6.471961E-2],"categories":[],"categories_nodes":[],"categories_segments":[],"categories_sizes":[],"default_left":[1,1,1,0,0,0,0],"id":37,"left_children":[1,3,5,-1,-1,-1,-1],"loss_changes":[7.827208E2,2.7778545E3,6.656584E2,0E0,0E0,0E0,0E0],"parents":[2147483647,0,0,1,1,2,2],"right_children":[2,4,6,-1,-1,-1,-1],"split_conditions":[1.9998953E0,1.0000057E0,2.0001016E0,2.2582452E-4,-1.4671598E-1,6.924654E-2,6.4719613E-3],"split_indices":[14,14,14,0,0,0,0],"split_type":[0,0,0,0,0,0,0],"sum_hessian":[2.3541645E4,1.5469144E4,8.0725005E3,1.40539795E4,1.4151641E3,2.405742E3,5.6667583E3],"tree_param":{"num_deleted":"0","num_feature":"18","num_nodes":"7","size_leaf_vector":"0"}},{"base_weights":[-7.00397E-4,-6.388152E-2,4.944542E-1,-2.3487383E-2,-1.6496748E0,8.267669E-1,2.8775325E-1],"categories":[],"categories_nodes":[],"categories_segments":[],"categories_sizes":[],"default_left":[1,1,1,0,0,0,0],"id":38,"left_children":[1,3,5,-1,-1,-1,-1],"loss_changes":[7.3276965E2,1.3305669E3,1.8182465E2,0E0,0E0,0E0,0E0],"parents":[2147483647,0,0,1,1,2,2],"right_children":[2,4,6,-1,-1,-1,-1],"split_conditions":[3.9994226E0,3.0001557E0,4.0005474E0,-2.3487385E-3,-1.6496748E-1,8.2676694E-2,2.8775325E-2],"split_indices":[14,14,14,0,0,0,0],"split_type":[0,0,0,0,0,0,0],"sum_hessian":[2.3420816E4,2.0771295E4,2.649521E3,2.025633E4,5.149648E2,1.0148878E3,1.634633E3],"tree_param":{"num_deleted":"0","num_feature":"18","num_nodes":"7","size_leaf_vector":"0"}},{"base_weights":[-6.6888746E-4,1.0768774E0,-2.9470943E-2,1.4648335E0,9.2423826E-1,-2.166778E-1,1.3584398E-1],"categories":[],"categories_nodes":[],"categories_segments":[],"categories_sizes":[],"default_left":[1,1,1,0,0,0,0],"id":39,"left_children":[1,3,5,-1,-1,-1,-1],"loss_changes":[7.251996E2,3.4668945E1,7.0435846E2,0E0,0E0,0E0,0E0],"parents":[2147483647,0,0,1,1,2,2],"right_children":[2,4,6,-1,-1,-1,-1],"split_conditions":[1.0197363E0,9.527917E-1,9.999465E-1,1.4648335E-1,9.242383E-2,-2.166778E-2,1.3584398E-2],"split_indices":[16,16,14,0,0,0,0],"split_type":[0,0,0,0,0,0,0],"sum_hessian":[2.3364719E4,6.073167E2,2.2757402E4,1.6905083E2,4.382659E2,1.0671927E4,1.2085475E4],"tree_param":{"num_deleted":"0","num_feature":"18","num_nodes":"7","size_leaf_vector":"0"}},{"base_weights":[-5.4259296E-4,2.6499298E-1,-1.15704395E-1,8.840269E-2,5.051608E-1,1.5821262E-1,-2.561971E-1],"categories":[],"categories_nodes":[],"categories_segments":[],"categories_sizes":[],"default_left":[1,1,1,0,0,0,0],"id":40,"left_children":[1,3,5,-1,-1,-1,-1],"loss_changes":[7.1284045E2,2.9902432E2,6.257557E2,0E0,0E0,0E0,0E0],"parents":[2147483647,0,0,1,1,2,2],"right_children":[2,4,6,-1,-1,-1,-1],"split_conditions":[9.000309E3,9.995118E-1,2.5E0,8.840269E-3,5.051608E-2,1.5821261E-2,-2.561971E-2],"split_indices":[0,14,2,0,0,0,0],"split_type":[0,0,0,0,0,0,0],"sum_hessian":[2.3309012E4,7.0506343E3,1.6258377E4,4.063902E3,2.9867322E3,5.5118535E3,1.0746523E4],"tree_param":{"num_deleted":"0","num_feature":"18","num_nodes":"7","size_leaf_vector":"0"}},{"base_weights":[-4.761155E-4,8.164326E-2,-3.7131923E-1,2.8736156E-1,-5.566295E-2,-1.4381473E0,4.5025367E-1],"categories":[],"categories_nodes":[],"categories_segments":[],"categories_sizes":[],"default_left":[1,1,1,0,0,0,0],"id":41,"left_children":[1,3,5,-1,-1,-1,-1],"loss_changes":[7.0814453E2,5.377621E2,3.6956091E3,0E0,0E0,0E0,0E0],"parents":[2147483647,0,0,1,1,2,2],"right_children":[2,4,6,-1,-1,-1,-1],"split_conditions":[4.663401E-5,1.6300224E1,9.999465E-1,2.8736157E-2,-5.566295E-3,-1.4381473E-1,4.5025367E-2],"split_indices":[15,8,15,0,0,0,0],"split_type":[0,0,0,0,0,0,0],"sum_hessian":[2.325138E4,1.9036684E4,4.2146973E3,7.619586E3,1.1417098E4,1.8333312E3,2.381366E3],"tree_param":{"num_deleted":"0","num_feature":"18","num_nodes":"7","size_leaf_vector":"0"}},{"base_weights":[-7.600389E-4,-9.067581E-2,3.021653E-1,-3.2454115E-1,8.3625205E-2,4.421036E-1,4.426529E-2],"categories":[],"categories_nodes":[],"categories_segments":[],"categories_sizes":[],"default_left":[1,1,1,0,0,0,0],"id":42,"left_children":[1,3,5,-1,-1,-1,-1],"loss_changes":[6.2923785E2,7.2617944E2,1.908121E2,0E0,0E0,0E0,0E0],"parents":[2147483647,0,0,1,1,2,2],"right_children":[2,4,6,-1,-1,-1,-1],"split_conditions":[1.5E0,5E-1,3.5E0,-3.2454114E-2,8.3625205E-3,4.421036E-2,4.426529E-3],"split_indices":[6,12,2,0,0,0,0],"split_type":[0,0,0,0,0,0,0],"sum_hessian":[2.3099666E4,1.781302E4,5.2866465E3,7.6064014E3,1.0206619E4,3.426623E3,1.8600234E3],"tree_param":{"num_deleted":"0","num_feature":"18","num_nodes":"7","size_leaf_vector":"0"}},{"base_weights":[-6.911021E-4,5.8233666E-1,-4.6506193E-2,1.0030053E0,3.6160097E-1,-1.3706222E-1,3.3315507E-1],"categories":[],"categories_nodes":[],"categories_segments":[],"categories_sizes":[],"default_left":[1,1,1,0,0,0,0],"id":43,"left_children":[1,3,5,-1,-1,-1,-1],"loss_changes":[6.156062E2,1.5555103E2,7.3467053E2,0E0,0E0,0E0,0E0],"parents":[2147483647,0,0,1,1,2,2],"right_children":[2,4,6,-1,-1,-1,-1],"split_conditions":[3.022948E0,1.0197363E0,1.895595E1,1.0030053E-1,3.6160097E-2,-1.3706222E-2,3.3315506E-2],"split_indices":[16,16,16,0,0,0,0],"split_type":[0,0,0,0,0,0,0],"sum_hessian":[2.3044496E4,1.6780809E3,2.1366416E4,5.7628253E2,1.1017983E3,1.7252115E4,4.1143003E3],"tree_param":{"num_deleted":"0","num_feature":"18","num_nodes":"7","size_leaf_vector":"0"}},{"base_weights":[-5.392805E-4,1.3223976E-1,-2.0075093E-1,-4.556151E-2,3.4380654E-1,-2.6509356E-1,4.8265234E-1],"categories":[],"categories_nodes":[],"categories_segments":[],"categories_sizes":[],"default_left":[1,1,1,0,0,0,0],"id":44,"left_children":[1,3,5,-1,-1,-1,-1],"loss_changes":[6.101974E2,5.1916364E2,4.0258984E2,0E0,0E0,0E0,0E0],"parents":[2147483647,0,0,1,1,2,2],"right_children":[2,4,6,-1,-1,-1,-1],"split_conditions":[1.5000102E4,9.9979734E-1,4.9997663E0,-4.556151E-3,3.4380656E-2,-2.6509358E-2,4.8265234E-2],"split_indices":[0,14,14,0,0,0,0],"split_type":[0,0,0,0,0,0,0],"sum_hessian":[2.2951637E4,1.3799944E4,9.151691E3,7.498756E3,6.3011885E3,8.364759E3,7.8693274E2],"tree_param":{"num_deleted":"0","num_feature":"18","num_nodes":"7","size_leaf_vector":"0"}},{"base_weights":[-4.6435787E-4,-1.1815275E-1,2.2715336E-1,-6.6348124E-1,9.929991E-2,1.3017784E-1,5.795842E-1],"categories":[],"categories_nodes":[],"categories_segments":[],"categories_sizes":[],"default_left":[1,1,1,0,0,0,0],"id":45,"left_children":[1,3,5,-1,-1,-1,-1],"loss_changes":[6.135018E2,1.7902626E3,2.6669727E2,0E0,0E0,0E0,0E0],"parents":[2147483647,0,0,1,1,2,2],"right_children":[2,4,6,-1,-1,-1,-1],"split_conditions":[1.5E0,9.999465E-1,1.8004047E1,-6.634813E-2,9.929991E-3,1.3017784E-2,5.795842E-2],"split_indices":[4,14,16,0,0,0,0],"split_type":[0,0,0,0,0,0,0],"sum_hessian":[2.2900139E4,1.5095554E4,7.804586E3,4.302836E3,1.0792718E4,6.1215405E3,1.6830452E3],"tree_param":{"num_deleted":"0","num_feature":"18","num_nodes":"7","size_leaf_vector":"0"}},{"base_weights":[-4.6526777E-4,4.481601E-1,-5.9329256E-2,2.0760627E-1,9.122962E-1,-1.612947E0,-2.6550895E-2],"categories":[],"categories_nodes":[],"categories_segments":[],"categories_sizes":[],"default_left":[1,1,1,0,0,0,0],"id":46,"left_children":[1,3,5,-1,-1,-1,-1],"loss_changes":[6.023726E2,2.9521173E2,1.0268376E3,0E0,0E0,0E0,0E0],"parents":[2147483647,0,0,1,1,2,2],"right_children":[2,4,6,-1,-1,-1,-1],"split_conditions":[6.000069E0,5.9996266E0,6.999894E0,2.0760627E-2,9.122962E-2,-1.612947E-1,-2.6550896E-3],"split_indices":[9,9,9,0,0,0,0],"split_type":[0,0,0,0,0,0,0],"sum_hessian":[2.2808332E4,2.6447847E3,2.0163547E4,1.7429109E3,9.0187384E2,4.1562628E2,1.9747922E4],"tree_param":{"num_deleted":"0","num_feature":"18","num_nodes":"7","size_leaf_vector":"0"}},{"base_weights":[-4.6471047E-4,2.7543774E-1,-9.561226E-2,6.2616694E-1,1.8626952E-1,-1.3679174E-1,7.2333854E-1],"categories":[],"categories_nodes":[],"categories_segments":[],"categories_sizes":[],"default_left":[1,1,1,0,0,0,0],"id":47,"left_children":[1,3,5,-1,-1,-1,-1],"loss_changes":[5.9785004E2,1.8251932E2,5.7118396E2,0E0,0E0,0E0,0E0],"parents":[2147483647,0,0,1,1,2,2],"right_children":[2,4,6,-1,-1,-1,-1],"split_conditions":[3.5000137E1,1.5E0,3.596938E1,6.26167E-2,1.8626953E-2,-1.3679174E-2,7.233386E-2],"split_indices":[11,2,16,0,0,0,0],"split_type":[0,0,0,0,0,0,0],"sum_hessian":[2.2771986E4,5.8388857E3,1.6933102E4,1.1823345E3,4.6565513E3,1.6123207E4,8.098936E2],"tree_param":{"num_deleted":"0","num_feature":"18","num_nodes":"7","size_leaf_vector":"0"}},{"base_weights":[-3.2212934E-4,7.279876E-2,-3.4215382E-1,-3.700204E-2,2.8206816E-1,-1.3758061E0,4.000024E-1],"categories":[],"categories_nodes":[],"categories_segments":[],"categories_sizes":[],"default_left":[1,1,1,0,0,0,0],"id":48,"left_children":[1,3,5,-1,-1,-1,-1],"loss_changes":[5.6715283E2,4.2951874E2,3.0678708E3,0E0,0E0,0E0,0E0],"parents":[2147483647,0,0,1,1,2,2],"right_children":[2,4,6,-1,-1,-1,-1],"split_conditions":[4.663401E-5,1.5E0,9.999465E-1,-3.700204E-3,2.8206816E-2,-1.3758062E-1,4.000024E-2],"split_indices":[15,4,15,0,0,0,0],"split_type":[0,0,0,0,0,0,0],"sum_hessian":[2.2688623E4,1.8691195E4,3.9974287E3,1.2259582E4,6.4316123E3,1.6702717E3,2.327157E3],"tree_param":{"num_deleted":"0","num_feature":"18","num_nodes":"7","size_leaf_vector":"0"}},{"base_weights":[-6.200046E-4,2.4503937E-1,-9.2541546E-2,7.092011E-1,1.624185E-1,4.3851385E-1,-1.4703926E-1],"categories":[],"categories_nodes":[],"categories_segments":[],"categories_sizes":[],"default_left":[1,1,1,0,0,0,0],"id":49,"left_children":[1,3,5,-1,-1,-1,-1],"loss_changes":[5.0937527E2,2.3543625E2,4.7513776E2,0E0,0E0,0E0,0E0],"parents":[2147483647,0,0,1,1,2,2],"right_children":[2,4,6,-1,-1,-1,-1],"split_conditions":[8.000073E3,1.980186E1,1.5E0,7.092011E-2,1.624185E-2,4.3851387E-2,-1.4703927E-2],"split_indices":[0,11,2,0,0,0,0],"split_type":[0,0,0,0,0,0,0],"sum_hessian":[2.25553E4,6.141239E3,1.6414062E4,9.268179E2,5.214421E3,1.5270089E3,1.4887054E4],"tree_param":{"num_deleted":"0","num_feature":"18","num_nodes":"7","size_leaf_vector":"0"}},{"base_weights":[-5.099748E-4,2.519699E-1,-8.649684E-2,3.2473814E-1,-9.836622E-2,-1.7815222E-1,1.9940177E-1],"categories":[],"categories_nodes":[],"categories_segments":[],"categories_sizes":[],"default_left":[1,1,1,0,0,0,0],"id":50,"left_children":[1,3,5,-1,-1,-1,-1],"loss_changes":[4.885041E2,1.4576303E2,4.398707E2,0E0,0E0,0E0,0E0],"parents":[2147483647,0,0,1,1,2,2],"right_children":[2,4,6,-1,-1,-1,-1],"split_conditions":[1.2940364E1,2.4007254E4,1.5E0,3.2473814E-2,-9.8366225E-3,-1.7815223E-2,1.9940177E-2],"split_indices":[8,0,6,0,0,0,0],"split_type":[0,0,0,0,0,0,0],"sum_hessian":[2.2499385E4,5.7154375E3,1.6783947E4,4.73252E3,9.829174E2,1.2709745E4,4.074202E3],"tree_param":{"num_deleted":"0","num_feature":"18","num_nodes":"7","size_leaf_vector":"0"}},{"base_weights":[-4.4986303E-4,-3.7301052E-2,5.8452374E-1,-1.5035845E-2,-2.0330272E0,9.557976E-1,3.220675E-1],"categories":[],"categories_nodes":[],"categories_segments":[],"categories_sizes":[],"default_left":[1,1,1,0,0,0,0],"id":51,"left_children":[1,3,5,-1,-1,-1,-1],"loss_changes":[4.842894E2,9.3907166E2,1.2942563E2,0E0,0E0,0E0,0E0],"parents":[2147483647,0,0,1,1,2,2],"right_children":[2,4,6,-1,-1,-1,-1],"split_conditions":[4.9997663E0,4.0005474E0,5.000828E0,-1.5035846E-3,-2.0330273E-1,9.5579766E-2,3.220675E-2],"split_indices":[14,14,14,0,0,0,0],"split_type":[0,0,0,0,0,0,0],"sum_hessian":[2.2463547E4,2.113317E4,1.330376E3,2.0900998E4,2.3217328E2,5.4987463E2,7.8050134E2],"tree_param":{"num_deleted":"0","num_feature":"18","num_nodes":"7","size_leaf_vector":"0"}},{"base_weights":[-3.8868006E-4,9.28447E-1,-2.335622E-2,1.351746E0,7.6613194E-1,-5.388826E-2,6.93341E-1],"categories":[],"categories_nodes":[],"categories_segments":[],"categories_sizes":[],"default_left":[1,1,1,0,0,0,0],"id":52,"left_children":[1,3,5,-1,-1,-1,-1],"loss_changes":[4.7871695E2,3.616916E1,4.792281E2,0E0,0E0,0E0,0E0],"parents":[2147483647,0,0,1,1,2,2],"right_children":[2,4,6,-1,-1,-1,-1],"split_conditions":[1.0197363E0,9.527917E-1,3.5969524E1,1.351746E-1,7.6613195E-2,-5.388826E-3,6.9334105E-2],"split_indices":[16,16,16,0,0,0,0],"split_type":[0,0,0,0,0,0,0],"sum_hessian":[2.2438117E4,5.4049286E2,2.1897625E4,1.4777773E2,3.9271515E2,2.1003768E4,8.9385736E2],"tree_param":{"num_deleted":"0","num_feature":"18","num_nodes":"7","size_leaf_vector":"0"}},{"base_weights":[-2.3380511E-4,6.547681E-2,-3.1771564E-1,-1.1093052E-1,1.960385E-1,-1.3282855E0,3.6074725E-1],"categories":[],"categories_nodes":[],"categories_segments":[],"categories_sizes":[],"default_left":[1,1,1,0,0,0,0],"id":53,"left_children":[1,3,5,-1,-1,-1,-1],"loss_changes":[4.6684845E2,4.2704926E2,2.6315493E3,0E0,0E0,0E0,0E0],"parents":[2147483647,0,0,1,1,2,2],"right_children":[2,4,6,-1,-1,-1,-1],"split_conditions":[4.663401E-5,5E-1,9.999465E-1,-1.1093052E-2,1.960385E-2,-1.3282855E-1,3.6074724E-2],"split_indices":[15,12,15,0,0,0,0],"split_type":[0,0,0,0,0,0,0],"sum_hessian":[2.2376014E4,1.8539588E4,3.8364265E3,7.88542E3,1.0654168E4,1.5406588E3,2.2957676E3],"tree_param":{"num_deleted":"0","num_feature":"18","num_nodes":"7","size_leaf_vector":"0"}},{"base_weights":[-5.23176E-4,2.3857057E-1,-8.536736E-2,9.338497E-2,7.629363E-1,-1.5839286E0,-2.1617128E-2],"categories":[],"categories_nodes":[],"categories_segments":[],"categories_sizes":[],"default_left":[1,1,1,0,0,0,0],"id":54,"left_children":[1,3,5,-1,-1,-1,-1],"loss_changes":[4.508824E2,4.4311993E2,1.5672057E3,0E0,0E0,0E0,0E0],"parents":[2147483647,0,0,1,1,2,2],"right_children":[2,4,6,-1,-1,-1,-1],"split_conditions":[8.000187E0,7.9999094E0,8.998919E0,9.338497E-3,7.629363E-2,-1.5839286E-1,-2.1617129E-3],"split_indices":[9,9,9,0,0,0,0],"split_type":[0,0,0,0,0,0,0],"sum_hessian":[2.2224594E4,5.820478E3,1.6404115E4,4.5592876E3,1.2611907E3,6.683981E2,1.5735717E4],"tree_param":{"num_deleted":"0","num_feature":"18","num_nodes":"7","size_leaf_vector":"0"}},{"base_weights":[-5.7431083E-4,-7.186777E-2,2.7863562E-1,-3.7816493E-3,-1.502922E0,6.571215E-1,7.5203314E-2],"categories":[],"categories_nodes":[],"categories_segments":[],"categories_sizes":[],"default_left":[1,1,1,0,0,0,0],"id":55,"left_children":[1,3,5,-1,-1,-1,-1],"loss_changes":[4.4138306E2,1.7210237E3,3.472165E2,0E0,0E0,0E0,0E0],"parents":[2147483647,0,0,1,1,2,2],"right_children":[2,4,6,-1,-1,-1,-1],"split_conditions":[2.9998846E0,2.0001016E0,3.0001557E0,-3.7816493E-4,-1.502922E-1,6.571215E-2,7.5203315E-3],"split_indices":[14,14,14,0,0,0,0],"split_type":[0,0,0,0,0,0,0],"sum_hessian":[2.2171537E4,1.7662371E4,4.509167E3,1.686116E4,8.012108E2,1.5755764E3,2.9335906E3],"tree_param":{"num_deleted":"0","num_feature":"18","num_nodes":"7","size_leaf_vector":"0"}},{"base_weights":[-6.3959614E-4,1.7841655E-1,-1.0603309E-1,5.0937694E-1,1.09621555E-1,2.4559066E-1,-1.8896003E-1],"categories":[],"categories_nodes":[],"categories_segments":[],"categories_sizes":[],"default_left":[1,1,1,0,0,0,0],"id":56,"left_children":[1,3,5,-1,-1,-1,-1],"loss_changes":[4.1697308E2,1.8634436E2,4.0561334E2,0E0,0E0,0E0,0E0],"parents":[2147483647,0,0,1,1,2,2],"right_children":[2,4,6,-1,-1,-1,-1],"split_conditions":[4.330055E1,1.5E0,7.000079E0,5.0937694E-2,1.0962156E-2,2.4559066E-2,-1.8896004E-2],"split_indices":[11,2,9,0,0,0,0],"split_type":[0,0,0,0,0,0,0],"sum_hessian":[2.2093557E4,8.185787E3,1.39077705E4,1.4076122E3,6.778175E3,2.6536978E3,1.1254072E4],"tree_param":{"num_deleted":"0","num_feature":"18","num_nodes":"7","size_leaf_vector":"0"}},{"base_weights":[-5.4208364E-4,3.9812502E-1,-4.7737665E-2,8.6224866E-1,2.681451E-1,-2.2354771E-1,1.2490621E-1],"categories":[],"categories_nodes":[],"categories_segments":[],"categories_sizes":[],"default_left":[1,1,1,0,0,0,0],"id":57,"left_children":[1,3,5,-1,-1,-1,-1],"loss_changes":[4.1476688E2,1.4053629E2,5.982966E2,0E0,0E0,0E0,0E0],"parents":[2147483647,0,0,1,1,2,2],"right_children":[2,4,6,-1,-1,-1,-1],"split_conditions":[4.0413036E0,1.0197363E0,1.2977577E1,8.622487E-2,2.6814511E-2,-2.2354772E-2,1.2490622E-2],"split_indices":[16,16,16,0,0,0,0],"split_type":[0,0,0,0,0,0,0],"sum_hessian":[2.2042088E4,2.3324182E3,1.970967E4,5.090615E2,1.8233566E3,9.765145E3,9.944525E3],"tree_param":{"num_deleted":"0","num_feature":"18","num_nodes":"7","size_leaf_vector":"0"}},{"base_weights":[-4.53862E-4,1.2322808E-1,-1.4415313E-1,-2.4716811E-2,3.0761155E-1,1.0048486E-1,-2.533906E-1],"categories":[],"categories_nodes":[],"categories_segments":[],"categories_sizes":[],"default_left":[1,1,1,0,0,0,0],"id":58,"left_children":[1,3,5,-1,-1,-1,-1],"loss_changes":[3.9055817E2,3.221668E2,2.7166675E2,0E0,0E0,0E0,0E0],"parents":[2147483647,0,0,1,1,2,2],"right_children":[2,4,6,-1,-1,-1,-1],"split_conditions":[1.4000102E4,9.9979734E-1,2.5E0,-2.4716812E-3,3.0761156E-2,1.0048486E-2,-2.5339061E-2],"split_indices":[0,14,2,0,0,0,0],"split_type":[0,0,0,0,0,0,0],"sum_hessian":[2.1972797E4,1.1808965E4,1.0163832E4,6.5523677E3,5.256597E3,3.1374883E3,7.0263438E3],"tree_param":{"num_deleted":"0","num_feature":"18","num_nodes":"7","size_leaf_vector":"0"}},{"base_weights":[-4.0340476E-4,1.7675126E-1,-1.0860968E-1,9.123898E-2,5.8001214E-1,-1.437702E0,1.166622E-1],"categories":[],"categories_nodes":[],"categories_segments":[],"categories_sizes":[],"default_left":[1,1,1,0,0,0,0],"id":59,"left_children":[1,3,5,-1,-1,-1,-1],"loss_changes":[4.2027487E2,2.8662946E2,4.075364E3,0E0,0E0,0E0,0E0],"parents":[2147483647,0,0,1,1,2,2],"right_children":[2,4,6,-1,-1,-1,-1],"split_conditions":[5.663394E-5,1.8954138E1,9.999465E-1,9.123898E-3,5.8001217E-2,-1.437702E-1,1.166622E-2],"split_indices":[14,16,14,0,0,0,0],"split_type":[0,0,0,0,0,0,0],"sum_hessian":[2.1922434E4,8.312548E3,1.3609887E4,6.8592554E3,1.4532922E3,1.9716821E3,1.1638204E4],"tree_param":{"num_deleted":"0","num_feature":"18","num_nodes":"7","size_leaf_vector":"0"}},{"base_weights":[-7.392946E-4,5.7510424E-2,-2.937837E-1,-9.595445E-2,1.709453E-1,-1.2848712E0,3.113538E-1],"categories":[],"categories_nodes":[],"categories_segments":[],"categories_sizes":[],"default_left":[1,1,1,0,0,0,0],"id":60,"left_children":[1,3,5,-1,-1,-1,-1],"loss_changes":[3.715404E2,3.160965E2,2.1649507E3,0E0,0E0,0E0,0E0],"parents":[2147483647,0,0,1,1,2,2],"right_children":[2,4,6,-1,-1,-1,-1],"split_conditions":[4.663401E-5,5E-1,9.999465E-1,-9.595445E-3,1.709453E-2,-1.2848713E-1,3.113538E-2],"split_indices":[15,12,15,0,0,0,0],"split_type":[0,0,0,0,0,0,0],"sum_hessian":[2.1764018E4,1.8155895E4,3.6081228E3,7.7164893E3,1.0439405E4,1.367433E3,2.24069E3],"tree_param":{"num_deleted":"0","num_feature":"18","num_nodes":"7","size_leaf_vector":"0"}},{"base_weights":[-9.6129224E-4,-7.132051E-2,2.330529E-1,-1.6169646E-1,2.0413506E-1,3.5316876E-1,1.5474252E-2],"categories":[],"categories_nodes":[],"categories_segments":[],"categories_sizes":[],"default_left":[1,1,1,0,0,0,0],"id":61,"left_children":[1,3,5,-1,-1,-1,-1],"loss_changes":[3.560703E2,4.1394897E2,1.3064279E2,0E0,0E0,0E0,0E0],"parents":[2147483647,0,0,1,1,2,2],"right_children":[2,4,6,-1,-1,-1,-1],"split_conditions":[1.5E0,9.5E0,3.5E0,-1.6169647E-2,2.0413507E-2,3.5316877E-2,1.5474253E-3],"split_indices":[6,3,2,0,0,0,0],"split_type":[0,0,0,0,0,0,0],"sum_hessian":[2.1623809E4,1.6625766E4,4.998044E3,1.2518805E4,4.1069604E3,3.219869E3,1.7781753E3],"tree_param":{"num_deleted":"0","num_feature":"18","num_nodes":"7","size_leaf_vector":"0"}},{"base_weights":[-8.510942E-4,1.4390281E-1,-1.1551559E-1,2.0231046E-1,-1.9656207E-1,2.3530242E-1,-1.7753957E-1],"categories":[],"categories_nodes":[],"categories_segments":[],"categories_sizes":[],"default_left":[1,1,1,0,0,0,0],"id":62,"left_children":[1,3,5,-1,-1,-1,-1],"loss_changes":[3.580277E2,1.8963516E2,2.619375E2,0E0,0E0,0E0,0E0],"parents":[2147483647,0,0,1,1,2,2],"right_children":[2,4,6,-1,-1,-1,-1],"split_conditions":[1.7230038E1,2.5000715E4,3.0802607E1,2.0231046E-2,-1.9656207E-2,2.3530243E-2,-1.7753957E-2],"split_indices":[8,0,11,0,0,0,0],"split_type":[0,0,0,0,0,0,0],"sum_hessian":[2.1568361E4,9.533232E3,1.2035128E4,8.13761E3,1.3956227E3,1.8076974E3,1.0227431E4],"tree_param":{"num_deleted":"0","num_feature":"18","num_nodes":"7","size_leaf_vector":"0"}},{"base_weights":[-7.636124E-4,-3.2393437E-2,5.0435185E-1,-1.1992966E-2,-1.8612943E0,8.51861E-1,2.6431748E-1],"categories":[],"categories_nodes":[],"categories_segments":[],"categories_sizes":[],"default_left":[1,1,1,0,0,0,0],"id":63,"left_children":[1,3,5,-1,-1,-1,-1],"loss_changes":[3.4405847E2,7.561088E2,1.0563025E2,0E0,0E0,0E0,0E0],"parents":[2147483647,0,0,1,1,2,2],"right_children":[2,4,6,-1,-1,-1,-1],"split_conditions":[4.9997663E0,4.0005474E0,5.000828E0,-1.1992966E-3,-1.8612944E-1,8.51861E-2,2.6431749E-2],"split_indices":[14,14,14,0,0,0,0],"split_type":[0,0,0,0,0,0,0],"sum_hessian":[2.1532975E4,2.0264941E4,1.2680344E3,2.0042385E4,2.2255617E2,5.1699994E2,7.510345E2],"tree_param":{"num_deleted":"0","num_feature":"18","num_nodes":"7","size_leaf_vector":"0"}},{"base_weights":[-6.895744E-4,1.6114907E-1,-1.0090908E-1,8.295688E-2,5.363034E-1,-1.3856407E0,1.0141659E-1],"categories":[],"categories_nodes":[],"categories_segments":[],"categories_sizes":[],"default_left":[1,1,1,0,0,0,0],"id":64,"left_children":[1,3,5,-1,-1,-1,-1],"loss_changes":[3.488467E2,2.4123932E2,3.4527544E3,0E0,0E0,0E0,0E0],"parents":[2147483647,0,0,1,1,2,2],"right_children":[2,4,6,-1,-1,-1,-1],"split_conditions":[5.663394E-5,1.8954138E1,9.999465E-1,8.295688E-3,5.363034E-2,-1.3856408E-1,1.0141659E-2],"split_indices":[14,16,14,0,0,0,0],"split_type":[0,0,0,0,0,0,0],"sum_hessian":[2.1506006E4,8.224359E3,1.3281646E4,6.8068506E3,1.4175083E3,1.8062751E3,1.1475371E4],"tree_param":{"num_deleted":"0","num_feature":"18","num_nodes":"7","size_leaf_vector":"0"}},{"base_weights":[-9.865116E-4,2.0287567E-1,-7.736466E-2,5.9834576E-1,1.3442741E-1,1.1112862E-1,-1.7594379E-1],"categories":[],"categories_nodes":[],"categories_segments":[],"categories_sizes":[],"default_left":[1,1,1,0,0,0,0],"id":65,"left_children":[1,3,5,-1,-1,-1,-1],"loss_changes":[3.3249805E2,1.5746213E2,2.8866846E2,0E0,0E0,0E0,0E0],"parents":[2147483647,0,0,1,1,2,2],"right_children":[2,4,6,-1,-1,-1,-1],"split_conditions":[8.000073E3,1.980186E1,2.5E0,5.9834577E-2,1.3442742E-2,1.1112862E-2,-1.759438E-2],"split_indices":[0,11,2,0,0,0,0],"split_type":[0,0,0,0,0,0,0],"sum_hessian":[2.1352191E4,5.8189854E3,1.5533206E4,8.574128E2,4.9615728E3,5.333976E3,1.019923E4],"tree_param":{"num_deleted":"0","num_feature":"18","num_nodes":"7","size_leaf_vector":"0"}},{"base_weights":[-8.714574E-4,-2.5475431E-2,6.1843884E-1,3.5373703E-1,-7.231894E-2,1.0340801E0,3.459107E-2],"categories":[],"categories_nodes":[],"categories_segments":[],"categories_sizes":[],"default_left":[1,1,1,0,0,0,0],"id":66,"left_children":[1,3,5,-1,-1,-1,-1],"loss_changes":[3.2471902E2,3.6411304E2,1.9756549E2,0E0,0E0,0E0,0E0],"parents":[2147483647,0,0,1,1,2,2],"right_children":[2,4,6,-1,-1,-1,-1],"split_conditions":[3.5969524E1,4.0413036E0,3.7041344E1,3.5373703E-2,-7.2318944E-3,1.03408016E-1,3.4591071E-3],"split_indices":[16,16,16,0,0,0,0],"split_type":[0,0,0,0,0,0,0],"sum_hessian":[2.1308492E4,2.0495217E4,8.132756E2,2.252664E3,1.8242553E4,4.7462137E2,3.386542E2],"tree_param":{"num_deleted":"0","num_feature":"18","num_nodes":"7","size_leaf_vector":"0"}},{"base_weights":[-6.9412525E-4,-4.3717526E-2,3.4179685E-1,-6.330288E-3,-1.5529501E0,6.788936E-1,1.2894045E-1],"categories":[],"categories_nodes":[],"categories_segments":[],"categories_sizes":[],"default_left":[1,1,1,0,0,0,0],"id":67,"left_children":[1,3,5,-1,-1,-1,-1],"loss_changes":[3.1329047E2,1.0658035E3,1.7016705E2,0E0,0E0,0E0,0E0],"parents":[2147483647,0,0,1,1,2,2],"right_children":[2,4,6,-1,-1,-1,-1],"split_conditions":[3.9994226E0,3.0001557E0,4.0005474E0,-6.330288E-4,-1.5529501E-1,6.788936E-2,1.2894045E-2],"split_indices":[14,14,14,0,0,0,0],"split_type":[0,0,0,0,0,0,0],"sum_hessian":[2.1259459E4,1.888768E4,2.3717805E3,1.8432078E4,4.5560165E2,9.171374E2,1.4546431E3],"tree_param":{"num_deleted":"0","num_feature":"18","num_nodes":"7","size_leaf_vector":"0"}},{"base_weights":[-6.86713E-4,3.3085373E-1,-4.4618666E-2,1.2154447E-1,7.4151385E-1,-1.5230703E0,-1.5485697E-2],"categories":[],"categories_nodes":[],"categories_segments":[],"categories_sizes":[],"default_left":[1,1,1,0,0,0,0],"id":68,"left_children":[1,3,5,-1,-1,-1,-1],"loss_changes":[3.0894864E2,2.1323538E2,8.0668994E2,0E0,0E0,0E0,0E0],"parents":[2147483647,0,0,1,1,2,2],"right_children":[2,4,6,-1,-1,-1,-1],"split_conditions":[6.000069E0,5.9996266E0,6.999894E0,1.2154448E-2,7.415139E-2,-1.5230703E-1,-1.5485698E-3],"split_indices":[9,9,9,0,0,0,0],"split_type":[0,0,0,0,0,0,0],"sum_hessian":[2.1209385E4,2.4808289E3,1.8728555E4,1.644129E3,8.3669977E2,3.6092465E2,1.836763E4],"tree_param":{"num_deleted":"0","num_feature":"18","num_nodes":"7","size_leaf_vector":"0"}},{"base_weights":[-6.711268E-4,5.126769E-2,-2.7220717E-1,-3.834544E-2,2.187729E-1,-1.2497549E0,2.693285E-1],"categories":[],"categories_nodes":[],"categories_segments":[],"categories_sizes":[],"default_left":[1,1,1,0,0,0,0],"id":69,"left_children":[1,3,5,-1,-1,-1,-1],"loss_changes":[2.986231E2,2.6681158E2,1.8001206E3,0E0,0E0,0E0,0E0],"parents":[2147483647,0,0,1,1,2,2],"right_children":[2,4,6,-1,-1,-1,-1],"split_conditions":[4.663401E-5,1.5E0,9.999465E-1,-3.8345442E-3,2.187729E-2,-1.24975495E-1,2.693285E-2],"split_indices":[15,4,15,0,0,0,0],"split_type":[0,0,0,0,0,0,0],"sum_hessian":[2.1172057E4,1.7773242E4,3.3988154E3,1.1579259E4,6.193983E3,1.2111721E3,2.1876433E3],"tree_param":{"num_deleted":"0","num_feature":"18","num_nodes":"7","size_leaf_vector":"0"}},{"base_weights":[-8.785342E-4,3.6953697E-1,-3.751278E-2,2.7743885E-1,6.5742016E-1,-1.0400264E-1,1.7766519E-1],"categories":[],"categories_nodes":[],"categories_segments":[],"categories_sizes":[],"default_left":[1,1,1,0,0,0,0],"id":70,"left_children":[1,3,5,-1,-1,-1,-1],"loss_changes":[2.8581128E2,5.007614E1,2.7423737E2,0E0,0E0,0E0,0E0],"parents":[2147483647,0,0,1,1,2,2],"right_children":[2,4,6,-1,-1,-1,-1],"split_conditions":[7.911787E0,1.0493967E4,1.5E0,2.7743885E-2,6.5742016E-2,-1.04002645E-2,1.7766519E-2],"split_indices":[8,10,6,0,0,0,0],"split_type":[0,0,0,0,0,0,0],"sum_hessian":[2.106014E4,1.8945828E3,1.9165559E4,1.4368701E3,4.577126E2,1.4641775E4,4.523783E3],"tree_param":{"num_deleted":"0","num_feature":"18","num_nodes":"7","size_leaf_vector":"0"}},{"base_weights":[-7.7074073E-4,7.637793E-1,-1.7901313E-2,1.2541488E0,5.826921E-1,-4.1016534E-2,5.752863E-1],"categories":[],"categories_nodes":[],"categories_segments":[],"categories_sizes":[],"default_left":[1,1,1,0,0,0,0],"id":71,"left_children":[1,3,5,-1,-1,-1,-1],"loss_changes":[2.755176E2,4.0207092E1,2.8214587E2,0E0,0E0,0E0,0E0],"parents":[2147483647,0,0,1,1,2,2],"right_children":[2,4,6,-1,-1,-1,-1],"split_conditions":[1.0197363E0,9.527917E-1,3.5969524E1,1.254149E-1,5.826921E-2,-4.1016536E-3,5.7528634E-2],"split_indices":[16,16,16,0,0,0,0],"split_type":[0,0,0,0,0,0,0],"sum_hessian":[2.1034363E4,4.60014E2,2.0574348E4,1.22464455E2,3.3754956E2,1.9803578E4,7.7077106E2],"tree_param":{"num_deleted":"0","num_feature":"18","num_nodes":"7","size_leaf_vector":"0"}},{"base_weights":[-6.0704997E-4,1.2736331E-1,-1.0217269E-1,4.3206908E-2,3.0876347E-1,1.2959558E-1,-1.9253321E-1],"categories":[],"categories_nodes":[],"categories_segments":[],"categories_sizes":[],"default_left":[1,1,1,0,0,0,0],"id":72,"left_children":[1,3,5,-1,-1,-1,-1],"loss_changes":[2.727932E2,1.4176118E2,2.4508276E2,0E0,0E0,0E0,0E0],"parents":[2147483647,0,0,1,1,2,2],"right_children":[2,4,6,-1,-1,-1,-1],"split_conditions":[4.8201355E1,1.9998789E0,8.000408E0,4.320691E-3,3.0876348E-2,1.2959558E-2,-1.9253321E-2],"split_indices":[11,14,9,0,0,0,0],"split_type":[0,0,0,0,0,0,0],"sum_hessian":[2.0986303E4,9.285957E3,1.1700346E4,6.34403E3,2.9419275E3,3.2819487E3,8.418397E3],"tree_param":{"num_deleted":"0","num_feature":"18","num_nodes":"7","size_leaf_vector":"0"}},{"base_weights":[-5.3515966E-4,-5.6830086E-2,2.2142862E-1,6.0412865E-3,-1.4489594E0,5.6794554E-1,3.2886624E-2],"categories":[],"categories_nodes":[],"categories_segments":[],"categories_sizes":[],"default_left":[1,1,1,0,0,0,0],"id":73,"left_children":[1,3,5,-1,-1,-1,-1],"loss_changes":[2.6177783E2,1.4626816E3,2.7688873E2,0E0,0E0,0E0,0E0],"parents":[2147483647,0,0,1,1,2,2],"right_children":[2,4,6,-1,-1,-1,-1],"split_conditions":[2.9998846E0,2.0001016E0,3.0001557E0,6.0412864E-4,-1.4489594E-1,5.6794554E-2,3.2886625E-3],"split_indices":[14,14,14,0,0,0,0],"split_type":[0,0,0,0,0,0,0],"sum_hessian":[2.0947873E4,1.671047E4,4.2374014E3,1.5989355E4,7.2111597E2,1.4924501E3,2.7449514E3],"tree_param":{"num_deleted":"0","num_feature":"18","num_nodes":"7","size_leaf_vector":"0"}},{"base_weights":[-6.1189296E-4,8.966164E-2,-1.3684727E-1,-3.4124807E-2,2.3814471E-1,-8.4827846E-1,-9.9132955E-2],"categories":[],"categories_nodes":[],"categories_segments":[],"categories_sizes":[],"default_left":[1,1,1,0,0,0,0],"id":74,"left_children":[1,3,5,-1,-1,-1,-1],"loss_changes":[2.5676544E2,2.3081088E2,2.2317049E2,0E0,0E0,0E0,0E0],"parents":[2147483647,0,0,1,1,2,2],"right_children":[2,4,6,-1,-1,-1,-1],"split_conditions":[1.5000102E4,9.9979734E-1,1.5999639E4,-3.4124807E-3,2.3814471E-2,-8.482785E-2,-9.9132955E-3],"split_indices":[0,14,0,0,0,0,0],"split_type":[0,0,0,0,0,0,0],"sum_hessian":[2.0875873E4,1.2556146E4,8.319727E3,6.8479556E3,5.7081904E3,4.177589E2,7.9019673E3],"tree_param":{"num_deleted":"0","num_feature":"18","num_nodes":"7","size_leaf_vector":"0"}},{"base_weights":[-5.60929E-4,1.4183012E-1,-9.078942E-2,7.429268E-2,4.7661567E-1,-1.3353426E0,9.080645E-2],"categories":[],"categories_nodes":[],"categories_segments":[],"categories_sizes":[],"default_left":[1,1,1,0,0,0,0],"id":75,"left_children":[1,3,5,-1,-1,-1,-1],"loss_changes":[2.6778534E2,1.8276172E2,2.8835967E3,0E0,0E0,0E0,0E0],"parents":[2147483647,0,0,1,1,2,2],"right_children":[2,4,6,-1,-1,-1,-1],"split_conditions":[5.663394E-5,1.8954138E1,9.999465E-1,7.429268E-3,4.766157E-2,-1.3353427E-1,9.080645E-3],"split_indices":[14,16,14,0,0,0,0],"split_type":[0,0,0,0,0,0,0],"sum_hessian":[2.0841008E4,8.08359E3,1.2757417E4,6.727625E3,1.3559651E3,1.6236313E3,1.1133786E4],"tree_param":{"num_deleted":"0","num_feature":"18","num_nodes":"7","size_leaf_vector":"0"}},{"base_weights":[-8.5524516E-4,4.6070904E-2,-2.5557306E-1,-8.70295E-2,1.4374006E-1,-1.2239535E0,2.3189367E-1],"categories":[],"categories_nodes":[],"categories_segments":[],"categories_sizes":[],"default_left":[1,1,1,0,0,0,0],"id":76,"left_children":[1,3,5,-1,-1,-1,-1],"loss_changes":[2.4740332E2,2.2722548E2,1.5202799E3,0E0,0E0,0E0,0E0],"parents":[2147483647,0,0,1,1,2,2],"right_children":[2,4,6,-1,-1,-1,-1],"split_conditions":[4.663401E-5,5E-1,9.999465E-1,-8.702951E-3,1.4374006E-2,-1.2239535E-1,2.3189368E-2],"split_indices":[15,12,15,0,0,0,0],"split_type":[0,0,0,0,0,0,0],"sum_hessian":[2.0696152E4,1.7477186E4,3.2189675E3,7.3969565E3,1.0080229E4,1.077313E3,2.1416545E3],"tree_param":{"num_deleted":"0","num_feature":"18","num_nodes":"7","size_leaf_vector":"0"}},{"base_weights":[-1.0234021E-3,8.605243E-2,-1.3337044E-1,4.3299878E-1,4.0923316E-2,1.9344805E-1,-1.8618768E-1],"categories":[],"categories_nodes":[],"categories_segments":[],"categories_sizes":[],"default_left":[1,1,1,0,0,0,0],"id":77,"left_children":[1,3,5,-1,-1,-1,-1],"loss_changes":[2.371729E2,1.9434137E2,1.4101395E2,0E0,0E0,0E0,0E0],"parents":[2147483647,0,0,1,1,2,2],"right_children":[2,4,6,-1,-1,-1,-1],"split_conditions":[2.0800013E1,1.5E0,3.0707813E1,4.329988E-2,4.0923315E-3,1.9344805E-2,-1.8618768E-2],"split_indices":[8,2,11,0,0,0,0],"split_type":[0,0,0,0,0,0,0],"sum_hessian":[2.0578375E4,1.2412258E4,8.1661167E3,1.4277006E3,1.0984558E4,1.1357496E3,7.030367E3],"tree_param":{"num_deleted":"0","num_feature":"18","num_nodes":"7","size_leaf_vector":"0"}},{"base_weights":[-8.957821E-4,-2.7432032E-2,4.233819E-1,-8.318482E-3,-1.7510717E0,7.530089E-1,2.015212E-1],"categories":[],"categories_nodes":[],"categories_segments":[],"categories_sizes":[],"default_left":[1,1,1,0,0,0,0],"id":78,"left_children":[1,3,5,-1,-1,-1,-1],"loss_changes":[2.3122966E2,6.367718E2,8.825781E1,0E0,0E0,0E0,0E0],"parents":[2147483647,0,0,1,1,2,2],"right_children":[2,4,6,-1,-1,-1,-1],"split_conditions":[4.9997663E0,4.0005474E0,5.000828E0,-8.318482E-4,-1.7510717E-1,7.5300895E-2,2.015212E-2],"split_indices":[14,14,14,0,0,0,0],"split_type":[0,0,0,0,0,0,0],"sum_hessian":[2.0535762E4,1.9327846E4,1.2079158E3,1.9116863E4,2.1098329E2,4.8497525E2,7.2294055E2],"tree_param":{"num_deleted":"0","num_feature":"18","num_nodes":"7","size_leaf_vector":"0"}},{"base_weights":[-8.2107825E-4,1.7160673E-1,-6.549464E-2,9.7800024E-2,4.6133024E-1,1.2939309E-2,-2.5871113E-1],"categories":[],"categories_nodes":[],"categories_segments":[],"categories_sizes":[],"default_left":[1,1,1,0,0,0,0],"id":79,"left_children":[1,3,5,-1,-1,-1,-1],"loss_changes":[2.2873567E2,1.19593735E2,2.2606198E2,0E0,0E0,0E0,0E0],"parents":[2147483647,0,0,1,1,2,2],"right_children":[2,4,6,-1,-1,-1,-1],"split_conditions":[8.000073E3,1.6950468E1,3.5E0,9.780003E-3,4.6133023E-2,1.2939309E-3,-2.5871113E-2],"split_indices":[0,16,2,0,0,0,0],"split_type":[0,0,0,0,0,0,0],"sum_hessian":[2.0509605E4,5.593904E3,1.4915701E4,4.459252E3,1.1346516E3,1.0609736E4,4.305964E3],"tree_param":{"num_deleted":"0","num_feature":"18","num_nodes":"7","size_leaf_vector":"0"}},{"base_weights":[-7.2521024E-4,7.081514E-1,-1.6038125E-2,1.2196292E0,5.269069E-1,3.8735774E-1,-4.4309024E-2],"categories":[],"categories_nodes":[],"categories_segments":[],"categories_sizes":[],"default_left":[1,1,1,0,0,0,0],"id":80,"left_children":[1,3,5,-1,-1,-1,-1],"loss_changes":[2.2227794E2,3.949623E1,2.2860669E2,0E0,0E0,0E0,0E0],"parents":[2147483647,0,0,1,1,2,2],"right_children":[2,4,6,-1,-1,-1,-1],"split_conditions":[1.0197363E0,9.527917E-1,5.000415E0,1.2196292E-1,5.2690692E-2,3.8735773E-2,-4.4309027E-3],"split_indices":[16,16,9,0,0,0,0],"split_type":[0,0,0,0,0,0,0],"sum_hessian":[2.0475025E4,4.3198563E2,2.004304E4,1.1152614E2,3.204595E2,1.3118352E3,1.8731203E4],"tree_param":{"num_deleted":"0","num_feature":"18","num_nodes":"7","size_leaf_vector":"0"}},{"base_weights":[-6.006295E-4,-3.705347E-2,2.9178643E-1,-2.9580134E-3,-1.4870883E0,6.0530156E-1,9.4164595E-2],"categories":[],"categories_nodes":[],"categories_segments":[],"categories_sizes":[],"default_left":[1,1,1,0,0,0,0],"id":81,"left_children":[1,3,5,-1,-1,-1,-1],"loss_changes":[2.1798524E2,8.990497E2,1.4041115E2,0E0,0E0,0E0,0E0],"parents":[2147483647,0,0,1,1,2,2],"right_children":[2,4,6,-1,-1,-1,-1],"split_conditions":[3.9994226E0,3.0001557E0,4.0005474E0,-2.9580135E-4,-1.4870884E-1,6.0530156E-2,9.41646E-3],"split_indices":[14,14,14,0,0,0,0],"split_type":[0,0,0,0,0,0,0],"sum_hessian":[2.0450068E4,1.8183896E4,2.2661719E3,1.776713E4,4.1676614E2,8.753767E2,1.3907952E3],"tree_param":{"num_deleted":"0","num_feature":"18","num_nodes":"7","size_leaf_vector":"0"}},{"base_weights":[-6.0840574E-4,-2.0196777E-2,5.3014433E-1,-1.4841436E-1,7.04519E-2,9.678681E-1,-2.3629442E-2],"categories":[],"categories_nodes":[],"categories_segments":[],"categories_sizes":[],"default_left":[1,1,1,0,0,0,0],"id":82,"left_children":[1,3,5,-1,-1,-1,-1],"loss_changes":[2.12142E2,2.2873079E2,1.7607242E2,0E0,0E0,0E0,0E0],"parents":[2147483647,0,0,1,1,2,2],"right_children":[2,4,6,-1,-1,-1,-1],"split_conditions":[3.5969524E1,5E-1,3.7041344E1,-1.4841436E-2,7.0451903E-3,9.678681E-2,-2.3629442E-3],"split_indices":[16,12,16,0,0,0,0],"split_type":[0,0,0,0,0,0,0],"sum_hessian":[2.0402947E4,1.967767E4,7.252773E2,8.149712E3,1.1527958E4,4.0466614E2,3.2061115E2],"tree_param":{"num_deleted":"0","num_feature":"18","num_nodes":"7","size_leaf_vector":"0"}},{"base_weights":[-4.8586112E-4,1.2668937E-1,-8.227393E-2,2.033709E-2,3.026749E-1,-1.301249E0,8.2557455E-2],"categories":[],"categories_nodes":[],"categories_segments":[],"categories_sizes":[],"default_left":[1,1,1,0,0,0,0],"id":83,"left_children":[1,3,5,-1,-1,-1,-1],"loss_changes":[2.1170723E2,1.4909702E2,2.4890237E3,0E0,0E0,0E0,0E0],"parents":[2147483647,0,0,1,1,2,2],"right_children":[2,4,6,-1,-1,-1,-1],"split_conditions":[5.663394E-5,6.1998145E4,9.999465E-1,2.033709E-3,3.026749E-2,-1.3012491E-1,8.255745E-3],"split_indices":[14,5,14,0,0,0,0],"split_type":[0,0,0,0,0,0,0],"sum_hessian":[2.0351688E4,7.9654194E3,1.2386269E4,4.9656646E3,2.999755E3,1.4745627E3,1.0911706E4],"tree_param":{"num_deleted":"0","num_feature":"18","num_nodes":"7","size_leaf_vector":"0"}},{"base_weights":[-7.8986643E-4,4.1277926E-2,-2.3647624E-1,-3.4242585E-2,1.8007289E-1,-1.2018749E0,2.0431106E-1],"categories":[],"categories_nodes":[],"categories_segments":[],"categories_sizes":[],"default_left":[1,1,1,0,0,0,0],"id":84,"left_children":[1,3,5,-1,-1,-1,-1],"loss_changes":[2.0060646E2,1.7996518E2,1.3042692E3,0E0,0E0,0E0,0E0],"parents":[2147483647,0,0,1,1,2,2],"right_children":[2,4,6,-1,-1,-1,-1],"split_conditions":[4.663401E-5,1.5E0,9.999465E-1,-3.4242587E-3,1.800729E-2,-1.20187484E-1,2.0431107E-2],"split_indices":[15,4,15,0,0,0,0],"split_type":[0,0,0,0,0,0,0],"sum_hessian":[2.0231035E4,1.7167605E4,3.0634304E3,1.111857E4,6.0490347E3,9.5973096E2,2.1036995E3],"tree_param":{"num_deleted":"0","num_feature":"18","num_nodes":"7","size_leaf_vector":"0"}},{"base_weights":[-9.439095E-4,-1.8559093E-2,5.5947816E-1,-7.3821913E-3,-2.1930022E0,7.869408E-1,3.7947792E-1],"categories":[],"categories_nodes":[],"categories_segments":[],"categories_sizes":[],"default_left":[1,1,1,0,0,0,0],"id":85,"left_children":[1,3,5,-1,-1,-1,-1],"loss_changes":[1.9881886E2,4.7453482E2,2.4830048E1,0E0,0E0,0E0,0E0],"parents":[2147483647,0,0,1,1,2,2],"right_children":[2,4,6,-1,-1,-1,-1],"split_conditions":[5.9986897E0,5.000828E0,6.0033064E0,-7.382191E-4,-2.1930023E-1,7.869408E-2,3.7947793E-2],"split_indices":[14,14,14,0,0,0,0],"split_type":[0,0,0,0,0,0,0],"sum_hessian":[2.013775E4,1.9525008E4,6.1274304E2,1.9426158E4,9.88494E1,2.6919492E2,3.435481E2],"tree_param":{"num_deleted":"0","num_feature":"18","num_nodes":"7","size_leaf_vector":"0"}},{"base_weights":[-8.425426E-4,-5.4844905E-2,1.7602545E-1,2.871624E-1,-1.0251338E-1,2.731477E-1,3.9473036E-3],"categories":[],"categories_nodes":[],"categories_segments":[],"categories_sizes":[],"default_left":[1,1,1,0,0,0,0],"id":86,"left_children":[1,3,5,-1,-1,-1,-1],"loss_changes":[1.9224164E2,2.5141061E2,7.8680756E1,0E0,0E0,0E0,0E0],"parents":[2147483647,0,0,1,1,2,2],"right_children":[2,4,6,-1,-1,-1,-1],"split_conditions":[1.5E0,2.1800009E1,3.5E0,2.871624E-2,-1.0251339E-2,2.7314771E-2,3.9473036E-4],"split_indices":[6,11,2,0,0,0,0],"split_type":[0,0,0,0,0,0,0],"sum_hessian":[2.0125283E4,1.5418353E4,4.706931E3,1.8854902E3,1.3532862E4,3.0083867E3,1.6985442E3],"tree_param":{"num_deleted":"0","num_feature":"18","num_nodes":"7","size_leaf_vector":"0"}},{"base_weights":[-7.405619E-4,2.8053844E-1,-3.3772953E-2,1.1863718E0,2.3409215E-1,-1.4215394E0,-1.7987942E-2],"categories":[],"categories_nodes":[],"categories_segments":[],"categories_sizes":[],"default_left":[1,1,1,0,0,0,0],"id":87,"left_children":[1,3,5,-1,-1,-1,-1],"loss_changes":[1.8671043E2,8.857498E1,3.9391364E2,0E0,0E0,0E0,0E0],"parents":[2147483647,0,0,1,1,2,2],"right_children":[2,4,6,-1,-1,-1,-1],"split_conditions":[4.0413036E0,9.527917E-1,4.9277115E0,1.1863718E-1,2.3409216E-2,-1.4215395E-1,-1.7987943E-3],"split_indices":[16,16,16,0,0,0,0],"split_type":[0,0,0,0,0,0,0],"sum_hessian":[2.009313E4,2.1108894E3,1.798224E4,1.0175907E2,2.0091304E3,2.0123529E2,1.7781006E4],"tree_param":{"num_deleted":"0","num_feature":"18","num_nodes":"7","size_leaf_vector":"0"}},{"base_weights":[-6.874445E-4,-6.9625E-2,1.3298173E-1,5.7828013E-2,-1.4169577E0,5.1501966E-1,-4.148742E-2],"categories":[],"categories_nodes":[],"categories_segments":[],"categories_sizes":[],"default_left":[1,1,1,0,0,0,0],"id":88,"left_children":[1,3,5,-1,-1,-1,-1],"loss_changes":[1.8491568E2,2.2735493E3,4.5512872E2,0E0,0E0,0E0,0E0],"parents":[2147483647,0,0,1,1,2,2],"right_children":[2,4,6,-1,-1,-1,-1],"split_conditions":[1.9998953E0,1.0000057E0,2.0001016E0,5.782801E-3,-1.4169578E-1,5.1501967E-2,-4.148742E-3],"split_indices":[14,14,14,0,0,0,0],"split_type":[0,0,0,0,0,0,0],"sum_hessian":[2.0065186E4,1.3238262E4,6.8269243E3,1.2095067E4,1.1431945E3,2.1396802E3,4.687244E3],"tree_param":{"num_deleted":"0","num_feature":"18","num_nodes":"7","size_leaf_vector":"0"}},{"base_weights":[-8.573155E-4,1.3678253E-1,-6.5279566E-2,1.15127906E-1,9.940777E-1,1.010911E-1,-1.4864802E-1],"categories":[],"categories_nodes":[],"categories_segments":[],"categories_sizes":[],"default_left":[1,1,1,0,0,0,0],"id":89,"left_children":[1,3,5,-1,-1,-1,-1],"loss_changes":[1.7704462E2,1.1806302E2,1.8865784E2,0E0,0E0,0E0,0E0],"parents":[2147483647,0,0,1,1,2,2],"right_children":[2,4,6,-1,-1,-1,-1],"split_conditions":[9.6001E3,3.3873127E1,2.5E0,1.1512791E-2,9.940777E-2,1.0109111E-2,-1.4864802E-2],"split_indices":[0,16,2,0,0,0,0],"split_type":[0,0,0,0,0,0,0],"sum_hessian":[1.9964527E4,6.3648135E3,1.3599715E4,6.2091104E3,1.5570303E2,4.5398154E3,9.059899E3],"tree_param":{"num_deleted":"0","num_feature":"18","num_nodes":"7","size_leaf_vector":"0"}},{"base_weights":[-7.425473E-4,-4.8093386E-2,1.8599439E-1,1.0052274E-2,-1.4063013E0,5.0373495E-1,9.966486E-3],"categories":[],"categories_nodes":[],"categories_segments":[],"categories_sizes":[],"default_left":[1,1,1,0,0,0,0],"id":90,"left_children":[1,3,5,-1,-1,-1,-1],"loss_changes":[1.7623328E2,1.255653E3,2.2548807E2,0E0,0E0,0E0,0E0],"parents":[2147483647,0,0,1,1,2,2],"right_children":[2,4,6,-1,-1,-1,-1],"split_conditions":[2.9998846E0,2.0001016E0,3.0001557E0,1.0052274E-3,-1.4063013E-1,5.0373495E-2,9.966487E-4],"split_indices":[14,14,14,0,0,0,0],"split_type":[0,0,0,0,0,0,0],"sum_hessian":[1.9929031E4,1.5898416E4,4.0306152E3,1.5246688E4,6.517269E2,1.4362461E3,2.5943691E3],"tree_param":{"num_deleted":"0","num_feature":"18","num_nodes":"7","size_leaf_vector":"0"}},{"base_weights":[-8.0069114E-4,-2.4110317E-2,3.742088E-1,-6.4990036E-3,-1.6511023E0,6.902756E-1,1.6262814E-1],"categories":[],"categories_nodes":[],"categories_segments":[],"categories_sizes":[],"default_left":[1,1,1,0,0,0,0],"id":91,"left_children":[1,3,5,-1,-1,-1,-1],"loss_changes":[1.7364105E2,5.358629E2,7.7625824E1,0E0,0E0,0E0,0E0],"parents":[2147483647,0,0,1,1,2,2],"right_children":[2,4,6,-1,-1,-1,-1],"split_conditions":[4.9997663E0,4.0005474E0,5.000828E0,-6.4990035E-4,-1.6511023E-1,6.9027565E-2,1.6262814E-2],"split_indices":[14,14,14,0,0,0,0],"split_type":[0,0,0,0,0,0,0],"sum_hessian":[1.986234E4,1.8700877E4,1.1614628E3,1.8501611E4,1.99266E2,4.648262E2,6.966366E2],"tree_param":{"num_deleted":"0","num_feature":"18","num_nodes":"7","size_leaf_vector":"0"}},{"base_weights":[-7.4260094E-4,-9.949174E-2,8.534708E-2,1.00078E-1,-1.2718436E0,5.4136425E-1,-8.12566E-2],"categories":[],"categories_nodes":[],"categories_segments":[],"categories_sizes":[],"default_left":[1,1,1,0,0,0,0],"id":92,"left_children":[1,3,5,-1,-1,-1,-1],"loss_changes":[1.6865633E2,2.1619927E3,8.052821E2,0E0,0E0,0E0,0E0],"parents":[2147483647,0,0,1,1,2,2],"right_children":[2,4,6,-1,-1,-1,-1],"split_conditions":[9.999465E-1,5.663394E-5,1.0000057E0,1.0007801E-2,-1.2718436E-1,5.4136425E-2,-8.12566E-3],"split_indices":[14,14,14,0,0,0,0],"split_type":[0,0,0,0,0,0,0],"sum_hessian":[1.983693E4,9.239086E3,1.0597845E4,7.8958823E3,1.3432034E3,2.8352168E3,7.7626284E3],"tree_param":{"num_deleted":"0","num_feature":"18","num_nodes":"7","size_leaf_vector":"0"}},{"base_weights":[-9.671314E-4,-6.9591194E-2,1.3208827E-1,4.593382E-2,-1.3691322E0,4.7863966E-1,-2.7256358E-2],"categories":[],"categories_nodes":[],"categories_segments":[],"categories_sizes":[],"default_left":[1,1,1,0,0,0,0],"id":93,"left_children":[1,3,5,-1,-1,-1,-1],"loss_changes":[1.8000298E2,1.9526357E3,3.7042987E2,0E0,0E0,0E0,0E0],"parents":[2147483647,0,0,1,1,2,2],"right_children":[2,4,6,-1,-1,-1,-1],"split_conditions":[1.9998953E0,1.0000057E0,2.0001016E0,4.593382E-3,-1.3691323E-1,4.7863968E-2,-2.725636E-3],"split_indices":[14,14,14,0,0,0,0],"split_type":[0,0,0,0,0,0,0],"sum_hessian":[1.971181E4,1.3004925E4,6.7068853E3,1.1944098E4,1.0608273E3,2.1118704E3,4.5950146E3],"tree_param":{"num_deleted":"0","num_feature":"18","num_nodes":"7","size_leaf_vector":"0"}},{"base_weights":[-1.1028877E-3,-3.4978602E-2,2.6815042E-1,-3.6831142E-3,-1.4257841E0,5.6221277E-1,8.061995E-2],"categories":[],"categories_nodes":[],"categories_segments":[],"categories_sizes":[],"default_left":[1,1,1,0,0,0,0],"id":94,"left_children":[1,3,5,-1,-1,-1,-1],"loss_changes":[1.7890852E2,7.5833215E2,1.2083447E2,0E0,0E0,0E0,0E0],"parents":[2147483647,0,0,1,1,2,2],"right_children":[2,4,6,-1,-1,-1,-1],"split_conditions":[3.9994226E0,3.0001557E0,4.0005474E0,-3.6831142E-4,-1.4257841E-1,5.6221277E-2,8.061996E-3],"split_indices":[14,14,14,0,0,0,0],"split_type":[0,0,0,0,0,0,0],"sum_hessian":[1.9612666E4,1.7421654E4,2.1910103E3,1.7039246E4,3.8240933E2,8.523933E2,1.3386168E3],"tree_param":{"num_deleted":"0","num_feature":"18","num_nodes":"7","size_leaf_vector":"0"}},{"base_weights":[-1.0631634E-3,5.3368144E-2,-1.5725808E-1,2.707776E-1,4.1551273E-3,7.488343E-2,-2.432745E-1],"categories":[],"categories_nodes":[],"categories_segments":[],"categories_sizes":[],"default_left":[1,1,1,0,0,0,0],"id":95,"left_children":[1,3,5,-1,-1,-1,-1],"loss_changes":[1.6637872E2,1.5527173E2,1.010022E2,0E0,0E0,0E0,0E0],"parents":[2147483647,0,0,1,1,2,2],"right_children":[2,4,6,-1,-1,-1,-1],"split_conditions":[3.5E0,7.000146E0,1.0000549E4,2.7077762E-2,4.1551274E-4,7.4883434E-3,-2.432745E-2],"split_indices":[2,9,0,0,0,0,0],"split_type":[0,0,0,0,0,0,0],"sum_hessian":[1.9567623E4,1.4511327E4,5.056296E3,2.677661E3,1.1833666E4,1.3670431E3,3.6892527E3],"tree_param":{"num_deleted":"0","num_feature":"18","num_nodes":"7","size_leaf_vector":"0"}},{"base_weights":[-9.5541007E-4,3.7018977E-2,-2.2242315E-1,-3.1531032E-2,1.7094362E-1,-1.1806389E0,1.6139327E-1],"categories":[],"categories_nodes":[],"categories_segments":[],"categories_sizes":[],"default_left":[1,1,1,0,0,0,0],"id":96,"left_children":[1,3,5,-1,-1,-1,-1],"loss_changes":[1.6438092E2,1.5318068E2,1.0523636E3,0E0,0E0,0E0,0E0],"parents":[2147483647,0,0,1,1,2,2],"right_children":[2,4,6,-1,-1,-1,-1],"split_conditions":[4.663401E-5,1.494885E1,9.999465E-1,-3.1531032E-3,1.7094363E-2,-1.1806389E-1,1.6139327E-2],"split_indices":[15,16,15,0,0,0,0],"split_type":[0,0,0,0,0,0,0],"sum_hessian":[1.9543674E4,1.668379E4,2.8598848E3,1.1035815E4,5.6479736E3,8.1732306E2,2.0425616E3],"tree_param":{"num_deleted":"0","num_feature":"18","num_nodes":"7","size_leaf_vector":"0"}},{"base_weights":[-1.0626569E-3,-4.6619277E-2,1.7889644E-1,6.066889E-3,-1.361599E0,4.7019443E-1,1.5029362E-2],"categories":[],"categories_nodes":[],"categories_segments":[],"categories_sizes":[],"default_left":[1,1,1,0,0,0,0],"id":97,"left_children":[1,3,5,-1,-1,-1,-1],"loss_changes":[1.5942769E2,1.0751125E3,1.8751073E2,0E0,0E0,0E0,0E0],"parents":[2147483647,0,0,1,1,2,2],"right_children":[2,4,6,-1,-1,-1,-1],"split_conditions":[2.9998846E0,2.0001016E0,3.0001557E0,6.066889E-4,-1.361599E-1,4.7019444E-2,1.5029362E-3],"split_indices":[14,14,14,0,0,0,0],"split_type":[0,0,0,0,0,0,0],"sum_hessian":[1.944435E4,1.5516971E4,3.9273782E3,1.4920173E4,5.967984E2,1.4132491E3,2.514129E3],"tree_param":{"num_deleted":"0","num_feature":"18","num_nodes":"7","size_leaf_vector":"0"}},{"base_weights":[-1.0847951E-3,-9.7086124E-2,8.3533294E-2,8.3447136E-2,-1.2475196E0,4.8659167E-1,-6.635052E-2],"categories":[],"categories_nodes":[],"categories_segments":[],"categories_sizes":[],"default_left":[1,1,1,0,0,0,0],"id":98,"left_children":[1,3,5,-1,-1,-1,-1],"loss_changes":[1.5745023E2,1.8860105E3,6.2238794E2,0E0,0E0,0E0,0E0],"parents":[2147483647,0,0,1,1,2,2],"right_children":[2,4,6,-1,-1,-1,-1],"split_conditions":[9.999465E-1,5.663394E-5,1.0000057E0,8.344714E-3,-1.2475196E-1,4.865917E-2,-6.635052E-3],"split_indices":[14,14,14,0,0,0,0],"split_type":[0,0,0,0,0,0,0],"sum_hessian":[1.9380191E4,9.079325E3,1.0300866E4,7.8486006E3,1.2307244E3,2.7916055E3,7.509261E3],"tree_param":{"num_deleted":"0","num_feature":"18","num_nodes":"7","size_leaf_vector":"0"}},{"base_weights":[-1.2615018E-3,-6.837632E-2,1.2919797E-1,3.6104973E-2,-1.330893E0,4.4160774E-1,-1.6324865E-2],"categories":[],"categories_nodes":[],"categories_segments":[],"categories_sizes":[],"default_left":[1,1,1,0,0,0,0],"id":99,"left_children":[1,3,5,-1,-1,-1,-1],"loss_changes":[1.6866245E2,1.677866E3,2.9749445E2,0E0,0E0,0E0,0E0],"parents":[2147483647,0,0,1,1,2,2],"right_children":[2,4,6,-1,-1,-1,-1],"split_conditions":[1.9998953E0,1.0000057E0,2.0001016E0,3.6104973E-3,-1.330893E-1,4.4160776E-2,-1.6324865E-3],"split_indices":[14,14,14,0,0,0,0],"split_type":[0,0,0,0,0,0,0],"sum_hessian":[1.9261012E4,1.2718475E4,6.5425376E3,1.1747283E4,9.71191E2,2.0784553E3,4.464082E3],"tree_param":{"num_deleted":"0","num_feature":"18","num_nodes":"7","size_leaf_vector":"0"}}]},"name":"gbtree"},"learner_model_param":{"base_score":"5E-1","num_class":"0","num_feature":"18","num_target":"1"},"objective":{"name":"binary:logistic","reg_loss_param":{"scale_pos_weight":"1"}}},"version":[1,6,2]}