{"learner":{"attributes":{"best_iteration":"99","best_ntree_limit":"100","best_score":"0.5103215128730982","scikit_learn":"{\"use_label_encoder\": false, \"n_estimators\": 100, \"objective\": \"binary:logistic\", \"max_depth\": 2, \"max_leaves\": null, \"max_bin\": null, \"grow_policy\": null, \"learning_rate\": 0.1, \"verbosity\": null, \"booster\": null, \"tree_method\": null, \"gamma\": null, \"min_child_weight\": null, \"max_delta_step\": null, \"subsample\": null, \"sampling_method\": null, \"colsample_bytree\": null, \"colsample_bylevel\": null, \"colsample_bynode\": null, \"reg_alpha\": null, \"reg_lambda\": null, \"scale_pos_weight\": null, \"base_score\": null, \"missing\": NaN, \"num_parallel_tree\": null, \"random_state\": null, \"n_jobs\": null, \"monotone_constraints\": null, \"interaction_constraints\": null, \"importance_type\": null, \"gpu_id\": null, \"validate_parameters\": null, \"predictor\": null, \"enable_categorical\": false, \"max_cat_to_onehot\": null, \"eval_metric\": null, \"early_stopping_rounds\": null, \"callbacks\": null, \"kwargs\": {\"nthread\": 4, \"seed\": 42}, \"classes_\": [0, 1], \"n_classes_\": 2, \"evals_result_\": {\"validation_0\": {\"logloss\": [0.6832673324251782, 0.6747919190357945, 0.6673883990872473, 0.6610297149152715, 0.6556545106467121, 0.6469571532196193, 0.641522954175836, 0.6355373176374169, 0.6311144909138062, 0.6260105003578009, 0.6192074316816022, 0.6155672666706483, 0.6117547273457072, 0.6079652288142923, 0.60422807450364, 0.5937958109780258, 0.5893135557055228, 0.5862958180316891, 0.5809213699107374, 0.5785549092574103, 0.571332867118524, 0.5630945949381854, 0.5602530945772686, 0.5579523183363495, 0.5544683356797668, 0.5520097859227561, 0.549985582043459, 0.5457477958499268, 0.5402695228610038, 0.5384463880375938, 0.5318888778205686, 0.530307277939574, 0.5285847147093492, 0.5267561325950763, 0.525277704418957, 0.5208780150407982, 0.5194056827114021, 0.5167624208311413, 0.5154904487200939, 0.5121842687941855, 0.5101853741827359, 0.508998253172802, 0.503767265338223, 0.5021647610562289, 0.5004524718536351, 0.49914553788761923, 0.4980522646148625, 0.4946494688796397, 0.4927830352854748, 0.49161917665574517, 0.4906023806147487, 0.48849845702316785, 0.4858239323881332, 0.48160896365690375, 0.48002818770040373, 0.4790334222088196, 0.4782277008129216, 0.4769917648863208, 0.4760563681378086, 0.47428009281396577, 0.47355728861957896, 0.47276637060686466, 0.4701308076882775, 0.4692898685125167, 0.46858490428673943, 0.4668654626820629, 0.46603621206975104, 0.4652682488880574, 0.4642796753685716, 0.4620853615473896, 0.4613648279478203, 0.4601103009010746, 0.45683376621594635, 0.45453681148051583, 0.4540404704018427, 0.45344964746280353, 0.45285071451684866, 0.4517134723446657, 0.45060965217217624, 0.4500140618555245, 0.4482460945803095, 0.4477137751368869, 0.4457900053236241, 0.44535919004767704, 0.4449052381855137, 0.44424953417671637, 0.4437418660186168, 0.4423641829363119, 0.4406061862510523, 0.43802607992894804, 0.4370207399658211, 0.43625383808168944, 0.4346506190958374, 0.43419563629907876, 0.4336231281099486, 0.4332326672872424, 0.43206047842638406, 0.43055619306603593, 0.43022473363300423, 0.4280274543655603]}, \"validation_1\": {\"logloss\": [0.6835578571987152, 0.6759562829852104, 0.6701780392289162, 0.6640563687825203, 0.6585792363786698, 0.6529767054855824, 0.648743261680603, 0.6449482789206504, 0.6406966159546376, 0.6372243389821053, 0.6327866366004944, 0.6299974035120011, 0.6275577704584598, 0.6246499886131287, 0.6218642909955978, 0.6155681453329325, 0.6127990597039461, 0.6103414095044136, 0.6068405737864971, 0.6048335062366724, 0.6006529718405008, 0.5955721540510654, 0.5938015264463424, 0.5915124006813764, 0.5894097903871536, 0.5879352029418945, 0.5864274205195904, 0.5836849787038565, 0.5803599750268459, 0.5789405557751656, 0.5748398077648879, 0.5735161541885138, 0.571699073600173, 0.5707393179535866, 0.5695497568559647, 0.5669845976221561, 0.565915339281559, 0.5643509370782971, 0.5635733385783434, 0.5614717368301749, 0.5602943696412445, 0.5592475451257825, 0.5559591242131591, 0.555191710870862, 0.5542280192166567, 0.5532962749266624, 0.5523259150284529, 0.5503830621728301, 0.5493345926240086, 0.548531819370389, 0.5477905662193895, 0.5465836727353931, 0.5449171996828913, 0.542291606746614, 0.5413926725825667, 0.5408668558868766, 0.5404293634720146, 0.5398501861672104, 0.5393086569009722, 0.5382459554770589, 0.5377260306176543, 0.5371511117753387, 0.5355864357878268, 0.5351169455479086, 0.5346058686438203, 0.5336528866690398, 0.5326771751616896, 0.5324262989784777, 0.531969652210176, 0.5306301899555326, 0.5300790562875569, 0.5293883221428096, 0.5273452389703691, 0.5258116947263479, 0.525612126737088, 0.5251467535082995, 0.5247560448466241, 0.5241510048042238, 0.5236289651811122, 0.5232245138452947, 0.5222597431796789, 0.5220572115926444, 0.5209947739382088, 0.5207140549477934, 0.5202850770907849, 0.5199911339218914, 0.5193601267036796, 0.5186273179772496, 0.5175833776307106, 0.5160003028917313, 0.5154707277638465, 0.5151524527806789, 0.5144128310919553, 0.5140735998871923, 0.5137986757423729, 0.5133088807899505, 0.5127023216402531, 0.5118274573971331, 0.5116524585153163, 0.5103215128730982]}}, \"_estimator_type\": \"classifier\"}"},"feature_names":["loan_amnt","term","grade","home_ownership","annual_inc","verification_status","dti","open_acc","revol_bal","revol_util","initial_list_status","application_type","mort_acc","pub_rec_bankruptcies","time_paid_back","cr_line"],"feature_types":["float","int","int","int","float","int","float","float","float","float","int","int","float","float","float","float"],"gradient_booster":{"model":{"gbtree_model_param":{"num_parallel_tree":"1","num_trees":"100","size_leaf_vector":"0"},"tree_info":[0,0,0,0,0,0,0,0,0,0,0,0,0,0,0,0,0,0,0,0,0,0,0,0,0,0,0,0,0,0,0,0,0,0,0,0,0,0,0,0,0,0,0,0,0,0,0,0,0,0,0,0,0,0,0,0,0,0,0,0,0,0,0,0,0,0,0,0,0,0,0,0,0,0,0,0,0,0,0,0,0,0,0,0,0,0,0,0,0,0,0,0,0,0,0,0,0,0,0,0],"trees":[{"base_weights":[-0E0,-2.8580758E-1,8.412804E-1,9.603011E-1,-4.295458E-1,6.217171E-1,1.5925442E0],"categories":[],"categories_nodes":[],"categories_segments":[],"categories_sizes":[],"default_left":[1,1,1,0,0,0,0],"id":0,"left_children":[1,3,5,-1,-1,-1,-1],"loss_changes":[6.4131304E3,3.566293E3,1.1146489E3,0E0,0E0,0E0,0E0],"parents":[2147483647,0,0,1,1,2,2],"right_children":[2,4,6,-1,-1,-1,-1],"split_conditions":[1.7018784E1,1.5E0,3.4954094E1,9.603011E-2,-4.295458E-2,6.217171E-2,1.5925442E-1],"split_indices":[14,2,14,0,0,0,0],"split_type":[0,0,0,0,0,0,0],"sum_hessian":[2.667E4,1.99075E4,6.7625E3,2.05825E3,1.784925E4,5.2345E3,1.528E3],"tree_param":{"num_deleted":"0","num_feature":"16","num_nodes":"7","size_leaf_vector":"0"}},{"base_weights":[3.479476E-5,-2.5739008E-1,7.589262E-1,1.3172476E0,-3.6438936E-1,1.1712723E0,4.141688E-1],"categories":[],"categories_nodes":[],"categories_segments":[],"categories_sizes":[],"default_left":[1,1,1,0,0,0,0],"id":1,"left_children":[1,3,5,-1,-1,-1,-1],"loss_changes":[5.2051704E3,3.35258E3,9.589192E2,0E0,0E0,0E0,0E0],"parents":[2147483647,0,0,1,1,2,2],"right_children":[2,4,6,-1,-1,-1,-1],"split_conditions":[1.7018784E1,2.037487E0,2.5E0,1.3172476E-1,-3.643894E-2,1.1712723E-1,4.141688E-2],"split_indices":[14,14,2,0,0,0,0],"split_type":[0,0,0,0,0,0,0],"sum_hessian":[2.6642328E4,1.9894531E4,6.7477974E3,1.2651304E3,1.86294E4,3.07161E3,3.6761873E3],"tree_param":{"num_deleted":"0","num_feature":"16","num_nodes":"7","size_leaf_vector":"0"}},{"base_weights":[8.874477E-5,-2.1483886E-1,7.541484E-1,-6.883693E-1,1.1213216E-1,5.4726756E-1,1.4092913E0],"categories":[],"categories_nodes":[],"categories_segments":[],"categories_sizes":[],"default_left":[1,1,1,0,0,0,0],"id":2,"left_children":[1,3,5,-1,-1,-1,-1],"loss_changes":[4.3096963E3,3.2040845E3,7.986565E2,0E0,0E0,0E0,0E0],"parents":[2147483647,0,0,1,1,2,2],"right_children":[2,4,6,-1,-1,-1,-1],"split_conditions":[1.7938301E1,5E-1,3.5969524E1,-6.883693E-2,1.1213216E-2,5.4726757E-2,1.4092913E-1],"split_indices":[14,10,14,0,0,0,0],"split_type":[0,0,0,0,0,0,0],"sum_hessian":[2.658986E4,2.0692613E4,5.897245E3,8.451607E3,1.2241007E4,4.4833345E3,1.413911E3],"tree_param":{"num_deleted":"0","num_feature":"16","num_nodes":"7","size_leaf_vector":"0"}},{"base_weights":[1.4814718E-4,1.0594233E0,-1.4003505E-1,1.3437768E0,7.7278626E-1,-3.2311553E-1,5.4800296E-1],"categories":[],"categories_nodes":[],"categories_segments":[],"categories_sizes":[],"default_left":[1,1,1,0,0,0,0],"id":3,"left_children":[1,3,5,-1,-1,-1,-1],"loss_changes":[3.9377473E3,2.5156812E2,2.9501716E3,0E0,0E0,0E0,0E0],"parents":[2147483647,0,0,1,1,2,2],"right_children":[2,4,6,-1,-1,-1,-1],"split_conditions":[1.5E0,3.3303425E1,1.7938301E1,1.3437769E-1,7.727863E-2,-3.2311555E-2,5.4800298E-2],"split_indices":[2,9,14,0,0,0,0],"split_type":[0,0,0,0,0,0,0],"sum_hessian":[2.6516143E4,3.0982305E3,2.3417912E4,1.553459E3,1.5447715E3,1.8496656E4,4.9212563E3],"tree_param":{"num_deleted":"0","num_feature":"16","num_nodes":"7","size_leaf_vector":"0"}},{"base_weights":[2.1767658E-4,4.35815E-1,-2.803411E-1,9.6334565E-1,2.134494E-1,1.0872251E0,-3.5274848E-1],"categories":[],"categories_nodes":[],"categories_segments":[],"categories_sizes":[],"default_left":[1,1,1,0,0,0,0],"id":4,"left_children":[1,3,5,-1,-1,-1,-1],"loss_changes":[3.2292827E3,1.2141012E3,1.5918802E3,0E0,0E0,0E0,0E0],"parents":[2147483647,0,0,1,1,2,2],"right_children":[2,4,6,-1,-1,-1,-1],"split_conditions":[2.5E0,1.5E0,2.037487E0,9.633457E-2,2.1344941E-2,1.0872251E-1,-3.527485E-2],"split_indices":[2,2,14,0,0,0,0],"split_type":[0,0,0,0,0,0,0],"sum_hessian":[2.6421908E4,1.0350736E4,1.6071172E4,3.0682998E3,7.282436E3,8.074154E2,1.5263757E4],"tree_param":{"num_deleted":"0","num_feature":"16","num_nodes":"7","size_leaf_vector":"0"}},{"base_weights":[2.707943E-4,-2.4741253E-1,4.6378088E-1,-5.411933E-2,-1.9257712E0,1.0181614E0,2.3481612E-1],"categories":[],"categories_nodes":[],"categories_segments":[],"categories_sizes":[],"default_left":[1,1,1,0,0,0,0],"id":5,"left_children":[1,3,5,-1,-1,-1,-1],"loss_changes":[3.0262842E3,5.5733774E3,1.1650653E3,0E0,0E0,0E0,0E0],"parents":[2147483647,0,0,1,1,2,2],"right_children":[2,4,6,-1,-1,-1,-1],"split_conditions":[1.9998953E0,1.0000057E0,2.0001016E0,-5.411933E-3,-1.9257712E-1,1.0181614E-1,2.3481613E-2],"split_indices":[12,12,12,0,0,0,0],"split_type":[0,0,0,0,0,0,0],"sum_hessian":[2.6358508E4,1.7179082E4,9.179425E3,1.5405854E4,1.773229E3,2.6820557E3,6.497369E3],"tree_param":{"num_deleted":"0","num_feature":"16","num_nodes":"7","size_leaf_vector":"0"}},{"base_weights":[1.6891697E-4,-1.9304417E-1,5.6803054E-1,8.664877E-1,-3.091091E-1,2.3965521E-1,9.3279743E-1],"categories":[],"categories_nodes":[],"categories_segments":[],"categories_sizes":[],"default_left":[1,1,1,0,0,0,0],"id":6,"left_children":[1,3,5,-1,-1,-1,-1],"loss_changes":[2.8869167E3,2.4145352E3,7.998877E2,0E0,0E0,0E0,0E0],"parents":[2147483647,0,0,1,1,2,2],"right_children":[2,4,6,-1,-1,-1,-1],"split_conditions":[1.6952442E1,3.022948E0,5E-1,8.664877E-2,-3.091091E-2,2.396552E-2,9.327974E-2],"split_indices":[14,14,10,0,0,0,0],"split_type":[0,0,0,0,0,0,0],"sum_hessian":[2.631008E4,1.9631266E4,6.678815E3,1.9375272E3,1.7693738E4,3.515606E3,3.1632087E3],"tree_param":{"num_deleted":"0","num_feature":"16","num_nodes":"7","size_leaf_vector":"0"}},{"base_weights":[2.4109294E-4,-1.6183026E-1,6.1978805E-1,-6.8130456E-2,-1.9481648E0,1.0831864E0,3.7654364E-1],"categories":[],"categories_nodes":[],"categories_segments":[],"categories_sizes":[],"default_left":[1,1,1,0,0,0,0],"id":7,"left_children":[1,3,5,-1,-1,-1,-1],"loss_changes":[2.6314045E3,3.4767344E3,6.1210596E2,0E0,0E0,0E0,0E0],"parents":[2147483647,0,0,1,1,2,2],"right_children":[2,4,6,-1,-1,-1,-1],"split_conditions":[2.9998846E0,2.0001016E0,3.0001557E0,-6.8130456E-3,-1.9481649E-1,1.0831864E-1,3.7654366E-2],"split_indices":[12,12,12,0,0,0,0],"split_type":[0,0,0,0,0,0,0],"sum_hessian":[2.6204385E4,2.0771398E4,5.432987E3,1.973715E4,1.0342478E3,1.8689838E3,3.5640032E3],"tree_param":{"num_deleted":"0","num_feature":"16","num_nodes":"7","size_leaf_vector":"0"}},{"base_weights":[1.9594762E-4,3.8497716E-1,-2.4654734E-1,8.474052E-1,1.5886186E-1,-3.1507245E-1,1.046049E0],"categories":[],"categories_nodes":[],"categories_segments":[],"categories_sizes":[],"default_left":[1,1,1,0,0,0,0],"id":8,"left_children":[1,3,5,-1,-1,-1,-1],"loss_changes":[2.484358E3,1.0688813E3,1.4125139E3,0E0,0E0,0E0,0E0],"parents":[2147483647,0,0,1,1,2,2],"right_children":[2,4,6,-1,-1,-1,-1],"split_conditions":[2.5E0,3.3300774E1,3.5969524E1,8.474052E-2,1.5886186E-2,-3.1507246E-2,1.046049E-1],"split_indices":[2,9,14,0,0,0,0],"split_type":[0,0,0,0,0,0,0],"sum_hessian":[2.616506E4,1.0222746E4,1.5942315E4,3.3562131E3,6.866533E3,1.5140424E4,8.018913E2],"tree_param":{"num_deleted":"0","num_feature":"16","num_nodes":"7","size_leaf_vector":"0"}},{"base_weights":[2.5122575E-4,-3.3023486E-1,2.581896E-1,-4.7550207E-1,9.785957E-1,1.2102011E-1,9.211479E-1],"categories":[],"categories_nodes":[],"categories_segments":[],"categories_sizes":[],"default_left":[1,1,1,0,0,0,0],"id":9,"left_children":[1,3,5,-1,-1,-1,-1],"loss_changes":[2.2235198E3,2.1744087E3,1.332115E3,0E0,0E0,0E0,0E0],"parents":[2147483647,0,0,1,1,2,2],"right_children":[2,4,6,-1,-1,-1,-1],"split_conditions":[5E-1,3.196317E1,1.8002884E1,-4.755021E-2,9.785957E-2,1.2102011E-2,9.211479E-2],"split_indices":[10,14,14,0,0,0,0],"split_type":[0,0,0,0,0,0,0],"sum_hessian":[2.6081861E4,1.1432973E4,1.464889E4,1.0291369E4,1.1416034E3,1.2138545E4,2.5103447E3],"tree_param":{"num_deleted":"0","num_feature":"16","num_nodes":"7","size_leaf_vector":"0"}},{"base_weights":[3.503415E-4,-2.1022242E-1,3.9665824E-1,-3.7868883E-2,-1.7361125E0,9.1692275E-1,1.8148568E-1],"categories":[],"categories_nodes":[],"categories_segments":[],"categories_sizes":[],"default_left":[1,1,1,0,0,0,0],"id":10,"left_children":[1,3,5,-1,-1,-1,-1],"loss_changes":[2.1673103E3,4.460183E3,1.0086129E3,0E0,0E0,0E0,0E0],"parents":[2147483647,0,0,1,1,2,2],"right_children":[2,4,6,-1,-1,-1,-1],"split_conditions":[1.9998953E0,1.0000057E0,2.0001016E0,-3.7868884E-3,-1.7361125E-1,9.169228E-2,1.814857E-2],"split_indices":[12,12,12,0,0,0,0],"split_type":[0,0,0,0,0,0,0],"sum_hessian":[2.5968852E4,1.69586E4,9.01025E3,1.5238405E4,1.7201956E3,2.635245E3,6.3750054E3],"tree_param":{"num_deleted":"0","num_feature":"16","num_nodes":"7","size_leaf_vector":"0"}},{"base_weights":[1.6656755E-4,7.929059E-1,-1.0113692E-1,8.720327E-1,2.6107296E-2,-1.9860747E-1,7.171691E-1],"categories":[],"categories_nodes":[],"categories_segments":[],"categories_sizes":[],"default_left":[1,1,1,0,0,0,0],"id":11,"left_children":[1,3,5,-1,-1,-1,-1],"loss_changes":[2.078458E3,1.7791052E2,1.8305498E3,0E0,0E0,0E0,0E0],"parents":[2147483647,0,0,1,1,2,2],"right_children":[2,4,6,-1,-1,-1,-1],"split_conditions":[1.5E0,5.755463E-5,9.999465E-1,8.720327E-2,2.6107298E-3,-1.9860748E-2,7.171691E-2],"split_indices":[2,13,13,0,0,0,0],"split_type":[0,0,0,0,0,0,0],"sum_hessian":[2.5879324E4,2.931598E3,2.2947727E4,2.6572556E3,2.7434235E2,2.0505965E4,2.4417615E3],"tree_param":{"num_deleted":"0","num_feature":"16","num_nodes":"7","size_leaf_vector":"0"}},{"base_weights":[2.4292104E-4,-9.670226E-2,7.5433236E-1,-4.813606E-2,-1.989354E0,1.1471331E0,5.012335E-1],"categories":[],"categories_nodes":[],"categories_segments":[],"categories_sizes":[],"default_left":[1,1,1,0,0,0,0],"id":12,"left_children":[1,3,5,-1,-1,-1,-1],"loss_changes":[1.8866832E3,2.1018928E3,2.9169983E2,0E0,0E0,0E0,0E0],"parents":[2147483647,0,0,1,1,2,2],"right_children":[2,4,6,-1,-1,-1,-1],"split_conditions":[3.9994226E0,3.0001557E0,4.0005474E0,-4.813606E-3,-1.989354E-1,1.1471331E-1,5.0123353E-2],"split_indices":[12,12,12,0,0,0,0],"split_type":[0,0,0,0,0,0,0],"sum_hessian":[2.5805736E4,2.2866861E4,2.9388752E3,2.229577E4,5.7109296E2,1.1502281E3,1.7886471E3],"tree_param":{"num_deleted":"0","num_feature":"16","num_nodes":"7","size_leaf_vector":"0"}},{"base_weights":[2.3637163E-4,-1.5227263E-1,4.5808572E-1,1.0377136E0,-2.3300593E-1,3.0116925E-1,1.0487483E0],"categories":[],"categories_nodes":[],"categories_segments":[],"categories_sizes":[],"default_left":[1,1,1,0,0,0,0],"id":13,"left_children":[1,3,5,-1,-1,-1,-1],"loss_changes":[1.7996937E3,1.8576738E3,5.965807E2,0E0,0E0,0E0,0E0],"parents":[2147483647,0,0,1,1,2,2],"right_children":[2,4,6,-1,-1,-1,-1],"split_conditions":[1.6952442E1,2.037487E0,3.4954094E1,1.03771366E-1,-2.3300594E-2,3.0116925E-2,1.0487483E-1],"split_indices":[14,14,14,0,0,0,0],"split_type":[0,0,0,0,0,0,0],"sum_hessian":[2.5771926E4,1.9332848E4,6.439078E3,1.2275309E3,1.8105316E4,5.088712E3,1.3503665E3],"tree_param":{"num_deleted":"0","num_feature":"16","num_nodes":"7","size_leaf_vector":"0"}},{"base_weights":[3.5826676E-4,-2.9521188E-1,2.3012057E-1,-4.098167E-1,8.609548E-1,5.2371055E-1,1.5524013E-3],"categories":[],"categories_nodes":[],"categories_segments":[],"categories_sizes":[],"default_left":[1,1,1,0,0,0,0],"id":14,"left_children":[1,3,5,-1,-1,-1,-1],"loss_changes":[1.7413695E3,1.4863555E3,9.681318E2,0E0,0E0,0E0,0E0],"parents":[2147483647,0,0,1,1,2,2],"right_children":[2,4,6,-1,-1,-1,-1],"split_conditions":[5E-1,3.294944E1,2.5E0,-4.0981673E-2,8.609548E-2,5.2371055E-2,1.5524014E-4],"split_indices":[10,14,2,0,0,0,0],"split_type":[0,0,0,0,0,0,0],"sum_hessian":[2.5639982E4,1.121392E4,1.44260625E4,1.0203178E4,1.0107428E3,6.3142627E3,8.1118E3],"tree_param":{"num_deleted":"0","num_feature":"16","num_nodes":"7","size_leaf_vector":"0"}},{"base_weights":[3.8946536E-4,-2.7848086E-1,2.3847698E-1,1.733133E-1,-1.8311371E0,8.7498754E-1,3.682887E-2],"categories":[],"categories_nodes":[],"categories_segments":[],"categories_sizes":[],"default_left":[1,1,1,0,0,0,0],"id":15,"left_children":[1,3,5,-1,-1,-1,-1],"loss_changes":[1.6950608E3,8.248225E3,1.7676055E3,0E0,0E0,0E0,0E0],"parents":[2147483647,0,0,1,1,2,2],"right_children":[2,4,6,-1,-1,-1,-1],"split_conditions":[9.999465E-1,5.663394E-5,1.0000057E0,1.733133E-2,-1.8311371E-1,8.7498754E-2,3.6828872E-3],"split_indices":[12,12,12,0,0,0,0],"split_type":[0,0,0,0,0,0,0],"sum_hessian":[2.5527736E4,1.1756849E4,1.3770889E4,9.107596E3,2.6492532E3,3.312261E3,1.0458628E4],"tree_param":{"num_deleted":"0","num_feature":"16","num_nodes":"7","size_leaf_vector":"0"}},{"base_weights":[1.2914698E-4,-1.2996235E-1,5.012415E-1,-4.4418782E-2,-1.7652798E0,9.462723E-1,2.6717907E-1],"categories":[],"categories_nodes":[],"categories_segments":[],"categories_sizes":[],"default_left":[1,1,1,0,0,0,0],"id":16,"left_children":[1,3,5,-1,-1,-1,-1],"loss_changes":[1.6589468E3,2.826124E3,5.4607007E2,0E0,0E0,0E0,0E0],"parents":[2147483647,0,0,1,1,2,2],"right_children":[2,4,6,-1,-1,-1,-1],"split_conditions":[2.9998846E0,2.0001016E0,3.0001557E0,-4.4418783E-3,-1.7652798E-1,9.462723E-2,2.6717907E-2],"split_indices":[12,12,12,0,0,0,0],"split_type":[0,0,0,0,0,0,0],"sum_hessian":[2.5445691E4,2.0201906E4,5.243784E3,1.919865E4,1.0032557E3,1.8063215E3,3.437463E3],"tree_param":{"num_deleted":"0","num_feature":"16","num_nodes":"7","size_leaf_vector":"0"}},{"base_weights":[5.3244177E-5,4.6615875E-1,-1.3383941E-1,7.149691E-1,1.7675856E-1,-3.1059757E-1,2.6690626E-1],"categories":[],"categories_nodes":[],"categories_segments":[],"categories_sizes":[],"default_left":[1,1,1,0,0,0,0],"id":17,"left_children":[1,3,5,-1,-1,-1,-1],"loss_changes":[1.5839113E3,4.0768933E2,1.3966844E3,0E0,0E0,0E0,0E0],"parents":[2147483647,0,0,1,1,2,2],"right_children":[2,4,6,-1,-1,-1,-1],"split_conditions":[3.2100616E1,2.5E0,1.5933472E1,7.149691E-2,1.7675856E-2,-3.1059757E-2,2.6690627E-2],"split_indices":[9,2,14,0,0,0,0],"split_type":[0,0,0,0,0,0,0],"sum_hessian":[2.5377898E4,5.662654E3,1.9715244E4,3.0440645E3,2.6185896E3,1.3681103E4,6.034142E3],"tree_param":{"num_deleted":"0","num_feature":"16","num_nodes":"7","size_leaf_vector":"0"}},{"base_weights":[8.885967E-5,-1.7400733E-1,3.306991E-1,-1.8366305E-2,-1.6018645E0,8.278005E-1,1.2337973E-1],"categories":[],"categories_nodes":[],"categories_segments":[],"categories_sizes":[],"default_left":[1,1,1,0,0,0,0],"id":18,"left_children":[1,3,5,-1,-1,-1,-1],"loss_changes":[1.4545055E3,3.6786853E3,8.98247E2,0E0,0E0,0E0,0E0],"parents":[2147483647,0,0,1,1,2,2],"right_children":[2,4,6,-1,-1,-1,-1],"split_conditions":[1.9998953E0,1.0000057E0,2.0001016E0,-1.8366305E-3,-1.6018645E-1,8.2780056E-2,1.2337973E-2],"split_indices":[12,12,12,0,0,0,0],"split_type":[0,0,0,0,0,0,0],"sum_hessian":[2.526827E4,1.6552404E4,8.715864E3,1.4926393E4,1.626012E3,2.5643008E3,6.1515635E3],"tree_param":{"num_deleted":"0","num_feature":"16","num_nodes":"7","size_leaf_vector":"0"}},{"base_weights":[-1.0947796E-4,3.1828493E-1,-1.688253E-1,8.467455E-1,2.271222E-1,-5.550078E-2,-6.441284E-1],"categories":[],"categories_nodes":[],"categories_segments":[],"categories_sizes":[],"default_left":[1,1,1,0,0,0,0],"id":19,"left_children":[1,3,5,-1,-1,-1,-1],"loss_changes":[1.3514678E3,4.1960815E2,8.857265E2,0E0,0E0,0E0,0E0],"parents":[2147483647,0,0,1,1,2,2],"right_children":[2,4,6,-1,-1,-1,-1],"split_conditions":[1.5050186E1,1.5E0,4.663401E-5,8.467455E-2,2.2712221E-2,-5.550078E-3,-6.441284E-2],"split_indices":[6,2,13,0,0,0,0],"split_type":[0,0,0,0,0,0,0],"sum_hessian":[2.5156484E4,8.712909E3,1.6443574E4,1.2806764E3,7.432233E3,1.3278706E4,3.1648691E3],"tree_param":{"num_deleted":"0","num_feature":"16","num_nodes":"7","size_leaf_vector":"0"}},{"base_weights":[-6.2867846E-5,-7.7719234E-2,6.827464E-1,1.02100864E-1,-1.6975725E0,7.669333E-1,-2.7786547E-1],"categories":[],"categories_nodes":[],"categories_segments":[],"categories_sizes":[],"default_left":[1,1,1,0,0,0,0],"id":20,"left_children":[1,3,5,-1,-1,-1,-1],"loss_changes":[1.3312861E3,6.566593E3,2.0755408E2,0E0,0E0,0E0,0E0],"parents":[2147483647,0,0,1,1,2,2],"right_children":[2,4,6,-1,-1,-1,-1],"split_conditions":[9.999465E-1,4.663401E-5,1.0011711E0,1.0210087E-2,-1.6975725E-1,7.669333E-2,-2.7786547E-2],"split_indices":[13,13,13,0,0,0,0],"split_type":[0,0,0,0,0,0,0],"sum_hessian":[2.5105006E4,2.2542158E4,2.5628486E3,2.0290629E4,2.251528E3,2.356527E3,2.0632161E2],"tree_param":{"num_deleted":"0","num_feature":"16","num_nodes":"7","size_leaf_vector":"0"}},{"base_weights":[-3.312186E-4,-2.4139003E-1,2.0750158E-1,1.5723665E-1,-1.6644878E0,7.812181E-1,2.2268709E-2],"categories":[],"categories_nodes":[],"categories_segments":[],"categories_sizes":[],"default_left":[1,1,1,0,0,0,0],"id":21,"left_children":[1,3,5,-1,-1,-1,-1],"loss_changes":[1.2525369E3,6.5666577E3,1.4267407E3,0E0,0E0,0E0,0E0],"parents":[2147483647,0,0,1,1,2,2],"right_children":[2,4,6,-1,-1,-1,-1],"split_conditions":[9.999465E-1,5.663394E-5,1.0000057E0,1.5723666E-2,-1.6644879E-1,7.812181E-2,2.226871E-3],"split_indices":[12,12,12,0,0,0,0],"split_type":[0,0,0,0,0,0,0],"sum_hessian":[2.4998771E4,1.1574132E4,1.3424639E4,9.042194E3,2.5319373E3,3.275697E3,1.0148941E4],"tree_param":{"num_deleted":"0","num_feature":"16","num_nodes":"7","size_leaf_vector":"0"}},{"base_weights":[-6.116489E-4,-8.004867E-2,6.17898E-1,-3.494604E-2,-1.8166537E0,9.8375916E-1,3.850996E-1],"categories":[],"categories_nodes":[],"categories_segments":[],"categories_sizes":[],"default_left":[1,1,1,0,0,0,0],"id":22,"left_children":[1,3,5,-1,-1,-1,-1],"loss_changes":[1.222152E3,1.7265013E3,2.4075208E2,0E0,0E0,0E0,0E0],"parents":[2147483647,0,0,1,1,2,2],"right_children":[2,4,6,-1,-1,-1,-1],"split_conditions":[3.9994226E0,3.0001557E0,4.0005474E0,-3.494604E-3,-1.8166538E-1,9.837592E-2,3.850996E-2],"split_indices":[12,12,12,0,0,0,0],"split_type":[0,0,0,0,0,0,0],"sum_hessian":[2.4872574E4,2.2042467E4,2.8301086E3,2.148547E4,5.569947E2,1.0992789E3,1.7308296E3],"tree_param":{"num_deleted":"0","num_feature":"16","num_nodes":"7","size_leaf_vector":"0"}},{"base_weights":[-5.593506E-4,2.714927E-1,-1.7242254E-1,6.764798E-1,1.3737808E-1,1.2292851E0,-2.1462587E-1],"categories":[],"categories_nodes":[],"categories_segments":[],"categories_sizes":[],"default_left":[1,1,1,0,0,0,0],"id":23,"left_children":[1,3,5,-1,-1,-1,-1],"loss_changes":[1.1607147E3,5.219315E2,9.0027246E2,0E0,0E0,0E0,0E0],"parents":[2147483647,0,0,1,1,2,2],"right_children":[2,4,6,-1,-1,-1,-1],"split_conditions":[2.5E0,2.7901152E1,1.0197363E0,6.7647986E-2,1.3737808E-2,1.22928515E-1,-2.1462588E-2],"split_indices":[2,9,14,0,0,0,0],"split_type":[0,0,0,0,0,0,0],"sum_hessian":[2.4823078E4,9.610109E3,1.521297E4,2.3897412E3,7.2203677E3,4.4382986E2,1.476914E4],"tree_param":{"num_deleted":"0","num_feature":"16","num_nodes":"7","size_leaf_vector":"0"}},{"base_weights":[-4.288176E-4,-1.08357556E-1,4.1703907E-1,-3.0667968E-2,-1.6313245E0,8.355201E-1,1.9627513E-1],"categories":[],"categories_nodes":[],"categories_segments":[],"categories_sizes":[],"default_left":[1,1,1,0,0,0,0],"id":24,"left_children":[1,3,5,-1,-1,-1,-1],"loss_changes":[1.1147096E3,2.3258474E3,4.6935724E2,0E0,0E0,0E0,0E0],"parents":[2147483647,0,0,1,1,2,2],"right_children":[2,4,6,-1,-1,-1,-1],"split_conditions":[2.9998846E0,2.0001016E0,3.0001557E0,-3.0667968E-3,-1.6313246E-1,8.355201E-2,1.9627513E-2],"split_indices":[12,12,12,0,0,0,0],"split_type":[0,0,0,0,0,0,0],"sum_hessian":[2.47381E4,1.9656904E4,5.0811953E3,1.8703807E4,9.530984E2,1.7538346E3,3.3273606E3],"tree_param":{"num_deleted":"0","num_feature":"16","num_nodes":"7","size_leaf_vector":"0"}},{"base_weights":[-4.7740902E-4,-2.3796019E-1,1.8250339E-1,-3.2527733E-1,8.022824E-1,8.302694E-2,6.9738173E-1],"categories":[],"categories_nodes":[],"categories_segments":[],"categories_sizes":[],"default_left":[1,1,1,0,0,0,0],"id":25,"left_children":[1,3,5,-1,-1,-1,-1],"loss_changes":[1.0715702E3,9.750132E2,7.133069E2,0E0,0E0,0E0,0E0],"parents":[2147483647,0,0,1,1,2,2],"right_children":[2,4,6,-1,-1,-1,-1],"split_conditions":[5E-1,3.4954094E1,1.8002884E1,-3.2527734E-2,8.022824E-2,8.302694E-3,6.973817E-2],"split_indices":[10,14,14,0,0,0,0],"split_type":[0,0,0,0,0,0,0],"sum_hessian":[2.4657428E4,1.0730491E4,1.3926937E4,9.900166E3,8.303249E2,1.1672857E4,2.2540789E3],"tree_param":{"num_deleted":"0","num_feature":"16","num_nodes":"7","size_leaf_vector":"0"}},{"base_weights":[-3.2804802E-4,3.4650648E-1,-1.2076823E-1,7.704381E-1,2.3103516E-1,3.599006E-1,-2.2794907E-1],"categories":[],"categories_nodes":[],"categories_segments":[],"categories_sizes":[],"default_left":[1,1,1,0,0,0,0],"id":26,"left_children":[1,3,5,-1,-1,-1,-1],"loss_changes":[1.0249048E3,3.0939197E2,9.382982E2,0E0,0E0,0E0,0E0],"parents":[2147483647,0,0,1,1,2,2],"right_children":[2,4,6,-1,-1,-1,-1],"split_conditions":[3.5000137E1,1.5E0,7.000079E0,7.704381E-2,2.3103517E-2,3.599006E-2,-2.2794908E-2],"split_indices":[9,2,7,0,0,0,0],"split_type":[0,0,0,0,0,0,0],"sum_hessian":[2.4533209E4,6.3229575E3,1.8210252E4,1.3523569E3,4.9706006E3,3.31979E3,1.4890463E4],"tree_param":{"num_deleted":"0","num_feature":"16","num_nodes":"7","size_leaf_vector":"0"}},{"base_weights":[-2.3447361E-4,-1.4710824E-1,2.8075165E-1,-8.575858E-3,-1.4916936E0,7.4075645E-1,8.64224E-2],"categories":[],"categories_nodes":[],"categories_segments":[],"categories_sizes":[],"default_left":[1,1,1,0,0,0,0],"id":27,"left_children":[1,3,5,-1,-1,-1,-1],"loss_changes":[1.01009814E3,2.9940256E3,7.5100116E2,0E0,0E0,0E0,0E0],"parents":[2147483647,0,0,1,1,2,2],"right_children":[2,4,6,-1,-1,-1,-1],"split_conditions":[1.9998953E0,1.0000057E0,2.0001016E0,-8.5758575E-4,-1.4916937E-1,7.407565E-2,8.64224E-3],"split_indices":[12,12,12,0,0,0,0],"split_type":[0,0,0,0,0,0,0],"sum_hessian":[2.4473662E4,1.6072769E4,8.400893E3,1.4572385E4,1.5003837E3,2.4941277E3,5.9067646E3],"tree_param":{"num_deleted":"0","num_feature":"16","num_nodes":"7","size_leaf_vector":"0"}},{"base_weights":[-4.209412E-4,-6.807291E-2,5.908153E-1,8.649672E-2,-1.551198E0,8.102923E-1,2.9317588E-1],"categories":[],"categories_nodes":[],"categories_segments":[],"categories_sizes":[],"default_left":[1,1,1,0,0,0,0],"id":28,"left_children":[1,3,5,-1,-1,-1,-1],"loss_changes":[9.740925E2,5.0098135E3,1.6310779E2,0E0,0E0,0E0,0E0],"parents":[2147483647,0,0,1,1,2,2],"right_children":[2,4,6,-1,-1,-1,-1],"split_conditions":[9.999465E-1,4.663401E-5,1.2006217E4,8.649672E-3,-1.551198E-1,8.102923E-2,2.9317588E-2],"split_indices":[13,13,0,0,0,0,0],"split_type":[0,0,0,0,0,0,0],"sum_hessian":[2.4351348E4,2.1851846E4,2.4995037E3,1.9790268E4,2.0615776E3,1.437661E3,1.0618425E3],"tree_param":{"num_deleted":"0","num_feature":"16","num_nodes":"7","size_leaf_vector":"0"}},{"base_weights":[-6.9696695E-4,1.1803226E0,-3.3808846E-2,1.5466629E0,1.0344986E0,-1.7198484E-1,2.9339802E-1],"categories":[],"categories_nodes":[],"categories_segments":[],"categories_sizes":[],"default_left":[1,1,1,0,0,0,0],"id":29,"left_children":[1,3,5,-1,-1,-1,-1],"loss_changes":[9.4729004E2,3.3691772E1,1.06539E3,0E0,0E0,0E0,0E0],"parents":[2147483647,0,0,1,1,2,2],"right_children":[2,4,6,-1,-1,-1,-1],"split_conditions":[1.0197363E0,9.527917E-1,1.5933472E1,1.5466629E-1,1.0344986E-1,-1.7198484E-2,2.9339803E-2],"split_indices":[14,14,14,0,0,0,0],"split_type":[0,0,0,0,0,0,0],"sum_hessian":[2.4221768E4,6.596329E2,2.3562135E4,1.8507631E2,4.7455655E2,1.6566678E4,6.995458E3],"tree_param":{"num_deleted":"0","num_feature":"16","num_nodes":"7","size_leaf_vector":"0"}},{"base_weights":[-5.4382306E-4,-2.0947689E-1,1.8192132E-1,1.4303575E-1,-1.5434548E0,7.012702E-1,1.0125511E-2],"categories":[],"categories_nodes":[],"categories_segments":[],"categories_sizes":[],"default_left":[1,1,1,0,0,0,0],"id":30,"left_children":[1,3,5,-1,-1,-1,-1],"loss_changes":[9.198022E2,5.289442E3,1.1491184E3,0E0,0E0,0E0,0E0],"parents":[2147483647,0,0,1,1,2,2],"right_children":[2,4,6,-1,-1,-1,-1],"split_conditions":[9.999465E-1,5.663394E-5,1.0000057E0,1.4303575E-2,-1.5434548E-1,7.0127025E-2,1.0125511E-3],"split_indices":[12,12,12,0,0,0,0],"split_type":[0,0,0,0,0,0,0],"sum_hessian":[2.4125223E4,1.1246819E4,1.2878402E4,8.8967E3,2.35012E3,3.2003809E3,9.678021E3],"tree_param":{"num_deleted":"0","num_feature":"16","num_nodes":"7","size_leaf_vector":"0"}},{"base_weights":[-8.482394E-4,2.929356E-1,-1.2677158E-1,4.442661E-1,2.5821429E-2,-1.925721E-1,4.1471857E-1],"categories":[],"categories_nodes":[],"categories_segments":[],"categories_sizes":[],"default_left":[1,1,1,0,0,0,0],"id":31,"left_children":[1,3,5,-1,-1,-1,-1],"loss_changes":[8.8703314E2,2.9078485E2,5.980879E2,0E0,0E0,0E0,0E0],"parents":[2147483647,0,0,1,1,2,2],"right_children":[2,4,6,-1,-1,-1,-1],"split_conditions":[1.40216055E1,1.5003268E4,3.9994226E0,4.4426613E-2,2.5821428E-3,-1.925721E-2,4.1471858E-2],"split_indices":[6,0,12,0,0,0,0],"split_type":[0,0,0,0,0,0,0],"sum_hessian":[2.3975594E4,7.192919E3,1.6782676E4,4.591177E3,2.601742E3,1.4964831E4,1.8178445E3],"tree_param":{"num_deleted":"0","num_feature":"16","num_nodes":"7","size_leaf_vector":"0"}},{"base_weights":[-7.417008E-4,2.6880616E-1,-1.2744099E-1,6.694249E-2,5.3701687E-1,1.6381213E-1,-2.7564347E-1],"categories":[],"categories_nodes":[],"categories_segments":[],"categories_sizes":[],"default_left":[1,1,1,0,0,0,0],"id":32,"left_children":[1,3,5,-1,-1,-1,-1],"loss_changes":[8.1724414E2,4.1423474E2,7.0269275E2,0E0,0E0,0E0,0E0],"parents":[2147483647,0,0,1,1,2,2],"right_children":[2,4,6,-1,-1,-1,-1],"split_conditions":[9.6001E3,9.9979734E-1,2.5E0,6.6942493E-3,5.3701688E-2,1.6381213E-2,-2.7564347E-2],"split_indices":[0,12,2,0,0,0,0],"split_type":[0,0,0,0,0,0,0],"sum_hessian":[2.3927947E4,7.650558E3,1.6277389E4,4.3658984E3,3.28466E3,5.4893687E3,1.078802E4],"tree_param":{"num_deleted":"0","num_feature":"16","num_nodes":"7","size_leaf_vector":"0"}},{"base_weights":[-6.554995E-4,-2.0606433E-1,1.5669355E-1,-3.5652128E-1,2.8181732E-1,4.6874565E-1,3.303938E-2],"categories":[],"categories_nodes":[],"categories_segments":[],"categories_sizes":[],"default_left":[1,1,1,0,0,0,0],"id":33,"left_children":[1,3,5,-1,-1,-1,-1],"loss_changes":[7.715201E2,7.6014294E2,5.2154205E2,0E0,0E0,0E0,0E0],"parents":[2147483647,0,0,1,1,2,2],"right_children":[2,4,6,-1,-1,-1,-1],"split_conditions":[5E-1,1.5E0,9.000309E3,-3.5652127E-2,2.8181732E-2,4.6874564E-2,3.303938E-3],"split_indices":[10,5,0,0,0,0,0],"split_type":[0,0,0,0,0,0,0],"sum_hessian":[2.3868637E4,1.0353072E4,1.3515564E4,7.9130503E3,2.440022E3,3.8349478E3,9.680617E3],"tree_param":{"num_deleted":"0","num_feature":"16","num_nodes":"7","size_leaf_vector":"0"}},{"base_weights":[-5.9131614E-4,1.0863619E0,-2.9977487E-2,1.4542265E0,9.422376E-1,-1.21854305E-1,3.769784E-1],"categories":[],"categories_nodes":[],"categories_segments":[],"categories_sizes":[],"default_left":[1,1,1,0,0,0,0],"id":34,"left_children":[1,3,5,-1,-1,-1,-1],"loss_changes":[7.605558E2,3.1861206E1,8.6689746E2,0E0,0E0,0E0,0E0],"parents":[2147483647,0,0,1,1,2,2],"right_children":[2,4,6,-1,-1,-1,-1],"split_conditions":[1.0197363E0,9.527917E-1,1.895595E1,1.4542265E-1,9.422376E-2,-1.2185431E-2,3.769784E-2],"split_indices":[14,14,14,0,0,0,0],"split_type":[0,0,0,0,0,0,0],"sum_hessian":[2.3808957E4,6.257927E2,2.3183164E4,1.736011E2,4.5219162E2,1.8913775E4,4.2693877E3],"tree_param":{"num_deleted":"0","num_feature":"16","num_nodes":"7","size_leaf_vector":"0"}},{"base_weights":[-4.304383E-4,-5.9932724E-2,5.1939654E-1,7.6019324E-2,-1.4625807E0,5.9176373E-1,-2.9661214E-1],"categories":[],"categories_nodes":[],"categories_segments":[],"categories_sizes":[],"default_left":[1,1,1,0,0,0,0],"id":35,"left_children":[1,3,5,-1,-1,-1,-1],"loss_changes":[7.33631E2,4.0584924E3,1.440321E2,0E0,0E0,0E0,0E0],"parents":[2147483647,0,0,1,1,2,2],"right_children":[2,4,6,-1,-1,-1,-1],"split_conditions":[9.999465E-1,4.663401E-5,1.0011711E0,7.6019326E-3,-1.4625807E-1,5.9176374E-2,-2.9661214E-2],"split_indices":[13,13,13,0,0,0,0],"split_type":[0,0,0,0,0,0,0],"sum_hessian":[2.3716383E4,2.1281293E4,2.43509E3,1.940172E4,1.8795715E3,2.23698E3,1.9811021E2],"tree_param":{"num_deleted":"0","num_feature":"16","num_nodes":"7","size_leaf_vector":"0"}},{"base_weights":[-7.1770576E-4,3.7903765E-1,-8.08562E-2,5.0947344E-1,8.472956E-2,-1.2599032E-1,8.03612E-1],"categories":[],"categories_nodes":[],"categories_segments":[],"categories_sizes":[],"default_left":[1,1,1,0,0,0,0],"id":36,"left_children":[1,3,5,-1,-1,-1,-1],"loss_changes":[7.176398E2,1.5769757E2,7.77412E2,0E0,0E0,0E0,0E0],"parents":[2147483647,0,0,1,1,2,2],"right_children":[2,4,6,-1,-1,-1,-1],"split_conditions":[2.7901152E1,1.5002027E4,3.5969524E1,5.0947346E-2,8.472956E-3,-1.2599031E-2,8.03612E-2],"split_indices":[9,0,14,0,0,0,0],"split_type":[0,0,0,0,0,0,0],"sum_hessian":[2.357895E4,4.108084E3,1.9470865E4,2.8460144E3,1.2620693E3,1.852633E4,9.4453485E2],"tree_param":{"num_deleted":"0","num_feature":"16","num_nodes":"7","size_leaf_vector":"0"}},{"base_weights":[-5.552546E-4,-8.9397416E-2,3.4046963E-1,-1.9846784E-2,-1.5201609E0,7.360909E-1,1.3316698E-1],"categories":[],"categories_nodes":[],"categories_segments":[],"categories_sizes":[],"default_left":[1,1,1,0,0,0,0],"id":37,"left_children":[1,3,5,-1,-1,-1,-1],"loss_changes":[7.1211926E2,1.8555012E3,3.9829987E2,0E0,0E0,0E0,0E0],"parents":[2147483647,0,0,1,1,2,2],"right_children":[2,4,6,-1,-1,-1,-1],"split_conditions":[2.9998846E0,2.0001016E0,3.0001557E0,-1.9846784E-3,-1.5201609E-1,7.360909E-2,1.3316698E-2],"split_indices":[12,12,12,0,0,0,0],"split_type":[0,0,0,0,0,0,0],"sum_hessian":[2.3502309E4,1.8645588E4,4.8567207E3,1.7782193E4,8.6339374E2,1.6690038E3,3.187717E3],"tree_param":{"num_deleted":"0","num_feature":"16","num_nodes":"7","size_leaf_vector":"0"}},{"base_weights":[-6.1150733E-4,2.0764394E-1,-1.407873E-1,3.4143904E-1,-1.8045504E-2,-2.4632686E-1,1.7058228E-1],"categories":[],"categories_nodes":[],"categories_segments":[],"categories_sizes":[],"default_left":[1,1,1,0,0,0,0],"id":38,"left_children":[1,3,5,-1,-1,-1,-1],"loss_changes":[6.8370496E2,2.8452216E2,4.600548E2,0E0,0E0,0E0,0E0],"parents":[2147483647,0,0,1,1,2,2],"right_children":[2,4,6,-1,-1,-1,-1],"split_conditions":[1.6300224E1,1.5000102E4,1.5E0,3.4143906E-2,-1.8045504E-3,-2.4632687E-2,1.705823E-2],"split_indices":[6,0,5,0,0,0,0],"split_type":[0,0,0,0,0,0,0],"sum_hessian":[2.3418666E4,9.421264E3,1.3997402E4,5.91448E3,3.506784E3,1.0454149E4,3.543253E3],"tree_param":{"num_deleted":"0","num_feature":"16","num_nodes":"7","size_leaf_vector":"0"}},{"base_weights":[-5.458971E-4,-1.23406775E-1,2.3443298E-1,-5.5316277E-4,-1.4109713E0,6.550264E-1,5.5107042E-2],"categories":[],"categories_nodes":[],"categories_segments":[],"categories_sizes":[],"default_left":[1,1,1,0,0,0,0],"id":39,"left_children":[1,3,5,-1,-1,-1,-1],"loss_changes":[6.750527E2,2.4288022E3,6.054802E2,0E0,0E0,0E0,0E0],"parents":[2147483647,0,0,1,1,2,2],"right_children":[2,4,6,-1,-1,-1,-1],"split_conditions":[1.9998953E0,1.0000057E0,2.0001016E0,-5.531628E-5,-1.4109713E-1,6.5502636E-2,5.510704E-3],"split_indices":[12,12,12,0,0,0,0],"split_type":[0,0,0,0,0,0,0],"sum_hessian":[2.3380729E4,1.5353489E4,8.027239E3,1.4017046E4,1.336443E3,2.398683E3,5.6285557E3],"tree_param":{"num_deleted":"0","num_feature":"16","num_nodes":"7","size_leaf_vector":"0"}},{"base_weights":[-7.0719834E-4,-6.102821E-2,4.6754956E-1,-1.9118356E-2,-1.6717472E0,8.1190556E-1,2.5386387E-1],"categories":[],"categories_nodes":[],"categories_segments":[],"categories_sizes":[],"default_left":[1,1,1,0,0,0,0],"id":40,"left_children":[1,3,5,-1,-1,-1,-1],"loss_changes":[6.5701807E2,1.3909949E3,1.9512323E2,0E0,0E0,0E0,0E0],"parents":[2147483647,0,0,1,1,2,2],"right_children":[2,4,6,-1,-1,-1,-1],"split_conditions":[3.9994226E0,3.0001557E0,4.0005474E0,-1.9118356E-3,-1.6717473E-1,8.119056E-2,2.5386387E-2],"split_indices":[12,12,12,0,0,0,0],"split_type":[0,0,0,0,0,0,0],"sum_hessian":[2.3258791E4,2.0605281E4,2.6535103E3,2.0083727E4,5.215535E2,1.01501184E3,1.6384984E3],"tree_param":{"num_deleted":"0","num_feature":"16","num_nodes":"7","size_leaf_vector":"0"}},{"base_weights":[-6.7496457E-4,4.8996714E-1,-5.758302E-2,7.1406E-1,3.3551034E-1,9.898829E-1,-8.5178345E-2],"categories":[],"categories_nodes":[],"categories_segments":[],"categories_sizes":[],"default_left":[1,1,1,0,0,0,0],"id":41,"left_children":[1,3,5,-1,-1,-1,-1],"loss_changes":[6.4795294E2,8.324182E1,6.0114874E2,0E0,0E0,0E0,0E0],"parents":[2147483647,0,0,1,1,2,2],"right_children":[2,4,6,-1,-1,-1,-1],"split_conditions":[1.5E0,1.0012924E1,1.0197363E0,7.1406E-2,3.3551034E-2,9.898829E-2,-8.517834E-3],"split_indices":[2,7,14,0,0,0,0],"split_type":[0,0,0,0,0,0,0],"sum_hessian":[2.3204236E4,2.4108748E3,2.0793361E4,9.822131E2,1.4286616E3,5.328415E2,2.026052E4],"tree_param":{"num_deleted":"0","num_feature":"16","num_nodes":"7","size_leaf_vector":"0"}},{"base_weights":[-5.038611E-4,-1.7590319E-1,1.5488426E-1,1.3569775E-1,-1.4513578E0,6.247593E-1,-4.7289752E-3],"categories":[],"categories_nodes":[],"categories_segments":[],"categories_sizes":[],"default_left":[1,1,1,0,0,0,0],"id":42,"left_children":[1,3,5,-1,-1,-1,-1],"loss_changes":[6.3045105E2,4.3187495E3,9.1989294E2,0E0,0E0,0E0,0E0],"parents":[2147483647,0,0,1,1,2,2],"right_children":[2,4,6,-1,-1,-1,-1],"split_conditions":[9.999465E-1,5.663394E-5,1.0000057E0,1.3569775E-2,-1.4513579E-1,6.247593E-2,-4.7289752E-4],"split_indices":[12,12,12,0,0,0,0],"split_type":[0,0,0,0,0,0,0],"sum_hessian":[2.31296E4,1.0865118E4,1.2264482E4,8.73259E3,2.1325283E3,3.1090469E3,9.155436E3],"tree_param":{"num_deleted":"0","num_feature":"16","num_nodes":"7","size_leaf_vector":"0"}},{"base_weights":[-8.261496E-4,-4.1731548E-2,6.352135E-1,-1.8248335E-2,-2.143199E0,1.0075432E0,3.7138054E-1],"categories":[],"categories_nodes":[],"categories_segments":[],"categories_sizes":[],"default_left":[1,1,1,0,0,0,0],"id":43,"left_children":[1,3,5,-1,-1,-1,-1],"loss_changes":[5.9772955E2,1.0652084E3,1.3599744E2,0E0,0E0,0E0,0E0],"parents":[2147483647,0,0,1,1,2,2],"right_children":[2,4,6,-1,-1,-1,-1],"split_conditions":[4.9997663E0,4.0005474E0,5.000828E0,-1.8248335E-3,-2.143199E-1,1.0075432E-1,3.7138056E-2],"split_indices":[12,12,12,0,0,0,0],"split_type":[0,0,0,0,0,0,0],"sum_hessian":[2.2972156E4,2.1584908E4,1.3872482E3,2.1347367E4,2.3754115E2,5.741583E2,8.130899E2],"tree_param":{"num_deleted":"0","num_feature":"16","num_nodes":"7","size_leaf_vector":"0"}},{"base_weights":[-7.120704E-4,4.3281302E-1,-5.787616E-2,1.8942106E-1,9.006658E-1,-1.6357415E0,-2.5105529E-2],"categories":[],"categories_nodes":[],"categories_segments":[],"categories_sizes":[],"default_left":[1,1,1,0,0,0,0],"id":44,"left_children":[1,3,5,-1,-1,-1,-1],"loss_changes":[5.687714E2,3.0429102E2,1.0484446E3,0E0,0E0,0E0,0E0],"parents":[2147483647,0,0,1,1,2,2],"right_children":[2,4,6,-1,-1,-1,-1],"split_conditions":[6.000069E0,5.9996266E0,6.999894E0,1.8942107E-2,9.006658E-2,-1.6357414E-1,-2.510553E-3],"split_indices":[7,7,7,0,0,0,0],"split_type":[0,0,0,0,0,0,0],"sum_hessian":[2.2948916E4,2.672727E3,2.027619E4,1.7590289E3,9.136981E2,4.115521E2,1.9864637E4],"tree_param":{"num_deleted":"0","num_feature":"16","num_nodes":"7","size_leaf_vector":"0"}},{"base_weights":[-6.856399E-4,-1.7794415E-1,1.3379799E-1,-2.4109162E-1,6.357387E-1,2.2184522E-1,-2.2617437E-1],"categories":[],"categories_nodes":[],"categories_segments":[],"categories_sizes":[],"default_left":[1,1,1,0,0,0,0],"id":45,"left_children":[1,3,5,-1,-1,-1,-1],"loss_changes":[5.4625494E2,5.0808322E2,4.1301715E2,0E0,0E0,0E0,0E0],"parents":[2147483647,0,0,1,1,2,2],"right_children":[2,4,6,-1,-1,-1,-1],"split_conditions":[5E-1,3.4976883E1,3.5E0,-2.4109162E-2,6.357387E-2,2.2184523E-2,-2.2617437E-2],"split_indices":[10,14,2,0,0,0,0],"split_type":[0,0,0,0,0,0,0],"sum_hessian":[2.2912947E4,9.884364E3,1.3028584E4,9.173166E3,7.1119806E2,1.0468444E4,2.5601394E3],"tree_param":{"num_deleted":"0","num_feature":"16","num_nodes":"7","size_leaf_vector":"0"}},{"base_weights":[-5.9091236E-4,2.4680533E-1,-9.3759485E-2,8.141984E-2,4.7570777E-1,4.2909458E-1,-1.4734833E-1],"categories":[],"categories_nodes":[],"categories_segments":[],"categories_sizes":[],"default_left":[1,1,1,0,0,0,0],"id":46,"left_children":[1,3,5,-1,-1,-1,-1],"loss_changes":[5.2627325E2,2.3642603E2,4.6478912E2,0E0,0E0,0E0,0E0],"parents":[2147483647,0,0,1,1,2,2],"right_children":[2,4,6,-1,-1,-1,-1],"split_conditions":[8.000073E3,9.995118E-1,1.5E0,8.141984E-3,4.7570776E-2,4.290946E-2,-1.47348335E-2],"split_indices":[0,12,2,0,0,0,0],"split_type":[0,0,0,0,0,0,0],"sum_hessian":[2.2830252E4,6.245238E3,1.6585014E4,3.6264375E3,2.6188005E3,1.5411696E3,1.5043844E4],"tree_param":{"num_deleted":"0","num_feature":"16","num_nodes":"7","size_leaf_vector":"0"}},{"base_weights":[-4.883094E-4,-5.200434E-2,4.468475E-1,6.511579E-2,-1.3853679E0,5.093828E-1,-2.545083E-1],"categories":[],"categories_nodes":[],"categories_segments":[],"categories_sizes":[],"default_left":[1,1,1,0,0,0,0],"id":47,"left_children":[1,3,5,-1,-1,-1,-1],"loss_changes":[5.2480414E2,3.1891538E3,1.0327637E2,0E0,0E0,0E0,0E0],"parents":[2147483647,0,0,1,1,2,2],"right_children":[2,4,6,-1,-1,-1,-1],"split_conditions":[9.999465E-1,4.663401E-5,1.0011711E0,6.511579E-3,-1.385368E-1,5.093828E-2,-2.545083E-2],"split_indices":[13,13,13,0,0,0,0],"split_type":[0,0,0,0,0,0,0],"sum_hessian":[2.2771041E4,2.0420285E4,2.3507546E3,1.8772312E4,1.6479733E3,2.1585635E3,1.9219122E2],"tree_param":{"num_deleted":"0","num_feature":"16","num_nodes":"7","size_leaf_vector":"0"}},{"base_weights":[-7.6112E-4,3.1511492E-1,-7.1584776E-2,1.4075996E-1,7.795461E-1,-1.578463E0,-2.6643613E-2],"categories":[],"categories_nodes":[],"categories_segments":[],"categories_sizes":[],"default_left":[1,1,1,0,0,0,0],"id":48,"left_children":[1,3,5,-1,-1,-1,-1],"loss_changes":[5.0645743E2,3.3563416E2,1.2522714E3,0E0,0E0,0E0,0E0],"parents":[2147483647,0,0,1,1,2,2],"right_children":[2,4,6,-1,-1,-1,-1],"split_conditions":[7.000079E0,6.999894E0,7.9999094E0,1.4075996E-2,7.795461E-2,-1.578463E-1,-2.6643614E-3],"split_indices":[7,7,7,0,0,0,0],"split_type":[0,0,0,0,0,0,0],"sum_hessian":[2.2636506E4,4.145221E3,1.8491283E4,3.0147415E3,1.1304796E3,5.34525E2,1.795676E4],"tree_param":{"num_deleted":"0","num_feature":"16","num_nodes":"7","size_leaf_vector":"0"}},{"base_weights":[-7.6118356E-4,5.2591485E-1,-4.2023055E-2,9.2220277E-1,3.247741E-1,-1.9716497E-1,1.6869749E-1],"categories":[],"categories_nodes":[],"categories_segments":[],"categories_sizes":[],"default_left":[1,1,1,0,0,0,0],"id":49,"left_children":[1,3,5,-1,-1,-1,-1],"loss_changes":[4.9098315E2,1.3053824E2,6.849732E2,0E0,0E0,0E0,0E0],"parents":[2147483647,0,0,1,1,2,2],"right_children":[2,4,6,-1,-1,-1,-1],"split_conditions":[3.022948E0,1.0197363E0,1.3930468E1,9.222028E-2,3.247741E-2,-1.9716498E-2,1.686975E-2],"split_indices":[14,14,14,0,0,0,0],"split_type":[0,0,0,0,0,0,0],"sum_hessian":[2.2590994E4,1.6404296E3,2.0950564E4,5.510886E2,1.089341E3,1.2066633E4,8.883932E3],"tree_param":{"num_deleted":"0","num_feature":"16","num_nodes":"7","size_leaf_vector":"0"}},{"base_weights":[-6.3658104E-4,2.5146496E-1,-8.730772E-2,3.2445922E-1,-6.400923E-2,2.0492437E-1,-1.9293451E-1],"categories":[],"categories_nodes":[],"categories_segments":[],"categories_sizes":[],"default_left":[1,1,1,0,0,0,0],"id":50,"left_children":[1,3,5,-1,-1,-1,-1],"loss_changes":[4.9190558E2,1.3265338E2,5.1717065E2,0E0,0E0,0E0,0E0],"parents":[2147483647,0,0,1,1,2,2],"right_children":[2,4,6,-1,-1,-1,-1],"split_conditions":[3.5000137E1,3.5E0,8.000187E0,3.2445922E-2,-6.400923E-3,2.0492438E-2,-1.9293452E-2],"split_indices":[9,2,7,0,0,0,0],"split_type":[0,0,0,0,0,0,0],"sum_hessian":[2.251091E4,5.7586733E3,1.6752236E4,4.67658E3,1.0820933E3,4.4472695E3,1.2304967E4],"tree_param":{"num_deleted":"0","num_feature":"16","num_nodes":"7","size_leaf_vector":"0"}},{"base_weights":[-5.5952976E-4,-7.585641E-2,2.89289E-1,-1.2949494E-2,-1.4437292E0,6.592015E-1,9.347776E-2],"categories":[],"categories_nodes":[],"categories_segments":[],"categories_sizes":[],"default_left":[1,1,1,0,0,0,0],"id":51,"left_children":[1,3,5,-1,-1,-1,-1],"loss_changes":[4.903474E2,1.5346158E3,3.3552423E2,0E0,0E0,0E0,0E0],"parents":[2147483647,0,0,1,1,2,2],"right_children":[2,4,6,-1,-1,-1,-1],"split_conditions":[2.9998846E0,2.0001016E0,3.0001557E0,-1.2949494E-3,-1.4437293E-1,6.592015E-2,9.347777E-3],"split_indices":[12,12,12,0,0,0,0],"split_type":[0,0,0,0,0,0,0],"sum_hessian":[2.2465547E4,1.7833498E4,4.6320493E3,1.705038E4,7.8311816E2,1.6024498E3,3.0295996E3],"tree_param":{"num_deleted":"0","num_feature":"16","num_nodes":"7","size_leaf_vector":"0"}},{"base_weights":[-6.2313094E-4,-1.0579132E-1,2.0191857E-1,4.6081804E-3,-1.3540189E0,5.871033E-1,3.4632374E-2],"categories":[],"categories_nodes":[],"categories_segments":[],"categories_sizes":[],"default_left":[1,1,1,0,0,0,0],"id":52,"left_children":[1,3,5,-1,-1,-1,-1],"loss_changes":[4.7684738E2,2.0305594E3,4.9298633E2,0E0,0E0,0E0,0E0],"parents":[2147483647,0,0,1,1,2,2],"right_children":[2,4,6,-1,-1,-1,-1],"split_conditions":[1.9998953E0,1.0000057E0,2.0001016E0,4.6081803E-4,-1.3540189E-1,5.8710333E-2,3.4632373E-3],"split_indices":[12,12,12,0,0,0,0],"split_type":[0,0,0,0,0,0,0],"sum_hessian":[2.2384207E4,1.4734111E4,7.650094E3,1.3537761E4,1.1963511E3,2.315661E3,5.3344336E3],"tree_param":{"num_deleted":"0","num_feature":"16","num_nodes":"7","size_leaf_vector":"0"}},{"base_weights":[-7.742853E-4,-1.5356359E-1,1.3585086E-1,1.2151938E-1,-1.383893E0,5.5188E-1,-8.406303E-3],"categories":[],"categories_nodes":[],"categories_segments":[],"categories_sizes":[],"default_left":[1,1,1,0,0,0,0],"id":53,"left_children":[1,3,5,-1,-1,-1,-1],"loss_changes":[4.6487564E2,3.5581902E3,7.0558606E2,0E0,0E0,0E0,0E0],"parents":[2147483647,0,0,1,1,2,2],"right_children":[2,4,6,-1,-1,-1,-1],"split_conditions":[9.999465E-1,5.663394E-5,1.0000057E0,1.2151938E-2,-1.383893E-1,5.5188E-2,-8.406303E-4],"split_indices":[12,12,12,0,0,0,0],"split_type":[0,0,0,0,0,0,0],"sum_hessian":[2.2267639E4,1.0511923E4,1.1755716E4,8.591823E3,1.9201E3,3.026022E3,8.729693E3],"tree_param":{"num_deleted":"0","num_feature":"16","num_nodes":"7","size_leaf_vector":"0"}},{"base_weights":[-1.0658407E-3,-5.283248E-2,3.9797384E-1,-1.417804E-2,-1.5681446E0,7.280335E-1,1.944865E-1],"categories":[],"categories_nodes":[],"categories_segments":[],"categories_sizes":[],"default_left":[1,1,1,0,0,0,0],"id":54,"left_children":[1,3,5,-1,-1,-1,-1],"loss_changes":[4.567877E2,1.1464816E3,1.704031E2,0E0,0E0,0E0,0E0],"parents":[2147483647,0,0,1,1,2,2],"right_children":[2,4,6,-1,-1,-1,-1],"split_conditions":[3.9994226E0,3.0001557E0,4.0005474E0,-1.417804E-3,-1.5681446E-1,7.280335E-2,1.9448651E-2],"split_indices":[12,12,12,0,0,0,0],"split_type":[0,0,0,0,0,0,0],"sum_hessian":[2.2111016E4,1.957275E4,2.538267E3,1.9086867E4,4.8588187E2,9.670763E2,1.5711908E3],"tree_param":{"num_deleted":"0","num_feature":"16","num_nodes":"7","size_leaf_vector":"0"}},{"base_weights":[-1.0141245E-3,-3.0051941E-2,6.8997234E-1,-2.034002E-1,9.460586E-2,1.0853124E0,7.512109E-2],"categories":[],"categories_nodes":[],"categories_segments":[],"categories_sizes":[],"default_left":[1,1,1,0,0,0,0],"id":55,"left_children":[1,3,5,-1,-1,-1,-1],"loss_changes":[4.4260364E2,4.574676E2,2.1615997E2,0E0,0E0,0E0,0E0],"parents":[2147483647,0,0,1,1,2,2],"right_children":[2,4,6,-1,-1,-1,-1],"split_conditions":[3.5969524E1,5E-1,3.7041344E1,-2.034002E-2,9.460586E-3,1.0853124E-1,7.512109E-3],"split_indices":[14,10,14,0,0,0,0],"split_type":[0,0,0,0,0,0,0],"sum_hessian":[2.2056744E4,2.1168137E4,8.886072E2,8.854501E3,1.2313637E4,5.403836E2,3.4822357E2],"tree_param":{"num_deleted":"0","num_feature":"16","num_nodes":"7","size_leaf_vector":"0"}},{"base_weights":[-8.331755E-4,2.4007908E-1,-8.21396E-2,3.0997962E-1,-1.0022713E-1,-1.6428211E-1,1.7112882E-1],"categories":[],"categories_nodes":[],"categories_segments":[],"categories_sizes":[],"default_left":[1,1,1,0,0,0,0],"id":56,"left_children":[1,3,5,-1,-1,-1,-1],"loss_changes":[4.3068085E2,1.320075E2,3.4203027E2,0E0,0E0,0E0,0E0],"parents":[2147483647,0,0,1,1,2,2],"right_children":[2,4,6,-1,-1,-1,-1],"split_conditions":[1.2890095E1,2.4007254E4,1.5E0,3.0997962E-2,-1.0022714E-2,-1.6428212E-2,1.7112883E-2],"split_indices":[6,0,5,0,0,0,0],"split_type":[0,0,0,0,0,0,0],"sum_hessian":[2.1985291E4,5.5471226E3,1.6438168E4,4.601949E3,9.451732E2,1.2412707E4,4.0254604E3],"tree_param":{"num_deleted":"0","num_feature":"16","num_nodes":"7","size_leaf_vector":"0"}},{"base_weights":[-7.3959323E-4,-3.59229E-2,5.4687905E-1,-1.4155934E-2,-1.9320046E0,8.977889E-1,3.03771E-1],"categories":[],"categories_nodes":[],"categories_segments":[],"categories_sizes":[],"default_left":[1,1,1,0,0,0,0],"id":57,"left_children":[1,3,5,-1,-1,-1,-1],"loss_changes":[4.2298135E2,8.513421E2,1.1278931E2,0E0,0E0,0E0,0E0],"parents":[2147483647,0,0,1,1,2,2],"right_children":[2,4,6,-1,-1,-1,-1],"split_conditions":[4.9997663E0,4.0005474E0,5.000828E0,-1.4155934E-3,-1.9320045E-1,8.977889E-2,3.03771E-2],"split_indices":[12,12,12,0,0,0,0],"split_type":[0,0,0,0,0,0,0],"sum_hessian":[2.195161E4,2.0627285E4,1.3243237E3,2.0394168E4,2.3311702E2,5.408913E2,7.8343243E2],"tree_param":{"num_deleted":"0","num_feature":"16","num_nodes":"7","size_leaf_vector":"0"}},{"base_weights":[-6.5764546E-4,1.09011896E-1,-1.6753666E-1,-4.9793895E-2,3.022731E-1,-8.869372E-1,-1.2871027E-1],"categories":[],"categories_nodes":[],"categories_segments":[],"categories_sizes":[],"default_left":[1,1,1,0,0,0,0],"id":58,"left_children":[1,3,5,-1,-1,-1,-1],"loss_changes":[4.013026E2,4.0610822E2,2.427686E2,0E0,0E0,0E0,0E0],"parents":[2147483647,0,0,1,1,2,2],"right_children":[2,4,6,-1,-1,-1,-1],"split_conditions":[1.5000102E4,9.9979734E-1,1.5999639E4,-4.9793897E-3,3.022731E-2,-8.869372E-2,-1.2871027E-2],"split_indices":[0,12,0,0,0,0,0],"split_type":[0,0,0,0,0,0,0],"sum_hessian":[2.1925256E4,1.3230671E4,8.694585E3,7.2631597E3,5.967511E3,4.441036E2,8.250481E3],"tree_param":{"num_deleted":"0","num_feature":"16","num_nodes":"7","size_leaf_vector":"0"}},{"base_weights":[-5.967011E-4,-1.0224864E-1,1.8859825E-1,-5.8824164E-1,8.691859E-2,9.239847E-2,5.479032E-1],"categories":[],"categories_nodes":[],"categories_segments":[],"categories_sizes":[],"default_left":[1,1,1,0,0,0,0],"id":59,"left_children":[1,3,5,-1,-1,-1,-1],"loss_changes":[4.2091232E2,1.3088937E3,2.6434546E2,0E0,0E0,0E0,0E0],"parents":[2147483647,0,0,1,1,2,2],"right_children":[2,4,6,-1,-1,-1,-1],"split_conditions":[1.5E0,9.999465E-1,1.8004047E1,-5.8824163E-2,8.691859E-3,9.239848E-3,5.4790318E-2],"split_indices":[3,12,14,0,0,0,0],"split_type":[0,0,0,0,0,0,0],"sum_hessian":[2.1884E4,1.423577E4,7.648231E3,3.9880044E3,1.0247765E4,6.033964E3,1.6142672E3],"tree_param":{"num_deleted":"0","num_feature":"16","num_nodes":"7","size_leaf_vector":"0"}},{"base_weights":[-5.720375E-4,8.4933704E-1,-2.1033337E-2,1.2920535E0,6.811455E-1,-1.0851568E-1,1.9094944E-1],"categories":[],"categories_nodes":[],"categories_segments":[],"categories_sizes":[],"default_left":[1,1,1,0,0,0,0],"id":60,"left_children":[1,3,5,-1,-1,-1,-1],"loss_changes":[3.790916E2,3.727896E1,3.9477542E2,0E0,0E0,0E0,0E0],"parents":[2147483647,0,0,1,1,2,2],"right_children":[2,4,6,-1,-1,-1,-1],"split_conditions":[1.0197363E0,9.527917E-1,1.5933472E1,1.2920535E-1,6.811455E-2,-1.0851569E-2,1.9094944E-2],"split_indices":[14,14,14,0,0,0,0],"split_type":[0,0,0,0,0,0,0],"sum_hessian":[2.179707E4,5.114691E2,2.1285602E4,1.3897491E2,3.7249417E2,1.50678125E4,6.2177886E3],"tree_param":{"num_deleted":"0","num_feature":"16","num_nodes":"7","size_leaf_vector":"0"}},{"base_weights":[-4.5098443E-4,1.952122E-1,-8.992599E-2,5.0330496E-1,1.2722534E-1,1.669017E-1,-1.851599E-1],"categories":[],"categories_nodes":[],"categories_segments":[],"categories_sizes":[],"default_left":[1,1,1,0,0,0,0],"id":61,"left_children":[1,3,5,-1,-1,-1,-1],"loss_changes":[3.8045535E2,1.4277463E2,3.64768E2,0E0,0E0,0E0,0E0],"parents":[2147483647,0,0,1,1,2,2],"right_children":[2,4,6,-1,-1,-1,-1],"split_conditions":[3.9301895E1,1.5E0,8.000187E0,5.0330497E-2,1.2722534E-2,1.669017E-2,-1.8515991E-2],"split_indices":[9,2,7,0,0,0,0],"split_type":[0,0,0,0,0,0,0],"sum_hessian":[2.1729654E4,6.8182915E3,1.4911362E4,1.2314385E3,5.586853E3,4.033373E3,1.0877989E4],"tree_param":{"num_deleted":"0","num_feature":"16","num_nodes":"7","size_leaf_vector":"0"}},{"base_weights":[-3.7456746E-4,-4.402694E-2,3.7713248E-1,5.665414E-2,-1.3288974E0,4.8597667E-1,3.0855337E-2],"categories":[],"categories_nodes":[],"categories_segments":[],"categories_sizes":[],"default_left":[1,1,1,0,0,0,0],"id":62,"left_children":[1,3,5,-1,-1,-1,-1],"loss_changes":[3.5731003E2,2.514264E3,8.468878E1,0E0,0E0,0E0,0E0],"parents":[2147483647,0,0,1,1,2,2],"right_children":[2,4,6,-1,-1,-1,-1],"split_conditions":[9.999465E-1,4.663401E-5,5E-1,5.665414E-3,-1.3288973E-1,4.8597667E-2,3.0855339E-3],"split_indices":[13,13,1,0,0,0,0],"split_type":[0,0,0,0,0,0,0],"sum_hessian":[2.1680639E4,1.9434273E4,2.2463652E3,1.8022969E4,1.4113048E3,1.7088306E3,5.375347E2],"tree_param":{"num_deleted":"0","num_feature":"16","num_nodes":"7","size_leaf_vector":"0"}},{"base_weights":[-6.375387E-4,3.6894476E-1,-4.453591E-2,7.951957E-1,2.537903E-1,-2.0407383E-1,1.1224359E-1],"categories":[],"categories_nodes":[],"categories_segments":[],"categories_sizes":[],"default_left":[1,1,1,0,0,0,0],"id":63,"left_children":[1,3,5,-1,-1,-1,-1],"loss_changes":[3.49809E2,1.1215793E2,4.8205984E2,0E0,0E0,0E0,0E0],"parents":[2147483647,0,0,1,1,2,2],"right_children":[2,4,6,-1,-1,-1,-1],"split_conditions":[4.0413036E0,1.0197363E0,1.2977577E1,7.951957E-2,2.537903E-2,-2.0407384E-2,1.1224359E-2],"split_indices":[14,14,14,0,0,0,0],"split_type":[0,0,0,0,0,0,0],"sum_hessian":[2.1559111E4,2.288099E3,1.9271012E4,4.8541223E2,1.8026869E3,9.551331E3,9.719682E3],"tree_param":{"num_deleted":"0","num_feature":"16","num_nodes":"7","size_leaf_vector":"0"}},{"base_weights":[-5.410503E-4,1.24487706E-1,-1.2783332E-1,1.8146547E-2,3.107607E-1,2.2994448E-1,-1.8938585E-1],"categories":[],"categories_nodes":[],"categories_segments":[],"categories_sizes":[],"default_left":[1,1,1,0,0,0,0],"id":64,"left_children":[1,3,5,-1,-1,-1,-1],"loss_changes":[3.4213818E2,2.148217E2,2.3463127E2,0E0,0E0,0E0,0E0],"parents":[2147483647,0,0,1,1,2,2],"right_children":[2,4,6,-1,-1,-1,-1],"split_conditions":[1.8610037E1,1.5E0,3.0802607E1,1.8146547E-3,3.1076072E-2,2.299445E-2,-1.8938584E-2],"split_indices":[6,3,9,0,0,0,0],"split_type":[0,0,0,0,0,0,0],"sum_hessian":[2.149558E4,1.0844218E4,1.0651363E4,6.9039355E3,3.9402817E3,1.5630873E3,9.088276E3],"tree_param":{"num_deleted":"0","num_feature":"16","num_nodes":"7","size_leaf_vector":"0"}},{"base_weights":[-4.8183274E-4,-6.368314E-2,2.431259E-1,-5.5801477E-3,-1.392383E0,5.88427E-1,5.806229E-2],"categories":[],"categories_nodes":[],"categories_segments":[],"categories_sizes":[],"default_left":[1,1,1,0,0,0,0],"id":65,"left_children":[1,3,5,-1,-1,-1,-1],"loss_changes":[3.305144E2,1.3158877E3,2.825515E2,0E0,0E0,0E0,0E0],"parents":[2147483647,0,0,1,1,2,2],"right_children":[2,4,6,-1,-1,-1,-1],"split_conditions":[2.9998846E0,2.0001016E0,3.0001557E0,-5.580148E-4,-1.392383E-1,5.88427E-2,5.806229E-3],"split_indices":[12,12,12,0,0,0,0],"split_type":[0,0,0,0,0,0,0],"sum_hessian":[2.1465088E4,1.704396E4,4.421127E3,1.6330831E4,7.1313007E2,1.541932E3,2.8791948E3],"tree_param":{"num_deleted":"0","num_feature":"16","num_nodes":"7","size_leaf_vector":"0"}},{"base_weights":[-5.567827E-4,1.5798849E-1,-9.782399E-2,1.17310554E-1,9.1452956E-1,1.3113038E-1,-2.1336387E-1],"categories":[],"categories_nodes":[],"categories_segments":[],"categories_sizes":[],"default_left":[1,1,1,0,0,0,0],"id":66,"left_children":[1,3,5,-1,-1,-1,-1],"loss_changes":[3.2987018E2,2.5019194E2,3.5072784E2,0E0,0E0,0E0,0E0],"parents":[2147483647,0,0,1,1,2,2],"right_children":[2,4,6,-1,-1,-1,-1],"split_conditions":[2.5E0,3.0982145E1,1.0000084E4,1.1731056E-2,9.1452956E-2,1.3113039E-2,-2.1336388E-2],"split_indices":[2,14,0,0,0,0,0],"split_type":[0,0,0,0,0,0,0],"sum_hessian":[2.1388613E4,8.1323247E3,1.3256289E4,7.7184707E3,4.1385406E2,4.44598E3,8.81031E3],"tree_param":{"num_deleted":"0","num_feature":"16","num_nodes":"7","size_leaf_vector":"0"}},{"base_weights":[-4.549067E-4,-6.888077E-2,2.2523014E-1,-2.4768274E-1,6.209857E-2,3.5433874E-1,-7.7371676E-3],"categories":[],"categories_nodes":[],"categories_segments":[],"categories_sizes":[],"default_left":[1,1,1,0,0,0,0],"id":67,"left_children":[1,3,5,-1,-1,-1,-1],"loss_changes":[3.2951318E2,3.834721E2,1.4931969E2,0E0,0E0,0E0,0E0],"parents":[2147483647,0,0,1,1,2,2],"right_children":[2,4,6,-1,-1,-1,-1],"split_conditions":[1.5E0,5E-1,3.5E0,-2.4768274E-2,6.2098573E-3,3.5433874E-2,-7.737168E-4],"split_indices":[5,10,2,0,0,0,0],"split_type":[0,0,0,0,0,0,0],"sum_hessian":[2.13358E4,1.6372491E4,4.9633105E3,6.9221133E3,9.450378E3,3.1931638E3,1.7701467E3],"tree_param":{"num_deleted":"0","num_feature":"16","num_nodes":"7","size_leaf_vector":"0"}},{"base_weights":[-4.094099E-4,-3.1230588E-2,4.8377877E-1,-1.1354677E-2,-1.7824711E0,8.157751E-1,2.5913373E-1],"categories":[],"categories_nodes":[],"categories_segments":[],"categories_sizes":[],"default_left":[1,1,1,0,0,0,0],"id":68,"left_children":[1,3,5,-1,-1,-1,-1],"loss_changes":[3.177444E2,6.967443E2,9.482254E1,0E0,0E0,0E0,0E0],"parents":[2147483647,0,0,1,1,2,2],"right_children":[2,4,6,-1,-1,-1,-1],"split_conditions":[4.9997663E0,4.0005474E0,5.000828E0,-1.1354678E-3,-1.7824711E-1,8.157751E-2,2.5913373E-2],"split_indices":[12,12,12,0,0,0,0],"split_type":[0,0,0,0,0,0,0],"sum_hessian":[2.128989E4,2.0016658E4,1.2732322E3,1.9793021E4,2.2363673E2,5.1277936E2,7.604529E2],"tree_param":{"num_deleted":"0","num_feature":"16","num_nodes":"7","size_leaf_vector":"0"}},{"base_weights":[-3.749947E-4,-8.673529E-2,1.6721235E-1,1.4840799E-2,-1.3154093E0,5.208359E-1,9.868335E-3],"categories":[],"categories_nodes":[],"categories_segments":[],"categories_sizes":[],"default_left":[1,1,1,0,0,0,0],"id":69,"left_children":[1,3,5,-1,-1,-1,-1],"loss_changes":[3.0775684E2,1.7513877E3,4.0235388E2,0E0,0E0,0E0,0E0],"parents":[2147483647,0,0,1,1,2,2],"right_children":[2,4,6,-1,-1,-1,-1],"split_conditions":[1.9998953E0,1.0000057E0,2.0001016E0,1.48408E-3,-1.3154094E-1,5.208359E-2,9.868335E-4],"split_indices":[12,12,12,0,0,0,0],"split_type":[0,0,0,0,0,0,0],"sum_hessian":[2.1262357E4,1.4031959E4,7.230399E3,1.296141E4,1.0705488E3,2.2257705E3,5.0046284E3],"tree_param":{"num_deleted":"0","num_feature":"16","num_nodes":"7","size_leaf_vector":"0"}},{"base_weights":[-5.465314E-4,-2.4162447E-2,6.040012E-1,1.210133E-1,-1.3201244E-1,1.0171776E0,3.2993063E-2],"categories":[],"categories_nodes":[],"categories_segments":[],"categories_sizes":[],"default_left":[1,1,1,0,0,0,0],"id":70,"left_children":[1,3,5,-1,-1,-1,-1],"loss_changes":[3.0205463E2,3.188184E2,1.876213E2,0E0,0E0,0E0,0E0],"parents":[2147483647,0,0,1,1,2,2],"right_children":[2,4,6,-1,-1,-1,-1],"split_conditions":[3.5969524E1,4.6701668E1,3.7041344E1,1.210133E-2,-1.3201244E-2,1.0171776E-1,3.2993064E-3],"split_indices":[14,9,14,0,0,0,0],"split_type":[0,0,0,0,0,0,0],"sum_hessian":[2.1154783E4,2.036039E4,7.9439355E2,8.678385E3,1.1682005E4,4.6044113E2,3.339524E2],"tree_param":{"num_deleted":"0","num_feature":"16","num_nodes":"7","size_leaf_vector":"0"}},{"base_weights":[-4.154934E-4,-4.2733803E-2,3.322424E-1,-7.3858593E-3,-1.4893514E0,6.5249884E-1,1.3177294E-1],"categories":[],"categories_nodes":[],"categories_segments":[],"categories_sizes":[],"default_left":[1,1,1,0,0,0,0],"id":71,"left_children":[1,3,5,-1,-1,-1,-1],"loss_changes":[2.971334E2,9.5748535E2,1.5284518E2,0E0,0E0,0E0,0E0],"parents":[2147483647,0,0,1,1,2,2],"right_children":[2,4,6,-1,-1,-1,-1],"split_conditions":[3.9994226E0,3.0001557E0,4.0005474E0,-7.3858595E-4,-1.4893514E-1,6.524988E-2,1.3177293E-2],"split_indices":[12,12,12,0,0,0,0],"split_type":[0,0,0,0,0,0,0],"sum_hessian":[2.1104932E4,1.8723887E4,2.3810447E3,1.8278264E4,4.4562228E2,9.157883E2,1.4652563E3],"tree_param":{"num_deleted":"0","num_feature":"16","num_nodes":"7","size_leaf_vector":"0"}},{"base_weights":[-4.3773852E-4,-1.22511305E-1,1.1036771E-1,1.1491814E-1,-1.3184497E0,4.8156565E-1,-2.2844357E-2],"categories":[],"categories_nodes":[],"categories_segments":[],"categories_sizes":[],"default_left":[1,1,1,0,0,0,0],"id":72,"left_children":[1,3,5,-1,-1,-1,-1],"loss_changes":[2.8481085E2,2.8449263E3,5.457868E2,0E0,0E0,0E0,0E0],"parents":[2147483647,0,0,1,1,2,2],"right_children":[2,4,6,-1,-1,-1,-1],"split_conditions":[9.999465E-1,5.663394E-5,1.0000057E0,1.1491815E-2,-1.3184498E-1,4.8156567E-2,-2.2844358E-3],"split_indices":[12,12,12,0,0,0,0],"split_type":[0,0,0,0,0,0,0],"sum_hessian":[2.10539E4,1.0017541E4,1.1036358E4,8.358945E3,1.658596E3,2.9139546E3,8.1224043E3],"tree_param":{"num_deleted":"0","num_feature":"16","num_nodes":"7","size_leaf_vector":"0"}},{"base_weights":[-7.4388983E-4,4.9946744E-2,-2.611424E-1,1.19370826E-1,-1.5408327E-1,-1.2931889E0,3.2244292E-1],"categories":[],"categories_nodes":[],"categories_segments":[],"categories_sizes":[],"default_left":[1,1,1,0,0,0,0],"id":73,"left_children":[1,3,5,-1,-1,-1,-1],"loss_changes":[2.760095E2,2.479409E2,2.0525442E3,0E0,0E0,0E0,0E0],"parents":[2147483647,0,0,1,1,2,2],"right_children":[2,4,6,-1,-1,-1,-1],"split_conditions":[4.663401E-5,3.5E0,9.999465E-1,1.1937083E-2,-1.5408327E-2,-1.293189E-1,3.224429E-2],"split_indices":[13,2,13,0,0,0,0],"split_type":[0,0,0,0,0,0,0],"sum_hessian":[2.0908193E4,1.750197E4,3.4062236E3,1.3058908E4,4.4430625E3,1.229929E3,2.1762944E3],"tree_param":{"num_deleted":"0","num_feature":"16","num_nodes":"7","size_leaf_vector":"0"}},{"base_weights":[-9.541571E-4,3.6005384E-1,-3.686833E-2,2.6655596E-1,6.5320367E-1,2.92048E-1,-7.488174E-2],"categories":[],"categories_nodes":[],"categories_segments":[],"categories_sizes":[],"default_left":[1,1,1,0,0,0,0],"id":74,"left_children":[1,3,5,-1,-1,-1,-1],"loss_changes":[2.6948456E2,5.1372864E1,2.3638753E2,0E0,0E0,0E0,0E0],"parents":[2147483647,0,0,1,1,2,2],"right_children":[2,4,6,-1,-1,-1,-1],"split_conditions":[7.911787E0,1.0493967E4,4.0413036E0,2.6655598E-2,6.5320365E-2,2.92048E-2,-7.488174E-3],"split_indices":[6,8,14,0,0,0,0],"split_type":[0,0,0,0,0,0,0],"sum_hessian":[2.0783033E4,1.8796666E3,1.8903367E4,1.4265795E3,4.5308713E2,1.9576699E3,1.6945697E4],"tree_param":{"num_deleted":"0","num_feature":"16","num_nodes":"7","size_leaf_vector":"0"}},{"base_weights":[-8.338966E-4,1.8238172E-1,-7.03455E-2,5.875585E-1,1.1200719E-1,-9.490887E-2,5.6817955E-1],"categories":[],"categories_nodes":[],"categories_segments":[],"categories_sizes":[],"default_left":[1,1,1,0,0,0,0],"id":75,"left_children":[1,3,5,-1,-1,-1,-1],"loss_changes":[2.6440475E2,1.627569E2,2.3611568E2,0E0,0E0,0E0,0E0],"parents":[2147483647,0,0,1,1,2,2],"right_children":[2,4,6,-1,-1,-1,-1],"split_conditions":[8.000073E3,1.980186E1,5.9986897E0,5.8755852E-2,1.12007195E-2,-9.490888E-3,5.6817956E-2],"split_indices":[0,9,12,0,0,0,0],"split_type":[0,0,0,0,0,0,0],"sum_hessian":[2.0759053E4,5.709247E3,1.5049805E4,8.437961E2,4.8654507E3,1.4493121E4,5.566835E2],"tree_param":{"num_deleted":"0","num_feature":"16","num_nodes":"7","size_leaf_vector":"0"}},{"base_weights":[-7.138181E-4,-2.2164337E-2,5.671996E-1,-1.0303713E-1,1.3531376E-1,9.803711E-1,3.780836E-2],"categories":[],"categories_nodes":[],"categories_segments":[],"categories_sizes":[],"default_left":[1,1,1,0,0,0,0],"id":76,"left_children":[1,3,5,-1,-1,-1,-1],"loss_changes":[2.5256416E2,2.5444626E2,1.6501204E2,0E0,0E0,0E0,0E0],"parents":[2147483647,0,0,1,1,2,2],"right_children":[2,4,6,-1,-1,-1,-1],"split_conditions":[3.5969524E1,1.9998953E0,3.7041344E1,-1.0303712E-2,1.3531377E-2,9.8037116E-2,3.780836E-3],"split_indices":[14,12,14,0,0,0,0],"split_type":[0,0,0,0,0,0,0],"sum_hessian":[2.0730475E4,1.9976893E4,7.5358136E2,1.3198934E4,6.777959E3,4.2277118E2,3.3081018E2],"tree_param":{"num_deleted":"0","num_feature":"16","num_nodes":"7","size_leaf_vector":"0"}},{"base_weights":[-5.70431E-4,-8.418799E-2,1.509671E-1,-4.9218696E-1,7.129809E-2,8.074481E-2,4.7888216E-1],"categories":[],"categories_nodes":[],"categories_segments":[],"categories_sizes":[],"default_left":[1,1,1,0,0,0,0],"id":77,"left_children":[1,3,5,-1,-1,-1,-1],"loss_changes":[2.620357E2,8.454289E2,1.6928682E2,0E0,0E0,0E0,0E0],"parents":[2147483647,0,0,1,1,2,2],"right_children":[2,4,6,-1,-1,-1,-1],"split_conditions":[1.5E0,9.999465E-1,1.8945446E1,-4.9218696E-2,7.1298094E-3,8.074481E-3,4.7888216E-2],"split_indices":[3,12,14,0,0,0,0],"split_type":[0,0,0,0,0,0,0],"sum_hessian":[2.0677629E4,1.3325266E4,7.3523623E3,3.6763293E3,9.648937E3,6.056601E3,1.2957615E3],"tree_param":{"num_deleted":"0","num_feature":"16","num_nodes":"7","size_leaf_vector":"0"}},{"base_weights":[-5.3964683E-4,2.962515E-1,-4.0368356E-2,9.166819E-2,6.9657344E-1,-1.5455182E0,-1.1288634E-2],"categories":[],"categories_nodes":[],"categories_segments":[],"categories_sizes":[],"default_left":[1,1,1,0,0,0,0],"id":78,"left_children":[1,3,5,-1,-1,-1,-1],"loss_changes":[2.435886E2,1.9962132E2,7.952088E2,0E0,0E0,0E0,0E0],"parents":[2147483647,0,0,1,1,2,2],"right_children":[2,4,6,-1,-1,-1,-1],"split_conditions":[6.000069E0,5.9996266E0,6.999894E0,9.166819E-3,6.965735E-2,-1.5455182E-1,-1.1288634E-3],"split_indices":[7,7,7,0,0,0,0],"split_type":[0,0,0,0,0,0,0],"sum_hessian":[2.060475E4,2.4371829E3,1.8167566E4,1.6137234E3,8.2345953E2,3.4335892E2,1.7824209E4],"tree_param":{"num_deleted":"0","num_feature":"16","num_nodes":"7","size_leaf_vector":"0"}},{"base_weights":[-5.400114E-4,8.596498E-2,-1.3240345E-1,-3.1240886E-2,2.661985E-1,-7.7106166E-1,-9.941438E-2],"categories":[],"categories_nodes":[],"categories_segments":[],"categories_sizes":[],"default_left":[1,1,1,0,0,0,0],"id":79,"left_children":[1,3,5,-1,-1,-1,-1],"loss_changes":[2.3464848E2,2.624131E2,1.7161214E2,0E0,0E0,0E0,0E0],"parents":[2147483647,0,0,1,1,2,2],"right_children":[2,4,6,-1,-1,-1,-1],"split_conditions":[1.5000102E4,6.299139E4,1.5999639E4,-3.1240887E-3,2.661985E-2,-7.710617E-2,-9.941438E-3],"split_indices":[0,4,0,0,0,0,0],"split_type":[0,0,0,0,0,0,0],"sum_hessian":[2.056885E4,1.2420867E4,8.1479834E3,7.52693E3,4.893937E3,3.9910275E2,7.748881E3],"tree_param":{"num_deleted":"0","num_feature":"16","num_nodes":"7","size_leaf_vector":"0"}},{"base_weights":[-4.9515744E-4,1.7740165E-1,-6.4288095E-2,3.2438383E-2,6.8576324E-1,-1.5570151E0,-4.4495226E-3],"categories":[],"categories_nodes":[],"categories_segments":[],"categories_sizes":[],"default_left":[1,1,1,0,0,0,0],"id":80,"left_children":[1,3,5,-1,-1,-1,-1],"loss_changes":[2.3316699E2,3.9962006E2,1.3508137E3,0E0,0E0,0E0,0E0],"parents":[2147483647,0,0,1,1,2,2],"right_children":[2,4,6,-1,-1,-1,-1],"split_conditions":[8.000187E0,7.9999094E0,8.998919E0,3.2438382E-3,6.857633E-2,-1.557015E-1,-4.4495225E-4],"split_indices":[7,7,7,0,0,0,0],"split_type":[0,0,0,0,0,0,0],"sum_hessian":[2.054395E4,5.4220146E3,1.5121936E4,4.2197764E3,1.2022383E3,5.818613E2,1.4540074E4],"tree_param":{"num_deleted":"0","num_feature":"16","num_nodes":"7","size_leaf_vector":"0"}},{"base_weights":[-5.538698E-4,-5.833306E-2,1.8865992E-1,3.212261E-1,-1.04186565E-1,2.971329E-1,-4.322074E-3],"categories":[],"categories_nodes":[],"categories_segments":[],"categories_sizes":[],"default_left":[1,1,1,0,0,0,0],"id":81,"left_children":[1,3,5,-1,-1,-1,-1],"loss_changes":[2.2405911E2,2.7328235E2,1.00362015E2,0E0,0E0,0E0,0E0],"parents":[2147483647,0,0,1,1,2,2],"right_children":[2,4,6,-1,-1,-1,-1],"split_conditions":[1.5E0,2.000377E1,3.5E0,3.212261E-2,-1.0418656E-2,2.9713292E-2,-4.322074E-4],"split_indices":[5,9,2,0,0,0,0],"split_type":[0,0,0,0,0,0,0],"sum_hessian":[2.0492543E4,1.5699242E4,4.793301E3,1.6915104E3,1.4007731E4,3.0681748E3,1.725126E3],"tree_param":{"num_deleted":"0","num_feature":"16","num_nodes":"7","size_leaf_vector":"0"}},{"base_weights":[-4.775493E-4,4.4785872E-2,-2.4148895E-1,-3.577966E-2,1.8993284E-1,-1.2590258E0,2.8488508E-1],"categories":[],"categories_nodes":[],"categories_segments":[],"categories_sizes":[],"default_left":[1,1,1,0,0,0,0],"id":82,"left_children":[1,3,5,-1,-1,-1,-1],"loss_changes":[2.2321114E2,2.0144545E2,1.733124E3,0E0,0E0,0E0,0E0],"parents":[2147483647,0,0,1,1,2,2],"right_children":[2,4,6,-1,-1,-1,-1],"split_conditions":[4.663401E-5,1.5E0,9.999465E-1,-3.577966E-3,1.8993285E-2,-1.2590258E-1,2.8488507E-2],"split_indices":[13,3,13,0,0,0,0],"split_type":[0,0,0,0,0,0,0],"sum_hessian":[2.0459201E4,1.7225045E4,3.2341553E3,1.1077244E4,6.1478013E3,1.1021637E3,2.1319915E3],"tree_param":{"num_deleted":"0","num_feature":"16","num_nodes":"7","size_leaf_vector":"0"}},{"base_weights":[-6.891359E-4,6.9986653E-1,-1.6050078E-2,1.2142684E0,5.124417E-1,3.8049188E-1,-4.425827E-2],"categories":[],"categories_nodes":[],"categories_segments":[],"categories_sizes":[],"default_left":[1,1,1,0,0,0,0],"id":83,"left_children":[1,3,5,-1,-1,-1,-1],"loss_changes":[2.1906598E2,4.148915E1,2.2283885E2,0E0,0E0,0E0,0E0],"parents":[2147483647,0,0,1,1,2,2],"right_children":[2,4,6,-1,-1,-1,-1],"split_conditions":[1.0197363E0,9.527917E-1,5.000415E0,1.2142684E-1,5.124417E-2,3.8049188E-2,-4.425827E-3],"split_indices":[14,14,7,0,0,0,0],"split_type":[0,0,0,0,0,0,0],"sum_hessian":[2.0354988E4,4.3578717E2,1.9919201E4,1.1491513E2,3.2087204E2,1.3220298E3,1.8597172E4],"tree_param":{"num_deleted":"0","num_feature":"16","num_nodes":"7","size_leaf_vector":"0"}},{"base_weights":[-5.6737324E-4,8.188511E-2,-1.2587017E-1,1.2986375E-1,-1.9948038E-1,-1.836628E-1,1.6162458E-1],"categories":[],"categories_nodes":[],"categories_segments":[],"categories_sizes":[],"default_left":[1,1,1,0,0,0,0],"id":84,"left_children":[1,3,5,-1,-1,-1,-1],"loss_changes":[2.1006334E2,1.6556993E2,1.341022E2,0E0,0E0,0E0,0E0],"parents":[2147483647,0,0,1,1,2,2],"right_children":[2,4,6,-1,-1,-1,-1],"split_conditions":[2.0800013E1,2.5000715E4,1.8955276E1,1.2986376E-2,-1.994804E-2,-1.8366281E-2,1.6162459E-2],"split_indices":[6,0,14,0,0,0,0],"split_type":[0,0,0,0,0,0,0],"sum_hessian":[2.0330268E4,1.226194E4,8.0683276E3,1.0476089E4,1.7858519E3,6.7181885E3,1.3501394E3],"tree_param":{"num_deleted":"0","num_feature":"16","num_nodes":"7","size_leaf_vector":"0"}},{"base_weights":[-5.127165E-4,-1.8247562E-2,5.5794877E-1,-6.619653E-3,-2.2289886E0,8.0198514E-1,3.6513847E-1],"categories":[],"categories_nodes":[],"categories_segments":[],"categories_sizes":[],"default_left":[1,1,1,0,0,0,0],"id":85,"left_children":[1,3,5,-1,-1,-1,-1],"loss_changes":[2.0105043E2,5.0574698E2,2.9105713E1,0E0,0E0,0E0,0E0],"parents":[2147483647,0,0,1,1,2,2],"right_children":[2,4,6,-1,-1,-1,-1],"split_conditions":[5.9986897E0,5.000828E0,6.0033064E0,-6.6196534E-4,-2.2289887E-1,8.019852E-2,3.6513846E-2],"split_indices":[12,12,12,0,0,0,0],"split_type":[0,0,0,0,0,0,0],"sum_hessian":[2.0297426E4,1.9673625E4,6.2380035E2,1.9571686E4,1.0193885E2,2.739313E2,3.4986905E2],"tree_param":{"num_deleted":"0","num_feature":"16","num_nodes":"7","size_leaf_vector":"0"}},{"base_weights":[-4.5057727E-4,1.2682265E-1,-7.7706955E-2,9.55435E-2,8.0768293E-1,1.0180408E-1,-1.6914079E-1],"categories":[],"categories_nodes":[],"categories_segments":[],"categories_sizes":[],"default_left":[1,1,1,0,0,0,0],"id":86,"left_children":[1,3,5,-1,-1,-1,-1],"loss_changes":[1.9948022E2,1.6312267E2,2.0722559E2,0E0,0E0,0E0,0E0],"parents":[2147483647,0,0,1,1,2,2],"right_children":[2,4,6,-1,-1,-1,-1],"split_conditions":[2.5E0,3.0982145E1,1.0000084E4,9.55435E-3,8.0768295E-2,1.0180408E-2,-1.6914079E-2],"split_indices":[2,14,0,0,0,0,0],"split_type":[0,0,0,0,0,0,0],"sum_hessian":[2.0285492E4,7.6621387E3,1.26233545E4,7.326686E3,3.354523E2,4.2598755E3,8.3634795E3],"tree_param":{"num_deleted":"0","num_feature":"16","num_nodes":"7","size_leaf_vector":"0"}},{"base_weights":[-3.6993987E-4,-5.0502546E-2,1.937406E-1,2.5168234E-3,-1.3478758E0,5.1909953E-1,1.5018703E-2],"categories":[],"categories_nodes":[],"categories_segments":[],"categories_sizes":[],"default_left":[1,1,1,0,0,0,0],"id":87,"left_children":[1,3,5,-1,-1,-1,-1],"loss_changes":[1.9701624E2,1.1067766E3,2.4163342E2,0E0,0E0,0E0,0E0],"parents":[2147483647,0,0,1,1,2,2],"right_children":[2,4,6,-1,-1,-1,-1],"split_conditions":[2.9998846E0,2.0001016E0,3.0001557E0,2.5168233E-4,-1.3478759E-1,5.1909953E-2,1.5018703E-3],"split_indices":[12,12,12,0,0,0,0],"split_type":[0,0,0,0,0,0,0],"sum_hessian":[2.0243686E4,1.6089116E4,4.1545693E3,1.5458381E4,6.3073505E2,1.4723276E3,2.6822417E3],"tree_param":{"num_deleted":"0","num_feature":"16","num_nodes":"7","size_leaf_vector":"0"}},{"base_weights":[-4.5624835E-4,-7.023759E-2,1.3513088E-1,2.0858143E-2,-1.2777684E0,4.5373464E-1,-9.374086E-3],"categories":[],"categories_nodes":[],"categories_segments":[],"categories_sizes":[],"default_left":[1,1,1,0,0,0,0],"id":88,"left_children":[1,3,5,-1,-1,-1,-1],"loss_changes":[1.9090395E2,1.4653649E3,3.1564743E2,0E0,0E0,0E0,0E0],"parents":[2147483647,0,0,1,1,2,2],"right_children":[2,4,6,-1,-1,-1,-1],"split_conditions":[1.9998953E0,1.0000057E0,2.0001016E0,2.0858143E-3,-1.2777685E-1,4.5373466E-2,-9.374086E-4],"split_indices":[12,12,12,0,0,0,0],"split_type":[0,0,0,0,0,0,0],"sum_hessian":[2.0175021E4,1.3320148E4,6.854872E3,1.2386684E4,9.334647E2,2.1382751E3,4.716597E3],"tree_param":{"num_deleted":"0","num_feature":"16","num_nodes":"7","size_leaf_vector":"0"}},{"base_weights":[-6.101257E-4,-1.02447234E-1,9.196236E-2,1.0049264E-1,-1.2703071E0,4.2871E-1,-3.1823773E-2],"categories":[],"categories_nodes":[],"categories_segments":[],"categories_sizes":[],"default_left":[1,1,1,0,0,0,0],"id":89,"left_children":[1,3,5,-1,-1,-1,-1],"loss_changes":[1.8930434E2,2.2663096E3,4.384814E2,0E0,0E0,0E0,0E0],"parents":[2147483647,0,0,1,1,2,2],"right_children":[2,4,6,-1,-1,-1,-1],"split_conditions":[9.999465E-1,5.663394E-5,1.0000057E0,1.0049264E-2,-1.2703072E-1,4.2871002E-2,-3.1823774E-3],"split_indices":[12,12,12,0,0,0,0],"split_type":[0,0,0,0,0,0,0],"sum_hessian":[2.007841E4,9.560734E3,1.0517677E4,8.146095E3,1.4146392E3,2.8263672E3,7.691309E3],"tree_param":{"num_deleted":"0","num_feature":"16","num_nodes":"7","size_leaf_vector":"0"}},{"base_weights":[-8.6987467E-4,-3.6237884E-2,2.7295485E-1,-3.74612E-3,-1.426284E0,5.829245E-1,7.968051E-2],"categories":[],"categories_nodes":[],"categories_segments":[],"categories_sizes":[],"default_left":[1,1,1,0,0,0,0],"id":90,"left_children":[1,3,5,-1,-1,-1,-1],"loss_changes":[1.93197E2,7.979202E2,1.366609E2,0E0,0E0,0E0,0E0],"parents":[2147483647,0,0,1,1,2,2],"right_children":[2,4,6,-1,-1,-1,-1],"split_conditions":[3.9994226E0,3.0001557E0,4.0005474E0,-3.7461202E-4,-1.426284E-1,5.829245E-2,7.968051E-3],"split_indices":[12,12,12,0,0,0,0],"split_type":[0,0,0,0,0,0,0],"sum_hessian":[1.9946793E4,1.7665885E4,2.28091E3,1.7263363E4,4.0252142E2,8.7522504E2,1.4056848E3],"tree_param":{"num_deleted":"0","num_feature":"16","num_nodes":"7","size_leaf_vector":"0"}},{"base_weights":[-8.5307535E-4,-2.5181457E-2,3.8035232E-1,-6.37225E-3,-1.6723317E0,7.2489905E-1,1.460892E-1],"categories":[],"categories_nodes":[],"categories_segments":[],"categories_sizes":[],"default_left":[1,1,1,0,0,0,0],"id":91,"left_children":[1,3,5,-1,-1,-1,-1],"loss_changes":[1.8457196E2,5.7958936E2,9.626184E1,0E0,0E0,0E0,0E0],"parents":[2147483647,0,0,1,1,2,2],"right_children":[2,4,6,-1,-1,-1,-1],"split_conditions":[4.9997663E0,4.0005474E0,5.000828E0,-6.3722505E-4,-1.6723317E-1,7.248991E-2,1.460892E-2],"split_indices":[12,12,12,0,0,0,0],"split_type":[0,0,0,0,0,0,0],"sum_hessian":[1.9899816E4,1.8706885E4,1.1929324E3,1.849667E4,2.102141E2,4.8197073E2,7.109616E2],"tree_param":{"num_deleted":"0","num_feature":"16","num_nodes":"7","size_leaf_vector":"0"}},{"base_weights":[-7.8762707E-4,3.9889053E-2,-2.2559507E-1,-7.9304986E-2,1.2708023E-1,-1.2348925E0,2.4327682E-1],"categories":[],"categories_nodes":[],"categories_segments":[],"categories_sizes":[],"default_left":[1,1,1,0,0,0,0],"id":92,"left_children":[1,3,5,-1,-1,-1,-1],"loss_changes":[1.8175635E2,1.7492746E2,1.4414651E3,0E0,0E0,0E0,0E0],"parents":[2147483647,0,0,1,1,2,2],"right_children":[2,4,6,-1,-1,-1,-1],"split_conditions":[4.663401E-5,5E-1,9.999465E-1,-7.930499E-3,1.2708023E-2,-1.2348925E-1,2.4327682E-2],"split_indices":[13,10,13,0,0,0,0],"split_type":[0,0,0,0,0,0,0],"sum_hessian":[1.9874217E4,1.6829846E4,3.0443713E3,7.110112E3,9.719733E3,9.651493E2,2.079222E3],"tree_param":{"num_deleted":"0","num_feature":"16","num_nodes":"7","size_leaf_vector":"0"}},{"base_weights":[-9.4658346E-4,-1.8716775E-2,4.9884006E-1,9.341766E-2,-1.10195264E-1,9.2237335E-1,1.4928094E-2],"categories":[],"categories_nodes":[],"categories_segments":[],"categories_sizes":[],"default_left":[1,1,1,0,0,0,0],"id":93,"left_children":[1,3,5,-1,-1,-1,-1],"loss_changes":[1.7557054E2,1.9583086E2,1.390977E2,0E0,0E0,0E0,0E0],"parents":[2147483647,0,0,1,1,2,2],"right_children":[2,4,6,-1,-1,-1,-1],"split_conditions":[3.5969524E1,4.8201355E1,3.7041344E1,9.341766E-3,-1.1019527E-2,9.223734E-2,1.4928094E-3],"split_indices":[14,9,14,0,0,0,0],"split_type":[0,0,0,0,0,0,0],"sum_hessian":[1.9766502E4,1.9088752E4,6.7774866E2,8.576117E3,1.0512636E4,3.6093884E2,3.1680984E2],"tree_param":{"num_deleted":"0","num_feature":"16","num_nodes":"7","size_leaf_vector":"0"}},{"base_weights":[-7.931617E-4,2.701631E-1,-3.3025343E-2,1.1806291E0,2.221612E-1,-1.4302351E0,-1.7669247E-2],"categories":[],"categories_nodes":[],"categories_segments":[],"categories_sizes":[],"default_left":[1,1,1,0,0,0,0],"id":94,"left_children":[1,3,5,-1,-1,-1,-1],"loss_changes":[1.7232137E2,9.141237E1,3.783116E2,0E0,0E0,0E0,0E0],"parents":[2147483647,0,0,1,1,2,2],"right_children":[2,4,6,-1,-1,-1,-1],"split_conditions":[4.0413036E0,9.527917E-1,4.9277115E0,1.1806291E-1,2.221612E-2,-1.4302352E-1,-1.7669247E-3],"split_indices":[14,14,14,0,0,0,0],"split_type":[0,0,0,0,0,0,0],"sum_hessian":[1.972903E4,2.0966228E3,1.7632406E4,1.038211E2,1.9928016E3,1.9068141E2,1.7441725E4],"tree_param":{"num_deleted":"0","num_feature":"16","num_nodes":"7","size_leaf_vector":"0"}},{"base_weights":[-7.3344563E-4,5.4039232E-2,-1.5738942E-1,6.973313E-3,2.8532162E-1,1.4780298E-1,-2.282481E-1],"categories":[],"categories_nodes":[],"categories_segments":[],"categories_sizes":[],"default_left":[1,1,1,0,0,0,0],"id":95,"left_children":[1,3,5,-1,-1,-1,-1],"loss_changes":[1.6906512E2,1.5891695E2,1.10418724E2,0E0,0E0,0E0,0E0],"parents":[2147483647,0,0,1,1,2,2],"right_children":[2,4,6,-1,-1,-1,-1],"split_conditions":[3.5E0,1.895595E1,8.002922E3,6.973313E-4,2.8532162E-2,1.4780298E-2,-2.282481E-2],"split_indices":[2,14,0,0,0,0,0],"split_type":[0,0,0,0,0,0,0],"sum_hessian":[1.9701498E4,1.4598115E4,5.1033823E3,1.2130576E4,2.4675396E3,9.6141736E2,4.141965E3],"tree_param":{"num_deleted":"0","num_feature":"16","num_nodes":"7","size_leaf_vector":"0"}},{"base_weights":[-6.4700295E-4,-4.6624575E-2,1.7803973E-1,1.609159E-3,-1.3114353E0,4.758732E-1,1.1978962E-2],"categories":[],"categories_nodes":[],"categories_segments":[],"categories_sizes":[],"default_left":[1,1,1,0,0,0,0],"id":96,"left_children":[1,3,5,-1,-1,-1,-1],"loss_changes":[1.6156743E2,9.54225E2,1.99047E2,0E0,0E0,0E0,0E0],"parents":[2147483647,0,0,1,1,2,2],"right_children":[2,4,6,-1,-1,-1,-1],"split_conditions":[2.9998846E0,2.0001016E0,3.0001557E0,1.6091591E-4,-1.3114354E-1,4.758732E-2,1.1978963E-3],"split_indices":[12,12,12,0,0,0,0],"split_type":[0,0,0,0,0,0,0],"sum_hessian":[1.9663963E4,1.5640319E4,4.0236443E3,1.5066746E4,5.7357367E2,1.4396808E3,2.5839636E3],"tree_param":{"num_deleted":"0","num_feature":"16","num_nodes":"7","size_leaf_vector":"0"}},{"base_weights":[-7.021475E-4,-6.532375E-2,1.257478E-1,1.7359558E-2,-1.250581E0,4.1455612E-1,-7.848999E-3],"categories":[],"categories_nodes":[],"categories_segments":[],"categories_sizes":[],"default_left":[1,1,1,0,0,0,0],"id":97,"left_children":[1,3,5,-1,-1,-1,-1],"loss_changes":[1.6017036E2,1.2712942E3,2.5578722E2,0E0,0E0,0E0,0E0],"parents":[2147483647,0,0,1,1,2,2],"right_children":[2,4,6,-1,-1,-1,-1],"split_conditions":[1.9998953E0,1.0000057E0,2.0001016E0,1.7359558E-3,-1.250581E-1,4.145561E-2,-7.849E-4],"split_indices":[12,12,12,0,0,0,0],"split_type":[0,0,0,0,0,0,0],"sum_hessian":[1.9599336E4,1.2971038E4,6.628299E3,1.2126108E4,8.4492944E2,2.09571E3,4.532589E3],"tree_param":{"num_deleted":"0","num_feature":"16","num_nodes":"7","size_leaf_vector":"0"}},{"base_weights":[-8.220906E-4,2.766379E-1,-3.0138718E-2,1.6921555E-1,5.281205E-1,-8.505023E-2,1.3818683E-1],"categories":[],"categories_nodes":[],"categories_segments":[],"categories_sizes":[],"default_left":[1,1,1,0,0,0,0],"id":98,"left_children":[1,3,5,-1,-1,-1,-1],"loss_changes":[1.5870726E2,5.028122E1,1.6311903E2,0E0,0E0,0E0,0E0],"parents":[2147483647,0,0,1,1,2,2],"right_children":[2,4,6,-1,-1,-1,-1],"split_conditions":[1.5E0,1.5E0,1.5E0,1.6921556E-2,5.281205E-2,-8.505023E-3,1.3818683E-2],"split_indices":[2,3,5,0,0,0,0],"split_type":[0,0,0,0,0,0,0],"sum_hessian":[1.9509105E4,1.8635509E3,1.7645553E4,1.3069514E3,5.565995E2,1.33055E4,4.3400537E3],"tree_param":{"num_deleted":"0","num_feature":"16","num_nodes":"7","size_leaf_vector":"0"}},{"base_weights":[-7.139417E-4,-9.393646E-2,8.505079E-2,8.895287E-2,-1.2444183E0,3.8564125E-1,-2.8077675E-2],"categories":[],"categories_nodes":[],"categories_segments":[],"categories_sizes":[],"default_left":[1,1,1,0,0,0,0],"id":99,"left_children":[1,3,5,-1,-1,-1,-1],"loss_changes":[1.5572508E2,1.963849E3,3.4497583E2,0E0,0E0,0E0,0E0],"parents":[2147483647,0,0,1,1,2,2],"right_children":[2,4,6,-1,-1,-1,-1],"split_conditions":[9.999465E-1,5.663394E-5,1.0000057E0,8.895287E-3,-1.24441825E-1,3.8564127E-2,-2.8077676E-3],"split_indices":[12,12,12,0,0,0,0],"split_type":[0,0,0,0,0,0,0],"sum_hessian":[1.9475314E4,9.331877E3,1.01434375E4,8.0526836E3,1.2791931E3,2.7729915E3,7.3704463E3],"tree_param":{"num_deleted":"0","num_feature":"16","num_nodes":"7","size_leaf_vector":"0"}}]},"name":"gbtree"},"learner_model_param":{"base_score":"5E-1","num_class":"0","num_feature":"16","num_target":"1"},"objective":{"name":"binary:logistic","reg_loss_param":{"scale_pos_weight":"1"}}},"version":[1,6,2]}