{"learner":{"attributes":{"best_iteration":"99","best_ntree_limit":"100","best_score":"0.4764306819792837","scikit_learn":"{\"use_label_encoder\": false, \"n_estimators\": 100, \"objective\": \"binary:logistic\", \"max_depth\": 2, \"max_leaves\": null, \"max_bin\": null, \"grow_policy\": null, \"learning_rate\": 0.1, \"verbosity\": null, \"booster\": null, \"tree_method\": null, \"gamma\": null, \"min_child_weight\": null, \"max_delta_step\": null, \"subsample\": null, \"sampling_method\": null, \"colsample_bytree\": null, \"colsample_bylevel\": null, \"colsample_bynode\": null, \"reg_alpha\": null, \"reg_lambda\": null, \"scale_pos_weight\": null, \"base_score\": null, \"missing\": NaN, \"num_parallel_tree\": null, \"random_state\": null, \"n_jobs\": null, \"monotone_constraints\": null, \"interaction_constraints\": null, \"importance_type\": null, \"gpu_id\": null, \"validate_parameters\": null, \"predictor\": null, \"enable_categorical\": false, \"max_cat_to_onehot\": null, \"eval_metric\": null, \"early_stopping_rounds\": null, \"callbacks\": null, \"kwargs\": {\"nthread\": 4, \"seed\": 42}, \"classes_\": [0, 1], \"n_classes_\": 2, \"evals_result_\": {\"validation_0\": {\"logloss\": [0.6579332699288925, 0.6292473464101553, 0.6056506832564871, 0.5860954729874929, 0.5698255338802933, 0.5562155865187446, 0.5448053473268946, 0.5351994652877251, 0.5271153825392326, 0.5202841565509637, 0.5145246781763931, 0.509655988719811, 0.5055281487452488, 0.5020296289503574, 0.49902082091967265, 0.49649073971609275, 0.49435835975458225, 0.49248720243126154, 0.49076991575161616, 0.4894189303383231, 0.4882740948855877, 0.48718360954374074, 0.48629078023023903, 0.485489377523462, 0.48482670816940565, 0.4842644167687744, 0.48376104098608097, 0.48329813997484744, 0.482838308065633, 0.48250668199186525, 0.4821655130378902, 0.48187581968717275, 0.48164116139474017, 0.481409815629075, 0.48120713762256007, 0.4809394720853617, 0.4807484806542595, 0.4805184901514401, 0.48037119597618777, 0.4802047210621337, 0.4800725397065282, 0.4799328791587303, 0.4798054737598946, 0.47969849524771174, 0.47955401903738576, 0.47946365200604, 0.4793672161370516, 0.4792347782242422, 0.47915597724324716, 0.47907452573763826, 0.4789723642775168, 0.47890834604656946, 0.47882853429572036, 0.47875336615846803, 0.4786975478698189, 0.4786443180017173, 0.4785853010877346, 0.47853941707126796, 0.4784691990399733, 0.478404329340222, 0.4783629983024051, 0.4783102224368602, 0.47826308171730486, 0.47820897417478264, 0.47817509809831776, 0.47814136019138, 0.4780995481301099, 0.47806353731732815, 0.47802528604399414, 0.4779981416982288, 0.4779563737112408, 0.4779278102454419, 0.47790136803394806, 0.47786463100028537, 0.4778413414555912, 0.4778125788735847, 0.47779009224381297, 0.4777641970238959, 0.47774321526469044, 0.4777210529789949, 0.47768733429412047, 0.4776694761775434, 0.477639542633233, 0.4776186691708242, 0.47759177314682555, 0.4775667109861349, 0.47754784268317746, 0.4775261595311885, 0.47749987856186926, 0.4774782033550553, 0.47746349938098964, 0.4774416469410993, 0.47742661703499034, 0.4774051312482295, 0.4773819491894295, 0.4773659291606086, 0.47734596093505, 0.47732438942911104, 0.4773098601699186, 0.47729761280144256]}, \"validation_1\": {\"logloss\": [0.6578712024450302, 0.6291257011204958, 0.6053653133139014, 0.5857574356734753, 0.5693467493996024, 0.5556884545743466, 0.544196646898985, 0.5345454777508974, 0.5263460100218653, 0.5194400020599366, 0.5136403471030295, 0.5087128140948712, 0.5045176687620581, 0.5009476249888539, 0.4978998255237937, 0.4953155723884702, 0.49309754890054464, 0.4912140861772001, 0.489431823913753, 0.4880440137088299, 0.4868487780764699, 0.48570186447501185, 0.48484711842648687, 0.4839945230990648, 0.48330807143859567, 0.4826806703280658, 0.4822268152087927, 0.48172540236338973, 0.48120170702338216, 0.4808379589978605, 0.4804782775461674, 0.48023448566496374, 0.4799508018307388, 0.47973244011960925, 0.47952831563316284, 0.47929039850644767, 0.47912079425230625, 0.4789177412636578, 0.4787288429968059, 0.47854255920276045, 0.4784180314745754, 0.47831539074406026, 0.47815735436193646, 0.4780821419265121, 0.4779308576740324, 0.47785994459874925, 0.4777469610616565, 0.47763041270412504, 0.47757620510607957, 0.47747197550814596, 0.47740583897158506, 0.4773485767761245, 0.4773122865943238, 0.47723315939661115, 0.4772210230035707, 0.4772101064991206, 0.4771555017717183, 0.4770959290968254, 0.47703848874922844, 0.4769860158992931, 0.47697219155933707, 0.4769184943104163, 0.47687360983584076, 0.47681883966028693, 0.4768091325255111, 0.47678130857981743, 0.4767435980360955, 0.4766897209778428, 0.4766877492012456, 0.4766765255853534, 0.47665922115873544, 0.47663514981064947, 0.4766455124428496, 0.47662627311814576, 0.47661144481338563, 0.4765883485956118, 0.4765494635151699, 0.47653926616273823, 0.47653483055457474, 0.4765275378456339, 0.4765083327012137, 0.47650270994082095, 0.4765067260125652, 0.47649549124874174, 0.47648842443451284, 0.47649521691016855, 0.47649615193028005, 0.4764935251075774, 0.47649123237933966, 0.47648401851281524, 0.4764813312128186, 0.4764727509997785, 0.4764501049358398, 0.4764517746994272, 0.47644071277882905, 0.4764365626340732, 0.4764448988566175, 0.4764375269252807, 0.47643448583390563, 0.4764306819792837]}}, \"_estimator_type\": \"classifier\"}"},"feature_names":["loan_amnt","term","grade","home_ownership","annual_inc"],"feature_types":["float","int","int","int","float"],"gradient_booster":{"model":{"gbtree_model_param":{"num_parallel_tree":"1","num_trees":"100","size_leaf_vector":"0"},"tree_info":[0,0,0,0,0,0,0,0,0,0,0,0,0,0,0,0,0,0,0,0,0,0,0,0,0,0,0,0,0,0,0,0,0,0,0,0,0,0,0,0,0,0,0,0,0,0,0,0,0,0,0,0,0,0,0,0,0,0,0,0,0,0,0,0,0,0,0,0,0,0,0,0,0,0,0,0,0,0,0,0,0,0,0,0,0,0,0,0,0,0,0,0,0,0,0,0,0,0,0,0],"trees":[{"base_weights":[1.1525232E0,1.5410364E0,8.5311383E-1,1.7484709E0,1.4255775E0,1.0414147E0,5.9232175E-1],"categories":[],"categories_nodes":[],"categories_segments":[],"categories_sizes":[],"default_left":[1,1,1,0,0,0,0],"id":0,"left_children":[1,3,5,-1,-1,-1,-1],"loss_changes":[1.743668E3,1.5384766E2,4.1553174E2,0E0,0E0,0E0,0E0],"parents":[2147483647,0,0,1,1,2,2],"right_children":[2,4,6,-1,-1,-1,-1],"split_conditions":[2.5E0,1.5E0,3.5E0,1.748471E-1,1.4255776E-1,1.04141474E-1,5.9232175E-2],"split_indices":[2,2,2,0,0,0,0],"split_type":[0,0,0,0,0,0,0],"sum_hessian":[1.5E4,6.52675E3,8.47325E3,2.32875E3,4.198E3,4.91875E3,3.5545E3],"tree_param":{"num_deleted":"0","num_feature":"5","num_nodes":"7","size_leaf_vector":"0"}},{"base_weights":[1.0413194E0,1.3956252E0,7.693751E-1,1.586199E0,1.2898241E0,9.399317E-1,5.335912E-1],"categories":[],"categories_nodes":[],"categories_segments":[],"categories_sizes":[],"default_left":[1,1,1,0,0,0,0],"id":1,"left_children":[1,3,5,-1,-1,-1,-1],"loss_changes":[1.438957E3,1.2878711E2,3.396255E2,0E0,0E0,0E0,0E0],"parents":[2147483647,0,0,1,1,2,2],"right_children":[2,4,6,-1,-1,-1,-1],"split_conditions":[2.5E0,1.5E0,3.5E0,1.5861991E-1,1.2898241E-1,9.399317E-2,5.335912E-2],"split_indices":[2,2,2,0,0,0,0],"split_type":[0,0,0,0,0,0,0],"sum_hessian":[1.4944606E4,6.487785E3,8.456821E3,2.311042E3,4.176743E3,4.9054375E3,3.551384E3],"tree_param":{"num_deleted":"0","num_feature":"5","num_nodes":"7","size_leaf_vector":"0"}},{"base_weights":[9.468715E-1,1.2769887E0,6.961715E-1,1.4579772E0,1.1771886E0,7.81068E-1,2.9016358E-1],"categories":[],"categories_nodes":[],"categories_segments":[],"categories_sizes":[],"default_left":[1,1,1,0,0,0,0],"id":2,"left_children":[1,3,5,-1,-1,-1,-1],"loss_changes":[1.2241133E3,1.13663086E2,2.898291E2,0E0,0E0,0E0,0E0],"parents":[2147483647,0,0,1,1,2,2],"right_children":[2,4,6,-1,-1,-1,-1],"split_conditions":[2.5E0,1.5E0,4.5E0,1.4579771E-1,1.1771887E-1,7.8106806E-2,2.9016359E-2],"split_indices":[2,2,2,0,0,0,0],"split_type":[0,0,0,0,0,0,0],"sum_hessian":[1.4800798E4,6.386749E3,8.414049E3,2.265192E3,4.121557E3,6.9581675E3,1.4558811E3],"tree_param":{"num_deleted":"0","num_feature":"5","num_nodes":"7","size_leaf_vector":"0"}},{"base_weights":[8.64845E-1,1.1772327E0,6.312971E-1,1.3531668E0,1.0811857E0,7.8169453E-1,4.2541558E-1],"categories":[],"categories_nodes":[],"categories_segments":[],"categories_sizes":[],"default_left":[1,1,1,0,0,0,0],"id":3,"left_children":[1,3,5,-1,-1,-1,-1],"loss_changes":[1.0643096E3,1.040459E2,2.583838E2,0E0,0E0,0E0,0E0],"parents":[2147483647,0,0,1,1,2,2],"right_children":[2,4,6,-1,-1,-1,-1],"split_conditions":[2.5E0,1.5E0,3.5E0,1.3531668E-1,1.0811857E-1,7.816946E-2,4.254156E-2],"split_indices":[2,2,2,0,0,0,0],"split_type":[0,0,0,0,0,0,0],"sum_hessian":[1.4597265E4,6.2428906E3,8.354374E3,2.1999822E3,4.0429084E3,4.826094E3,3.52828E3],"tree_param":{"num_deleted":"0","num_feature":"5","num_nodes":"7","size_leaf_vector":"0"}},{"base_weights":[7.9255056E-1,1.0912459E0,5.734868E-1,1.2650577E0,9.97545E-1,6.4836115E-1,2.1999036E-1],"categories":[],"categories_nodes":[],"categories_segments":[],"categories_sizes":[],"default_left":[1,1,1,0,0,0,0],"id":4,"left_children":[1,3,5,-1,-1,-1,-1],"loss_changes":[9.385469E2,9.7623535E1,2.190752E2,0E0,0E0,0E0,0E0],"parents":[2147483647,0,0,1,1,2,2],"right_children":[2,4,6,-1,-1,-1,-1],"split_conditions":[2.5E0,1.5E0,4.5E0,1.2650578E-1,9.9754505E-2,6.4836115E-2,2.1999037E-2],"split_indices":[2,2,2,0,0,0,0],"split_type":[0,0,0,0,0,0,0],"sum_hessian":[1.4352135E4,6.0707E3,8.281435E3,2.121989E3,3.9487112E3,6.8332466E3,1.4481879E3],"tree_param":{"num_deleted":"0","num_feature":"5","num_nodes":"7","size_leaf_vector":"0"}},{"base_weights":[7.278493E-1,1.0155784E0,5.2144086E-1,1.1891958E0,9.233514E-1,6.562954E-1,3.39526E-1],"categories":[],"categories_nodes":[],"categories_segments":[],"categories_sizes":[],"default_left":[1,1,1,0,0,0,0],"id":5,"left_children":[1,3,5,-1,-1,-1,-1],"loss_changes":[8.359238E2,9.30874E1,2.010149E2,0E0,0E0,0E0,0E0],"parents":[2147483647,0,0,1,1,2,2],"right_children":[2,4,6,-1,-1,-1,-1],"split_conditions":[2.5E0,1.5E0,3.5E0,1.1891957E-1,9.233514E-2,6.562954E-2,3.39526E-2],"split_indices":[2,2,2,0,0,0,0],"split_type":[0,0,0,0,0,0,0],"sum_hessian":[1.4083146E4,5.8810986E3,8.202048E3,2.0361498E3,3.844949E3,4.7087876E3,3.49326E3],"tree_param":{"num_deleted":"0","num_feature":"5","num_nodes":"7","size_leaf_vector":"0"}},{"base_weights":[6.6945016E-1,9.4782716E-1,4.7449434E-1,1.1225052E0,8.5656047E-1,5.9714454E-1,2.9424047E-1],"categories":[],"categories_nodes":[],"categories_segments":[],"categories_sizes":[],"default_left":[1,1,1,0,0,0,0],"id":6,"left_children":[1,3,5,-1,-1,-1,-1],"loss_changes":[7.485405E2,8.9643555E1,1.7931152E2,0E0,0E0,0E0,0E0],"parents":[2147483647,0,0,1,1,2,2],"right_children":[2,4,6,-1,-1,-1,-1],"split_conditions":[2.5E0,1.5E0,1.5E0,1.1225052E-1,8.565605E-2,5.9714455E-2,2.9424047E-2],"split_indices":[2,2,3,0,0,0,0],"split_type":[0,0,0,0,0,0,0],"sum_hessian":[1.379988E4,5.6822896E3,8.11759E3,1.9461652E3,3.7361243E3,4.8292856E3,3.2883044E3],"tree_param":{"num_deleted":"0","num_feature":"5","num_nodes":"7","size_leaf_vector":"0"}},{"base_weights":[6.160021E-1,8.8628E-1,4.316082E-1,1.0627948E0,7.9571027E-1,5.5914366E-1,2.620276E-1],"categories":[],"categories_nodes":[],"categories_segments":[],"categories_sizes":[],"default_left":[1,1,1,0,0,0,0],"id":7,"left_children":[1,3,5,-1,-1,-1,-1],"loss_changes":[6.733301E2,8.678467E1,1.7369067E2,0E0,0E0,0E0,0E0],"parents":[2147483647,0,0,1,1,2,2],"right_children":[2,4,6,-1,-1,-1,-1],"split_conditions":[2.5E0,1.5E0,3.5E0,1.06279485E-1,7.957103E-2,5.591437E-2,2.6202759E-2],"split_indices":[2,2,2,0,0,0,0],"split_type":[0,0,0,0,0,0,0],"sum_hessian":[1.3517158E4,5.480391E3,8.036767E3,1.8547892E3,3.625602E3,4.585717E3,3.4510503E3],"tree_param":{"num_deleted":"0","num_feature":"5","num_nodes":"7","size_leaf_vector":"0"}},{"base_weights":[5.6724423E-1,8.296949E-1,3.9289036E-1,1.0084643E0,7.397379E-1,4.5826823E-1,9.33928E-2],"categories":[],"categories_nodes":[],"categories_segments":[],"categories_sizes":[],"default_left":[1,1,1,0,0,0,0],"id":8,"left_children":[1,3,5,-1,-1,-1,-1],"loss_changes":[6.051787E2,8.417944E1,1.5567078E2,0E0,0E0,0E0,0E0],"parents":[2147483647,0,0,1,1,2,2],"right_children":[2,4,6,-1,-1,-1,-1],"split_conditions":[2.5E0,1.5E0,4.5E0,1.0084643E-1,7.39738E-2,4.5826823E-2,9.3392795E-3],"split_indices":[2,2,2,0,0,0,0],"split_type":[0,0,0,0,0,0,0],"sum_hessian":[1.3231393E4,5.2799106E3,7.9514824E3,1.7640485E3,3.5158623E3,6.5263115E3,1.4251705E3],"tree_param":{"num_deleted":"0","num_feature":"5","num_nodes":"7","size_leaf_vector":"0"}},{"base_weights":[5.222891E-1,7.7716196E-1,3.5754183E-1,9.5832473E-1,6.878638E-1,4.7303352E-1,1.8921019E-1],"categories":[],"categories_nodes":[],"categories_segments":[],"categories_sizes":[],"default_left":[1,1,1,0,0,0,0],"id":9,"left_children":[1,3,5,-1,-1,-1,-1],"loss_changes":[5.436648E2,8.1605225E1,1.5291254E2,0E0,0E0,0E0,0E0],"parents":[2147483647,0,0,1,1,2,2],"right_children":[2,4,6,-1,-1,-1,-1],"split_conditions":[2.5E0,1.5E0,1.5E0,9.5832475E-2,6.878638E-2,4.7303353E-2,1.892102E-2],"split_indices":[2,2,3,0,0,0,0],"split_type":[0,0,0,0,0,0,0],"sum_hessian":[1.2953219E4,5.0841113E3,7.869108E3,1.675409E3,3.4087021E3,4.665984E3,3.2031238E3],"tree_param":{"num_deleted":"0","num_feature":"5","num_nodes":"7","size_leaf_vector":"0"}},{"base_weights":[4.8060763E-1,7.2801E-1,3.251291E-1,9.1147983E-1,6.3951135E-1,4.4162735E-1,1.7361227E-1],"categories":[],"categories_nodes":[],"categories_segments":[],"categories_sizes":[],"default_left":[1,1,1,0,0,0,0],"id":10,"left_children":[1,3,5,-1,-1,-1,-1],"loss_changes":[4.8787524E2,7.891724E1,1.3750275E2,0E0,0E0,0E0,0E0],"parents":[2147483647,0,0,1,1,2,2],"right_children":[2,4,6,-1,-1,-1,-1],"split_conditions":[2.5E0,1.5E0,3.5E0,9.114798E-2,6.3951135E-2,4.4162735E-2,1.7361227E-2],"split_indices":[2,2,2,0,0,0,0],"split_type":[0,0,0,0,0,0,0],"sum_hessian":[1.2688521E4,4.895294E3,7.793227E3,1.5899044E3,3.3053894E3,4.404658E3,3.388569E3],"tree_param":{"num_deleted":"0","num_feature":"5","num_nodes":"7","size_leaf_vector":"0"}},{"base_weights":[4.4218984E-1,6.8174356E-1,2.957406E-1,8.672496E-1,5.942521E-1,3.306408E-1,-1.8773948E-1],"categories":[],"categories_nodes":[],"categories_segments":[],"categories_sizes":[],"default_left":[1,1,1,0,0,0,0],"id":11,"left_children":[1,3,5,-1,-1,-1,-1],"loss_changes":[4.3595215E2,7.602661E1,1.3027899E2,0E0,0E0,0E0,0E0],"parents":[2147483647,0,0,1,1,2,2],"right_children":[2,4,6,-1,-1,-1,-1],"split_conditions":[2.5E0,1.5E0,5.5E0,8.672496E-2,5.9425212E-2,3.306408E-2,-1.8773949E-2],"split_indices":[2,2,2,0,0,0,0],"split_type":[0,0,0,0,0,0,0],"sum_hessian":[1.2431242E4,4.715017E3,7.716225E3,1.5082335E3,3.2067834E3,7.1970215E3,5.192034E2],"tree_param":{"num_deleted":"0","num_feature":"5","num_nodes":"7","size_leaf_vector":"0"}},{"base_weights":[4.0645415E-1,6.3799816E-1,2.6877284E-1,8.251192E-1,5.517653E-1,3.7739033E-1,1.1207805E-1],"categories":[],"categories_nodes":[],"categories_segments":[],"categories_sizes":[],"default_left":[1,1,1,0,0,0,0],"id":12,"left_children":[1,3,5,-1,-1,-1,-1],"loss_changes":[3.884746E2,7.2887085E1,1.3010657E2,0E0,0E0,0E0,0E0],"parents":[2147483647,0,0,1,1,2,2],"right_children":[2,4,6,-1,-1,-1,-1],"split_conditions":[2.5E0,1.5E0,1.5E0,8.2511924E-2,5.5176534E-2,3.7739035E-2,1.1207805E-2],"split_indices":[2,2,3,0,0,0,0],"split_type":[0,0,0,0,0,0,0],"sum_hessian":[1.2190184E4,4.5442715E3,7.645912E3,1.4308428E3,3.1134287E3,4.514884E3,3.1310286E3],"tree_param":{"num_deleted":"0","num_feature":"5","num_nodes":"7","size_leaf_vector":"0"}},{"base_weights":[3.7325874E-1,5.965075E-1,2.4410954E-1,7.846987E-1,5.11811E-1,3.4659395E-1,8.079775E-2],"categories":[],"categories_nodes":[],"categories_segments":[],"categories_sizes":[],"default_left":[1,1,1,0,0,0,0],"id":13,"left_children":[1,3,5,-1,-1,-1,-1],"loss_changes":[3.4485706E2,6.948535E1,1.2687433E2,0E0,0E0,0E0,0E0],"parents":[2147483647,0,0,1,1,2,2],"right_children":[2,4,6,-1,-1,-1,-1],"split_conditions":[2.5E0,1.5E0,5E-1,7.846987E-2,5.1181104E-2,3.4659397E-2,8.079775E-3],"split_indices":[2,2,1,0,0,0,0],"split_type":[0,0,0,0,0,0,0],"sum_hessian":[1.1964798E4,4.3836143E3,7.5811836E3,1.3579823E3,3.025632E3,4.6573784E3,2.9238054E3],"tree_param":{"num_deleted":"0","num_feature":"5","num_nodes":"7","size_leaf_vector":"0"}},{"base_weights":[3.424485E-1,4.4347122E-1,8.514906E-2,7.45699E-1,3.888581E-1,4.977067E-1,2.9457035E-2],"categories":[],"categories_nodes":[],"categories_segments":[],"categories_sizes":[],"default_left":[1,1,1,0,0,0,0],"id":14,"left_children":[1,3,5,-1,-1,-1,-1],"loss_changes":[3.0552014E2,1.390321E2,7.6161804E1,0E0,0E0,0E0,0E0],"parents":[2147483647,0,0,1,1,2,2],"right_children":[2,4,6,-1,-1,-1,-1],"split_conditions":[3.5E0,1.5E0,5.7375E3,7.45699E-2,3.8885813E-2,4.9770672E-2,2.9457035E-3],"split_indices":[2,2,0,0,0,0,0],"split_type":[0,0,0,0,0,0,0],"sum_hessian":[1.1754353E4,8.439897E3,3.314455E3,1.2897568E3,7.150141E3,3.9326605E2,2.9211892E3],"tree_param":{"num_deleted":"0","num_feature":"5","num_nodes":"7","size_leaf_vector":"0"}},{"base_weights":[3.1389305E-1,5.2380204E-1,1.9812933E-1,7.0790946E-1,4.4522294E-1,3.285033E-1,7.632365E-2],"categories":[],"categories_nodes":[],"categories_segments":[],"categories_sizes":[],"default_left":[1,1,1,0,0,0,0],"id":15,"left_children":[1,3,5,-1,-1,-1,-1],"loss_changes":[2.8076807E2,5.911548E1,1.18308105E2,0E0,0E0,0E0,0E0],"parents":[2147483647,0,0,1,1,2,2],"right_children":[2,4,6,-1,-1,-1,-1],"split_conditions":[2.5E0,1.5E0,5E-1,7.079095E-2,4.4522297E-2,3.2850333E-2,7.632365E-3],"split_indices":[2,2,3,0,0,0,0],"split_type":[0,0,0,0,0,0,0],"sum_hessian":[1.1557584E4,4.1070093E3,7.4505747E3,1.22616E3,2.8808494E3,3.597894E3,3.852681E3],"tree_param":{"num_deleted":"0","num_feature":"5","num_nodes":"7","size_leaf_vector":"0"}},{"base_weights":[2.874393E-1,4.8790377E-1,1.7966278E-1,6.711851E-1,4.1153932E-1,3.7091947E-1,1.05419844E-1],"categories":[],"categories_nodes":[],"categories_segments":[],"categories_sizes":[],"default_left":[1,1,1,0,0,0,0],"id":16,"left_children":[1,3,5,-1,-1,-1,-1],"loss_changes":[2.4569586E2,5.5387268E1,1.0503674E2,0E0,0E0,0E0,0E0],"parents":[2147483647,0,0,1,1,2,2],"right_children":[2,4,6,-1,-1,-1,-1],"split_conditions":[2.5E0,1.5E0,9.5875E3,6.711851E-2,4.1153934E-2,3.7091948E-2,1.0541985E-2],"split_indices":[2,2,0,0,0,0,0],"split_type":[0,0,0,0,0,0,0],"sum_hessian":[1.1375043E4,3.9760522E3,7.398991E3,1.1671069E3,2.8089453E3,2.067898E3,5.3310933E3],"tree_param":{"num_deleted":"0","num_feature":"5","num_nodes":"7","size_leaf_vector":"0"}},{"base_weights":[2.629324E-1,3.5442615E-1,4.1189086E-2,4.7470134E-1,2.2790591E-1,4.0841734E-1,-7.4183964E-3],"categories":[],"categories_nodes":[],"categories_segments":[],"categories_sizes":[],"default_left":[1,1,1,0,0,0,0],"id":17,"left_children":[1,3,5,-1,-1,-1,-1],"loss_changes":[2.2737201E2,1.2062567E2,5.8459236E1,0E0,0E0,0E0,0E0],"parents":[2147483647,0,0,1,1,2,2],"right_children":[2,4,6,-1,-1,-1,-1],"split_conditions":[3.5E0,5E-1,5.7375E3,4.7470134E-2,2.2790592E-2,4.0841736E-2,-7.4183964E-4],"split_indices":[2,3,0,0,0,0,0],"split_type":[0,0,0,0,0,0,0],"sum_hessian":[1.1206867E4,7.9330176E3,3.2738496E3,4.0654688E3,3.8675488E3,3.8181848E2,2.892031E3],"tree_param":{"num_deleted":"0","num_feature":"5","num_nodes":"7","size_leaf_vector":"0"}},{"base_weights":[2.4016997E-1,3.2688722E-1,2.1466244E-2,4.5960894E-1,2.1339642E-1,1.5339959E-1,-2.6241046E-1],"categories":[],"categories_nodes":[],"categories_segments":[],"categories_sizes":[],"default_left":[1,1,1,0,0,0,0],"id":18,"left_children":[1,3,5,-1,-1,-1,-1],"loss_changes":[2.0967908E2,1.191535E2,1.17650986E2,0E0,0E0,0E0,0E0],"parents":[2147483647,0,0,1,1,2,2],"right_children":[2,4,6,-1,-1,-1,-1],"split_conditions":[5E-1,5E-1,1.5E0,4.5960896E-2,2.1339642E-2,1.53399585E-2,-2.6241047E-2],"split_indices":[1,3,3,0,0,0,0],"split_type":[0,0,0,0,0,0,0],"sum_hessian":[1.1055253E4,7.916015E3,3.1392383E3,3.6474531E3,4.268562E3,2.1434958E3,9.9574243E2],"tree_param":{"num_deleted":"0","num_feature":"5","num_nodes":"7","size_leaf_vector":"0"}},{"base_weights":[2.1908222E-1,4.045197E-1,1.24379314E-1,5.953193E-1,3.2799408E-1,1.5397225E-1,-2.6435846E-1],"categories":[],"categories_nodes":[],"categories_segments":[],"categories_sizes":[],"default_left":[1,1,1,0,0,0,0],"id":19,"left_children":[1,3,5,-1,-1,-1,-1],"loss_changes":[1.9173694E2,5.370349E1,8.321945E1,0E0,0E0,0E0,0E0],"parents":[2147483647,0,0,1,1,2,2],"right_children":[2,4,6,-1,-1,-1,-1],"split_conditions":[2.5E0,1.5E0,5.5E0,5.9531927E-2,3.2799408E-2,1.53972255E-2,-2.6435846E-2],"split_indices":[2,2,2,0,0,0,0],"split_type":[0,0,0,0,0,0,0],"sum_hessian":[1.0919913E4,3.6904272E3,7.229486E3,1.0544965E3,2.635931E3,6.7186294E3,5.1085657E2],"tree_param":{"num_deleted":"0","num_feature":"5","num_nodes":"7","size_leaf_vector":"0"}},{"base_weights":[1.9988783E-1,3.7469125E-1,1.12555705E-1,5.6151813E-1,3.0155373E-1,2.007572E-1,-1.0680365E-2],"categories":[],"categories_nodes":[],"categories_segments":[],"categories_sizes":[],"default_left":[1,1,1,0,0,0,0],"id":20,"left_children":[1,3,5,-1,-1,-1,-1],"loss_changes":[1.6461548E2,4.8925232E1,7.8197685E1,0E0,0E0,0E0,0E0],"parents":[2147483647,0,0,1,1,2,2],"right_children":[2,4,6,-1,-1,-1,-1],"split_conditions":[2.5E0,1.5E0,1.5E0,5.6151815E-2,3.0155374E-2,2.0075722E-2,-1.0680365E-3],"split_indices":[2,2,3,0,0,0,0],"split_type":[0,0,0,0,0,0,0],"sum_hessian":[1.0784937E4,3.591974E3,7.1929624E3,1.00867566E3,2.5832983E3,4.192041E3,3.0009219E3],"tree_param":{"num_deleted":"0","num_feature":"5","num_nodes":"7","size_leaf_vector":"0"}},{"base_weights":[1.8219121E-1,2.5984797E-1,-7.500225E-3,3.8154256E-1,1.5844993E-1,1.0622536E-1,-2.4637859E-1],"categories":[],"categories_nodes":[],"categories_segments":[],"categories_sizes":[],"default_left":[1,1,1,0,0,0,0],"id":21,"left_children":[1,3,5,-1,-1,-1,-1],"loss_changes":[1.5707913E2,9.3299164E1,8.4196556E1,0E0,0E0,0E0,0E0],"parents":[2147483647,0,0,1,1,2,2],"right_children":[2,4,6,-1,-1,-1,-1],"split_conditions":[5E-1,5E-1,1.5E0,3.8154256E-2,1.5844993E-2,1.0622536E-2,-2.463786E-2],"split_indices":[1,3,3,0,0,0,0],"split_type":[0,0,0,0,0,0,0],"sum_hessian":[1.0662166E4,7.5648594E3,3.0973064E3,3.437055E3,4.127804E3,2.0987063E3,9.9860004E2],"tree_param":{"num_deleted":"0","num_feature":"5","num_nodes":"7","size_leaf_vector":"0"}},{"base_weights":[1.657887E-1,2.4335766E-1,-1.1276715E-2,5.1150954E-1,2.0363325E-1,-8.836471E-2,1.9175608E-1],"categories":[],"categories_nodes":[],"categories_segments":[],"categories_sizes":[],"default_left":[1,1,1,0,0,0,0],"id":22,"left_children":[1,3,5,-1,-1,-1,-1],"loss_changes":[1.4500455E2,7.809631E1,5.0367546E1,0E0,0E0,0E0,0E0],"parents":[2147483647,0,0,1,1,2,2],"right_children":[2,4,6,-1,-1,-1,-1],"split_conditions":[3.5E0,1.5E0,8.863419E4,5.1150955E-2,2.0363325E-2,-8.8364715E-3,1.917561E-2],"split_indices":[2,2,4,0,0,0,0],"split_type":[0,0,0,0,0,0,0],"sum_hessian":[1.0556271E4,7.340267E3,3.2160046E3,9.455615E2,6.3947056E3,2.3313838E3,8.846209E2],"tree_param":{"num_deleted":"0","num_feature":"5","num_nodes":"7","size_leaf_vector":"0"}},{"base_weights":[1.5086882E-1,2.211072E-1,-1.7269049E-2,3.3474472E-1,1.2805654E-1,8.495701E-2,-2.2903913E-1],"categories":[],"categories_nodes":[],"categories_segments":[],"categories_sizes":[],"default_left":[1,1,1,0,0,0,0],"id":23,"left_children":[1,3,5,-1,-1,-1,-1],"loss_changes":[1.23451996E2,7.79209E1,6.671752E1,0E0,0E0,0E0,0E0],"parents":[2147483647,0,0,1,1,2,2],"right_children":[2,4,6,-1,-1,-1,-1],"split_conditions":[5E-1,5E-1,1.5E0,3.347447E-2,1.2805655E-2,8.4957015E-3,-2.2903914E-2],"split_indices":[1,3,3,0,0,0,0],"split_type":[0,0,0,0,0,0,0],"sum_hessian":[1.0452091E4,7.372124E3,3.0799668E3,3.317748E3,4.0543757E3,2.077642E3,1.0023245E3],"tree_param":{"num_deleted":"0","num_feature":"5","num_nodes":"7","size_leaf_vector":"0"}},{"base_weights":[1.3708545E-1,2.073025E-1,-1.9777732E-2,4.6466893E-1,1.7062418E-1,2.9865205E-1,-6.0848784E-2],"categories":[],"categories_nodes":[],"categories_segments":[],"categories_sizes":[],"default_left":[1,1,1,0,0,0,0],"id":24,"left_children":[1,3,5,-1,-1,-1,-1],"loss_changes":[1.14154175E2,6.750113E1,4.194085E1,0E0,0E0,0E0,0E0],"parents":[2147483647,0,0,1,1,2,2],"right_children":[2,4,6,-1,-1,-1,-1],"split_conditions":[3.5E0,1.5E0,5.7375E3,4.6466894E-2,1.7062418E-2,2.9865205E-2,-6.0848785E-3],"split_indices":[2,2,0,0,0,0,0],"split_type":[0,0,0,0,0,0,0],"sum_hessian":[1.0362646E4,7.1581187E3,3.2045273E3,8.9142816E2,6.2666904E3,3.6538364E2,2.8391438E3],"tree_param":{"num_deleted":"0","num_feature":"5","num_nodes":"7","size_leaf_vector":"0"}},{"base_weights":[1.2457458E-1,2.676318E-1,5.793827E-2,3.4806472E-1,1.3398024E-1,2.428656E-1,9.696583E-3],"categories":[],"categories_nodes":[],"categories_segments":[],"categories_sizes":[],"default_left":[1,1,1,0,0,0,0],"id":25,"left_children":[1,3,5,-1,-1,-1,-1],"loss_changes":[9.793649E1,3.5051926E1,6.2546593E1,0E0,0E0,0E0,0E0],"parents":[2147483647,0,0,1,1,2,2],"right_children":[2,4,6,-1,-1,-1,-1],"split_conditions":[2.5E0,1.5E0,7.5875E3,3.480647E-2,1.3398024E-2,2.428656E-2,9.696583E-4],"split_indices":[2,3,0,0,0,0,0],"split_type":[0,0,0,0,0,0,0],"sum_hessian":[1.0274253E4,3.2639888E3,7.0102646E3,2.0366858E3,1.227303E3,1.4495594E3,5.560705E3],"tree_param":{"num_deleted":"0","num_feature":"5","num_nodes":"7","size_leaf_vector":"0"}},{"base_weights":[1.1309138E-1,1.7518812E-1,-2.268156E-2,2.6781046E-1,8.438554E-2,-9.35161E-2,1.651974E-1],"categories":[],"categories_nodes":[],"categories_segments":[],"categories_sizes":[],"default_left":[1,1,1,0,0,0,0],"id":26,"left_children":[1,3,5,-1,-1,-1,-1],"loss_changes":[8.597812E1,5.882663E1,4.2616344E1,0E0,0E0,0E0,0E0],"parents":[2147483647,0,0,1,1,2,2],"right_children":[2,4,6,-1,-1,-1,-1],"split_conditions":[3.5E0,5E-1,8.863419E4,2.6781047E-2,8.438554E-3,-9.35161E-3,1.651974E-2],"split_indices":[2,3,4,0,0,0,0],"split_type":[0,0,0,0,0,0,0],"sum_hessian":[1.0196314E4,6.996242E3,3.2000725E3,3.462451E3,3.533791E3,2.3242725E3,8.7580005E2],"tree_param":{"num_deleted":"0","num_feature":"5","num_nodes":"7","size_leaf_vector":"0"}},{"base_weights":[1.02584496E-1,1.6159809E-1,-3.4512803E-2,4.0684387E-1,1.2965159E-1,5.381503E-2,-2.1402983E-1],"categories":[],"categories_nodes":[],"categories_segments":[],"categories_sizes":[],"default_left":[1,1,1,0,0,0,0],"id":27,"left_children":[1,3,5,-1,-1,-1,-1],"loss_changes":[8.193633E1,5.541353E1,4.834377E1,0E0,0E0,0E0,0E0],"parents":[2147483647,0,0,1,1,2,2],"right_children":[2,4,6,-1,-1,-1,-1],"split_conditions":[5E-1,1.5E0,1.5E0,4.0684387E-2,1.29651595E-2,5.381503E-3,-2.1402983E-2],"split_indices":[1,2,3,0,0,0,0],"split_type":[0,0,0,0,0,0,0],"sum_hessian":[1.0125655E4,7.0785234E3,3.047132E3,8.144496E2,6.2640737E3,2.0427415E3,1.00439056E3],"tree_param":{"num_deleted":"0","num_feature":"5","num_nodes":"7","size_leaf_vector":"0"}},{"base_weights":[9.302543E-2,1.6882809E-1,-2.0255398E-3,9.8444015E-2,3.7978593E-1,7.093466E-2,-1.4849947E-1],"categories":[],"categories_nodes":[],"categories_segments":[],"categories_sizes":[],"default_left":[1,1,1,0,0,0,0],"id":28,"left_children":[1,3,5,-1,-1,-1,-1],"loss_changes":[7.248678E1,8.3066086E1,4.772154E1,0E0,0E0,0E0,0E0],"parents":[2147483647,0,0,1,1,2,2],"right_children":[2,4,6,-1,-1,-1,-1],"split_conditions":[1.49125E4,7.5317E4,1.5E0,9.844402E-3,3.7978593E-2,7.0934664E-3,-1.4849948E-2],"split_indices":[0,4,3,0,0,0,0],"split_type":[0,0,0,0,0,0,0],"sum_hessian":[1.0059414E4,5.5959204E3,4.4634937E3,4.197073E3,1.3988469E3,2.97976E3,1.4837338E3],"tree_param":{"num_deleted":"0","num_feature":"5","num_nodes":"7","size_leaf_vector":"0"}},{"base_weights":[8.42436E-2,3.670327E-1,5.9876125E-2,3.9585063E-1,2.011691E-2,2.0944594E-1,1.528224E-2],"categories":[],"categories_nodes":[],"categories_segments":[],"categories_sizes":[],"default_left":[1,1,1,0,0,0,0],"id":29,"left_children":[1,3,5,-1,-1,-1,-1],"loss_changes":[6.894037E1,7.9274445E0,6.1460293E1,0E0,0E0,0E0,0E0],"parents":[2147483647,0,0,1,1,2,2],"right_children":[2,4,6,-1,-1,-1,-1],"split_conditions":[1.5E0,2.83875E4,7.6125E3,3.9585065E-2,2.011691E-3,2.0944593E-2,1.528224E-3],"split_indices":[2,0,0,0,0,0,0],"split_type":[0,0,0,0,0,0,0],"sum_hessian":[1.0006804E4,7.9274835E2,9.214055E3,7.3181616E2,6.093219E1,2.1153577E3,7.0986973E3],"tree_param":{"num_deleted":"0","num_feature":"5","num_nodes":"7","size_leaf_vector":"0"}},{"base_weights":[7.62911E-2,1.5934506E-1,-1.0347223E-3,2.388525E-1,4.2974394E-2,1.5279305E-1,-6.296601E-2],"categories":[],"categories_nodes":[],"categories_segments":[],"categories_sizes":[],"default_left":[1,1,1,0,0,0,0],"id":30,"left_children":[1,3,5,-1,-1,-1,-1],"loss_changes":[6.394014E1,4.4403175E1,4.9137363E1,0E0,0E0,0E0,0E0],"parents":[2147483647,0,0,1,1,2,2],"right_children":[2,4,6,-1,-1,-1,-1],"split_conditions":[5E-1,1.76125E4,7.9875E3,2.388525E-2,4.2974395E-3,1.5279305E-2,-6.296601E-3],"split_indices":[3,0,0,0,0,0,0],"split_type":[0,0,0,0,0,0,0],"sum_hessian":[9.955061E3,4.799241E3,5.15582E3,2.8505913E3,1.94865E3,1.4795007E3,3.6763188E3],"tree_param":{"num_deleted":"0","num_feature":"5","num_nodes":"7","size_leaf_vector":"0"}},{"base_weights":[6.903713E-2,1.0015333E-1,-1.2790558E-1,-1.02937035E-2,1.5013348E-1,-1.9588336E-1,1.7302763E-1],"categories":[],"categories_nodes":[],"categories_segments":[],"categories_sizes":[],"default_left":[1,1,1,0,0,0,0],"id":31,"left_children":[1,3,5,-1,-1,-1,-1],"loss_changes":[6.0749176E1,4.7250854E1,2.7705862E1,0E0,0E0,0E0,0E0],"parents":[2147483647,0,0,1,1,2,2],"right_children":[2,4,6,-1,-1,-1,-1],"split_conditions":[4.5E0,5.2448E4,1.00004E5,-1.0293704E-3,1.5013347E-2,-1.9588336E-2,1.7302765E-2],"split_indices":[2,4,4,0,0,0,0],"split_type":[0,0,0,0,0,0,0],"sum_hessian":[9.910115E3,8.558411E3,1.3517043E3,2.6665703E3,5.8918403E3,1.1029159E3,2.4878853E2],"tree_param":{"num_deleted":"0","num_feature":"5","num_nodes":"7","size_leaf_vector":"0"}},{"base_weights":[6.244698E-2,3.2488927E-1,4.065527E-2,3.5267574E-1,2.5647404E-3,2.625544E-1,1.7681064E-2],"categories":[],"categories_nodes":[],"categories_segments":[],"categories_sizes":[],"default_left":[1,1,1,0,0,0,0],"id":32,"left_children":[1,3,5,-1,-1,-1,-1],"loss_changes":[5.6424652E1,6.7740326E0,4.6452637E1,0E0,0E0,0E0,0E0],"parents":[2147483647,0,0,1,1,2,2],"right_children":[2,4,6,-1,-1,-1,-1],"split_conditions":[1.5E0,2.83875E4,4.7875E3,3.5267573E-2,2.5647404E-4,2.6255442E-2,1.7681065E-3],"split_indices":[2,0,0,0,0,0,0],"split_type":[0,0,0,0,0,0,0],"sum_hessian":[9.86737E3,7.554472E2,9.111923E3,6.9540466E2,6.004254E1,8.5390924E2,8.258014E3],"tree_param":{"num_deleted":"0","num_feature":"5","num_nodes":"7","size_leaf_vector":"0"}},{"base_weights":[5.648317E-2,7.341715E-2,-2.5280204E-1,1.4658059E-1,5.5294754E-3,-3.1667617E-1,2.6430497E-1],"categories":[],"categories_nodes":[],"categories_segments":[],"categories_sizes":[],"default_left":[1,1,1,0,0,0,0],"id":33,"left_children":[1,3,5,-1,-1,-1,-1],"loss_changes":[5.1500206E1,4.6291077E1,1.6944595E1,0E0,0E0,0E0,0E0],"parents":[2147483647,0,0,1,1,2,2],"right_children":[2,4,6,-1,-1,-1,-1],"split_conditions":[5.5E0,5E-1,1.195E5,1.4658059E-2,5.529476E-4,-3.1667616E-2,2.6430497E-2],"split_indices":[2,3,4,0,0,0,0],"split_type":[0,0,0,0,0,0,0],"sum_hessian":[9.828561E3,9.319085E3,5.0947592E2,4.484703E3,4.8343823E3,4.538082E2,5.5667732E1],"tree_param":{"num_deleted":"0","num_feature":"5","num_nodes":"7","size_leaf_vector":"0"}},{"base_weights":[5.1053997E-2,1.5818566E-1,4.416235E-3,2.2322977E-1,5.6106564E-2,-3.891828E-2,1.18705794E-1],"categories":[],"categories_nodes":[],"categories_segments":[],"categories_sizes":[],"default_left":[1,1,1,0,0,0,0],"id":34,"left_children":[1,3,5,-1,-1,-1,-1],"loss_changes":[4.8933235E1,1.9710022E1,3.3803974E1,0E0,0E0,0E0,0E0],"parents":[2147483647,0,0,1,1,2,2],"right_children":[2,4,6,-1,-1,-1,-1],"split_conditions":[2.5E0,1.5E0,8.8989E4,2.2322977E-2,5.6106565E-3,-3.891828E-3,1.187058E-2],"split_indices":[2,3,4,0,0,0,0],"split_type":[0,0,0,0,0,0,0],"sum_hessian":[9.792876E3,2.9694216E3,6.823454E3,1.8130021E3,1.1564194E3,4.9480063E3,1.8754478E3],"tree_param":{"num_deleted":"0","num_feature":"5","num_nodes":"7","size_leaf_vector":"0"}},{"base_weights":[4.6163544E-2,1.03741266E-1,-4.1587953E-2,4.411333E-2,2.8092033E-1,-4.6464288E-1,-1.916256E-2],"categories":[],"categories_nodes":[],"categories_segments":[],"categories_sizes":[],"default_left":[1,1,1,0,0,0,0],"id":35,"left_children":[1,3,5,-1,-1,-1,-1],"loss_changes":[4.930712E1,6.223878E1,3.6675476E1,0E0,0E0,0E0,0E0],"parents":[2147483647,0,0,1,1,2,2],"right_children":[2,4,6,-1,-1,-1,-1],"split_conditions":[1.51875E4,7.6272E4,4.39335E4,4.4113332E-3,2.8092032E-2,-4.646429E-2,-1.916256E-3],"split_indices":[0,4,4,0,0,0,0],"split_type":[0,0,0,0,0,0,0],"sum_hessian":[9.757041E3,5.8913066E3,3.8657346E3,4.408812E3,1.4824948E3,1.9360767E2,3.672127E3],"tree_param":{"num_deleted":"0","num_feature":"5","num_nodes":"7","size_leaf_vector":"0"}},{"base_weights":[4.1708563E-2,8.664066E-2,-5.8905043E-2,-8.8728545E-3,1.4134078E-1,5.424894E-3,-1.8588358E-1],"categories":[],"categories_nodes":[],"categories_segments":[],"categories_sizes":[],"default_left":[1,1,1,0,0,0,0],"id":36,"left_children":[1,3,5,-1,-1,-1,-1],"loss_changes":[4.3995174E1,3.5147404E1,2.4544033E1,0E0,0E0,0E0,0E0],"parents":[2147483647,0,0,1,1,2,2],"right_children":[2,4,6,-1,-1,-1,-1],"split_conditions":[5E-1,5.2448E4,1.5E0,-8.8728545E-4,1.4134078E-2,5.424894E-4,-1.8588359E-2],"split_indices":[1,4,3,0,0,0,0],"split_type":[0,0,0,0,0,0,0],"sum_hessian":[9.729635E3,6.7260493E3,3.0035857E3,2.449588E3,4.2764614E3,1.9942267E3,1.009359E3],"tree_param":{"num_deleted":"0","num_feature":"5","num_nodes":"7","size_leaf_vector":"0"}},{"base_weights":[3.7681818E-2,8.1056796E-2,-6.1422314E-2,3.4427404E-2,2.4736619E-1,-6.793847E-1,-4.0906917E-2],"categories":[],"categories_nodes":[],"categories_segments":[],"categories_sizes":[],"default_left":[1,1,1,0,0,0,0],"id":37,"left_children":[1,3,5,-1,-1,-1,-1],"loss_changes":[4.1706806E1,5.232367E1,3.742099E1,0E0,0E0,0E0,0E0],"parents":[2147483647,0,0,1,1,2,2],"right_children":[2,4,6,-1,-1,-1,-1],"split_conditions":[1.87875E4,8.262194E4,4.369E4,3.4427405E-3,2.4736619E-2,-6.793847E-2,-4.090692E-3],"split_indices":[0,4,4,0,0,0,0],"split_type":[0,0,0,0,0,0,0],"sum_hessian":[9.700168E3,6.747268E3,2.9529E3,5.2706924E3,1.4765759E3,9.3849846E1,2.85905E3],"tree_param":{"num_deleted":"0","num_feature":"5","num_nodes":"7","size_leaf_vector":"0"}},{"base_weights":[3.4026492E-2,2.6224512E-1,1.606612E-2,2.888919E-1,-3.3313196E-2,2.1612933E-1,-4.290488E-3],"categories":[],"categories_nodes":[],"categories_segments":[],"categories_sizes":[],"default_left":[1,1,1,0,0,0,0],"id":38,"left_children":[1,3,5,-1,-1,-1,-1],"loss_changes":[3.9667465E1,5.5702896E0,3.654681E1,0E0,0E0,0E0,0E0],"parents":[2147483647,0,0,1,1,2,2],"right_children":[2,4,6,-1,-1,-1,-1],"split_conditions":[1.5E0,2.83875E4,4.7875E3,2.8889192E-2,-3.3313197E-3,2.1612933E-2,-4.290488E-4],"split_indices":[2,0,0,0,0,0,0],"split_type":[0,0,0,0,0,0,0],"sum_hessian":[9.677636E3,7.0505475E2,8.972581E3,6.467664E2,5.8288296E1,8.2776373E2,8.144817E3],"tree_param":{"num_deleted":"0","num_feature":"5","num_nodes":"7","size_leaf_vector":"0"}},{"base_weights":[3.0737534E-2,9.508505E-2,-2.7616275E-2,1.297535E-1,-9.1397256E-2,9.532175E-2,-7.587705E-2],"categories":[],"categories_nodes":[],"categories_segments":[],"categories_sizes":[],"default_left":[1,1,1,0,0,0,0],"id":39,"left_children":[1,3,5,-1,-1,-1,-1],"loss_changes":[3.625691E1,2.9699226E1,3.005331E1,0E0,0E0,0E0,0E0],"parents":[2147483647,0,0,1,1,2,2],"right_children":[2,4,6,-1,-1,-1,-1],"split_conditions":[5E-1,2.8225E4,7.9875E3,1.297535E-2,-9.139726E-3,9.532175E-3,-7.587705E-3],"split_indices":[3,0,0,0,0,0,0],"split_type":[0,0,0,0,0,0,0],"sum_hessian":[9.654135E3,4.5909756E3,5.0631587E3,3.871533E3,7.1944275E2,1.4270247E3,3.6361343E3],"tree_param":{"num_deleted":"0","num_feature":"5","num_nodes":"7","size_leaf_vector":"0"}},{"base_weights":[2.7753064E-2,4.1961893E-2,-2.2547352E-1,2.3745704E-1,2.6022302E-2,-2.807828E-1,2.2934736E-1],"categories":[],"categories_nodes":[],"categories_segments":[],"categories_sizes":[],"default_left":[1,1,1,0,0,0,0],"id":40,"left_children":[1,3,5,-1,-1,-1,-1],"loss_changes":[3.467443E1,2.8423166E1,1.2944931E1,0E0,0E0,0E0,0E0],"parents":[2147483647,0,0,1,1,2,2],"right_children":[2,4,6,-1,-1,-1,-1],"split_conditions":[5.5E0,1.5E0,1.195E5,2.3745704E-2,2.6022303E-3,-2.8078279E-2,2.2934737E-2],"split_indices":[2,2,4,0,0,0,0],"split_type":[0,0,0,0,0,0,0],"sum_hessian":[9.633365E3,9.122335E3,5.1103027E2,6.866648E2,8.435671E3,4.5596457E2,5.5065685E1],"tree_param":{"num_deleted":"0","num_feature":"5","num_nodes":"7","size_leaf_vector":"0"}},{"base_weights":[2.5060553E-2,6.42085E-2,-5.5340186E-2,9.95494E-2,-5.4947816E-2,-1.3946661E-1,3.7823036E-2],"categories":[],"categories_nodes":[],"categories_segments":[],"categories_sizes":[],"default_left":[1,1,1,0,0,0,0],"id":41,"left_children":[1,3,5,-1,-1,-1,-1],"loss_changes":[3.0257172E1,2.7229307E1,2.4678366E1,0E0,0E0,0E0,0E0],"parents":[2147483647,0,0,1,1,2,2],"right_children":[2,4,6,-1,-1,-1,-1],"split_conditions":[3.5E0,5E-1,6.653E4,9.95494E-3,-5.494782E-3,-1.3946662E-2,3.7823038E-3],"split_indices":[2,1,4,0,0,0,0],"split_type":[0,0,0,0,0,0,0],"sum_hessian":[9.610879E3,6.4637935E3,3.1470857E3,4.9853413E3,1.4784518E3,1.6534883E3,1.4935975E3],"tree_param":{"num_deleted":"0","num_feature":"5","num_nodes":"7","size_leaf_vector":"0"}},{"base_weights":[2.2629075E-2,7.0412606E-2,-4.3277975E-2,9.630773E-2,-7.7898026E-2,-1.4325898E-3,-1.8550222E-1],"categories":[],"categories_nodes":[],"categories_segments":[],"categories_sizes":[],"default_left":[1,1,1,0,0,0,0],"id":42,"left_children":[1,3,5,-1,-1,-1,-1],"loss_changes":[3.0203297E1,2.1358978E1,2.3990389E1,0E0,0E0,0E0,0E0],"parents":[2147483647,0,0,1,1,2,2],"right_children":[2,4,6,-1,-1,-1,-1],"split_conditions":[1.5E0,2.8225E4,1.89125E4,9.630773E-3,-7.7898027E-3,-1.4325899E-4,-1.8550223E-2],"split_indices":[3,0,0,0,0,0,0],"split_type":[0,0,0,0,0,0,0],"sum_hessian":[9.588599E3,5.5585234E3,4.0300754E3,4.7325654E3,8.2595825E2,3.1146804E3,9.1539496E2],"tree_param":{"num_deleted":"0","num_feature":"5","num_nodes":"7","size_leaf_vector":"0"}},{"base_weights":[2.0418495E-2,4.539788E-1,1.3666301E-2,1.748237E-1,6.183948E-1,-4.767653E-2,6.359821E-2],"categories":[],"categories_nodes":[],"categories_segments":[],"categories_sizes":[],"default_left":[1,1,1,0,0,0,0],"id":43,"left_children":[1,3,5,-1,-1,-1,-1],"loss_changes":[2.8020319E1,6.6287327E0,2.8880077E1,0E0,0E0,0E0,0E0],"parents":[2147483647,0,0,1,1,2,2],"right_children":[2,4,6,-1,-1,-1,-1],"split_conditions":[1.9875E3,4.005E4,6.2153E4,1.748237E-2,6.183948E-2,-4.767653E-3,6.3598207E-3],"split_indices":[0,4,4,0,0,0,0],"split_type":[0,0,0,0,0,0,0],"sum_hessian":[9.572589E3,1.4577998E2,9.42681E3,5.4800232E1,9.097975E1,4.2300776E3,5.1967314E3],"tree_param":{"num_deleted":"0","num_feature":"5","num_nodes":"7","size_leaf_vector":"0"}},{"base_weights":[1.8426536E-2,6.8208046E-2,-3.8804423E-2,8.028391E-3,1.8664892E-1,-8.800424E-2,7.214342E-2],"categories":[],"categories_nodes":[],"categories_segments":[],"categories_sizes":[],"default_left":[1,1,1,0,0,0,0],"id":44,"left_children":[1,3,5,-1,-1,-1,-1],"loss_changes":[2.7245697E1,3.6451675E1,2.429117E1,0E0,0E0,0E0,0E0],"parents":[2147483647,0,0,1,1,2,2],"right_children":[2,4,6,-1,-1,-1,-1],"split_conditions":[1.43875E4,6.5727016E4,1.0165E5,8.028391E-4,1.8664893E-2,-8.800424E-3,7.2143422E-3],"split_indices":[0,4,4,0,0,0,0],"split_type":[0,0,0,0,0,0,0],"sum_hessian":[9.561175E3,5.1132754E3,4.4478994E3,3.3912522E3,1.722023E3,3.0815796E3,1.3663196E3],"tree_param":{"num_deleted":"0","num_feature":"5","num_nodes":"7","size_leaf_vector":"0"}},{"base_weights":[1.6636144E-2,2.3943597E-2,-3.411122E-1,7.818075E-2,-2.4625367E-2,2.4944508E-1,-3.8275677E-1],"categories":[],"categories_nodes":[],"categories_segments":[],"categories_sizes":[],"default_left":[1,1,1,0,0,0,0],"id":45,"left_children":[1,3,5,-1,-1,-1,-1],"loss_changes":[2.4969534E1,2.4653358E1,4.797676E0,0E0,0E0,0E0,0E0],"parents":[2147483647,0,0,1,1,2,2],"right_children":[2,4,6,-1,-1,-1,-1],"split_conditions":[6.5E0,5E-1,9.075E3,7.818076E-3,-2.4625368E-3,2.4944508E-2,-3.8275678E-2],"split_indices":[2,3,0,0,0,0,0],"split_type":[0,0,0,0,0,0,0],"sum_hessian":[9.54727E3,9.357073E3,1.9019676E2,4.4202983E3,4.9367744E3,1.2200002E1,1.7799675E2],"tree_param":{"num_deleted":"0","num_feature":"5","num_nodes":"7","size_leaf_vector":"0"}},{"base_weights":[1.50030255E-2,1.7159678E-1,-8.211263E-4,6.715041E-2,2.9439324E-1,1.9413218E-1,-1.4975461E-2],"categories":[],"categories_nodes":[],"categories_segments":[],"categories_sizes":[],"default_left":[1,1,1,0,0,0,0],"id":46,"left_children":[1,3,5,-1,-1,-1,-1],"loss_changes":[2.362847E1,1.1204494E1,2.3903032E1,0E0,0E0,0E0,0E0],"parents":[2147483647,0,0,1,1,2,2],"right_children":[2,4,6,-1,-1,-1,-1],"split_conditions":[4.7875E3,5.1225E4,1.5E0,6.7150407E-3,2.9439325E-2,1.9413218E-2,-1.4975461E-3],"split_indices":[0,4,2,0,0,0,0],"split_type":[0,0,0,0,0,0,0],"sum_hessian":[9.534383E3,8.741421E2,8.66024E3,4.7320087E2,4.009412E2,5.853443E2,8.0748965E3],"tree_param":{"num_deleted":"0","num_feature":"5","num_nodes":"7","size_leaf_vector":"0"}},{"base_weights":[1.3548881E-2,4.571181E-2,-5.8352605E-2,9.335796E-3,1.7968471E-1,-3.828286E-1,-2.9235022E-2],"categories":[],"categories_nodes":[],"categories_segments":[],"categories_sizes":[],"default_left":[1,1,1,0,0,0,0],"id":47,"left_children":[1,3,5,-1,-1,-1,-1],"loss_changes":[2.202397E1,3.2065018E1,2.77991E1,0E0,0E0,0E0,0E0],"parents":[2147483647,0,0,1,1,2,2],"right_children":[2,4,6,-1,-1,-1,-1],"split_conditions":[1.87875E4,8.262194E4,5.1708E4,9.3357963E-4,1.7968472E-2,-3.828286E-2,-2.9235024E-3],"split_indices":[0,4,4,0,0,0,0],"split_type":[0,0,0,0,0,0,0],"sum_hessian":[9.521468E3,6.5789434E3,2.9425247E3,5.174928E3,1.4040149E3,2.4130951E2,2.7012153E3],"tree_param":{"num_deleted":"0","num_feature":"5","num_nodes":"7","size_leaf_vector":"0"}},{"base_weights":[1.2226769E-2,4.0287697E-1,6.3592778E-3,1.5194824E-1,5.5750257E-1,1.7744817E-2,-1.9168288E-1],"categories":[],"categories_nodes":[],"categories_segments":[],"categories_sizes":[],"default_left":[1,1,1,0,0,0,0],"id":48,"left_children":[1,3,5,-1,-1,-1,-1],"loss_changes":[2.1800148E1,5.37591E0,2.1136042E1,0E0,0E0,0E0,0E0],"parents":[2147483647,0,0,1,1,2,2],"right_children":[2,4,6,-1,-1,-1,-1],"split_conditions":[1.9875E3,4.005E4,5.5E0,1.5194825E-2,5.575026E-2,1.7744817E-3,-1.9168288E-2],"split_indices":[0,4,2,0,0,0,0],"split_type":[0,0,0,0,0,0,0],"sum_hessian":[9.510959E3,1.3973767E2,9.371222E3,5.403368E1,8.570399E1,8.862616E3,5.0860565E2],"tree_param":{"num_deleted":"0","num_feature":"5","num_nodes":"7","size_leaf_vector":"0"}},{"base_weights":[1.103287E-2,5.0109964E-2,-4.2217508E-2,7.201974E-2,-7.784304E-2,-8.706911E-3,-1.5455452E-1],"categories":[],"categories_nodes":[],"categories_segments":[],"categories_sizes":[],"default_left":[1,1,1,0,0,0,0],"id":49,"left_children":[1,3,5,-1,-1,-1,-1],"loss_changes":[1.9774462E1,1.53705015E1,1.5140129E1,0E0,0E0,0E0,0E0],"parents":[2147483647,0,0,1,1,2,2],"right_children":[2,4,6,-1,-1,-1,-1],"split_conditions":[1.5E0,2.91125E4,1.89125E4,7.2019743E-3,-7.784304E-3,-8.706911E-4,-1.5455452E-2],"split_indices":[3,0,0,0,0,0,0],"split_type":[0,0,0,0,0,0,0],"sum_hessian":[9.50096E3,5.479765E3,4.021195E3,4.679003E3,8.007626E2,3.0980972E3,9.230978E2],"tree_param":{"num_deleted":"0","num_feature":"5","num_nodes":"7","size_leaf_vector":"0"}},{"base_weights":[9.950513E-3,-7.363505E-2,3.4719575E-2,-5.686357E-2,-5.94417E-1,9.8554246E-2,-1.8742163E-2],"categories":[],"categories_nodes":[],"categories_segments":[],"categories_sizes":[],"default_left":[1,1,1,0,0,0,0],"id":50,"left_children":[1,3,5,-1,-1,-1,-1],"loss_changes":[1.9654701E1,1.892115E1,2.4993385E1,0E0,0E0,0E0,0E0],"parents":[2147483647,0,0,1,1,2,2],"right_children":[2,4,6,-1,-1,-1,-1],"split_conditions":[4.577253E4,2.25375E4,1.49125E4,-5.686357E-3,-5.9441697E-2,9.855425E-3,-1.8742163E-3],"split_indices":[4,0,0,0,0,0,0],"split_type":[0,0,0,0,0,0,0],"sum_hessian":[9.491249E3,2.1691782E3,7.322071E3,2.1025752E3,6.660303E1,3.3368928E3,3.9851782E3],"tree_param":{"num_deleted":"0","num_feature":"5","num_nodes":"7","size_leaf_vector":"0"}},{"base_weights":[8.973458E-3,1.7105766E-1,-2.8000402E-3,1.9418278E-1,-6.6375844E-2,3.7193683E-1,-8.233603E-3],"categories":[],"categories_nodes":[],"categories_segments":[],"categories_sizes":[],"default_left":[1,1,1,0,0,0,0],"id":51,"left_children":[1,3,5,-1,-1,-1,-1],"loss_changes":[1.8098618E1,3.5393276E0,1.8008093E1,0E0,0E0,0E0,0E0],"parents":[2147483647,0,0,1,1,2,2],"right_children":[2,4,6,-1,-1,-1,-1],"split_conditions":[1.5E0,2.83875E4,1.9375E3,1.9418279E-2,-6.6375844E-3,3.7193682E-2,-8.2336034E-4],"split_indices":[2,0,0,0,0,0,0],"split_type":[0,0,0,0,0,0,0],"sum_hessian":[9.482916E3,6.41259E2,8.841657E3,5.845119E2,5.6747097E1,1.2540479E2,8.716252E3],"tree_param":{"num_deleted":"0","num_feature":"5","num_nodes":"7","size_leaf_vector":"0"}},{"base_weights":[8.104088E-3,3.727607E-2,-5.0748322E-2,6.611462E-2,-5.7838224E-2,-9.401048E-2,6.793175E-2],"categories":[],"categories_nodes":[],"categories_segments":[],"categories_sizes":[],"default_left":[1,1,1,0,0,0,0],"id":52,"left_children":[1,3,5,-1,-1,-1,-1],"loss_changes":[1.626958E1,1.7382458E1,1.6131514E1,0E0,0E0,0E0,0E0],"parents":[2147483647,0,0,1,1,2,2],"right_children":[2,4,6,-1,-1,-1,-1],"split_conditions":[3.5E0,5E-1,8.863419E4,6.611462E-3,-5.7838224E-3,-9.4010485E-3,6.793175E-3],"split_indices":[2,1,4,0,0,0,0],"split_type":[0,0,0,0,0,0,0],"sum_hessian":[9.47436E3,6.334727E3,3.1396328E3,4.8611396E3,1.4735873E3,2.3010461E3,8.385869E2],"tree_param":{"num_deleted":"0","num_feature":"5","num_nodes":"7","size_leaf_vector":"0"}},{"base_weights":[7.3150173E-3,5.144697E-2,-3.18056E-2,-9.096717E-2,7.765579E-2,5.3663455E-2,-6.449439E-2],"categories":[],"categories_nodes":[],"categories_segments":[],"categories_sizes":[],"default_left":[1,1,1,0,0,0,0],"id":53,"left_children":[1,3,5,-1,-1,-1,-1],"loss_changes":[1.633995E1,1.6606537E1,1.4020782E1,0E0,0E0,0E0,0E0],"parents":[2147483647,0,0,1,1,2,2],"right_children":[2,4,6,-1,-1,-1,-1],"split_conditions":[5E-1,4.79502E4,7.9875E3,-9.096717E-3,7.7655795E-3,5.3663454E-3,-6.4494386E-3],"split_indices":[3,4,0,0,0,0,0],"split_type":[0,0,0,0,0,0,0],"sum_hessian":[9.462425E3,4.446272E3,5.016153E3,6.906936E2,3.7555786E3,1.3875591E3,3.628594E3],"tree_param":{"num_deleted":"0","num_feature":"5","num_nodes":"7","size_leaf_vector":"0"}},{"base_weights":[6.601446E-3,1.2430762E-2,-2.7359098E-1,-6.287267E-2,3.504668E-2,2.3885219E-1,-3.0936527E-1],"categories":[],"categories_nodes":[],"categories_segments":[],"categories_sizes":[],"default_left":[1,1,1,0,0,0,0],"id":54,"left_children":[1,3,5,-1,-1,-1,-1],"loss_changes":[1.5448071E1,1.5779615E1,3.6076584E0,0E0,0E0,0E0,0E0],"parents":[2147483647,0,0,1,1,2,2],"right_children":[2,4,6,-1,-1,-1,-1],"split_conditions":[6.5E0,4.577253E4,9.075E3,-6.287267E-3,3.5046681E-3,2.3885218E-2,-3.0936528E-2],"split_indices":[2,4,0,0,0,0,0],"split_type":[0,0,0,0,0,0,0],"sum_hessian":[9.4549375E3,9.263176E3,1.9176186E2,2.139056E3,7.1241196E3,1.2143108E1,1.7961874E2],"tree_param":{"num_deleted":"0","num_feature":"5","num_nodes":"7","size_leaf_vector":"0"}},{"base_weights":[5.9498986E-3,3.3791274E-1,1.19457E-3,1.12229206E-1,4.8388338E-1,-1.2485165E-3,6.149798E-1],"categories":[],"categories_nodes":[],"categories_segments":[],"categories_sizes":[],"default_left":[1,1,1,0,0,0,0],"id":55,"left_children":[1,3,5,-1,-1,-1,-1],"loss_changes":[1.4917187E1,4.342087E0,1.39726095E1,0E0,0E0,0E0,0E0],"parents":[2147483647,0,0,1,1,2,2],"right_children":[2,4,6,-1,-1,-1,-1],"split_conditions":[1.9875E3,4.005E4,3.505E5,1.122292E-2,4.838834E-2,-1.2485165E-4,6.1497983E-2],"split_indices":[0,4,4,0,0,0,0],"split_type":[0,0,0,0,0,0,0],"sum_hessian":[9.448932E3,1.3245386E2,9.316479E3,5.271722E1,7.973663E1,9.280536E3,3.594191E1],"tree_param":{"num_deleted":"0","num_feature":"5","num_nodes":"7","size_leaf_vector":"0"}},{"base_weights":[5.3803325E-3,1.2526697E-1,-6.420718E-3,8.995745E-2,4.1970715E-1,-1.7359838E-1,3.9088093E-3],"categories":[],"categories_nodes":[],"categories_segments":[],"categories_sizes":[],"default_left":[1,1,1,0,0,0,0],"id":56,"left_children":[1,3,5,-1,-1,-1,-1],"loss_changes":[1.3365521E1,8.763763E0,1.4853216E1,0E0,0E0,0E0,0E0],"parents":[2147483647,0,0,1,1,2,2],"right_children":[2,4,6,-1,-1,-1,-1],"split_conditions":[4.7875E3,9.035E4,3.22575E4,8.995745E-3,4.1970715E-2,-1.7359838E-2,3.9088094E-4],"split_indices":[0,4,4,0,0,0,0],"split_type":[0,0,0,0,0,0,0],"sum_hessian":[9.445444E3,8.455817E2,8.599862E3,7.5620276E2,8.9378944E1,4.995248E2,8.1003374E3],"tree_param":{"num_deleted":"0","num_feature":"5","num_nodes":"7","size_leaf_vector":"0"}},{"base_weights":[4.8592533E-3,1.4493895E-1,-5.0840164E-3,9.5887154E-2,2.605783E-1,3.4795024E-2,-3.9407298E-2],"categories":[],"categories_nodes":[],"categories_segments":[],"categories_sizes":[],"default_left":[1,1,1,0,0,0,0],"id":57,"left_children":[1,3,5,-1,-1,-1,-1],"loss_changes":[1.3152253E1,3.5250025E0,1.20703335E1,0E0,0E0,0E0,0E0],"parents":[2147483647,0,0,1,1,2,2],"right_children":[2,4,6,-1,-1,-1,-1],"split_conditions":[1.5E0,1.002E5,5E-1,9.588716E-3,2.605783E-2,3.4795024E-3,-3.94073E-3],"split_indices":[2,4,3,0,0,0,0],"split_type":[0,0,0,0,0,0,0],"sum_hessian":[9.441161E3,6.248445E2,8.816317E3,4.4002448E2,1.8481999E2,4.0780996E3,4.7382173E3],"tree_param":{"num_deleted":"0","num_feature":"5","num_nodes":"7","size_leaf_vector":"0"}},{"base_weights":[4.390969E-3,1.9067459E-2,-8.986129E-2,-1.3832317E-2,8.961424E-2,-1.9258812E-1,3.2464026E-3],"categories":[],"categories_nodes":[],"categories_segments":[],"categories_sizes":[],"default_left":[1,1,1,0,0,0,0],"id":58,"left_children":[1,3,5,-1,-1,-1,-1],"loss_changes":[1.3053026E1,1.8950993E1,1.2161062E1,0E0,0E0,0E0,0E0],"parents":[2147483647,0,0,1,1,2,2],"right_children":[2,4,6,-1,-1,-1,-1],"split_conditions":[2.79875E4,7.53615E4,1.00719E5,-1.3832317E-3,8.961424E-3,-1.9258812E-2,3.2464028E-4],"split_indices":[0,4,4,0,0,0,0],"split_type":[0,0,0,0,0,0,0],"sum_hessian":[9.433964E3,8.163571E3,1.2703927E3,5.567806E3,2.595765E3,6.0348834E2,6.6690436E2],"tree_param":{"num_deleted":"0","num_feature":"5","num_nodes":"7","size_leaf_vector":"0"}},{"base_weights":[3.963896E-3,3.7186135E-2,-3.5273954E-2,6.656246E-3,1.4009513E-1,-3.9871983E-2,5.8999515E-1],"categories":[],"categories_nodes":[],"categories_segments":[],"categories_sizes":[],"default_left":[1,1,1,0,0,0,0],"id":59,"left_children":[1,3,5,-1,-1,-1,-1],"loss_changes":[1.2293902E1,1.6043915E1,1.24552E1,0E0,0E0,0E0,0E0],"parents":[2147483647,0,0,1,1,2,2],"right_children":[2,4,6,-1,-1,-1,-1],"split_conditions":[1.49125E4,7.5226E4,3.505E5,6.6562457E-4,1.4009513E-2,-3.987198E-3,5.8999516E-2],"split_indices":[0,4,4,0,0,0,0],"split_type":[0,0,0,0,0,0,0],"sum_hessian":[9.428948E3,5.1058965E3,4.323052E3,3.9385237E3,1.1673727E3,4.2924233E3,3.0628878E1],"tree_param":{"num_deleted":"0","num_feature":"5","num_nodes":"7","size_leaf_vector":"0"}},{"base_weights":[3.5892483E-3,8.728214E-3,-2.4185237E-1,2.9940534E-1,4.6018865E-3,1.432582E-1,-2.8169477E-1],"categories":[],"categories_nodes":[],"categories_segments":[],"categories_sizes":[],"default_left":[1,1,1,0,0,0,0],"id":60,"left_children":[1,3,5,-1,-1,-1,-1],"loss_changes":[1.1890149E1,1.1072685E1,3.0067148E0,0E0,0E0,0E0,0E0],"parents":[2147483647,0,0,1,1,2,2],"right_children":[2,4,6,-1,-1,-1,-1],"split_conditions":[6.5E0,1.9875E3,3.75E4,2.9940534E-2,4.6018866E-4,1.432582E-2,-2.8169477E-2],"split_indices":[2,0,4,0,0,0,0],"split_type":[0,0,0,0,0,0,0],"sum_hessian":[9.424106E3,9.231779E3,1.9232713E2,1.2821446E2,9.103564E3,1.7788696E1,1.7453844E2],"tree_param":{"num_deleted":"0","num_feature":"5","num_nodes":"7","size_leaf_vector":"0"}},{"base_weights":[3.2382628E-3,-7.515737E-3,1.1256951E-1,6.561392E-2,-3.0765977E-2,2.2257732E-1,3.1046713E-2],"categories":[],"categories_nodes":[],"categories_segments":[],"categories_sizes":[],"default_left":[1,1,1,0,0,0,0],"id":61,"left_children":[1,3,5,-1,-1,-1,-1],"loss_changes":[1.1077746E1,1.4587709E1,7.560008E0,0E0,0E0,0E0,0E0],"parents":[2147483647,0,0,1,1,2,2],"right_children":[2,4,6,-1,-1,-1,-1],"split_conditions":[1.308E5,7.8125E3,2.1075E4,6.561392E-3,-3.0765978E-3,2.2257732E-2,3.1046714E-3],"split_indices":[4,0,0,0,0,0,0],"split_type":[0,0,0,0,0,0,0],"sum_hessian":[9.42015E3,8.577395E3,8.4275525E2,2.0687314E3,6.508663E3,3.5797263E2,4.8478265E2],"tree_param":{"num_deleted":"0","num_feature":"5","num_nodes":"7","size_leaf_vector":"0"}},{"base_weights":[2.929091E-3,3.2314263E-2,-3.6634907E-2,-1.6325617E-1,4.2072188E-2,-1.1443395E-2,-1.1995917E-1],"categories":[],"categories_nodes":[],"categories_segments":[],"categories_sizes":[],"default_left":[1,1,1,0,0,0,0],"id":62,"left_children":[1,3,5,-1,-1,-1,-1],"loss_changes":[1.0949143E1,1.0319735E1,8.42383E0,0E0,0E0,0E0,0E0],"parents":[2147483647,0,0,1,1,2,2],"right_children":[2,4,6,-1,-1,-1,-1],"split_conditions":[1.5E0,3.2259E4,1.89125E4,-1.6325617E-2,4.207219E-3,-1.1443396E-3,-1.1995917E-2],"split_indices":[3,4,0,0,0,0,0],"split_type":[0,0,0,0,0,0,0],"sum_hessian":[9.415831E3,5.4030405E3,4.0127903E3,2.5602396E2,5.1470166E3,3.08211E3,9.3068024E2],"tree_param":{"num_deleted":"0","num_feature":"5","num_nodes":"7","size_leaf_vector":"0"}},{"base_weights":[2.6417682E-3,1.6229514E-2,-7.826403E-2,-4.9097676E-2,3.5707455E-2,4.4928557E-1,-9.708902E-2],"categories":[],"categories_nodes":[],"categories_segments":[],"categories_sizes":[],"default_left":[1,1,1,0,0,0,0],"id":63,"left_children":[1,3,5,-1,-1,-1,-1],"loss_changes":[1.0348495E1,1.0257235E1,1.3486597E1,0E0,0E0,0E0,0E0],"parents":[2147483647,0,0,1,1,2,2],"right_children":[2,4,6,-1,-1,-1,-1],"split_conditions":[4.5E0,4.577253E4,3.0125E3,-4.909768E-3,3.5707455E-3,4.492856E-2,-9.708903E-3],"split_indices":[2,4,0,0,0,0,0],"split_type":[0,0,0,0,0,0,0],"sum_hessian":[9.411324E3,8.0587026E3,1.3526216E3,1.850564E3,6.2081387E3,4.581588E1,1.3068057E3],"tree_param":{"num_deleted":"0","num_feature":"5","num_nodes":"7","size_leaf_vector":"0"}},{"base_weights":[2.389749E-3,4.6720187E-4,5.296407E-1,1.2767674E-2,-9.407605E-2,4.0132323E-1,7.985002E-1],"categories":[],"categories_nodes":[],"categories_segments":[],"categories_sizes":[],"default_left":[1,1,1,0,0,0,0],"id":64,"left_children":[1,3,5,-1,-1,-1,-1],"loss_changes":[9.534764E0,1.0901663E1,8.5852146E-1,0E0,0E0,0E0,0E0],"parents":[2147483647,0,0,1,1,2,2],"right_children":[2,4,6,-1,-1,-1,-1],"split_conditions":[3.505E5,2.91125E4,3.5E0,1.2767675E-3,-9.407605E-3,4.0132325E-2,7.985002E-2],"split_indices":[4,0,2,0,0,0,0],"split_type":[0,0,0,0,0,0,0],"sum_hessian":[9.405475E3,9.372301E3,3.3173904E1,8.294072E3,1.0782285E3,2.4143654E1,9.030252E0],"tree_param":{"num_deleted":"0","num_feature":"5","num_nodes":"7","size_leaf_vector":"0"}},{"base_weights":[2.1683138E-3,1.219066E-1,-6.1640325E-3,1.4369299E-1,-9.9466555E-2,2.6826444E-1,-9.852932E-3],"categories":[],"categories_nodes":[],"categories_segments":[],"categories_sizes":[],"default_left":[1,1,1,0,0,0,0],"id":65,"left_children":[1,3,5,-1,-1,-1,-1],"loss_changes":[9.383611E0,2.9654808E0,8.904719E0,0E0,0E0,0E0,0E0],"parents":[2147483647,0,0,1,1,2,2],"right_children":[2,4,6,-1,-1,-1,-1],"split_conditions":[1.5E0,2.9975E4,1.9375E3,1.4369299E-2,-9.9466555E-3,2.6826445E-2,-9.852932E-4],"split_indices":[2,0,0,0,0,0,0],"split_type":[0,0,0,0,0,0,0],"sum_hessian":[9.403481E3,6.1090894E2,8.792573E3,5.5649274E2,5.4416187E1,1.1567181E2,8.676901E3],"tree_param":{"num_deleted":"0","num_feature":"5","num_nodes":"7","size_leaf_vector":"0"}},{"base_weights":[1.963988E-3,-7.6254243E-3,1.00209475E-1,5.149247E-2,-3.0827483E-2,2.2088915E-1,4.3046996E-2],"categories":[],"categories_nodes":[],"categories_segments":[],"categories_sizes":[],"default_left":[1,1,1,0,0,0,0],"id":66,"left_children":[1,3,5,-1,-1,-1,-1],"loss_changes":[8.856918E0,1.17501955E1,5.75756E0,0E0,0E0,0E0,0E0],"parents":[2147483647,0,0,1,1,2,2],"right_children":[2,4,6,-1,-1,-1,-1],"split_conditions":[1.308E5,2.5E0,1.80625E4,5.149247E-3,-3.0827483E-3,2.2088915E-2,4.3046996E-3],"split_indices":[4,2,0,0,0,0,0],"split_type":[0,0,0,0,0,0,0],"sum_hessian":[9.399275E3,8.564269E3,8.350071E2,2.413514E3,6.1507544E3,2.6746945E2,5.6753766E2],"tree_param":{"num_deleted":"0","num_feature":"5","num_nodes":"7","size_leaf_vector":"0"}},{"base_weights":[1.7802553E-3,2.7913326E-2,-3.327447E-2,1.5986851E-1,1.6851217E-2,-1.1519692E-2,-1.04889534E-1],"categories":[],"categories_nodes":[],"categories_segments":[],"categories_sizes":[],"default_left":[1,1,1,0,0,0,0],"id":67,"left_children":[1,3,5,-1,-1,-1,-1],"loss_changes":[8.606555E0,7.8539214E0,6.2502236E0,0E0,0E0,0E0,0E0],"parents":[2147483647,0,0,1,1,2,2],"right_children":[2,4,6,-1,-1,-1,-1],"split_conditions":[1.5E0,4.975E3,1.89125E4,1.598685E-2,1.6851217E-3,-1.1519692E-3,-1.0488953E-2],"split_indices":[3,0,0,0,0,0,0],"split_type":[0,0,0,0,0,0,0],"sum_hessian":[9.392889E3,5.3813394E3,4.0115496E3,4.1519565E2,4.9661436E3,3.0777656E3,9.337838E2],"tree_param":{"num_deleted":"0","num_feature":"5","num_nodes":"7","size_leaf_vector":"0"}},{"base_weights":[1.609601E-3,8.692385E-3,-1.1991599E-1,-6.92612E-2,2.0250263E-2,-1.6307685E-1,2.3896049E-1],"categories":[],"categories_nodes":[],"categories_segments":[],"categories_sizes":[],"default_left":[1,1,1,0,0,0,0],"id":68,"left_children":[1,3,5,-1,-1,-1,-1],"loss_changes":[8.083237E0,7.996354E0,8.049919E0,0E0,0E0,0E0,0E0],"parents":[2147483647,0,0,1,1,2,2],"right_children":[2,4,6,-1,-1,-1,-1],"split_conditions":[5.5E0,3.81491E4,1.195E5,-6.9261203E-3,2.0250264E-3,-1.6307686E-2,2.389605E-2],"split_indices":[2,4,4,0,0,0,0],"split_type":[0,0,0,0,0,0,0],"sum_hessian":[9.388825E3,8.872637E3,5.161887E2,1.1450057E3,7.7276313E3,4.612601E2,5.4928596E1],"tree_param":{"num_deleted":"0","num_feature":"5","num_nodes":"7","size_leaf_vector":"0"}},{"base_weights":[1.4531056E-3,-2.6898852E-4,4.8871246E-1,7.3834374E-3,-1.1695291E-1,6.97166E-1,3.3068624E-1],"categories":[],"categories_nodes":[],"categories_segments":[],"categories_sizes":[],"default_left":[1,1,1,0,0,0,0],"id":69,"left_children":[1,3,5,-1,-1,-1,-1],"loss_changes":[7.875971E0,8.353127E0,8.5836124E-1,0E0,0E0,0E0,0E0],"parents":[2147483647,0,0,1,1,2,2],"right_children":[2,4,6,-1,-1,-1,-1],"split_conditions":[3.505E5,3.47625E4,2.65375E4,7.3834375E-4,-1.1695291E-2,6.97166E-2,3.3068623E-2],"split_indices":[4,0,0,0,0,0,0],"split_type":[0,0,0,0,0,0,0],"sum_hessian":[9.384983E3,9.352928E3,3.205609E1,8.77817E3,5.7475775E2,1.2351469E1,1.9704624E1],"tree_param":{"num_deleted":"0","num_feature":"5","num_nodes":"7","size_leaf_vector":"0"}},{"base_weights":[1.3224243E-3,-1.6817078E-2,4.5064297E-2,-7.480448E-3,-2.0254989E-1,1.0472689E-1,-7.898874E-5],"categories":[],"categories_nodes":[],"categories_segments":[],"categories_sizes":[],"default_left":[1,1,1,0,0,0,0],"id":70,"left_children":[1,3,5,-1,-1,-1,-1],"loss_changes":[7.4471326E0,1.1503469E1,7.4101377E0,0E0,0E0,0E0,0E0],"parents":[2147483647,0,0,1,1,2,2],"right_children":[2,4,6,-1,-1,-1,-1],"split_conditions":[8.5419E4,2.92375E4,1.905E4,-7.480448E-4,-2.025499E-2,1.0472689E-2,-7.898874E-6],"split_indices":[4,0,0,0,0,0,0],"split_type":[0,0,0,0,0,0,0],"sum_hessian":[9.383738E3,6.633486E3,2.750253E3,6.316977E3,3.1650876E2,1.1840544E3,1.5661985E3],"tree_param":{"num_deleted":"0","num_feature":"5","num_nodes":"7","size_leaf_vector":"0"}},{"base_weights":[1.19618E-3,2.4086599E-1,-1.9997903E-3,-9.094304E-1,2.655929E-1,2.7387058E-2,-2.7864961E-2],"categories":[],"categories_nodes":[],"categories_segments":[],"categories_sizes":[],"default_left":[1,1,1,0,0,0,0],"id":71,"left_children":[1,3,5,-1,-1,-1,-1],"loss_changes":[7.1866045E0,3.7532887E0,7.0386214E0,0E0,0E0,0E0,0E0],"parents":[2147483647,0,0,1,1,2,2],"right_children":[2,4,6,-1,-1,-1,-1],"split_conditions":[1.9875E3,1.47E4,5E-1,-9.094304E-2,2.6559291E-2,2.7387058E-3,-2.7864962E-3],"split_indices":[0,4,3,0,0,0,0],"split_type":[0,0,0,0,0,0,0],"sum_hessian":[9.380637E3,1.22465034E2,9.258172E3,1.8242009E0,1.2064083E2,4.3340073E3,4.924164E3],"tree_param":{"num_deleted":"0","num_feature":"5","num_nodes":"7","size_leaf_vector":"0"}},{"base_weights":[1.0752358E-3,5.0308094E-3,-1.8613288E-1,-3.498329E-2,2.467887E-2,2.4062149E-1,-2.1587084E-1],"categories":[],"categories_nodes":[],"categories_segments":[],"categories_sizes":[],"default_left":[1,1,1,0,0,0,0],"id":72,"left_children":[1,3,5,-1,-1,-1,-1],"loss_changes":[6.94632E0,7.2229056E0,2.515225E0,0E0,0E0,0E0,0E0],"parents":[2147483647,0,0,1,1,2,2],"right_children":[2,4,6,-1,-1,-1,-1],"split_conditions":[6.5E0,5.2448E4,9.075E3,-3.4983288E-3,2.467887E-3,2.406215E-2,-2.1587085E-2],"split_indices":[2,4,0,0,0,0,0],"split_type":[0,0,0,0,0,0,0],"sum_hessian":[9.378119E3,9.185019E3,1.9309976E2,3.0245715E3,6.1604473E3,1.2117418E1,1.8098235E2],"tree_param":{"num_deleted":"0","num_feature":"5","num_nodes":"7","size_leaf_vector":"0"}},{"base_weights":[9.706583E-4,5.2101005E-2,-1.35212E-2,5.7385582E-3,9.4824605E-2,-2.0766164E-1,-4.961215E-3],"categories":[],"categories_nodes":[],"categories_segments":[],"categories_sizes":[],"default_left":[1,1,1,0,0,0,0],"id":73,"left_children":[1,3,5,-1,-1,-1,-1],"loss_changes":[6.9483376E0,4.101352E0,1.2141192E1,0E0,0E0,0E0,0E0],"parents":[2147483647,0,0,1,1,2,2],"right_children":[2,4,6,-1,-1,-1,-1],"split_conditions":[7.6125E3,4.90545E4,3.2254E4,5.738558E-4,9.482461E-3,-2.0766165E-2,-4.9612153E-4],"split_indices":[0,4,4,0,0,0,0],"split_type":[0,0,0,0,0,0,0],"sum_hessian":[9.375355E3,2.0698591E3,7.3054966E3,9.9320044E2,1.0766587E3,3.0752695E2,6.9979697E3],"tree_param":{"num_deleted":"0","num_feature":"5","num_nodes":"7","size_leaf_vector":"0"}},{"base_weights":[8.7878125E-4,-6.766635E-4,4.5453918E-1,2.5244698E-2,-2.9793153E-2,4.7209278E-2,5.343442E-1],"categories":[],"categories_nodes":[],"categories_segments":[],"categories_sizes":[],"default_left":[1,1,1,0,0,0,0],"id":74,"left_children":[1,3,5,-1,-1,-1,-1],"loss_changes":[6.6147375E0,7.0519633E0,1.0159903E0,0E0,0E0,0E0,0E0],"parents":[2147483647,0,0,1,1,2,2],"right_children":[2,4,6,-1,-1,-1,-1],"split_conditions":[3.505E5,1.43875E4,1.92625E4,2.5244697E-3,-2.9793154E-3,4.7209277E-3,5.343442E-2],"split_indices":[4,0,0,0,0,0,0],"split_type":[0,0,0,0,0,0,0],"sum_hessian":[9.372612E3,9.341582E3,3.1030546E1,4.942016E3,4.399566E3,5.3443265E0,2.568622E1],"tree_param":{"num_deleted":"0","num_feature":"5","num_nodes":"7","size_leaf_vector":"0"}},{"base_weights":[8.014417E-4,-7.1485084E-3,8.30487E-2,-4.978393E-4,-1.49033E-1,1.650528E-1,2.4483794E-2],"categories":[],"categories_nodes":[],"categories_segments":[],"categories_sizes":[],"default_left":[1,1,1,0,0,0,0],"id":75,"left_children":[1,3,5,-1,-1,-1,-1],"loss_changes":[6.128433E0,8.064788E0,3.9633732E0,0E0,0E0,0E0,0E0],"parents":[2147483647,0,0,1,1,2,2],"right_children":[2,4,6,-1,-1,-1,-1],"split_conditions":[1.308E5,3.41625E4,2.1075E4,-4.9783932E-5,-1.49032995E-2,1.650528E-2,2.4483795E-3],"split_indices":[4,0,0,0,0,0,0],"split_type":[0,0,0,0,0,0,0],"sum_hessian":[9.370769E3,8.545665E3,8.251036E2,8.163991E3,3.8167398E2,3.4300327E2,4.8210034E2],"tree_param":{"num_deleted":"0","num_feature":"5","num_nodes":"7","size_leaf_vector":"0"}},{"base_weights":[7.2689424E-4,9.732966E-2,-5.8531705E-3,5.554703E-2,1.9894268E-1,7.732415E-2,-1.3675063E-2],"categories":[],"categories_nodes":[],"categories_segments":[],"categories_sizes":[],"default_left":[1,1,1,0,0,0,0],"id":76,"left_children":[1,3,5,-1,-1,-1,-1],"loss_changes":[5.956676E0,2.526132E0,5.7091146E0,0E0,0E0,0E0,0E0],"parents":[2147483647,0,0,1,1,2,2],"right_children":[2,4,6,-1,-1,-1,-1],"split_conditions":[1.5E0,1.002E5,4.7875E3,5.554703E-3,1.9894268E-2,7.732415E-3,-1.3675063E-3],"split_indices":[2,4,0,0,0,0,0],"split_type":[0,0,0,0,0,0,0],"sum_hessian":[9.369067E3,5.965946E2,8.772473E3,4.2385483E2,1.7273978E2,7.532794E2,8.0191934E3],"tree_param":{"num_deleted":"0","num_feature":"5","num_nodes":"7","size_leaf_vector":"0"}},{"base_weights":[6.6332356E-4,2.202121E-2,-2.782351E-2,-1.251105E-1,2.9556151E-2,-3.0045552E-2,4.9709037E-1],"categories":[],"categories_nodes":[],"categories_segments":[],"categories_sizes":[],"default_left":[1,1,1,0,0,0,0],"id":77,"left_children":[1,3,5,-1,-1,-1,-1],"loss_changes":[5.6995482E0,5.939068E0,4.696799E0,0E0,0E0,0E0,0E0],"parents":[2147483647,0,0,1,1,2,2],"right_children":[2,4,6,-1,-1,-1,-1],"split_conditions":[1.5E0,3.2259E4,2.80357E5,-1.2511051E-2,2.9556153E-3,-3.0045554E-3,4.9709037E-2],"split_indices":[3,4,4,0,0,0,0],"split_type":[0,0,0,0,0,0,0],"sum_hessian":[9.365801E3,5.352793E3,4.0130078E3,2.6001343E2,5.09278E3,3.9970305E3,1.5977298E1],"tree_param":{"num_deleted":"0","num_feature":"5","num_nodes":"7","size_leaf_vector":"0"}},{"base_weights":[6.054237E-4,4.081951E-3,-1.6350448E-1,-1.1513616E-2,4.2063106E-2,1.836681E-1,-1.9954453E-1],"categories":[],"categories_nodes":[],"categories_segments":[],"categories_sizes":[],"default_left":[1,1,1,0,0,0,0],"id":78,"left_children":[1,3,5,-1,-1,-1,-1],"loss_changes":[5.3436275E0,5.4331503E0,2.467698E0,0E0,0E0,0E0,0E0],"parents":[2147483647,0,0,1,1,2,2],"right_children":[2,4,6,-1,-1,-1,-1],"split_conditions":[6.5E0,8.5419E4,3.75E4,-1.1513616E-3,4.2063105E-3,1.8366812E-2,-1.9954454E-2],"split_indices":[2,4,4,0,0,0,0],"split_type":[0,0,0,0,0,0,0],"sum_hessian":[9.363864E3,9.170569E3,1.932955E2,6.501616E3,2.6689531E3,1.7793648E1,1.7550185E2],"tree_param":{"num_deleted":"0","num_feature":"5","num_nodes":"7","size_leaf_vector":"0"}},{"base_weights":[5.4713833E-4,2.1031915E-1,-2.187609E-3,1.7009881E-1,9.464403E-1,3.0546385E-1,-3.999987E-3],"categories":[],"categories_nodes":[],"categories_segments":[],"categories_sizes":[],"default_left":[1,1,1,0,0,0,0],"id":79,"left_children":[1,3,5,-1,-1,-1,-1],"loss_changes":[5.3715467E0,3.4065933E0,5.155009E0,0E0,0E0,0E0,0E0],"parents":[2147483647,0,0,1,1,2,2],"right_children":[2,4,6,-1,-1,-1,-1],"split_conditions":[1.9875E3,1.057435E5,1.8048E4,1.7009882E-2,9.464403E-2,3.0546386E-2,-3.999987E-4],"split_indices":[0,4,4,0,0,0,0],"split_type":[0,0,0,0,0,0,0],"sum_hessian":[9.36162E3,1.19497765E2,9.242122E3,1.14474174E2,5.023588E0,5.3145363E1,9.188978E3],"tree_param":{"num_deleted":"0","num_feature":"5","num_nodes":"7","size_leaf_vector":"0"}},{"base_weights":[5.117845E-4,1.661354E-2,-3.3734396E-2,3.9163057E-2,-4.9814414E-2,1.2053544E-1,-4.798203E-2],"categories":[],"categories_nodes":[],"categories_segments":[],"categories_sizes":[],"default_left":[1,1,1,0,0,0,0],"id":80,"left_children":[1,3,5,-1,-1,-1,-1],"loss_changes":[5.163049E0,9.541725E0,6.5874677E0,0E0,0E0,0E0,0E0],"parents":[2147483647,0,0,1,1,2,2],"right_children":[2,4,6,-1,-1,-1,-1],"split_conditions":[5E-1,3.5E0,1.11375E4,3.916306E-3,-4.9814414E-3,1.2053545E-2,-4.7982032E-3],"split_indices":[1,2,0,0,0,0,0],"split_type":[0,0,0,0,0,0,0],"sum_hessian":[9.361111E3,6.3676875E3,2.9934233E3,4.754234E3,1.6134536E3,2.5245404E2,2.7409692E3],"tree_param":{"num_deleted":"0","num_feature":"5","num_nodes":"7","size_leaf_vector":"0"}},{"base_weights":[4.6672294E-4,-8.6535595E-4,4.0542144E-1,1.6172143E-2,-3.3859737E-2,8.644715E-3,4.8546693E-1],"categories":[],"categories_nodes":[],"categories_segments":[],"categories_sizes":[],"default_left":[1,1,1,0,0,0,0],"id":81,"left_children":[1,3,5,-1,-1,-1,-1],"loss_changes":[5.0476494E0,5.243654E0,9.7019386E-1,0E0,0E0,0E0,0E0],"parents":[2147483647,0,0,1,1,2,2],"right_children":[2,4,6,-1,-1,-1,-1],"split_conditions":[3.505E5,1.79125E4,1.92625E4,1.6172143E-3,-3.3859739E-3,8.644715E-4,4.8546694E-2],"split_indices":[4,0,0,0,0,0,0],"split_type":[0,0,0,0,0,0,0],"sum_hessian":[9.355697E3,9.326019E3,2.967962E1,6.150539E3,3.1754792E3,5.168405E0,2.4511215E1],"tree_param":{"num_deleted":"0","num_feature":"5","num_nodes":"7","size_leaf_vector":"0"}},{"base_weights":[4.2847873E-4,-2.427461E-2,2.1621715E-2,5.154684E-3,-7.905265E-2,6.679296E-1,1.946395E-2],"categories":[],"categories_nodes":[],"categories_segments":[],"categories_sizes":[],"default_left":[1,1,1,0,0,0,0],"id":82,"left_children":[1,3,5,-1,-1,-1,-1],"loss_changes":[4.89839E0,6.965249E0,7.009968E0,0E0,0E0,0E0,0E0],"parents":[2147483647,0,0,1,1,2,2],"right_children":[2,4,6,-1,-1,-1,-1],"split_conditions":[6.2153E4,3.5E0,1.475E3,5.154684E-4,-7.905265E-3,6.679296E-2,1.9463951E-3],"split_indices":[4,2,0,0,0,0,0],"split_type":[0,0,0,0,0,0,0],"sum_hessian":[9.354312E3,4.31941E3,5.034901E3,2.8104255E3,1.5089846E3,1.5726908E1,5.0191743E3],"tree_param":{"num_deleted":"0","num_feature":"5","num_nodes":"7","size_leaf_vector":"0"}},{"base_weights":[3.9695657E-4,1.9628871E-2,-2.5195431E-2,-1.128176E-1,2.646432E-2,-2.6859414E-2,5.30449E-1],"categories":[],"categories_nodes":[],"categories_segments":[],"categories_sizes":[],"default_left":[1,1,1,0,0,0,0],"id":83,"left_children":[1,3,5,-1,-1,-1,-1],"loss_changes":[4.603327E0,4.837381E0,3.7244208E0,0E0,0E0,0E0,0E0],"parents":[2147483647,0,0,1,1,2,2],"right_children":[2,4,6,-1,-1,-1,-1],"split_conditions":[1.5E0,3.2259E4,3.055E5,-1.128176E-2,2.646432E-3,-2.6859415E-3,5.3044897E-2],"split_indices":[3,4,4,0,0,0,0],"split_type":[0,0,0,0,0,0,0],"sum_hessian":[9.350726E3,5.33892E3,4.011806E3,2.6125378E2,5.077666E3,4.0007766E3,1.1029433E1],"tree_param":{"num_deleted":"0","num_feature":"5","num_nodes":"7","size_leaf_vector":"0"}},{"base_weights":[3.652977E-4,8.164418E-3,-5.782622E-2,3.777854E-2,-1.52259795E-2,-7.076006E-1,-4.8022617E-2],"categories":[],"categories_nodes":[],"categories_segments":[],"categories_sizes":[],"default_left":[1,1,1,0,0,0,0],"id":84,"left_children":[1,3,5,-1,-1,-1,-1],"loss_changes":[4.2439184E0,5.7123804E0,7.0060368E0,0E0,0E0,0E0,0E0],"parents":[2147483647,0,0,1,1,2,2],"right_children":[2,4,6,-1,-1,-1,-1],"split_conditions":[2.91125E4,5E-1,2.95875E4,3.7778541E-3,-1.522598E-3,-7.0760064E-2,-4.802262E-3],"split_indices":[0,3,0,0,0,0,0],"split_type":[0,0,0,0,0,0,0],"sum_hessian":[9.349039E3,8.244879E3,1.1041605E3,3.6381162E3,4.6067627E3,1.5353691E1,1.0888068E3],"tree_param":{"num_deleted":"0","num_feature":"5","num_nodes":"7","size_leaf_vector":"0"}},{"base_weights":[3.2483178E-4,2.689771E-1,-1.3334145E-3,-3.6066756E-1,3.6341283E-1,-4.538316E-1,5.927331E-4],"categories":[],"categories_nodes":[],"categories_segments":[],"categories_sizes":[],"default_left":[1,1,1,0,0,0,0],"id":85,"left_children":[1,3,5,-1,-1,-1,-1],"loss_changes":[4.1647453E0,3.5411682E0,8.098535E0,0E0,0E0,0E0,0E0],"parents":[2147483647,0,0,1,1,2,2],"right_children":[2,4,6,-1,-1,-1,-1],"split_conditions":[1.8048E4,2.25E3,2.01745E4,-3.6066756E-2,3.6341283E-2,-4.5383163E-2,5.927331E-5],"split_indices":[4,0,4,0,0,0,0],"split_type":[0,0,0,0,0,0,0],"sum_hessian":[9.346846E3,5.63502E1,9.290495E3,6.9816E0,4.93686E1,3.838474E1,9.25211E3],"tree_param":{"num_deleted":"0","num_feature":"5","num_nodes":"7","size_leaf_vector":"0"}},{"base_weights":[2.9122137E-4,1.875799E-1,-2.1057709E-3,1.5072185E-1,9.148649E-1,-2.575978E-1,-1.392233E-4],"categories":[],"categories_nodes":[],"categories_segments":[],"categories_sizes":[],"default_left":[1,1,1,0,0,0,0],"id":86,"left_children":[1,3,5,-1,-1,-1,-1],"loss_changes":[4.1968346E0,3.028853E0,4.637723E0,0E0,0E0,0E0,0E0],"parents":[2147483647,0,0,1,1,2,2],"right_children":[2,4,6,-1,-1,-1,-1],"split_conditions":[1.9875E3,1.057435E5,2.1375E3,1.5072185E-2,9.148649E-2,-2.575978E-2,-1.3922329E-5],"split_indices":[0,4,0,0,0,0,0],"split_type":[0,0,0,0,0,0,0],"sum_hessian":[9.346658E3,1.17134224E2,9.229523E3,1.1263332E2,4.500902E0,6.9505035E1,9.160019E3],"tree_param":{"num_deleted":"0","num_feature":"5","num_nodes":"7","size_leaf_vector":"0"}},{"base_weights":[2.7474487E-4,1.1443989E-1,-3.575738E-3,4.192126E-2,3.4470773E-1,-7.1386024E-2,3.7562498E-3],"categories":[],"categories_nodes":[],"categories_segments":[],"categories_sizes":[],"default_left":[1,1,1,0,0,0,0],"id":87,"left_children":[1,3,5,-1,-1,-1,-1],"loss_changes":[4.10944E0,5.078769E0,4.496499E0,0E0,0E0,0E0,0E0],"parents":[2147483647,0,0,1,1,2,2],"right_children":[2,4,6,-1,-1,-1,-1],"split_conditions":[2.8875E3,2.4875E3,3.54655E4,4.1921264E-3,3.4470774E-2,-7.1386024E-3,3.7562498E-4],"split_indices":[0,0,4,0,0,0,0],"split_type":[0,0,0,0,0,0,0],"sum_hessian":[9.346397E3,3.0400677E2,9.042391E3,2.3209483E2,7.191196E1,8.8145636E2,8.160934E3],"tree_param":{"num_deleted":"0","num_feature":"5","num_nodes":"7","size_leaf_vector":"0"}},{"base_weights":[2.5473323E-4,1.9477637E-2,-2.2143243E-2,-1.2628073E-3,7.381436E-2,-1.7317925E-1,-1.1554852E-2],"categories":[],"categories_nodes":[],"categories_segments":[],"categories_sizes":[],"default_left":[1,1,1,0,0,0,0],"id":88,"left_children":[1,3,5,-1,-1,-1,-1],"loss_changes":[4.024622E0,5.6690845E0,6.9022417E0,0E0,0E0,0E0,0E0],"parents":[2147483647,0,0,1,1,2,2],"right_children":[2,4,6,-1,-1,-1,-1],"split_conditions":[1.49625E4,1.06875E4,4.425E4,-1.2628073E-4,7.3814364E-3,-1.7317927E-2,-1.1554853E-3],"split_indices":[0,0,4,0,0,0,0],"split_type":[0,0,0,0,0,0,0],"sum_hessian":[9.345539E3,5.0293047E3,4.3162344E3,3.6406409E3,1.3886637E3,2.8176056E2,4.0344739E3],"tree_param":{"num_deleted":"0","num_feature":"5","num_nodes":"7","size_leaf_vector":"0"}},{"base_weights":[2.3164986E-4,3.870717E-2,-1.0798454E-2,3.2523066E-1,3.309874E-2,-1.523577E-1,-4.5939246E-3],"categories":[],"categories_nodes":[],"categories_segments":[],"categories_sizes":[],"default_left":[1,1,1,0,0,0,0],"id":89,"left_children":[1,3,5,-1,-1,-1,-1],"loss_changes":[3.966573E0,3.3356366E0,6.379427E0,0E0,0E0,0E0,0E0],"parents":[2147483647,0,0,1,1,2,2],"right_children":[2,4,6,-1,-1,-1,-1],"split_conditions":[7.8125E3,1.8048E4,3.2254E4,3.2523066E-2,3.3098739E-3,-1.523577E-2,-4.5939247E-4],"split_indices":[0,4,4,0,0,0,0],"split_type":[0,0,0,0,0,0,0],"sum_hessian":[9.344564E3,2.081457E3,7.263107E3,3.886633E1,2.0425908E3,3.0398526E2,6.9591216E3],"tree_param":{"num_deleted":"0","num_feature":"5","num_nodes":"7","size_leaf_vector":"0"}},{"base_weights":[2.1395627E-4,-9.4775663E-4,3.6491808E-1,4.588338E-3,-8.402302E-2,5.956118E-1,1.9879669E-1],"categories":[],"categories_nodes":[],"categories_segments":[],"categories_sizes":[],"default_left":[1,1,1,0,0,0,0],"id":90,"left_children":[1,3,5,-1,-1,-1,-1],"loss_changes":[3.9592595E0,4.2846584E0,1.0187311E0,0E0,0E0,0E0,0E0],"parents":[2147483647,0,0,1,1,2,2],"right_children":[2,4,6,-1,-1,-1,-1],"split_conditions":[3.505E5,3.47625E4,2.65375E4,4.5883382E-4,-8.402302E-3,5.956118E-2,1.9879669E-2],"split_indices":[4,0,0,0,0,0,0],"split_type":[0,0,0,0,0,0,0],"sum_hessian":[9.34308E3,9.314407E3,2.8672316E1,8.733365E3,5.8104236E2,1.0920939E1,1.7751375E1],"tree_param":{"num_deleted":"0","num_feature":"5","num_nodes":"7","size_leaf_vector":"0"}},{"base_weights":[2.0287329E-4,-6.1797444E-3,6.6940725E-2,6.0476545E-5,-1.1075803E-1,-3.284591E-2,1.1914373E-1],"categories":[],"categories_nodes":[],"categories_segments":[],"categories_sizes":[],"default_left":[1,1,1,0,0,0,0],"id":91,"left_children":[1,3,5,-1,-1,-1,-1],"loss_changes":[3.9803855E0,5.565842E0,4.252865E0,0E0,0E0,0E0,0E0],"parents":[2147483647,0,0,1,1,2,2],"right_children":[2,4,6,-1,-1,-1,-1],"split_conditions":[1.308E5,5.5E0,2.5E0,6.0476546E-6,-1.1075803E-2,-3.284591E-3,1.1914373E-2],"split_indices":[4,2,2,0,0,0,0],"split_type":[0,0,0,0,0,0,0],"sum_hessian":[9.342487E3,8.527818E3,8.146688E2,8.0485576E3,4.7926065E2,2.7993698E2,5.347318E2],"tree_param":{"num_deleted":"0","num_feature":"5","num_nodes":"7","size_leaf_vector":"0"}},{"base_weights":[1.8472789E-4,7.94104E-2,-5.131824E-3,8.898429E-2,-3.0984315E-1,5.888612E-2,-1.1078852E-2],"categories":[],"categories_nodes":[],"categories_segments":[],"categories_sizes":[],"default_left":[1,1,1,0,0,0,0],"id":92,"left_children":[1,3,5,-1,-1,-1,-1],"loss_changes":[3.9352386E0,2.2171097E0,3.333924E0,0E0,0E0,0E0,0E0],"parents":[2147483647,0,0,1,1,2,2],"right_children":[2,4,6,-1,-1,-1,-1],"split_conditions":[1.5E0,3.9025E4,4.7875E3,8.898429E-3,-3.0984316E-2,5.888612E-3,-1.1078853E-3],"split_indices":[2,0,0,0,0,0,0],"split_type":[0,0,0,0,0,0,0],"sum_hessian":[9.34079E3,5.865318E2,8.754259E3,5.7320496E2,1.3326876E1,7.43356E2,8.010903E3],"tree_param":{"num_deleted":"0","num_feature":"5","num_nodes":"7","size_leaf_vector":"0"}},{"base_weights":[1.6820226E-4,-1.2071091E-2,3.0006085E-2,-5.1961504E-3,-1.5116297E-1,2.8855464E-1,2.4558667E-2],"categories":[],"categories_nodes":[],"categories_segments":[],"categories_sizes":[],"default_left":[1,1,1,0,0,0,0],"id":93,"left_children":[1,3,5,-1,-1,-1,-1],"loss_changes":[3.411019E0,6.332843E0,3.819416E0,0E0,0E0,0E0,0E0],"parents":[2147483647,0,0,1,1,2,2],"right_children":[2,4,6,-1,-1,-1,-1],"split_conditions":[8.5419E4,2.98875E4,3.45E3,-5.196151E-4,-1.5116297E-2,2.8855463E-2,2.4558667E-3],"split_indices":[4,0,0,0,0,0,0],"split_type":[0,0,0,0,0,0,0],"sum_hessian":[9.338286E3,6.622413E3,2.7158728E3,6.31149E3,3.109228E2,5.49682E1,2.6609045E3],"tree_param":{"num_deleted":"0","num_feature":"5","num_nodes":"7","size_leaf_vector":"0"}},{"base_weights":[1.5659486E-4,1.2963502E-2,-2.6948242E-2,3.1102385E-2,-4.0049538E-2,1.1180797E-1,-3.9679952E-2],"categories":[],"categories_nodes":[],"categories_segments":[],"categories_sizes":[],"default_left":[1,1,1,0,0,0,0],"id":94,"left_children":[1,3,5,-1,-1,-1,-1],"loss_changes":[3.2417502E0,6.099806E0,5.298285E0,0E0,0E0,0E0,0E0],"parents":[2147483647,0,0,1,1,2,2],"right_children":[2,4,6,-1,-1,-1,-1],"split_conditions":[5E-1,3.5E0,1.11375E4,3.1102386E-3,-4.004954E-3,1.1180798E-2,-3.9679953E-3],"split_indices":[1,2,0,0,0,0,0],"split_type":[0,0,0,0,0,0,0],"sum_hessian":[9.336738E3,6.341114E3,2.9956245E3,4.7248706E3,1.6162432E3,2.5111142E2,2.7445132E3],"tree_param":{"num_deleted":"0","num_feature":"5","num_nodes":"7","size_leaf_vector":"0"}},{"base_weights":[1.4515947E-4,1.6348343E-2,-2.134207E-2,1.5426297E-2,8.244332E-1,-2.3019066E-2,4.03283E-1],"categories":[],"categories_nodes":[],"categories_segments":[],"categories_sizes":[],"default_left":[1,1,1,0,0,0,0],"id":95,"left_children":[1,3,5,-1,-1,-1,-1],"loss_changes":[3.2498963E0,3.9523244E0,2.8668475E0,0E0,0E0,0E0,0E0],"parents":[2147483647,0,0,1,1,2,2],"right_children":[2,4,6,-1,-1,-1,-1],"split_conditions":[1.5E0,5.55E5,2.80357E5,1.5426297E-3,8.244332E-2,-2.3019067E-3,4.03283E-2],"split_indices":[3,4,4,0,0,0,0],"split_type":[0,0,0,0,0,0,0],"sum_hessian":[9.332447E3,5.320546E3,4.0119014E3,5.3154995E3,5.046042E0,3.9970613E3,1.4840027E1],"tree_param":{"num_deleted":"0","num_feature":"5","num_nodes":"7","size_leaf_vector":"0"}},{"base_weights":[1.465813E-4,2.3697186E-1,-1.289369E-3,-3.6432573E-1,3.2938617E-1,-3.9216942E-1,4.1243405E-4],"categories":[],"categories_nodes":[],"categories_segments":[],"categories_sizes":[],"default_left":[1,1,1,0,0,0,0],"id":96,"left_children":[1,3,5,-1,-1,-1,-1],"loss_changes":[3.1739233E0,3.245678E0,6.1712418E0,0E0,0E0,0E0,0E0],"parents":[2147483647,0,0,1,1,2,2],"right_children":[2,4,6,-1,-1,-1,-1],"split_conditions":[1.8048E4,2.25E3,2.01745E4,-3.6432575E-2,3.293862E-2,-3.9216943E-2,4.1243406E-5],"split_indices":[4,0,4,0,0,0,0],"split_type":[0,0,0,0,0,0,0],"sum_hessian":[9.331267E3,5.524902E1,9.276018E3,6.9681506E0,4.828087E1,3.9215996E1,9.236802E3],"tree_param":{"num_deleted":"0","num_feature":"5","num_nodes":"7","size_leaf_vector":"0"}},{"base_weights":[1.3027458E-4,-1.934013E-2,1.7079882E-2,-6.1955606E-3,-1.09228015E-1,6.091546E-1,1.5252665E-2],"categories":[],"categories_nodes":[],"categories_segments":[],"categories_sizes":[],"default_left":[1,1,1,0,0,0,0],"id":97,"left_children":[1,3,5,-1,-1,-1,-1],"loss_changes":[3.0800757E0,5.1314116E0,5.388648E0,0E0,0E0,0E0,0E0],"parents":[2147483647,0,0,1,1,2,2],"right_children":[2,4,6,-1,-1,-1,-1],"split_conditions":[6.2974145E4,5.96635E4,1.475E3,-6.1955606E-4,-1.0922802E-2,6.091546E-2,1.5252664E-3],"split_indices":[4,4,0,0,0,0,0],"split_type":[0,0,0,0,0,0,0],"sum_hessian":[9.331116E3,4.342568E3,4.988549E3,3.7894888E3,5.5307916E2,1.432532E1,4.974223E3],"tree_param":{"num_deleted":"0","num_feature":"5","num_nodes":"7","size_leaf_vector":"0"}},{"base_weights":[1.2691198E-4,2.7599677E-3,-1.23539574E-1,9.411169E-1,2.306056E-3,2.0324966E-1,-1.5756637E-1],"categories":[],"categories_nodes":[],"categories_segments":[],"categories_sizes":[],"default_left":[1,1,1,0,0,0,0],"id":98,"left_children":[1,3,5,-1,-1,-1,-1],"loss_changes":[3.0388713E0,3.8899627E0,2.1954777E0,0E0,0E0,0E0,0E0],"parents":[2147483647,0,0,1,1,2,2],"right_children":[2,4,6,-1,-1,-1,-1],"split_conditions":[6.5E0,7.37E3,3.75E4,9.4111696E-2,2.306056E-4,2.0324966E-2,-1.5756637E-2],"split_indices":[2,4,4,0,0,0,0],"split_type":[0,0,0,0,0,0,0],"sum_hessian":[9.330501E3,9.136939E3,1.9356224E2,3.4157043E0,9.133523E3,1.7784906E1,1.7577734E2],"tree_param":{"num_deleted":"0","num_feature":"5","num_nodes":"7","size_leaf_vector":"0"}},{"base_weights":[1.2566622E-4,6.752371E-2,-4.350011E-3,8.660179E-2,-1.14412926E-1,-3.946886E-2,5.063425E-3],"categories":[],"categories_nodes":[],"categories_segments":[],"categories_sizes":[],"default_left":[1,1,1,0,0,0,0],"id":99,"left_children":[1,3,5,-1,-1,-1,-1],"loss_changes":[2.8148484E0,2.0268443E0,2.892983E0,0E0,0E0,0E0,0E0],"parents":[2147483647,0,0,1,1,2,2],"right_children":[2,4,6,-1,-1,-1,-1],"split_conditions":[1.5E0,2.83875E4,4.42925E4,8.660179E-3,-1.1441293E-2,-3.946886E-3,5.063425E-4],"split_indices":[2,0,4,0,0,0,0],"split_type":[0,0,0,0,0,0,0],"sum_hessian":[9.329474E3,5.800821E2,8.749391E3,5.2550146E2,5.4580647E1,1.8488109E3,6.90058E3],"tree_param":{"num_deleted":"0","num_feature":"5","num_nodes":"7","size_leaf_vector":"0"}}]},"name":"gbtree"},"learner_model_param":{"base_score":"5E-1","num_class":"0","num_feature":"5","num_target":"1"},"objective":{"name":"binary:logistic","reg_loss_param":{"scale_pos_weight":"1"}}},"version":[1,6,2]}