{"learner":{"attributes":{"best_iteration":"99","best_ntree_limit":"100","best_score":"0.5856152952310443","scikit_learn":"{\"use_label_encoder\": false, \"n_estimators\": 100, \"objective\": \"binary:logistic\", \"max_depth\": 2, \"max_leaves\": null, \"max_bin\": null, \"grow_policy\": null, \"learning_rate\": 0.1, \"verbosity\": null, \"booster\": null, \"tree_method\": null, \"gamma\": null, \"min_child_weight\": null, \"max_delta_step\": null, \"subsample\": null, \"sampling_method\": null, \"colsample_bytree\": null, \"colsample_bylevel\": null, \"colsample_bynode\": null, \"reg_alpha\": null, \"reg_lambda\": null, \"scale_pos_weight\": null, \"base_score\": null, \"missing\": NaN, \"num_parallel_tree\": null, \"random_state\": null, \"n_jobs\": null, \"monotone_constraints\": null, \"interaction_constraints\": null, \"importance_type\": null, \"gpu_id\": null, \"validate_parameters\": null, \"predictor\": null, \"enable_categorical\": false, \"max_cat_to_onehot\": null, \"eval_metric\": null, \"early_stopping_rounds\": null, \"callbacks\": null, \"kwargs\": {\"nthread\": 4, \"seed\": 42}, \"classes_\": [0, 1], \"n_classes_\": 2, \"evals_result_\": {\"validation_0\": {\"logloss\": [0.6872547942226669, 0.6821962526137355, 0.6770445042457324, 0.6728381469700041, 0.669327804570469, 0.6663518815893109, 0.6638137043901976, 0.6615511279398564, 0.6594608958995248, 0.65756730272013, 0.6559037653419153, 0.6542955017349082, 0.6526699846500394, 0.6513316614097994, 0.6500808324866854, 0.6487920629311456, 0.6475974033347474, 0.646304676083884, 0.6453191611015919, 0.6422541101950172, 0.6413188598809632, 0.6403680782564946, 0.6395402502220232, 0.6370464661021824, 0.6345924446129737, 0.633869190237759, 0.6307106459544739, 0.6299215563418804, 0.6279500866129057, 0.6273277556384559, 0.6264677935702815, 0.6227431562610214, 0.6221493569946951, 0.621426953276405, 0.6198604227462262, 0.6182699344659665, 0.6177639541123242, 0.6171924295326766, 0.6167104323816177, 0.6141659290538581, 0.6122458758898318, 0.6091961657004552, 0.6053496603747622, 0.6048637106074121, 0.6027343105199262, 0.6014416330987803, 0.5998361576680353, 0.5972847271243303, 0.5940985034669367, 0.5931585178764767, 0.5927155740864548, 0.5922913045392327, 0.5917876020514159, 0.5907089829566841, 0.5889236044087692, 0.5867851527833874, 0.5830075531671253, 0.5803604654075779, 0.5792976669696412, 0.5779771825199264, 0.5772168603343836, 0.5768688138727295, 0.5763560919710985, 0.5748405984672954, 0.5730274060917531, 0.5699048834180112, 0.5676753405044734, 0.5673164925439842, 0.5669626862075993, 0.5666770492115962, 0.565790355633567, 0.5651637858493723, 0.5625457786475494, 0.5589547835274629, 0.5570597553608325, 0.5555085338622204, 0.5544060630403878, 0.5531088082691871, 0.5509000032183703, 0.5479234113701607, 0.5463048716589883, 0.5449739429174784, 0.5438598992544511, 0.5429166441167695, 0.542165285180309, 0.5419025403389182, 0.5412846755806233, 0.5407597558359293, 0.5405169224082532, 0.5399794586171633, 0.5397284631242464, 0.5379227257545036, 0.5372957932652263, 0.5368008859077413, 0.5365023792758935, 0.5350105185769017, 0.5331432999487069, 0.531764654565497, 0.5306277745041383, 0.5281674445410113]}, \"validation_1\": {\"logloss\": [0.688100855846405, 0.6835039085507393, 0.6787687630009651, 0.6749500536632538, 0.671506113679409, 0.6684677162146568, 0.6662995611870289, 0.66489192299366, 0.6629206967043877, 0.6615034192228317, 0.660630746626854, 0.6595155808079243, 0.657880638897419, 0.6574259376680851, 0.6565855454838276, 0.6558225237095356, 0.6552031555593014, 0.6540760925900936, 0.6538049931275844, 0.6520105969089269, 0.6515997143018246, 0.650618555535674, 0.6500615606683493, 0.6485683537214995, 0.6473028738242388, 0.6472168289452791, 0.6454102499556541, 0.6447156869184971, 0.6435863040983677, 0.6433625151687861, 0.6426920240372419, 0.6403940217018127, 0.6401319141101837, 0.6395387052923441, 0.6387854247951508, 0.6380493630456925, 0.6379212592709065, 0.6374710193103552, 0.6372329778069258, 0.6357502500212192, 0.634776943256259, 0.6328779544636607, 0.6305367114657163, 0.6301094204601645, 0.6288697675785422, 0.6282628899481892, 0.6274553936344385, 0.6258651521372796, 0.6239193418604135, 0.6234804150947928, 0.6231531275761127, 0.62298612329036, 0.6225945685464144, 0.6221971500888467, 0.6211507202020288, 0.6198127710846066, 0.6173855747079849, 0.6157710920706392, 0.6152805308327078, 0.6146311062082648, 0.6142766342580318, 0.6139911671766639, 0.6138088875052333, 0.6129335635051131, 0.6118141167613864, 0.6097813370865584, 0.6084377321374417, 0.6081740556964278, 0.6078883057460189, 0.6077453741037846, 0.6073405431249738, 0.6070497593399883, 0.6053104968947172, 0.6030817325392366, 0.6019475696107746, 0.6009999309921265, 0.6004714533492923, 0.5997311927679181, 0.598272157715261, 0.5964267397665978, 0.5954851359269023, 0.5946925888431073, 0.594075518874526, 0.5936411983692647, 0.5933091767975688, 0.5932242587697506, 0.5931640877661108, 0.5929130660653115, 0.5927915996590256, 0.5924569154429435, 0.592238487636149, 0.5911919005551934, 0.5909250935137272, 0.5908682301664352, 0.5907819739434123, 0.5898890053200722, 0.5886415196669101, 0.5878352350583672, 0.5871534570893645, 0.5856152952310443]}}, \"_estimator_type\": \"classifier\"}"},"feature_names":["loan_amnt","term","grade","home_ownership","annual_inc","verification_status","purpose","dti","open_acc"],"feature_types":["float","int","int","int","float","int","int","float","float"],"gradient_booster":{"model":{"gbtree_model_param":{"num_parallel_tree":"1","num_trees":"100","size_leaf_vector":"0"},"tree_info":[0,0,0,0,0,0,0,0,0,0,0,0,0,0,0,0,0,0,0,0,0,0,0,0,0,0,0,0,0,0,0,0,0,0,0,0,0,0,0,0,0,0,0,0,0,0,0,0,0,0,0,0,0,0,0,0,0,0,0,0,0,0,0,0,0,0,0,0,0,0,0,0,0,0,0,0,0,0,0,0,0,0,0,0,0,0,0,0,0,0,0,0,0,0,0,0,0,0,0,0],"trees":[{"base_weights":[-0E0,1.1727501E0,-1.5886277E-1,1.3500066E0,9.052963E-1,-2.986662E-1,2.9718438E-1],"categories":[],"categories_nodes":[],"categories_segments":[],"categories_sizes":[],"default_left":[1,1,1,0,0,0,0],"id":0,"left_children":[1,3,5,-1,-1,-1,-1],"loss_changes":[4.9629214E3,1.4943994E2,1.4958591E3,0E0,0E0,0E0,0E0],"parents":[2147483647,0,0,1,1,2,2],"right_children":[2,4,6,-1,-1,-1,-1],"split_conditions":[1.5E0,1.780251E1,1.5E0,1.3500066E-1,9.0529636E-2,-2.986662E-2,2.9718438E-2],"split_indices":[2,7,5,0,0,0,0],"split_type":[0,0,0,0,0,0,0],"sum_hessian":[2.66365E4,3.177E3,2.34595E4,1.90825E3,1.26875E3,1.79555E4,5.504E3],"tree_param":{"num_deleted":"0","num_feature":"9","num_nodes":"7","size_leaf_vector":"0"}},{"base_weights":[2.4976955E-5,1.0594488E0,-1.4300957E-1,1.178159E0,7.2642666E-1,2.3932609E-1,-3.1184444E-1],"categories":[],"categories_nodes":[],"categories_segments":[],"categories_sizes":[],"default_left":[1,1,1,0,0,0,0],"id":1,"left_children":[1,3,5,-1,-1,-1,-1],"loss_changes":[4.0341462E3,1.2433496E2,1.5141504E3,0E0,0E0,0E0,0E0],"parents":[2147483647,0,0,1,1,2,2],"right_children":[2,4,6,-1,-1,-1,-1],"split_conditions":[1.5E0,2.0920761E1,1.4410067E1,1.17815904E-1,7.264267E-2,2.393261E-2,-3.1184444E-2],"split_indices":[2,7,7,0,0,0,0],"split_type":[0,0,0,0,0,0,0],"sum_hessian":[2.6620018E4,3.1657358E3,2.3454281E4,2.3319453E3,8.3379047E2,7.184401E3,1.6269881E4],"tree_param":{"num_deleted":"0","num_feature":"9","num_nodes":"7","size_leaf_vector":"0"}},{"base_weights":[8.0362355E-5,4.4935548E-1,-2.9542848E-1,9.6287686E-1,2.3190768E-1,-4.5065254E-1,1.3432465E-1],"categories":[],"categories_nodes":[],"categories_segments":[],"categories_sizes":[],"default_left":[1,1,1,0,0,0,0],"id":2,"left_children":[1,3,5,-1,-1,-1,-1],"loss_changes":[3.5296506E3,1.1776609E3,1.0698761E3,0E0,0E0,0E0,0E0],"parents":[2147483647,0,0,1,1,2,2],"right_children":[2,4,6,-1,-1,-1,-1],"split_conditions":[2.5E0,1.5E0,1.5E0,9.628769E-2,2.3190768E-2,-4.5065254E-2,1.34324655E-2],"split_indices":[2,2,5,0,0,0,0],"split_type":[0,0,0,0,0,0,0],"sum_hessian":[2.6583746E4,1.0547459E4,1.6036287E4,3.1366252E3,7.4108335E3,1.1781013E4,4.255274E3],"tree_param":{"num_deleted":"0","num_feature":"9","num_nodes":"7","size_leaf_vector":"0"}},{"base_weights":[1.307511E-4,4.0609384E-1,-2.662138E-1,8.785193E-1,2.0866935E-1,-4.0623498E-1,1.2091066E-1],"categories":[],"categories_nodes":[],"categories_segments":[],"categories_sizes":[],"default_left":[1,1,1,0,0,0,0],"id":3,"left_children":[1,3,5,-1,-1,-1,-1],"loss_changes":[2.8684438E3,9.8004236E2,8.6836707E2,0E0,0E0,0E0,0E0],"parents":[2147483647,0,0,1,1,2,2],"right_children":[2,4,6,-1,-1,-1,-1],"split_conditions":[2.5E0,1.5E0,1.5E0,8.7851934E-2,2.0866936E-2,-4.0623497E-2,1.2091066E-2],"split_indices":[2,2,5,0,0,0,0],"split_type":[0,0,0,0,0,0,0],"sum_hessian":[2.65267E4,1.0508734E4,1.6017966E4,3.0962163E3,7.4125186E3,1.1763215E4,4.254751E3],"tree_param":{"num_deleted":"0","num_feature":"9","num_nodes":"7","size_leaf_vector":"0"}},{"base_weights":[1.7966598E-4,3.6738962E-1,-2.4003005E-1,8.039318E-1,1.8780975E-1,3.8227063E-1,-3.1869808E-1],"categories":[],"categories_nodes":[],"categories_segments":[],"categories_sizes":[],"default_left":[1,1,1,0,0,0,0],"id":4,"left_children":[1,3,5,-1,-1,-1,-1],"loss_changes":[2.3333552E3,8.199387E2,7.830106E2,0E0,0E0,0E0,0E0],"parents":[2147483647,0,0,1,1,2,2],"right_children":[2,4,6,-1,-1,-1,-1],"split_conditions":[2.5E0,1.5E0,9.390593E0,8.039318E-2,1.8780975E-2,3.8227063E-2,-3.186981E-2],"split_indices":[2,2,7,0,0,0,0],"split_type":[0,0,0,0,0,0,0],"sum_hessian":[2.6451057E4,1.0460105E4,1.5990952E4,3.0477727E3,7.412333E3,1.7941931E3,1.4196759E4],"tree_param":{"num_deleted":"0","num_feature":"9","num_nodes":"7","size_leaf_vector":"0"}},{"base_weights":[2.3124892E-4,3.3260787E-1,-2.1635714E-1,7.3715997E-1,1.6906829E-1,1.4887881E-1,-3.4492302E-1],"categories":[],"categories_nodes":[],"categories_segments":[],"categories_sizes":[],"default_left":[1,1,1,0,0,0,0],"id":5,"left_children":[1,3,5,-1,-1,-1,-1],"loss_changes":[1.8987421E3,6.883502E2,7.499204E2,0E0,0E0,0E0,0E0],"parents":[2147483647,0,0,1,1,2,2],"right_children":[2,4,6,-1,-1,-1,-1],"split_conditions":[2.5E0,1.5E0,9.602602E3,7.3716E-2,1.690683E-2,1.4887881E-2,-3.4492303E-2],"split_indices":[2,2,0,0,0,0,0],"split_type":[0,0,0,0,0,0,0],"sum_hessian":[2.6373479E4,1.0405169E4,1.5968311E4,2.9943813E3,7.4107876E3,4.157456E3,1.18108545E4],"tree_param":{"num_deleted":"0","num_feature":"9","num_nodes":"7","size_leaf_vector":"0"}},{"base_weights":[2.7218828E-4,3.0124626E-1,-1.950254E-1,6.767994E-1,1.5221795E-1,-3.2331896E-1,1.5760602E-1],"categories":[],"categories_nodes":[],"categories_segments":[],"categories_sizes":[],"default_left":[1,1,1,0,0,0,0],"id":6,"left_children":[1,3,5,-1,-1,-1,-1],"loss_changes":[1.5455762E3,5.790349E2,7.2149066E2,0E0,0E0,0E0,0E0],"parents":[2147483647,0,0,1,1,2,2],"right_children":[2,4,6,-1,-1,-1,-1],"split_conditions":[2.5E0,1.5E0,1.5E0,6.767994E-2,1.5221796E-2,-3.2331895E-2,1.5760602E-2],"split_indices":[2,2,5,0,0,0,0],"split_type":[0,0,0,0,0,0,0],"sum_hessian":[2.6292475E4,1.0346653E4,1.594582E4,2.9383735E3,7.40828E3,1.1692107E4,4.253713E3],"tree_param":{"num_deleted":"0","num_feature":"9","num_nodes":"7","size_leaf_vector":"0"}},{"base_weights":[3.00082E-4,2.856616E-1,-1.9015576E-1,8.141055E-1,1.9680658E-1,-3.0513793E-1,1.5352376E-1],"categories":[],"categories_nodes":[],"categories_segments":[],"categories_sizes":[],"default_left":[1,1,1,0,0,0,0],"id":7,"left_children":[1,3,5,-1,-1,-1,-1],"loss_changes":[1.4238658E3,4.922354E2,6.2094257E2,0E0,0E0,0E0,0E0],"parents":[2147483647,0,0,1,1,2,2],"right_children":[2,4,6,-1,-1,-1,-1],"split_conditions":[1.6180319E1,1.5E0,1.5E0,8.141055E-2,1.9680658E-2,-3.0513793E-2,1.5352376E-2],"split_indices":[7,2,5,0,0,0,0],"split_type":[0,0,0,0,0,0,0],"sum_hessian":[2.6196676E4,1.0485566E4,1.571111E4,1.508135E3,8.977432E3,1.1772566E4,3.9385435E3],"tree_param":{"num_deleted":"0","num_feature":"9","num_nodes":"7","size_leaf_vector":"0"}},{"base_weights":[3.2669317E-4,2.6767248E-1,-1.721841E-1,7.2939795E-1,1.6457447E-1,3.9625263E-1,-2.441741E-1],"categories":[],"categories_nodes":[],"categories_segments":[],"categories_sizes":[],"default_left":[1,1,1,0,0,0,0],"id":8,"left_children":[1,3,5,-1,-1,-1,-1],"loss_changes":[1.2057212E3,4.879662E2,6.5033716E2,0E0,0E0,0E0,0E0],"parents":[2147483647,0,0,1,1,2,2],"right_children":[2,4,6,-1,-1,-1,-1],"split_conditions":[2.5E0,7.000073E0,6.0007067E0,7.29398E-2,1.6457448E-2,3.9625265E-2,-2.441741E-2],"split_indices":[2,8,8,0,0,0,0],"split_type":[0,0,0,0,0,0,0],"sum_hessian":[2.6141115E4,1.0252271E4,1.5888843E4,1.8702526E3,8.382019E3,1.7855496E3,1.4103293E4],"tree_param":{"num_deleted":"0","num_feature":"9","num_nodes":"7","size_leaf_vector":"0"}},{"base_weights":[3.1171629E-4,3.5014135E-1,-1.216681E-1,6.4237326E-1,1.9317685E-1,4.6764246E-1,-1.831926E-1],"categories":[],"categories_nodes":[],"categories_segments":[],"categories_sizes":[],"default_left":[1,1,1,0,0,0,0],"id":9,"left_children":[1,3,5,-1,-1,-1,-1],"loss_changes":[1.1130186E3,3.091961E2,7.012828E2,0E0,0E0,0E0,0E0],"parents":[2147483647,0,0,1,1,2,2],"right_children":[2,4,6,-1,-1,-1,-1],"split_conditions":[1.2970352E1,7.8902225E0,1.5E0,6.423733E-2,1.9317685E-2,4.6764247E-2,-1.831926E-2],"split_indices":[7,7,2,0,0,0,0],"split_type":[0,0,0,0,0,0,0],"sum_hessian":[2.6081021E4,6.7424043E3,1.9338617E4,2.3549446E3,4.38746E3,1.8274868E3,1.7511129E4],"tree_param":{"num_deleted":"0","num_feature":"9","num_nodes":"7","size_leaf_vector":"0"}},{"base_weights":[3.1977193E-4,2.3045687E-1,-1.5625033E-1,3.8085395E-1,-2.5591567E-2,-2.6289096E-1,1.601684E-1],"categories":[],"categories_nodes":[],"categories_segments":[],"categories_sizes":[],"default_left":[1,1,1,0,0,0,0],"id":10,"left_children":[1,3,5,-1,-1,-1,-1],"loss_changes":[9.3747534E2,4.0566077E2,5.225029E2,0E0,0E0,0E0,0E0],"parents":[2147483647,0,0,1,1,2,2],"right_children":[2,4,6,-1,-1,-1,-1],"split_conditions":[1.6300087E1,1.5000531E4,1.5E0,3.8085397E-2,-2.5591569E-3,-2.6289096E-2,1.601684E-2],"split_indices":[7,0,5,0,0,0,0],"split_type":[0,0,0,0,0,0,0],"sum_hessian":[2.6015434E4,1.0532943E4,1.5482489E4,6.63513E3,3.8978135E3,1.1579942E4,3.9025469E3],"tree_param":{"num_deleted":"0","num_feature":"9","num_nodes":"7","size_leaf_vector":"0"}},{"base_weights":[2.923167E-4,5.3993607E-1,-6.4377524E-2,7.689457E-1,3.859642E-1,4.520615E-1,-1.3106143E-1],"categories":[],"categories_nodes":[],"categories_segments":[],"categories_sizes":[],"default_left":[1,1,1,0,0,0,0],"id":11,"left_children":[1,3,5,-1,-1,-1,-1],"loss_changes":[9.0659357E2,9.7728516E1,7.9895233E2,0E0,0E0,0E0,0E0],"parents":[2147483647,0,0,1,1,2,2],"right_children":[2,4,6,-1,-1,-1,-1],"split_conditions":[1.5E0,1.0000387E1,6.000435E0,7.6894574E-2,3.859642E-2,4.5206152E-2,-1.3106144E-2],"split_indices":[2,8,8,0,0,0,0],"split_type":[0,0,0,0,0,0,0],"sum_hessian":[2.597588E4,2.778989E3,2.3196893E4,1.1156443E3,1.6633447E3,2.6520552E3,2.0544838E4],"tree_param":{"num_deleted":"0","num_feature":"9","num_nodes":"7","size_leaf_vector":"0"}},{"base_weights":[3.3217517E-4,2.2255887E-1,-1.4179412E-1,1.2839319E-1,7.016539E-1,1.22771315E-1,-2.7309483E-1],"categories":[],"categories_nodes":[],"categories_segments":[],"categories_sizes":[],"default_left":[1,1,1,0,0,0,0],"id":12,"left_children":[1,3,5,-1,-1,-1,-1],"loss_changes":[8.181694E2,4.5577777E2,5.4887463E2,0E0,0E0,0E0,0E0],"parents":[2147483647,0,0,1,1,2,2],"right_children":[2,4,6,-1,-1,-1,-1],"split_conditions":[2.5E0,1.5E0,1.0000455E4,1.2839319E-2,7.016539E-2,1.2277132E-2,-2.7309483E-2],"split_indices":[2,5,0,0,0,0,0],"split_type":[0,0,0,0,0,0,0],"sum_hessian":[2.5902344E4,1.0103729E4,1.5798615E4,8.445116E3,1.6586117E3,5.240099E3,1.0558516E4],"tree_param":{"num_deleted":"0","num_feature":"9","num_nodes":"7","size_leaf_vector":"0"}},{"base_weights":[3.1502038E-4,4.179489E-1,-6.920698E-2,4.9225548E-1,-5.3885087E-2,-1.617491E-1,2.3373285E-1],"categories":[],"categories_nodes":[],"categories_segments":[],"categories_sizes":[],"default_left":[1,1,1,0,0,0,0],"id":13,"left_children":[1,3,5,-1,-1,-1,-1],"loss_changes":[7.503684E2,1.2933502E2,6.2116455E2,0E0,0E0,0E0,0E0],"parents":[2147483647,0,0,1,1,2,2],"right_children":[2,4,6,-1,-1,-1,-1],"split_conditions":[9.790207E0,2.5002207E4,1.5E0,4.922555E-2,-5.388509E-3,-1.617491E-2,2.3373285E-2],"split_indices":[7,0,5,0,0,0,0],"split_type":[0,0,0,0,0,0,0],"sum_hessian":[2.5841812E4,3.687169E3,2.2154645E4,3.1854644E3,5.0170465E2,1.6970852E4,5.183793E3],"tree_param":{"num_deleted":"0","num_feature":"9","num_nodes":"7","size_leaf_vector":"0"}},{"base_weights":[3.025287E-4,4.7909126E-1,-5.5653263E-2,6.9457245E-1,3.373226E-1,2.9400408E-1,-1.3348706E-1],"categories":[],"categories_nodes":[],"categories_segments":[],"categories_sizes":[],"default_left":[1,1,1,0,0,0,0],"id":14,"left_children":[1,3,5,-1,-1,-1,-1],"loss_changes":[6.913822E2,8.225873E1,6.288758E2,0E0,0E0,0E0,0E0],"parents":[2147483647,0,0,1,1,2,2],"right_children":[2,4,6,-1,-1,-1,-1],"split_conditions":[1.5E0,1.0000387E1,7.000073E0,6.945725E-2,3.373226E-2,2.9400408E-2,-1.3348706E-2],"split_indices":[2,8,8,0,0,0,0],"split_type":[0,0,0,0,0,0,0],"sum_hessian":[2.5804514E4,2.699399E3,2.3105113E4,1.0696641E3,1.629735E3,4.206268E3,1.8898846E4],"tree_param":{"num_deleted":"0","num_feature":"9","num_nodes":"7","size_leaf_vector":"0"}},{"base_weights":[3.2955478E-4,-1.2782751E-1,2.0154689E-1,-2.540089E-1,1.2642685E-1,3.8977298E-1,5.4428343E-2],"categories":[],"categories_nodes":[],"categories_segments":[],"categories_sizes":[],"default_left":[1,1,1,0,0,0,0],"id":15,"left_children":[1,3,5,-1,-1,-1,-1],"loss_changes":[6.636294E2,5.0441098E2,2.7725818E2,0E0,0E0,0E0,0E0],"parents":[2147483647,0,0,1,1,2,2],"right_children":[2,4,6,-1,-1,-1,-1],"split_conditions":[5E-1,1.5E0,2.5E0,-2.540089E-2,1.2642684E-2,3.89773E-2,5.4428345E-3],"split_indices":[6,3,2,0,0,0,0],"split_type":[0,0,0,0,0,0,0],"sum_hessian":[2.5732615E4,1.5720474E4,1.0012142E4,1.0506372E4,5.2141016E3,4.391688E3,5.620453E3],"tree_param":{"num_deleted":"0","num_feature":"9","num_nodes":"7","size_leaf_vector":"0"}},{"base_weights":[3.1456506E-4,1.5293138E-1,-1.5503325E-1,6.9083385E-2,4.9964875E-1,-2.780119E-1,7.0672885E-2],"categories":[],"categories_nodes":[],"categories_segments":[],"categories_sizes":[],"default_left":[1,1,1,0,0,0,0],"id":16,"left_children":[1,3,5,-1,-1,-1,-1],"loss_changes":[6.093375E2,3.7686276E2,3.5354855E2,0E0,0E0,0E0,0E0],"parents":[2147483647,0,0,1,1,2,2],"right_children":[2,4,6,-1,-1,-1,-1],"split_conditions":[1.8540028E1,1.5E0,5E-1,6.9083385E-3,4.9964875E-2,-2.780119E-2,7.0672887E-3],"split_indices":[7,5,6,0,0,0,0],"split_type":[0,0,0,0,0,0,0],"sum_hessian":[2.5699021E4,1.2963467E4,1.2735555E4,1.0439936E4,2.5235308E3,8.243666E3,4.491889E3],"tree_param":{"num_deleted":"0","num_feature":"9","num_nodes":"7","size_leaf_vector":"0"}},{"base_weights":[2.8814794E-4,8.79753E-2,-2.5808778E-1,1.7509791E-3,4.3603775E-1,1.0194331E-1,-3.83274E-1],"categories":[],"categories_nodes":[],"categories_segments":[],"categories_sizes":[],"default_left":[1,1,1,0,0,0,0],"id":17,"left_children":[1,3,5,-1,-1,-1,-1],"loss_changes":[5.8147894E2,5.75081E2,2.93144E2,0E0,0E0,0E0,0E0],"parents":[2147483647,0,0,1,1,2,2],"right_children":[2,4,6,-1,-1,-1,-1],"split_conditions":[3.5E0,1.5E0,1.0002881E4,1.7509791E-4,4.3603774E-2,1.01943305E-2,-3.83274E-2],"split_indices":[2,5,0,0,0,0,0],"split_type":[0,0,0,0,0,0,0],"sum_hessian":[2.5663275E4,1.9161082E4,6.5021934E3,1.5357601E4,3.803481E3,1.6776156E3,4.8245776E3],"tree_param":{"num_deleted":"0","num_feature":"9","num_nodes":"7","size_leaf_vector":"0"}},{"base_weights":[2.5691E-4,4.655175E-1,-4.636913E-2,5.5488676E-1,7.771847E-2,-1.446015E-1,1.5836543E-1],"categories":[],"categories_nodes":[],"categories_segments":[],"categories_sizes":[],"default_left":[1,1,1,0,0,0,0],"id":18,"left_children":[1,3,5,-1,-1,-1,-1],"loss_changes":[5.558872E2,8.0850006E1,4.6843723E2,0E0,0E0,0E0,0E0],"parents":[2147483647,0,0,1,1,2,2],"right_children":[2,4,6,-1,-1,-1,-1],"split_conditions":[7.981059E0,2.2096254E4,1.5E0,5.5488676E-2,7.771847E-3,-1.4460149E-2,1.5836542E-2],"split_indices":[7,0,3,0,0,0,0],"split_type":[0,0,0,0,0,0,0],"sum_hessian":[2.5622887E4,2.333085E3,2.32898E4,1.8957692E3,4.3731567E2,1.573864E4,7.5511616E3],"tree_param":{"num_deleted":"0","num_feature":"9","num_nodes":"7","size_leaf_vector":"0"}},{"base_weights":[2.517006E-4,1.4617968E-1,-1.4305332E-1,4.641181E-1,6.2647484E-2,-7.549549E-1,1.8149583E-1],"categories":[],"categories_nodes":[],"categories_segments":[],"categories_sizes":[],"default_left":[1,1,1,0,0,0,0],"id":19,"left_children":[1,3,5,-1,-1,-1,-1],"loss_changes":[5.353449E2,3.3682684E2,2.565132E3,0E0,0E0,0E0,0E0],"parents":[2147483647,0,0,1,1,2,2],"right_children":[2,4,6,-1,-1,-1,-1],"split_conditions":[5E-1,8.000065E0,1.5E0,4.641181E-2,6.2647485E-3,-7.549549E-2,1.8149583E-2],"split_indices":[3,8,3,0,0,0,0],"split_type":[0,0,0,0,0,0,0],"sum_hessian":[2.5597633E4,1.2682739E4,1.2914895E4,2.6378926E3,1.0044847E4,4.4755024E3,8.439392E3],"tree_param":{"num_deleted":"0","num_feature":"9","num_nodes":"7","size_leaf_vector":"0"}},{"base_weights":[2.0594361E-4,4.1925424E-1,-4.749088E-2,5.1946217E-1,1.6522631E-1,-1.2732208E-1,2.0962633E-1],"categories":[],"categories_nodes":[],"categories_segments":[],"categories_sizes":[],"default_left":[1,1,1,0,0,0,0],"id":20,"left_children":[1,3,5,-1,-1,-1,-1],"loss_changes":[5.1104486E2,6.6425995E1,4.7121408E2,0E0,0E0,0E0,0E0],"parents":[2147483647,0,0,1,1,2,2],"right_children":[2,4,6,-1,-1,-1,-1],"split_conditions":[1.5E0,2.0920761E1,1.5E0,5.194622E-2,1.6522631E-2,-1.2732208E-2,2.0962633E-2],"split_indices":[2,7,5,0,0,0,0],"split_type":[0,0,0,0,0,0,0],"sum_hessian":[2.5566518E4,2.611854E3,2.2954664E4,1.8722511E3,7.396029E2,1.7516535E4,5.4381284E3],"tree_param":{"num_deleted":"0","num_feature":"9","num_nodes":"7","size_leaf_vector":"0"}},{"base_weights":[2.3122349E-4,1.6977847E-1,-1.0714592E-1,1.0170702E-1,5.281492E-1,1.475197E-1,-1.9792528E-1],"categories":[],"categories_nodes":[],"categories_segments":[],"categories_sizes":[],"default_left":[1,1,1,0,0,0,0],"id":21,"left_children":[1,3,5,-1,-1,-1,-1],"loss_changes":[4.6417047E2,2.4111618E2,3.609085E2,0E0,0E0,0E0,0E0],"parents":[2147483647,0,0,1,1,2,2],"right_children":[2,4,6,-1,-1,-1,-1],"split_conditions":[2.5E0,1.5E0,9.602602E3,1.0170702E-2,5.281492E-2,1.475197E-2,-1.9792529E-2],"split_indices":[2,5,0,0,0,0,0],"split_type":[0,0,0,0,0,0,0],"sum_hessian":[2.5494172E4,9.885113E3,1.5609059E4,8.308267E3,1.5768466E3,4.101735E3,1.1507323E4],"tree_param":{"num_deleted":"0","num_feature":"9","num_nodes":"7","size_leaf_vector":"0"}},{"base_weights":[2.2228746E-4,-1.0383294E-1,1.6383773E-1,4.3903075E-2,-2.3770337E-1,2.394931E-1,-8.718816E-2],"categories":[],"categories_nodes":[],"categories_segments":[],"categories_sizes":[],"default_left":[1,1,1,0,0,0,0],"id":22,"left_children":[1,3,5,-1,-1,-1,-1],"loss_changes":[4.330607E2,3.0751752E2,1.8781497E2,0E0,0E0,0E0,0E0],"parents":[2147483647,0,0,1,1,2,2],"right_children":[2,4,6,-1,-1,-1,-1],"split_conditions":[5E-1,1.8540192E1,3.5E0,4.3903077E-3,-2.3770338E-2,2.394931E-2,-8.718817E-3],"split_indices":[6,7,2,0,0,0,0],"split_type":[0,0,0,0,0,0,0],"sum_hessian":[2.5434688E4,1.5547343E4,9.887346E3,7.3912354E3,8.1561074E3,7.5975933E3,2.2897524E3],"tree_param":{"num_deleted":"0","num_feature":"9","num_nodes":"7","size_leaf_vector":"0"}},{"base_weights":[1.9713689E-4,1.3069731E-1,-1.2792754E-1,2.5034866E-1,-6.824262E-2,-6.8143445E-1,1.6419351E-1],"categories":[],"categories_nodes":[],"categories_segments":[],"categories_sizes":[],"default_left":[1,1,1,0,0,0,0],"id":23,"left_children":[1,3,5,-1,-1,-1,-1],"loss_changes":[4.2468372E2,2.9953564E2,2.0723916E3,0E0,0E0,0E0,0E0],"parents":[2147483647,0,0,1,1,2,2],"right_children":[2,4,6,-1,-1,-1,-1],"split_conditions":[5E-1,1.800007E4,1.5E0,2.5034865E-2,-6.824262E-3,-6.814345E-2,1.6419351E-2],"split_indices":[3,0,3,0,0,0,0],"split_type":[0,0,0,0,0,0,0],"sum_hessian":[2.5397297E4,1.2582E4,1.2815296E4,7.856495E3,4.725505E3,4.426567E3,8.3887295E3],"tree_param":{"num_deleted":"0","num_feature":"9","num_nodes":"7","size_leaf_vector":"0"}},{"base_weights":[1.4188E-4,3.578028E-1,-4.5044586E-2,5.0908905E-2,9.474476E-1,-1.986627E0,-3.252626E-3],"categories":[],"categories_nodes":[],"categories_segments":[],"categories_sizes":[],"default_left":[1,1,1,0,0,0,0],"id":24,"left_children":[1,3,5,-1,-1,-1,-1],"loss_changes":[4.0984293E2,5.1468726E2,1.8269034E3,0E0,0E0,0E0,0E0],"parents":[2147483647,0,0,1,1,2,2],"right_children":[2,4,6,-1,-1,-1,-1],"split_conditions":[6.000435E0,5.999369E0,6.999629E0,5.0908905E-3,9.4744764E-2,-1.986627E-1,-3.252626E-4],"split_indices":[8,8,8,0,0,0,0],"split_type":[0,0,0,0,0,0,0],"sum_hessian":[2.535732E4,2.8434963E3,2.2513824E4,1.8708545E3,9.726419E2,4.7341138E2,2.2040412E4],"tree_param":{"num_deleted":"0","num_feature":"9","num_nodes":"7","size_leaf_vector":"0"}},{"base_weights":[1.2341999E-4,4.0240964E-1,-3.886282E-2,4.6979725E-1,-2.1610709E-2,-1.0636591E-1,1.8541586E-1],"categories":[],"categories_nodes":[],"categories_segments":[],"categories_sizes":[],"default_left":[1,1,1,0,0,0,0],"id":25,"left_children":[1,3,5,-1,-1,-1,-1],"loss_changes":[3.9737192E2,6.3972137E1,3.497158E2,0E0,0E0,0E0,0E0],"parents":[2147483647,0,0,1,1,2,2],"right_children":[2,4,6,-1,-1,-1,-1],"split_conditions":[7.9108667E0,2.5002207E4,1.5E0,4.6979725E-2,-2.161071E-3,-1.0636591E-2,1.8541588E-2],"split_indices":[7,0,5,0,0,0,0],"split_type":[0,0,0,0,0,0,0],"sum_hessian":[2.533474E4,2.2374902E3,2.309725E4,1.9305663E3,3.0692404E2,1.7754154E4,5.3430957E3],"tree_param":{"num_deleted":"0","num_feature":"9","num_nodes":"7","size_leaf_vector":"0"}},{"base_weights":[1.3100836E-4,2.624273E-1,-5.6732565E-2,1.3562163E-2,9.311531E-1,-1.9190326E0,5.604178E-3],"categories":[],"categories_nodes":[],"categories_segments":[],"categories_sizes":[],"default_left":[1,1,1,0,0,0,0],"id":26,"left_children":[1,3,5,-1,-1,-1,-1],"loss_changes":[3.773457E2,7.501426E2,2.4137522E3,0E0,0E0,0E0,0E0],"parents":[2147483647,0,0,1,1,2,2],"right_children":[2,4,6,-1,-1,-1,-1],"split_conditions":[7.000073E0,6.999629E0,7.999931E0,1.3562164E-3,9.3115315E-2,-1.9190326E-1,5.6041783E-4],"split_indices":[8,8,8,0,0,0,0],"split_type":[0,0,0,0,0,0,0],"sum_hessian":[2.5297568E4,4.506533E3,2.0791035E4,3.285034E3,1.2214994E3,6.7243274E2,2.0118604E4],"tree_param":{"num_deleted":"0","num_feature":"9","num_nodes":"7","size_leaf_vector":"0"}},{"base_weights":[8.1235354E-5,7.010248E-2,-2.0644906E-1,4.436504E-1,2.3237793E-2,8.345838E-2,-3.082942E-1],"categories":[],"categories_nodes":[],"categories_segments":[],"categories_sizes":[],"default_left":[1,1,1,0,0,0,0],"id":27,"left_children":[1,3,5,-1,-1,-1,-1],"loss_changes":[3.6550037E2,3.3041547E2,1.8896735E2,0E0,0E0,0E0,0E0],"parents":[2147483647,0,0,1,1,2,2],"right_children":[2,4,6,-1,-1,-1,-1],"split_conditions":[3.5E0,6.000435E0,1.0002881E4,4.436504E-2,2.3237793E-3,8.345838E-3,-3.082942E-2],"split_indices":[2,8,0,0,0,0,0],"split_type":[0,0,0,0,0,0,0],"sum_hessian":[2.527201E4,1.8873777E4,6.398233E3,2.1029744E3,1.6770803E4,1.6634155E3,4.7348174E3],"tree_param":{"num_deleted":"0","num_feature":"9","num_nodes":"7","size_leaf_vector":"0"}},{"base_weights":[7.402576E-5,1.18607275E-1,-1.166552E-1,1.7882739E-1,-2.042531E-1,-6.0946506E-1,1.4161539E-1],"categories":[],"categories_nodes":[],"categories_segments":[],"categories_sizes":[],"default_left":[1,1,1,0,0,0,0],"id":28,"left_children":[1,3,5,-1,-1,-1,-1],"loss_changes":[3.4913748E2,2.4345862E2,1.6182354E3,0E0,0E0,0E0,0E0],"parents":[2147483647,0,0,1,1,2,2],"right_children":[2,4,6,-1,-1,-1,-1],"split_conditions":[5E-1,2.8000846E4,1.5E0,1.788274E-2,-2.042531E-2,-6.0946506E-2,1.4161539E-2],"split_indices":[3,0,3,0,0,0,0],"split_type":[0,0,0,0,0,0,0],"sum_hessian":[2.5231451E4,1.2518979E4,1.2712473E4,1.0551376E4,1.967603E3,4.370912E3,8.341561E3],"tree_param":{"num_deleted":"0","num_feature":"9","num_nodes":"7","size_leaf_vector":"0"}},{"base_weights":[2.5031093E-5,3.4909716E-1,-3.8499158E-2,5.3366154E-1,2.3507325E-1,-1.0329688E-1,1.6999584E-1],"categories":[],"categories_nodes":[],"categories_segments":[],"categories_sizes":[],"default_left":[1,1,1,0,0,0,0],"id":29,"left_children":[1,3,5,-1,-1,-1,-1],"loss_changes":[3.3873672E2,5.256247E1,3.0649924E2,0E0,0E0,0E0,0E0],"parents":[2147483647,0,0,1,1,2,2],"right_children":[2,4,6,-1,-1,-1,-1],"split_conditions":[1.5E0,1.0000387E1,1.5E0,5.3366154E-2,2.3507325E-2,-1.0329689E-2,1.6999586E-2],"split_indices":[2,8,5,0,0,0,0],"split_type":[0,0,0,0,0,0,0],"sum_hessian":[2.5187156E4,2.5026147E3,2.2684541E4,9.542848E2,1.5483298E3,1.730642E4,5.378121E3],"tree_param":{"num_deleted":"0","num_feature":"9","num_nodes":"7","size_leaf_vector":"0"}},{"base_weights":[5.79237E-5,-1.2387483E-1,1.0508005E-1,-5.6676913E-2,-3.7834215E-1,3.343733E-1,-3.611697E-2],"categories":[],"categories_nodes":[],"categories_segments":[],"categories_sizes":[],"default_left":[1,1,1,0,0,0,0],"id":30,"left_children":[1,3,5,-1,-1,-1,-1],"loss_changes":[3.2702682E2,1.9705524E2,4.4033313E2,0E0,0E0,0E0,0E0],"parents":[2147483647,0,0,1,1,2,2],"right_children":[2,4,6,-1,-1,-1,-1],"split_conditions":[6.2999492E4,1.5000352E4,1.4002072E4,-5.6676916E-3,-3.7834216E-2,3.343733E-2,-3.611697E-3],"split_indices":[4,0,0,0,0,0,0],"split_type":[0,0,0,0,0,0,0],"sum_hessian":[2.5123604E4,1.1524172E4,1.3599432E4,9.117667E3,2.4065054E3,5.182339E3,8.417093E3],"tree_param":{"num_deleted":"0","num_feature":"9","num_nodes":"7","size_leaf_vector":"0"}},{"base_weights":[5.146227E-5,1.8792723E-1,-6.562436E-2,-3.2771353E-2,9.9388003E-1,-1.8621919E0,1.5469571E-2],"categories":[],"categories_nodes":[],"categories_segments":[],"categories_sizes":[],"default_left":[1,1,1,0,0,0,0],"id":31,"left_children":[1,3,5,-1,-1,-1,-1],"loss_changes":[3.097047E2,1.1564639E3,2.7096453E3,0E0,0E0,0E0,0E0],"parents":[2147483647,0,0,1,1,2,2],"right_children":[2,4,6,-1,-1,-1,-1],"split_conditions":[8.000065E0,7.999931E0,8.999989E0,-3.2771353E-3,9.9388E-2,-1.862192E-1,1.5469571E-3],"split_indices":[8,8,8,0,0,0,0],"split_type":[0,0,0,0,0,0,0],"sum_hessian":[2.509787E4,6.5004565E3,1.8597414E4,5.1038105E3,1.3966458E3,8.022513E2,1.7795162E4],"tree_param":{"num_deleted":"0","num_feature":"9","num_nodes":"7","size_leaf_vector":"0"}},{"base_weights":[-1.7105926E-5,1.230043E-1,-9.826088E-2,1.7481829E-1,-1.8003546E-1,-1.8479183E-1,5.7665896E-2],"categories":[],"categories_nodes":[],"categories_segments":[],"categories_sizes":[],"default_left":[1,1,1,0,0,0,0],"id":32,"left_children":[1,3,5,-1,-1,-1,-1],"loss_changes":[3.0302292E2,1.7482616E2,1.8809364E2,0E0,0E0,0E0,0E0],"parents":[2147483647,0,0,1,1,2,2],"right_children":[2,4,6,-1,-1,-1,-1],"split_conditions":[1.7230145E1,2.5001254E4,5E-1,1.748183E-2,-1.8003546E-2,-1.8479183E-2,5.7665897E-3],"split_indices":[7,0,6,0,0,0,0],"split_type":[0,0,0,0,0,0,0],"sum_hessian":[2.5070043E4,1.1131217E4,1.3938826E4,9.506254E3,1.6249637E3,8.964066E3,4.9747593E3],"tree_param":{"num_deleted":"0","num_feature":"9","num_nodes":"7","size_leaf_vector":"0"}},{"base_weights":[-1.7716666E-5,-8.2462035E-2,1.3217576E-1,9.9948265E-2,-1.6076033E-1,3.2041922E-1,-4.2946506E-2],"categories":[],"categories_nodes":[],"categories_segments":[],"categories_sizes":[],"default_left":[1,1,1,0,0,0,0],"id":33,"left_children":[1,3,5,-1,-1,-1,-1],"loss_changes":[2.7287036E2,2.2025351E2,3.1704453E2,0E0,0E0,0E0,0E0],"parents":[2147483647,0,0,1,1,2,2],"right_children":[2,4,6,-1,-1,-1,-1],"split_conditions":[7.53615E4,7.5011533E3,1.8000395E4,9.994826E-3,-1.6076034E-2,3.2041922E-2,-4.2946506E-3],"split_indices":[4,0,0,0,0,0,0],"split_type":[0,0,0,0,0,0,0],"sum_hessian":[2.5035191E4,1.541918E4,9.616012E3,4.6307407E3,1.0788439E4,4.6339883E3,4.9820234E3],"tree_param":{"num_deleted":"0","num_feature":"9","num_nodes":"7","size_leaf_vector":"0"}},{"base_weights":[-1.0930424E-5,1.0386714E-1,-1.0252254E-1,3.050339E-1,2.246612E-2,-5.4634064E-1,1.2781876E-1],"categories":[],"categories_nodes":[],"categories_segments":[],"categories_sizes":[],"default_left":[1,1,1,0,0,0,0],"id":34,"left_children":[1,3,5,-1,-1,-1,-1],"loss_changes":[2.663316E2,2.0341467E2,1.2869514E3,0E0,0E0,0E0,0E0],"parents":[2147483647,0,0,1,1,2,2],"right_children":[2,4,6,-1,-1,-1,-1],"split_conditions":[5E-1,9.00099E0,1.5E0,3.050339E-2,2.246612E-3,-5.4634064E-2,1.2781876E-2],"split_indices":[3,8,3,0,0,0,0],"split_type":[0,0,0,0,0,0,0],"sum_hessian":[2.5008697E4,1.2421553E4,1.2587145E4,3.577561E3,8.843992E3,4.300204E3,8.28694E3],"tree_param":{"num_deleted":"0","num_feature":"9","num_nodes":"7","size_leaf_vector":"0"}},{"base_weights":[-4.4486223E-5,3.942278E-1,-2.6079949E-2,4.2305168E-2,8.44406E-1,-2.116618E0,1.1489919E-4],"categories":[],"categories_nodes":[],"categories_segments":[],"categories_sizes":[],"default_left":[1,1,1,0,0,0,0],"id":35,"left_children":[1,3,5,-1,-1,-1,-1],"loss_changes":[2.5622626E2,2.4492232E2,1.282227E3,0E0,0E0,0E0,0E0],"parents":[2147483647,0,0,1,1,2,2],"right_children":[2,4,6,-1,-1,-1,-1],"split_conditions":[5.000247E0,4.999589E0,5.999369E0,4.230517E-3,8.4440604E-2,-2.116618E-1,1.14899185E-5],"split_indices":[8,8,8,0,0,0,0],"split_type":[0,0,0,0,0,0,0],"sum_hessian":[2.4959006E4,1.5451798E3,2.3413826E4,8.678444E2,6.773353E2,2.8876163E2,2.3125064E4],"tree_param":{"num_deleted":"0","num_feature":"9","num_nodes":"7","size_leaf_vector":"0"}},{"base_weights":[-3.1274743E-5,-7.93755E-2,1.2471215E-1,1.7577207E-1,-1.3249582E-1,7.161171E-2,3.4577918E-1],"categories":[],"categories_nodes":[],"categories_segments":[],"categories_sizes":[],"default_left":[1,1,1,0,0,0,0],"id":36,"left_children":[1,3,5,-1,-1,-1,-1],"loss_changes":[2.4693225E2,2.06703E2,1.1383374E2,0E0,0E0,0E0,0E0],"parents":[2147483647,0,0,1,1,2,2],"right_children":[2,4,6,-1,-1,-1,-1],"split_conditions":[5E-1,7.5011553E3,5E-1,1.7577207E-2,-1.3249583E-2,7.161171E-3,3.4577917E-2],"split_indices":[6,0,1,0,0,0,0],"split_type":[0,0,0,0,0,0,0],"sum_hessian":[2.4946521E4,1.5248154E4,9.698368E3,2.627144E3,1.262101E4,7.821067E3,1.8773009E3],"tree_param":{"num_deleted":"0","num_feature":"9","num_nodes":"7","size_leaf_vector":"0"}},{"base_weights":[-3.0765583E-5,5.754643E-2,-1.702228E-1,-2.906977E-3,3.0407768E-1,5.2813464E-1,-1.9721997E-1],"categories":[],"categories_nodes":[],"categories_segments":[],"categories_sizes":[],"default_left":[1,1,1,0,0,0,0],"id":37,"left_children":[1,3,5,-1,-1,-1,-1],"loss_changes":[2.4432556E2,2.776627E2,1.1893533E2,0E0,0E0,0E0,0E0],"parents":[2147483647,0,0,1,1,2,2],"right_children":[2,4,6,-1,-1,-1,-1],"split_conditions":[3.5E0,1.5E0,3.0005269E3,-2.906977E-4,3.040777E-2,5.2813467E-2,-1.9721998E-2],"split_indices":[2,5,0,0,0,0,0],"split_type":[0,0,0,0,0,0,0],"sum_hessian":[2.4931268E4,1.8629451E4,6.301816E3,1.4961613E4,3.6678384E3,2.3385797E2,6.067958E3],"tree_param":{"num_deleted":"0","num_feature":"9","num_nodes":"7","size_leaf_vector":"0"}},{"base_weights":[-2.1520336E-5,3.1969112E-1,-3.0241713E-2,-4.0164385E-2,3.806894E-1,-9.227595E-2,1.4888291E-1],"categories":[],"categories_nodes":[],"categories_segments":[],"categories_sizes":[],"default_left":[1,1,1,0,0,0,0],"id":38,"left_children":[1,3,5,-1,-1,-1,-1],"loss_changes":[2.405474E2,4.7210938E1,2.5277202E2,0E0,0E0,0E0,0E0],"parents":[2147483647,0,0,1,1,2,2],"right_children":[2,4,6,-1,-1,-1,-1],"split_conditions":[7.8902225E0,4.0101867E4,1.4999821E1,-4.0164385E-3,3.8068943E-2,-9.227595E-3,1.4888291E-2],"split_indices":[7,4,8,0,0,0,0],"split_type":[0,0,0,0,0,0,0],"sum_hessian":[2.4894805E4,2.1490876E3,2.2745717E4,3.115369E2,1.8375507E3,1.6895107E4,5.8506094E3],"tree_param":{"num_deleted":"0","num_feature":"9","num_nodes":"7","size_leaf_vector":"0"}},{"base_weights":[-7.841724E-6,2.104763E-1,-4.524283E-2,-2.3246737E-2,8.3799475E-1,-1.7628047E0,1.0756231E-2],"categories":[],"categories_nodes":[],"categories_segments":[],"categories_sizes":[],"default_left":[1,1,1,0,0,0,0],"id":39,"left_children":[1,3,5,-1,-1,-1,-1],"loss_changes":[2.3689618E2,6.455302E2,1.9697798E3,0E0,0E0,0E0,0E0],"parents":[2147483647,0,0,1,1,2,2],"right_children":[2,4,6,-1,-1,-1,-1],"split_conditions":[7.000073E0,6.999629E0,7.999931E0,-2.3246738E-3,8.3799474E-2,-1.7628048E-1,1.0756231E-3],"split_indices":[8,8,8,0,0,0,0],"split_type":[0,0,0,0,0,0,0],"sum_hessian":[2.4878793E4,4.4002446E3,2.0478549E4,3.2068113E3,1.1934332E3,6.456348E2,1.9832914E4],"tree_param":{"num_deleted":"0","num_feature":"9","num_nodes":"7","size_leaf_vector":"0"}},{"base_weights":[-6.931645E-5,2.7833396E-1,-3.4732215E-2,-4.6188864E-3,8.2711935E-1,-1.8153415E0,3.0223355E-3],"categories":[],"categories_nodes":[],"categories_segments":[],"categories_sizes":[],"default_left":[1,1,1,0,0,0,0],"id":40,"left_children":[1,3,5,-1,-1,-1,-1],"loss_changes":[2.3976369E2,4.2716284E2,1.4853263E3,0E0,0E0,0E0,0E0],"parents":[2147483647,0,0,1,1,2,2],"right_children":[2,4,6,-1,-1,-1,-1],"split_conditions":[6.000435E0,5.999369E0,6.999629E0,-4.6188865E-4,8.2711935E-2,-1.8153416E-1,3.0223356E-4],"split_indices":[8,8,8,0,0,0,0],"split_type":[0,0,0,0,0,0,0],"sum_hessian":[2.4843295E4,2.749888E3,2.2093406E4,1.8150453E3,9.348428E2,4.5774615E2,2.163566E4],"tree_param":{"num_deleted":"0","num_feature":"9","num_nodes":"7","size_leaf_vector":"0"}},{"base_weights":[-9.113221E-5,1.6361788E-1,-5.6485787E-2,-3.7803438E-2,8.9104265E-1,-1.7271864E0,1.6733343E-2],"categories":[],"categories_nodes":[],"categories_segments":[],"categories_sizes":[],"default_left":[1,1,1,0,0,0,0],"id":41,"left_children":[1,3,5,-1,-1,-1,-1],"loss_changes":[2.2910056E2,9.316129E2,2.2578218E3,0E0,0E0,0E0,0E0],"parents":[2147483647,0,0,1,1,2,2],"right_children":[2,4,6,-1,-1,-1,-1],"split_conditions":[8.000065E0,7.999931E0,8.999989E0,-3.7803438E-3,8.9104265E-2,-1.7271864E-1,1.6733343E-3],"split_indices":[8,8,8,0,0,0,0],"split_type":[0,0,0,0,0,0,0],"sum_hessian":[2.4813074E4,6.3570845E3,1.845599E4,4.9792856E3,1.3777985E3,7.7393335E2,1.7682057E4],"tree_param":{"num_deleted":"0","num_feature":"9","num_nodes":"7","size_leaf_vector":"0"}},{"base_weights":[-1.6418617E-4,1.326273E-1,-6.9556706E-2,-3.813156E-2,9.891594E-1,-1.8548187E0,2.8219946E-2],"categories":[],"categories_nodes":[],"categories_segments":[],"categories_sizes":[],"default_left":[1,1,1,0,0,0,0],"id":42,"left_children":[1,3,5,-1,-1,-1,-1],"loss_changes":[2.2829172E2,1.2436931E3,2.840376E3,0E0,0E0,0E0,0E0],"parents":[2147483647,0,0,1,1,2,2],"right_children":[2,4,6,-1,-1,-1,-1],"split_conditions":[9.0001335E0,8.999989E0,9.999943E0,-3.8131562E-3,9.891594E-2,-1.8548188E-1,2.8219947E-3],"split_indices":[8,8,8,0,0,0,0],"split_type":[0,0,0,0,0,0,0],"sum_hessian":[2.4772637E4,8.50202E3,1.6270616E4,7.0895894E3,1.4124302E3,8.4391754E2,1.5426699E4],"tree_param":{"num_deleted":"0","num_feature":"9","num_nodes":"7","size_leaf_vector":"0"}},{"base_weights":[-2.224145E-4,7.694523E-2,-1.18125096E-1,1.34295905E-2,2.7466097E-1,-2.0894127E-3,-2.3435992E-1],"categories":[],"categories_nodes":[],"categories_segments":[],"categories_sizes":[],"default_left":[1,1,1,0,0,0,0],"id":43,"left_children":[1,3,5,-1,-1,-1,-1],"loss_changes":[2.2513977E2,1.8781885E2,1.3202724E2,0E0,0E0,0E0,0E0],"parents":[2147483647,0,0,1,1,2,2],"right_children":[2,4,6,-1,-1,-1,-1],"split_conditions":[2.0790108E1,1.3999665E1,5E-1,1.3429591E-3,2.7466098E-2,-2.0894127E-4,-2.3435993E-2],"split_indices":[7,8,3,0,0,0,0],"split_type":[0,0,0,0,0,0,0],"sum_hessian":[2.4743332E4,1.4955356E4,9.787977E3,1.1319928E4,3.6354282E3,4.8986934E3,4.8892827E3],"tree_param":{"num_deleted":"0","num_feature":"9","num_nodes":"7","size_leaf_vector":"0"}},{"base_weights":[-2.0533288E-4,2.0246221E-1,-4.360364E-2,-9.527992E-3,7.724327E-1,-1.645028E0,6.7462125E-3],"categories":[],"categories_nodes":[],"categories_segments":[],"categories_sizes":[],"default_left":[1,1,1,0,0,0,0],"id":44,"left_children":[1,3,5,-1,-1,-1,-1],"loss_changes":[2.1748508E2,5.269485E2,1.6421498E3,0E0,0E0,0E0,0E0],"parents":[2147483647,0,0,1,1,2,2],"right_children":[2,4,6,-1,-1,-1,-1],"split_conditions":[7.000073E0,6.999629E0,7.999931E0,-9.527993E-4,7.724327E-2,-1.645028E-1,6.7462126E-4],"split_indices":[8,8,8,0,0,0,0],"split_type":[0,0,0,0,0,0,0],"sum_hessian":[2.4725053E4,4.360078E3,2.0364975E4,3.178774E3,1.1813042E3,6.1980554E2,1.9745168E4],"tree_param":{"num_deleted":"0","num_feature":"9","num_nodes":"7","size_leaf_vector":"0"}},{"base_weights":[-2.587296E-4,3.638496E-1,-2.4348924E-2,4.2241234E-2,7.809472E-1,-1.9048817E0,-7.582784E-4],"categories":[],"categories_nodes":[],"categories_segments":[],"categories_sizes":[],"default_left":[1,1,1,0,0,0,0],"id":45,"left_children":[1,3,5,-1,-1,-1,-1],"loss_changes":[2.1651834E2,2.054497E2,1.0271182E3,0E0,0E0,0E0,0E0],"parents":[2147483647,0,0,1,1,2,2],"right_children":[2,4,6,-1,-1,-1,-1],"split_conditions":[5.000247E0,4.999589E0,5.999369E0,4.2241234E-3,7.809472E-2,-1.9048817E-1,-7.582784E-5],"split_indices":[8,8,8,0,0,0,0],"split_type":[0,0,0,0,0,0,0],"sum_hessian":[2.4682457E4,1.5308286E3,2.3151627E4,8.6497784E2,6.6585077E2,2.858431E2,2.2865785E4],"tree_param":{"num_deleted":"0","num_feature":"9","num_nodes":"7","size_leaf_vector":"0"}},{"base_weights":[-2.4399569E-4,2.6361477E-1,-3.295108E-2,5.327863E-3,7.675235E-1,-1.6847589E0,1.04686E-3],"categories":[],"categories_nodes":[],"categories_segments":[],"categories_sizes":[],"default_left":[1,1,1,0,0,0,0],"id":46,"left_children":[1,3,5,-1,-1,-1,-1],"loss_changes":[2.1287106E2,3.5405707E2,1.2324414E3,0E0,0E0,0E0,0E0],"parents":[2147483647,0,0,1,1,2,2],"right_children":[2,4,6,-1,-1,-1,-1],"split_conditions":[6.000435E0,5.999369E0,6.999629E0,5.327863E-4,7.675236E-2,-1.684759E-1,1.04686005E-4],"split_indices":[8,8,8,0,0,0,0],"split_type":[0,0,0,0,0,0,0],"sum_hessian":[2.4664252E4,2.719345E3,2.1944906E4,1.7985028E3,9.208422E2,4.4158755E2,2.1503318E4],"tree_param":{"num_deleted":"0","num_feature":"9","num_nodes":"7","size_leaf_vector":"0"}},{"base_weights":[-2.6051264E-4,1.5826632E-1,-5.4161035E-2,-2.5742758E-2,8.1592745E-1,-1.617732E0,1.1697784E-2],"categories":[],"categories_nodes":[],"categories_segments":[],"categories_sizes":[],"default_left":[1,1,1,0,0,0,0],"id":47,"left_children":[1,3,5,-1,-1,-1,-1],"loss_changes":[2.1046387E2,7.563414E2,1.8928228E3,0E0,0E0,0E0,0E0],"parents":[2147483647,0,0,1,1,2,2],"right_children":[2,4,6,-1,-1,-1,-1],"split_conditions":[8.000065E0,7.999931E0,8.999989E0,-2.574276E-3,8.1592746E-2,-1.617732E-1,1.1697784E-3],"split_indices":[8,8,8,0,0,0,0],"split_type":[0,0,0,0,0,0,0],"sum_hessian":[2.4628984E4,6.2487744E3,1.8380209E4,4.883395E3,1.3653796E3,7.4194476E2,1.7638264E4],"tree_param":{"num_deleted":"0","num_feature":"9","num_nodes":"7","size_leaf_vector":"0"}},{"base_weights":[-3.271122E-4,1.278573E-1,-6.622412E-2,-2.790904E-2,8.972481E-1,-1.7208923E0,2.1756345E-2],"categories":[],"categories_nodes":[],"categories_segments":[],"categories_sizes":[],"default_left":[1,1,1,0,0,0,0],"id":48,"left_children":[1,3,5,-1,-1,-1,-1],"loss_changes":[2.0764365E2,1.00030164E3,2.3635942E3,0E0,0E0,0E0,0E0],"parents":[2147483647,0,0,1,1,2,2],"right_children":[2,4,6,-1,-1,-1,-1],"split_conditions":[9.0001335E0,8.999989E0,9.999943E0,-2.7909041E-3,8.972481E-2,-1.7208923E-1,2.1756345E-3],"split_indices":[8,8,8,0,0,0,0],"split_type":[0,0,0,0,0,0,0],"sum_hessian":[2.4580025E4,8.345406E3,1.623462E4,6.941113E3,1.4042932E3,8.1869434E2,1.5415926E4],"tree_param":{"num_deleted":"0","num_feature":"9","num_nodes":"7","size_leaf_vector":"0"}},{"base_weights":[-3.8729596E-4,5.315578E-1,-1.628851E-2,1.0663742E-1,8.5943854E-1,-2.2062206E0,-1.9688508E-3],"categories":[],"categories_nodes":[],"categories_segments":[],"categories_sizes":[],"default_left":[1,1,1,0,0,0,0],"id":49,"left_children":[1,3,5,-1,-1,-1,-1],"loss_changes":[2.0757103E2,9.9143295E1,7.472021E2,0E0,0E0,0E0,0E0],"parents":[2147483647,0,0,1,1,2,2],"right_children":[2,4,6,-1,-1,-1,-1],"split_conditions":[4.00029E0,3.9974363E0,4.999589E0,1.0663742E-2,8.5943855E-2,-2.2062206E-1,-1.9688508E-4],"split_indices":[8,8,8,0,0,0,0],"split_type":[0,0,0,0,0,0,0],"sum_hessian":[2.45377E4,7.112643E2,2.3826434E4,3.1036667E2,4.008976E2,1.5379118E2,2.3672643E4],"tree_param":{"num_deleted":"0","num_feature":"9","num_nodes":"7","size_leaf_vector":"0"}},{"base_weights":[-3.4036837E-4,5.1031925E-2,-1.5214042E-1,3.494304E-1,1.44390315E-2,4.413321E-3,-2.6052743E-1],"categories":[],"categories_nodes":[],"categories_segments":[],"categories_sizes":[],"default_left":[1,1,1,0,0,0,0],"id":50,"left_children":[1,3,5,-1,-1,-1,-1],"loss_changes":[1.9131291E2,2.0013972E2,1.0525752E2,0E0,0E0,0E0,0E0],"parents":[2147483647,0,0,1,1,2,2],"right_children":[2,4,6,-1,-1,-1,-1],"split_conditions":[3.5E0,6.000435E0,1.4025845E4,3.494304E-2,1.4439032E-3,4.4133211E-4,-2.6052743E-2],"split_indices":[2,8,0,0,0,0,0],"split_type":[0,0,0,0,0,0,0],"sum_hessian":[2.4530596E4,1.832851E4,6.202085E3,2.0011869E3,1.6327324E4,2.5376594E3,3.6644255E3],"tree_param":{"num_deleted":"0","num_feature":"9","num_nodes":"7","size_leaf_vector":"0"}},{"base_weights":[-3.0582375E-4,2.644837E-1,-2.8556991E-2,1.8221778E-1,4.8871765E-1,-8.986223E-2,1.549224E-1],"categories":[],"categories_nodes":[],"categories_segments":[],"categories_sizes":[],"default_left":[1,1,1,0,0,0,0],"id":51,"left_children":[1,3,5,-1,-1,-1,-1],"loss_changes":[1.8325977E2,4.3478165E1,2.4900714E2,0E0,0E0,0E0,0E0],"parents":[2147483647,0,0,1,1,2,2],"right_children":[2,4,6,-1,-1,-1,-1],"split_conditions":[1.5E0,1.5E0,5E-1,1.8221779E-2,4.8871767E-2,-8.986223E-3,1.549224E-2],"split_indices":[2,3,1,0,0,0,0],"split_type":[0,0,0,0,0,0,0],"sum_hessian":[2.4495953E4,2.360775E3,2.2135178E4,1.7284586E3,6.323161E2,1.6591902E4,5.543276E3],"tree_param":{"num_deleted":"0","num_feature":"9","num_nodes":"7","size_leaf_vector":"0"}},{"base_weights":[-2.5570093E-4,-6.0339347E-2,1.1875619E-1,1.3479599E-2,-1.9916178E-1,2.1793555E-1,-1.5542094E-1],"categories":[],"categories_nodes":[],"categories_segments":[],"categories_sizes":[],"default_left":[1,1,1,0,0,0,0],"id":52,"left_children":[1,3,5,-1,-1,-1,-1],"loss_changes":[1.7498163E2,1.6664253E2,2.232728E2,0E0,0E0,0E0,0E0],"parents":[2147483647,0,0,1,1,2,2],"right_children":[2,4,6,-1,-1,-1,-1],"split_conditions":[8.019969E4,1.40005E4,2.8000846E4,1.3479599E-3,-1.9916179E-2,2.1793555E-2,-1.5542095E-2],"split_indices":[4,0,0,0,0,0,0],"split_type":[0,0,0,0,0,0,0],"sum_hessian":[2.4468666E4,1.6260154E4,8.208513E3,1.0615993E4,5.6441606E3,6.0281333E3,2.1803794E3],"tree_param":{"num_deleted":"0","num_feature":"9","num_nodes":"7","size_leaf_vector":"0"}},{"base_weights":[-2.3364795E-4,8.3946876E-2,-8.402878E-2,1.2961686E-2,2.7193782E-1,-4.581247E-1,1.0674203E-1],"categories":[],"categories_nodes":[],"categories_segments":[],"categories_sizes":[],"default_left":[1,1,1,0,0,0,0],"id":53,"left_children":[1,3,5,-1,-1,-1,-1],"loss_changes":[1.7244463E2,1.6273724E2,8.743868E2,0E0,0E0,0E0,0E0],"parents":[2147483647,0,0,1,1,2,2],"right_children":[2,4,6,-1,-1,-1,-1],"split_conditions":[5E-1,5E-1,1.5E0,1.2961685E-3,2.7193783E-2,-4.581247E-2,1.0674204E-2],"split_indices":[3,1,3,0,0,0,0],"split_type":[0,0,0,0,0,0,0],"sum_hessian":[2.4444643E4,1.2194278E4,1.2250364E4,8.85261E3,3.341668E3,4.1368066E3,8.113557E3],"tree_param":{"num_deleted":"0","num_feature":"9","num_nodes":"7","size_leaf_vector":"0"}},{"base_weights":[-2.487078E-4,1.7955895E-1,-3.824382E-2,-2.0542072E-2,7.109736E-1,-1.5508089E0,7.063147E-3],"categories":[],"categories_nodes":[],"categories_segments":[],"categories_sizes":[],"default_left":[1,1,1,0,0,0,0],"id":54,"left_children":[1,3,5,-1,-1,-1,-1],"loss_changes":[1.6678094E2,4.5286804E2,1.3811399E3,0E0,0E0,0E0,0E0],"parents":[2147483647,0,0,1,1,2,2],"right_children":[2,4,6,-1,-1,-1,-1],"split_conditions":[7.000073E0,6.999629E0,7.999931E0,-2.0542073E-3,7.109737E-2,-1.550809E-1,7.0631475E-4],"split_indices":[8,8,8,0,0,0,0],"split_type":[0,0,0,0,0,0,0],"sum_hessian":[2.4410396E4,4.2576787E3,2.0152719E4,3.0937188E3,1.16396E3,5.85127E2,1.9567592E4],"tree_param":{"num_deleted":"0","num_feature":"9","num_nodes":"7","size_leaf_vector":"0"}},{"base_weights":[-3.0386235E-4,1.421614E-1,-4.8332904E-2,-2.7472474E-2,7.462192E-1,-1.5294667E0,1.0955212E-2],"categories":[],"categories_nodes":[],"categories_segments":[],"categories_sizes":[],"default_left":[1,1,1,0,0,0,0],"id":55,"left_children":[1,3,5,-1,-1,-1,-1],"loss_changes":[1.6672693E2,6.295352E2,1.600244E3,0E0,0E0,0E0,0E0],"parents":[2147483647,0,0,1,1,2,2],"right_children":[2,4,6,-1,-1,-1,-1],"split_conditions":[8.000065E0,7.999931E0,8.999989E0,-2.7472475E-3,7.462192E-2,-1.5294668E-1,1.0955211E-3],"split_indices":[8,8,8,0,0,0,0],"split_type":[0,0,0,0,0,0,0],"sum_hessian":[2.4364479E4,6.142485E3,1.8221994E4,4.7964746E3,1.3460103E3,7.0037787E2,1.7521615E4],"tree_param":{"num_deleted":"0","num_feature":"9","num_nodes":"7","size_leaf_vector":"0"}},{"base_weights":[-3.7112078E-4,9.603371E-2,-7.212018E-2,-3.5190374E-2,9.2575186E-1,-1.8489552E0,4.6472333E-2],"categories":[],"categories_nodes":[],"categories_segments":[],"categories_sizes":[],"default_left":[1,1,1,0,0,0,0],"id":56,"left_children":[1,3,5,-1,-1,-1,-1],"loss_changes":[1.6817159E2,1.129545E3,2.937287E3,0E0,0E0,0E0,0E0],"parents":[2147483647,0,0,1,1,2,2],"right_children":[2,4,6,-1,-1,-1,-1],"split_conditions":[1.0000105E1,9.999943E0,1.0999973E1,-3.5190375E-3,9.2575185E-2,-1.8489552E-1,4.6472335E-3],"split_indices":[8,8,8,0,0,0,0],"split_type":[0,0,0,0,0,0,0],"sum_hessian":[2.4310943E4,1.0373017E4,1.3937927E4,8.957327E3,1.4156887E3,8.7115094E2,1.3066775E4],"tree_param":{"num_deleted":"0","num_feature":"9","num_nodes":"7","size_leaf_vector":"0"}},{"base_weights":[-4.2058455E-4,1.1938014E-1,-6.1263766E-2,-2.3251595E-2,8.166668E-1,-1.6124985E0,1.784894E-2],"categories":[],"categories_nodes":[],"categories_segments":[],"categories_sizes":[],"default_left":[1,1,1,0,0,0,0],"id":57,"left_children":[1,3,5,-1,-1,-1,-1],"loss_changes":[1.7699985E2,8.134443E2,1.976367E3,0E0,0E0,0E0,0E0],"parents":[2147483647,0,0,1,1,2,2],"right_children":[2,4,6,-1,-1,-1,-1],"split_conditions":[9.0001335E0,8.999989E0,9.999943E0,-2.3251595E-3,8.166668E-2,-1.6124986E-1,1.784894E-3],"split_indices":[8,8,8,0,0,0,0],"split_type":[0,0,0,0,0,0,0],"sum_hessian":[2.428095E4,8.177811E3,1.6103139E4,6.7898887E3,1.3879221E3,7.804653E2,1.5322674E4],"tree_param":{"num_deleted":"0","num_feature":"9","num_nodes":"7","size_leaf_vector":"0"}},{"base_weights":[-4.8214226E-4,3.2575038E-1,-2.2082536E-2,3.1962313E-2,7.098808E-1,-1.7594832E0,-5.404241E-4],"categories":[],"categories_nodes":[],"categories_segments":[],"categories_sizes":[],"default_left":[1,1,1,0,0,0,0],"id":58,"left_children":[1,3,5,-1,-1,-1,-1],"loss_changes":[1.7075792E2,1.6980005E2,8.5062054E2,0E0,0E0,0E0,0E0],"parents":[2147483647,0,0,1,1,2,2],"right_children":[2,4,6,-1,-1,-1,-1],"split_conditions":[5.000247E0,4.999589E0,5.999369E0,3.1962313E-3,7.098808E-2,-1.7594832E-1,-5.4042408E-5],"split_indices":[8,8,8,0,0,0,0],"split_type":[0,0,0,0,0,0,0],"sum_hessian":[2.4230129E4,1.5038145E3,2.2726314E4,8.527234E2,6.51091E2,2.773455E2,2.2448969E4],"tree_param":{"num_deleted":"0","num_feature":"9","num_nodes":"7","size_leaf_vector":"0"}},{"base_weights":[-4.5669288E-4,2.3643717E-1,-2.9686116E-2,-7.782071E-5,6.991232E-1,-1.5762585E0,9.500114E-4],"categories":[],"categories_nodes":[],"categories_segments":[],"categories_sizes":[],"default_left":[1,1,1,0,0,0,0],"id":59,"left_children":[1,3,5,-1,-1,-1,-1],"loss_changes":[1.6764087E2,2.909969E2,1.0211304E3,0E0,0E0,0E0,0E0],"parents":[2147483647,0,0,1,1,2,2],"right_children":[2,4,6,-1,-1,-1,-1],"split_conditions":[6.000435E0,5.999369E0,6.999629E0,-7.782071E-6,6.991232E-2,-1.5762585E-1,9.5001145E-5],"split_indices":[8,8,8,0,0,0,0],"split_type":[0,0,0,0,0,0,0],"sum_hessian":[2.4208602E4,2.6581523E3,2.155045E4,1.7596549E3,8.984973E2,4.176218E2,2.1132826E4],"tree_param":{"num_deleted":"0","num_feature":"9","num_nodes":"7","size_leaf_vector":"0"}},{"base_weights":[-4.6018485E-4,4.737248E-1,-1.4608367E-2,8.676658E-2,7.770311E-1,-1.9951571E0,-1.5305812E-3],"categories":[],"categories_nodes":[],"categories_segments":[],"categories_sizes":[],"default_left":[1,1,1,0,0,0,0],"id":60,"left_children":[1,3,5,-1,-1,-1,-1],"loss_changes":[1.6217133E2,8.212952E1,6.079588E2,0E0,0E0,0E0,0E0],"parents":[2147483647,0,0,1,1,2,2],"right_children":[2,4,6,-1,-1,-1,-1],"split_conditions":[4.00029E0,3.9974363E0,4.999589E0,8.676658E-3,7.770311E-2,-1.9951572E-1,-1.5305812E-4],"split_indices":[8,8,8,0,0,0,0],"split_type":[0,0,0,0,0,0,0],"sum_hessian":[2.4170691E4,6.993418E2,2.347135E4,3.0786002E2,3.9148175E2,1.529731E2,2.3318377E4],"tree_param":{"num_deleted":"0","num_feature":"9","num_nodes":"7","size_leaf_vector":"0"}},{"base_weights":[-4.1804175E-4,6.495708E-2,-1.0193967E-1,1.4493605E-5,2.1073954E-1,-1.4244506E-1,1.3489144E-1],"categories":[],"categories_nodes":[],"categories_segments":[],"categories_sizes":[],"default_left":[1,1,1,0,0,0,0],"id":61,"left_children":[1,3,5,-1,-1,-1,-1],"loss_changes":[1.6036632E2,1.3915144E2,9.081345E1,0E0,0E0,0E0,0E0],"parents":[2147483647,0,0,1,1,2,2],"right_children":[2,4,6,-1,-1,-1,-1],"split_conditions":[2.09203E1,1.2999523E1,1.8999573E1,1.4493605E-6,2.1073954E-2,-1.4244506E-2,1.3489144E-2],"split_indices":[7,8,8,0,0,0,0],"split_type":[0,0,0,0,0,0,0],"sum_hessian":[2.4160514E4,1.4696818E4,9.463696E3,1.016815E4,4.5286675E3,8.0818496E3,1.3818461E3],"tree_param":{"num_deleted":"0","num_feature":"9","num_nodes":"7","size_leaf_vector":"0"}},{"base_weights":[-3.7790425E-4,7.490948E-2,-8.780388E-2,-2.4705896E-2,2.349974E-1,-1.9413656E-1,8.822751E-2],"categories":[],"categories_nodes":[],"categories_segments":[],"categories_sizes":[],"default_left":[1,1,1,0,0,0,0],"id":62,"left_children":[1,3,5,-1,-1,-1,-1],"loss_changes":[1.589422E2,2.0691455E2,2.0915489E2,0E0,0E0,0E0,0E0],"parents":[2147483647,0,0,1,1,2,2],"right_children":[2,4,6,-1,-1,-1,-1],"split_conditions":[1.40005E4,6.2999492E4,5E-1,-2.4705897E-3,2.349974E-2,-1.9413656E-2,8.822751E-3],"split_indices":[0,4,1,0,0,0,0],"split_type":[0,0,0,0,0,0,0],"sum_hessian":[2.4145744E4,1.2973598E4,1.1172146E4,7.997787E3,4.9758105E3,6.9648745E3,4.207272E3],"tree_param":{"num_deleted":"0","num_feature":"9","num_nodes":"7","size_leaf_vector":"0"}},{"base_weights":[-3.3677733E-4,1.7625967E-1,-3.729426E-2,-7.521845E-3,6.593004E-1,-1.4741272E0,3.5090654E-3],"categories":[],"categories_nodes":[],"categories_segments":[],"categories_sizes":[],"default_left":[1,1,1,0,0,0,0],"id":63,"left_children":[1,3,5,-1,-1,-1,-1],"loss_changes":[1.5749762E2,3.7074542E2,1.1699508E3,0E0,0E0,0E0,0E0],"parents":[2147483647,0,0,1,1,2,2],"right_children":[2,4,6,-1,-1,-1,-1],"split_conditions":[7.000073E0,6.999629E0,7.999931E0,-7.521845E-4,6.593004E-2,-1.4741272E-1,3.5090654E-4],"split_indices":[8,8,8,0,0,0,0],"split_type":[0,0,0,0,0,0,0],"sum_hessian":[2.4129787E4,4.1752305E3,1.9954557E4,3.0252168E3,1.1500137E3,5.5005347E2,1.9404504E4],"tree_param":{"num_deleted":"0","num_feature":"9","num_nodes":"7","size_leaf_vector":"0"}},{"base_weights":[-3.8492444E-4,1.40819E-1,-4.7318373E-2,-1.5083354E-2,6.885393E-1,-1.4568776E0,6.027627E-3],"categories":[],"categories_nodes":[],"categories_segments":[],"categories_sizes":[],"default_left":[1,1,1,0,0,0,0],"id":64,"left_children":[1,3,5,-1,-1,-1,-1],"loss_changes":[1.5960538E2,5.130339E2,1.3591826E3,0E0,0E0,0E0,0E0],"parents":[2147483647,0,0,1,1,2,2],"right_children":[2,4,6,-1,-1,-1,-1],"split_conditions":[8.000065E0,7.999931E0,8.999989E0,-1.5083355E-3,6.885394E-2,-1.4568776E-1,6.027627E-4],"split_indices":[8,8,8,0,0,0,0],"split_type":[0,0,0,0,0,0,0],"sum_hessian":[2.4081422E4,6.006942E3,1.807448E4,4.676735E3,1.3302069E3,6.5814087E2,1.741634E4],"tree_param":{"num_deleted":"0","num_feature":"9","num_nodes":"7","size_leaf_vector":"0"}},{"base_weights":[-4.452254E-4,9.570445E-2,-7.0538E-2,-2.434393E-2,8.3876926E-1,-1.7166227E0,3.58836E-2],"categories":[],"categories_nodes":[],"categories_segments":[],"categories_sizes":[],"default_left":[1,1,1,0,0,0,0],"id":65,"left_children":[1,3,5,-1,-1,-1,-1],"loss_changes":[1.6192679E2,9.0369495E2,2.4344248E3,0E0,0E0,0E0,0E0],"parents":[2147483647,0,0,1,1,2,2],"right_children":[2,4,6,-1,-1,-1,-1],"split_conditions":[1.0000105E1,9.999943E0,1.0999973E1,-2.4343932E-3,8.387693E-2,-1.7166227E-1,3.5883603E-3],"split_indices":[8,8,8,0,0,0,0],"split_type":[0,0,0,0,0,0,0],"sum_hessian":[2.4024893E4,1.0129457E4,1.3895436E4,8.721407E3,1.4080497E3,8.428867E2,1.3052549E4],"tree_param":{"num_deleted":"0","num_feature":"9","num_nodes":"7","size_leaf_vector":"0"}},{"base_weights":[-5.0684623E-4,1.1766666E-1,-5.9468437E-2,-1.34788295E-2,7.483108E-1,-1.5264555E0,1.1725747E-2],"categories":[],"categories_nodes":[],"categories_segments":[],"categories_sizes":[],"default_left":[1,1,1,0,0,0,0],"id":66,"left_children":[1,3,5,-1,-1,-1,-1],"loss_changes":[1.6711577E2,6.6029364E2,1.6711633E3,0E0,0E0,0E0,0E0],"parents":[2147483647,0,0,1,1,2,2],"right_children":[2,4,6,-1,-1,-1,-1],"split_conditions":[9.0001335E0,8.999989E0,9.999943E0,-1.347883E-3,7.483108E-2,-1.5264556E-1,1.1725747E-3],"split_indices":[8,8,8,0,0,0,0],"split_type":[0,0,0,0,0,0,0],"sum_hessian":[2.3982354E4,7.9824897E3,1.5999864E4,6.6090786E3,1.3734111E3,7.3960205E2,1.5260263E4],"tree_param":{"num_deleted":"0","num_feature":"9","num_nodes":"7","size_leaf_vector":"0"}},{"base_weights":[-5.64338E-4,4.585601E-2,-1.3749932E-1,3.178035E-1,1.2558581E-2,1.2137657E-1,-1.9391319E-1],"categories":[],"categories_nodes":[],"categories_segments":[],"categories_sizes":[],"default_left":[1,1,1,0,0,0,0],"id":67,"left_children":[1,3,5,-1,-1,-1,-1],"loss_changes":[1.5210114E2,1.6181387E2,8.8494736E1,0E0,0E0,0E0,0E0],"parents":[2147483647,0,0,1,1,2,2],"right_children":[2,4,6,-1,-1,-1,-1],"split_conditions":[3.5E0,6.000435E0,8.000036E3,3.178035E-2,1.2558581E-3,1.2137657E-2,-1.9391319E-2],"split_indices":[2,8,0,0,0,0,0],"split_type":[0,0,0,0,0,0,0],"sum_hessian":[2.3926188E4,1.7869254E4,6.0569326E3,1.948323E3,1.5920931E4,1.0835432E3,4.973389E3],"tree_param":{"num_deleted":"0","num_feature":"9","num_nodes":"7","size_leaf_vector":"0"}},{"base_weights":[-5.053046E-4,9.3651585E-2,-5.941219E-2,4.6828497E-2,3.4892312E-1,-1.3157807E-1,8.6042605E-2],"categories":[],"categories_nodes":[],"categories_segments":[],"categories_sizes":[],"default_left":[1,1,1,0,0,0,0],"id":68,"left_children":[1,3,5,-1,-1,-1,-1],"loss_changes":[1.3253888E2,1.0990482E2,1.543109E2,0E0,0E0,0E0,0E0],"parents":[2147483647,0,0,1,1,2,2],"right_children":[2,4,6,-1,-1,-1,-1],"split_conditions":[2.5E0,1.5E0,5E-1,4.6828496E-3,3.4892313E-2,-1.3157807E-2,8.604261E-3],"split_indices":[2,5,1,0,0,0,0],"split_type":[0,0,0,0,0,0,0],"sum_hessian":[2.3893996E4,9.195423E3,1.4698573E4,7.7711807E3,1.4242424E3,9.824396E3,4.8741772E3],"tree_param":{"num_deleted":"0","num_feature":"9","num_nodes":"7","size_leaf_vector":"0"}},{"base_weights":[-4.468318E-4,-5.965809E-2,9.257009E-2,1.5124077E-1,-1.03433914E-1,1.3486797E-1,-4.563679E-2],"categories":[],"categories_nodes":[],"categories_segments":[],"categories_sizes":[],"default_left":[1,1,1,0,0,0,0],"id":69,"left_children":[1,3,5,-1,-1,-1,-1],"loss_changes":[1.3143303E2,1.3463689E2,5.426815E1,0E0,0E0,0E0,0E0],"parents":[2147483647,0,0,1,1,2,2],"right_children":[2,4,6,-1,-1,-1,-1],"split_conditions":[5E-1,7.5011553E3,3.5E0,1.5124077E-2,-1.0343391E-2,1.3486797E-2,-4.5636795E-3],"split_indices":[6,0,2,0,0,0,0],"split_type":[0,0,0,0,0,0,0],"sum_hessian":[2.3861723E4,1.4580594E4,9.281129E3,2.5058245E3,1.207477E4,7.10629E3,2.1748384E3],"tree_param":{"num_deleted":"0","num_feature":"9","num_nodes":"7","size_leaf_vector":"0"}},{"base_weights":[-4.0016993E-4,2.831672E-1,-1.9064292E-2,1.2633158E-2,6.393695E-1,-1.6555437E0,7.6014124E-4],"categories":[],"categories_nodes":[],"categories_segments":[],"categories_sizes":[],"default_left":[1,1,1,0,0,0,0],"id":70,"left_children":[1,3,5,-1,-1,-1,-1],"loss_changes":[1.261705E2,1.4185864E2,7.2564166E2,0E0,0E0,0E0,0E0],"parents":[2147483647,0,0,1,1,2,2],"right_children":[2,4,6,-1,-1,-1,-1],"split_conditions":[5.000247E0,4.999589E0,5.999369E0,1.2633158E-3,6.393695E-2,-1.6555437E-1,7.601413E-5],"split_indices":[8,8,8,0,0,0,0],"split_type":[0,0,0,0,0,0,0],"sum_hessian":[2.3837307E4,1.4711832E3,2.2366125E4,8.367277E2,6.344555E2,2.6671436E2,2.209941E4],"tree_param":{"num_deleted":"0","num_feature":"9","num_nodes":"7","size_leaf_vector":"0"}},{"base_weights":[-3.8987465E-4,4.1819108E-1,-1.2838683E-2,6.4559326E-2,7.005466E-1,-1.8454337E0,-8.1863493E-4],"categories":[],"categories_nodes":[],"categories_segments":[],"categories_sizes":[],"default_left":[1,1,1,0,0,0,0],"id":71,"left_children":[1,3,5,-1,-1,-1,-1],"loss_changes":[1.2410277E2,6.863668E1,5.0946848E2,0E0,0E0,0E0,0E0],"parents":[2147483647,0,0,1,1,2,2],"right_children":[2,4,6,-1,-1,-1,-1],"split_conditions":[4.00029E0,3.9974363E0,4.999589E0,6.4559327E-3,7.0054665E-2,-1.8454337E-1,-8.1863494E-5],"split_indices":[8,8,8,0,0,0,0],"split_type":[0,0,0,0,0,0,0],"sum_hessian":[2.3814268E4,6.868517E2,2.3127416E4,3.0548297E2,3.8136868E2,1.4971103E2,2.2977703E4],"tree_param":{"num_deleted":"0","num_feature":"9","num_nodes":"7","size_leaf_vector":"0"}},{"base_weights":[-3.6213978E-4,8.44838E-2,-6.1678614E-2,-2.5506468E-2,7.6198286E-1,-1.6151823E0,3.456857E-2],"categories":[],"categories_nodes":[],"categories_segments":[],"categories_sizes":[],"default_left":[1,1,1,0,0,0,0],"id":72,"left_children":[1,3,5,-1,-1,-1,-1],"loss_changes":[1.2384089E2,7.4416907E2,2.066156E3,0E0,0E0,0E0,0E0],"parents":[2147483647,0,0,1,1,2,2],"right_children":[2,4,6,-1,-1,-1,-1],"split_conditions":[1.0000105E1,9.999943E0,1.0999973E1,-2.550647E-3,7.619829E-2,-1.6151823E-1,3.456857E-3],"split_indices":[8,8,8,0,0,0,0],"split_type":[0,0,0,0,0,0,0],"sum_hessian":[2.380232E4,9.985133E3,1.3817187E4,8.591316E3,1.3938164E3,8.0518E2,1.3012007E4],"tree_param":{"num_deleted":"0","num_feature":"9","num_nodes":"7","size_leaf_vector":"0"}},{"base_weights":[-4.417747E-4,7.296331E-2,-7.634646E-2,-3.8672704E-2,9.6979386E-1,-1.8540899E0,5.2947108E-2],"categories":[],"categories_nodes":[],"categories_segments":[],"categories_sizes":[],"default_left":[1,1,1,0,0,0,0],"id":73,"left_children":[1,3,5,-1,-1,-1,-1],"loss_changes":[1.3235439E2,1.2090723E3,2.684376E3,0E0,0E0,0E0,0E0],"parents":[2147483647,0,0,1,1,2,2],"right_children":[2,4,6,-1,-1,-1,-1],"split_conditions":[1.1000355E1,1.0999973E1,1.199985E1,-3.8672704E-3,9.697939E-2,-1.85409E-1,5.294711E-3],"split_indices":[8,8,8,0,0,0,0],"split_type":[0,0,0,0,0,0,0],"sum_hessian":[2.3752377E4,1.2075026E4,1.167735E4,1.07391875E4,1.3358398E3,7.907982E2,1.0886552E4],"tree_param":{"num_deleted":"0","num_feature":"9","num_nodes":"7","size_leaf_vector":"0"}},{"base_weights":[-4.7962792E-4,1.0736673E-1,-5.431864E-2,-1.341055E-2,6.900937E-1,-1.4570074E0,1.0087131E-2],"categories":[],"categories_nodes":[],"categories_segments":[],"categories_sizes":[],"default_left":[1,1,1,0,0,0,0],"id":74,"left_children":[1,3,5,-1,-1,-1,-1],"loss_changes":[1.3776096E2,5.56042E2,1.4297126E3,0E0,0E0,0E0,0E0],"parents":[2147483647,0,0,1,1,2,2],"right_children":[2,4,6,-1,-1,-1,-1],"split_conditions":[9.0001335E0,8.999989E0,9.999943E0,-1.341055E-3,6.900937E-2,-1.4570074E-1,1.008713E-3],"split_indices":[8,8,8,0,0,0,0],"split_type":[0,0,0,0,0,0,0],"sum_hessian":[2.3723943E4,7.8994165E3,1.5824527E4,6.5440576E3,1.355359E3,6.937509E2,1.5130776E4],"tree_param":{"num_deleted":"0","num_feature":"9","num_nodes":"7","size_leaf_vector":"0"}},{"base_weights":[-5.40214E-4,1.3115749E-1,-4.45985E-2,-1.37895765E-2,6.409165E-1,-1.3970177E0,3.867043E-3],"categories":[],"categories_nodes":[],"categories_segments":[],"categories_sizes":[],"default_left":[1,1,1,0,0,0,0],"id":75,"left_children":[1,3,5,-1,-1,-1,-1],"loss_changes":[1.3732784E2,4.3838272E2,1.1624305E3,0E0,0E0,0E0,0E0],"parents":[2147483647,0,0,1,1,2,2],"right_children":[2,4,6,-1,-1,-1,-1],"split_conditions":[8.000065E0,7.999931E0,8.999989E0,-1.3789576E-3,6.409165E-2,-1.3970177E-1,3.867043E-4],"split_indices":[8,8,8,0,0,0,0],"split_type":[0,0,0,0,0,0,0],"sum_hessian":[2.366551E4,5.9319443E3,1.7733566E4,4.619413E3,1.3125309E3,6.125546E2,1.7121012E4],"tree_param":{"num_deleted":"0","num_feature":"9","num_nodes":"7","size_leaf_vector":"0"}},{"base_weights":[-5.841526E-4,2.1398394E-1,-2.6939321E-2,-5.848787E-3,6.4098203E-1,-1.4928225E0,9.404341E-4],"categories":[],"categories_nodes":[],"categories_segments":[],"categories_sizes":[],"default_left":[1,1,1,0,0,0,0],"id":76,"left_children":[1,3,5,-1,-1,-1,-1],"loss_changes":[1.3351642E2,2.4244649E2,8.593672E2,0E0,0E0,0E0,0E0],"parents":[2147483647,0,0,1,1,2,2],"right_children":[2,4,6,-1,-1,-1,-1],"split_conditions":[6.000435E0,5.999369E0,6.999629E0,-5.8487867E-4,6.40982E-2,-1.4928226E-1,9.404341E-5],"split_indices":[8,8,8,0,0,0,0],"split_type":[0,0,0,0,0,0,0],"sum_hessian":[2.3608402E4,2.5818005E3,2.1026602E4,1.7049978E3,8.768028E2,3.914621E2,2.063514E4],"tree_param":{"num_deleted":"0","num_feature":"9","num_nodes":"7","size_leaf_vector":"0"}},{"base_weights":[-5.793616E-4,1.6426978E-1,-3.498529E-2,-1.0601957E-2,6.1613184E-1,-1.4115379E0,2.1994098E-3],"categories":[],"categories_nodes":[],"categories_segments":[],"categories_sizes":[],"default_left":[1,1,1,0,0,0,0],"id":77,"left_children":[1,3,5,-1,-1,-1,-1],"loss_changes":[1.3369365E2,3.216245E2,9.982201E2,0E0,0E0,0E0,0E0],"parents":[2147483647,0,0,1,1,2,2],"right_children":[2,4,6,-1,-1,-1,-1],"split_conditions":[7.000073E0,6.999629E0,7.999931E0,-1.0601957E-3,6.1613183E-2,-1.411538E-1,2.1994098E-4],"split_indices":[8,8,8,0,0,0,0],"split_type":[0,0,0,0,0,0,0],"sum_hessian":[2.3569684E4,4.0691914E3,1.9500492E4,2.9345066E3,1.1346848E3,5.119378E2,1.8988555E4],"tree_param":{"num_deleted":"0","num_feature":"9","num_nodes":"7","size_leaf_vector":"0"}},{"base_weights":[-6.037012E-4,8.381585E-2,-6.059952E-2,-1.6800987E-2,6.9429755E-1,-1.5316606E0,2.6201915E-2],"categories":[],"categories_nodes":[],"categories_segments":[],"categories_sizes":[],"default_left":[1,1,1,0,0,0,0],"id":78,"left_children":[1,3,5,-1,-1,-1,-1],"loss_changes":[1.1914021E2,6.0027997E2,1.7558657E3,0E0,0E0,0E0,0E0],"parents":[2147483647,0,0,1,1,2,2],"right_children":[2,4,6,-1,-1,-1,-1],"split_conditions":[1.0000105E1,9.999943E0,1.0999973E1,-1.6800987E-3,6.9429755E-2,-1.5316606E-1,2.6201915E-3],"split_indices":[8,8,8,0,0,0,0],"split_type":[0,0,0,0,0,0,0],"sum_hessian":[2.3521088E4,9.771419E3,1.3749668E4,8.389647E3,1.3817714E3,7.6518054E2,1.2984487E4],"tree_param":{"num_deleted":"0","num_feature":"9","num_nodes":"7","size_leaf_vector":"0"}},{"base_weights":[-6.6404074E-4,7.108607E-2,-7.336288E-2,-3.0701177E-2,8.73054E-1,-1.7275426E0,4.3313194E-2],"categories":[],"categories_nodes":[],"categories_segments":[],"categories_sizes":[],"default_left":[1,1,1,0,0,0,0],"id":79,"left_children":[1,3,5,-1,-1,-1,-1],"loss_changes":[1.2241313E2,9.641701E2,2.249909E3,0E0,0E0,0E0,0E0],"parents":[2147483647,0,0,1,1,2,2],"right_children":[2,4,6,-1,-1,-1,-1],"split_conditions":[1.1000355E1,1.0999973E1,1.199985E1,-3.0701177E-3,8.7305404E-2,-1.7275427E-1,4.3313196E-3],"split_indices":[8,8,8,0,0,0,0],"split_type":[0,0,0,0,0,0,0],"sum_hessian":[2.3466102E4,1.1810123E4,1.1655979E4,1.0480838E4,1.3292855E3,7.670658E2,1.0888913E4],"tree_param":{"num_deleted":"0","num_feature":"9","num_nodes":"7","size_leaf_vector":"0"}},{"base_weights":[-6.95234E-4,1.04686886E-1,-5.2704632E-2,-5.936813E-3,6.330371E-1,-1.3994769E0,5.641519E-3],"categories":[],"categories_nodes":[],"categories_segments":[],"categories_sizes":[],"default_left":[1,1,1,0,0,0,0],"id":80,"left_children":[1,3,5,-1,-1,-1,-1],"loss_changes":[1.2840811E2,4.5249933E2,1.2326454E3,0E0,0E0,0E0,0E0],"parents":[2147483647,0,0,1,1,2,2],"right_children":[2,4,6,-1,-1,-1,-1],"split_conditions":[9.0001335E0,8.999989E0,9.999943E0,-5.936813E-4,6.330371E-2,-1.399477E-1,5.641519E-4],"split_indices":[8,8,8,0,0,0,0],"split_type":[0,0,0,0,0,0,0],"sum_hessian":[2.342645E4,7.7408423E3,1.5685607E4,6.4015103E3,1.3393319E3,6.503749E2,1.5035232E4],"tree_param":{"num_deleted":"0","num_feature":"9","num_nodes":"7","size_leaf_vector":"0"}},{"base_weights":[-7.3330273E-4,1.2642655E-1,-4.3016173E-2,-6.0775084E-3,5.896239E-1,-1.3481792E0,1.0063739E-3],"categories":[],"categories_nodes":[],"categories_segments":[],"categories_sizes":[],"default_left":[1,1,1,0,0,0,0],"id":81,"left_children":[1,3,5,-1,-1,-1,-1],"loss_changes":[1.2564717E2,3.579147E2,1.0076404E3,0E0,0E0,0E0,0E0],"parents":[2147483647,0,0,1,1,2,2],"right_children":[2,4,6,-1,-1,-1,-1],"split_conditions":[8.000065E0,7.999931E0,8.999989E0,-6.0775084E-4,5.8962394E-2,-1.3481793E-1,1.0063739E-4],"split_indices":[8,8,8,0,0,0,0],"split_type":[0,0,0,0,0,0,0],"sum_hessian":[2.3366889E4,5.830495E3,1.7536395E4,4.5343643E3,1.296131E3,5.7122797E2,1.6965166E4],"tree_param":{"num_deleted":"0","num_feature":"9","num_nodes":"7","size_leaf_vector":"0"}},{"base_weights":[-7.558213E-4,1.543673E-1,-3.3450436E-2,-3.5869817E-3,5.680817E-1,-1.3609313E0,3.8287853E-4],"categories":[],"categories_nodes":[],"categories_segments":[],"categories_sizes":[],"default_left":[1,1,1,0,0,0,0],"id":82,"left_children":[1,3,5,-1,-1,-1,-1],"loss_changes":[1.1823093E2,2.6518774E2,8.6475055E2,0E0,0E0,0E0,0E0],"parents":[2147483647,0,0,1,1,2,2],"right_children":[2,4,6,-1,-1,-1,-1],"split_conditions":[7.000073E0,6.999629E0,7.999931E0,-3.5869816E-4,5.680817E-2,-1.3609312E-1,3.8287853E-5],"split_indices":[8,8,8,0,0,0,0],"split_type":[0,0,0,0,0,0,0],"sum_hessian":[2.3309916E4,4.057056E3,1.925286E4,2.936793E3,1.120263E3,4.775246E2,1.8775336E4],"tree_param":{"num_deleted":"0","num_feature":"9","num_nodes":"7","size_leaf_vector":"0"}},{"base_weights":[-7.6091255E-4,2.0111011E-1,-2.5835078E-2,2.1039164E-3,5.944523E-1,-1.4280176E0,-4.042376E-4],"categories":[],"categories_nodes":[],"categories_segments":[],"categories_sizes":[],"default_left":[1,1,1,0,0,0,0],"id":83,"left_children":[1,3,5,-1,-1,-1,-1],"loss_changes":[1.1775432E2,2.0119464E2,7.378935E2,0E0,0E0,0E0,0E0],"parents":[2147483647,0,0,1,1,2,2],"right_children":[2,4,6,-1,-1,-1,-1],"split_conditions":[6.000435E0,5.999369E0,6.999629E0,2.1039163E-4,5.9445232E-2,-1.4280176E-1,-4.042376E-5],"split_indices":[8,8,8,0,0,0,0],"split_type":[0,0,0,0,0,0,0],"sum_hessian":[2.3261543E4,2.5692888E3,2.0692254E4,1.7067745E3,8.625143E2,3.6761975E2,2.0324635E4],"tree_param":{"num_deleted":"0","num_feature":"9","num_nodes":"7","size_leaf_vector":"0"}},{"base_weights":[-7.399071E-4,2.7432665E-1,-1.9113632E-2,2.6879631E-2,6.003628E-1,-1.5546377E0,-9.488946E-4],"categories":[],"categories_nodes":[],"categories_segments":[],"categories_sizes":[],"default_left":[1,1,1,0,0,0,0],"id":84,"left_children":[1,3,5,-1,-1,-1,-1],"loss_changes":[1.17376945E2,1.17304184E2,6.0722516E2,0E0,0E0,0E0,0E0],"parents":[2147483647,0,0,1,1,2,2],"right_children":[2,4,6,-1,-1,-1,-1],"split_conditions":[5.000247E0,4.999589E0,5.999369E0,2.6879632E-3,6.003628E-2,-1.5546377E-1,-9.488946E-5],"split_indices":[8,8,8,0,0,0,0],"split_type":[0,0,0,0,0,0,0],"sum_hessian":[2.3222537E4,1.4532039E3,2.1769334E4,8.267895E2,6.264143E2,2.5352423E2,2.1515809E4],"tree_param":{"num_deleted":"0","num_feature":"9","num_nodes":"7","size_leaf_vector":"0"}},{"base_weights":[-7.0006476E-4,5.4527868E-2,-9.199719E-2,8.4914915E-2,-1.6769779E-1,7.903944E-1,-1.0235667E-1],"categories":[],"categories_nodes":[],"categories_segments":[],"categories_sizes":[],"default_left":[1,1,1,0,0,0,0],"id":85,"left_children":[1,3,5,-1,-1,-1,-1],"loss_changes":[1.1697808E2,9.762928E1,8.001552E1,0E0,0E0,0E0,0E0],"parents":[2147483647,0,0,1,1,2,2],"right_children":[2,4,6,-1,-1,-1,-1],"split_conditions":[2.1310757E1,2.8000846E4,1.8013475E3,8.491492E-3,-1.676978E-2,7.903945E-2,-1.0235667E-2],"split_indices":[7,0,0,0,0,0,0],"split_type":[0,0,0,0,0,0,0],"sum_hessian":[2.319804E4,1.445453E4,8.743508E3,1.2716323E4,1.7382072E3,1.0058593E2,8.642922E3],"tree_param":{"num_deleted":"0","num_feature":"9","num_nodes":"7","size_leaf_vector":"0"}},{"base_weights":[-6.2799203E-4,6.9741E-2,-7.17463E-2,1.7621635E-1,-1.5140287E-2,-3.5957444E-1,7.034376E-2],"categories":[],"categories_nodes":[],"categories_segments":[],"categories_sizes":[],"default_left":[1,1,1,0,0,0,0],"id":86,"left_children":[1,3,5,-1,-1,-1,-1],"loss_changes":[1.1601196E2,1.0531159E2,4.7154596E2,0E0,0E0,0E0,0E0],"parents":[2147483647,0,0,1,1,2,2],"right_children":[2,4,6,-1,-1,-1,-1],"split_conditions":[5E-1,1.1000355E1,1.5E0,1.7621635E-2,-1.5140286E-3,-3.5957444E-2,7.0343763E-3],"split_indices":[3,8,3,0,0,0,0],"split_type":[0,0,0,0,0,0,0],"sum_hessian":[2.317942E4,1.1651099E4,1.1528322E4,5.1676753E3,6.4834233E3,3.8096606E3,7.718661E3],"tree_param":{"num_deleted":"0","num_feature":"9","num_nodes":"7","size_leaf_vector":"0"}},{"base_weights":[-5.864425E-4,3.874231E-1,-1.2334195E-2,-1.2759818E-1,5.5711114E-1,-1.7130097E0,-1.2547655E-3],"categories":[],"categories_nodes":[],"categories_segments":[],"categories_sizes":[],"default_left":[1,1,1,0,0,0,0],"id":87,"left_children":[1,3,5,-1,-1,-1,-1],"loss_changes":[1.05483116E2,5.950312E1,4.2322125E2,0E0,0E0,0E0,0E0],"parents":[2147483647,0,0,1,1,2,2],"right_children":[2,4,6,-1,-1,-1,-1],"split_conditions":[4.00029E0,3.3666E4,4.999589E0,-1.2759819E-2,5.5711117E-2,-1.7130098E-1,-1.2547655E-4],"split_indices":[8,4,8,0,0,0,0],"split_type":[0,0,0,0,0,0,0],"sum_hessian":[2.3139145E4,6.790552E2,2.246009E4,1.683483E2,5.107069E2,1.4437991E2,2.2315709E4],"tree_param":{"num_deleted":"0","num_feature":"9","num_nodes":"7","size_leaf_vector":"0"}},{"base_weights":[-5.458187E-4,2.0543545E-1,-2.2749871E-2,1.2375574E-1,4.8832637E-1,-1.2610778E0,-1.8321075E-2],"categories":[],"categories_nodes":[],"categories_segments":[],"categories_sizes":[],"default_left":[1,1,1,0,0,0,0],"id":88,"left_children":[1,3,5,-1,-1,-1,-1],"loss_changes":[1.0577873E2,5.19411E1,1.1447528E2,0E0,0E0,0E0,0E0],"parents":[2147483647,0,0,1,1,2,2],"right_children":[2,4,6,-1,-1,-1,-1],"split_conditions":[4.801621E3,7.198929E4,4.9999976E3,1.2375574E-2,4.8832636E-2,-1.2610778E-1,-1.8321074E-3],"split_indices":[0,4,0,0,0,0,0],"split_type":[0,0,0,0,0,0,0],"sum_hessian":[2.3125992E4,2.2495205E3,2.0876473E4,1.7466453E3,5.028752E2,7.3386055E1,2.0803086E4],"tree_param":{"num_deleted":"0","num_feature":"9","num_nodes":"7","size_leaf_vector":"0"}},{"base_weights":[-4.917308E-4,-1.6891785E-2,2.7083233E-1,-7.8599285E-3,-1.8672898E0,1.0928255E0,1.4594294E-1],"categories":[],"categories_nodes":[],"categories_segments":[],"categories_sizes":[],"default_left":[1,1,1,0,0,0,0],"id":89,"left_children":[1,3,5,-1,-1,-1,-1],"loss_changes":[1.02877495E2,3.643535E2,1.3512549E2,0E0,0E0,0E0,0E0],"parents":[2147483647,0,0,1,1,2,2],"right_children":[2,4,6,-1,-1,-1,-1],"split_conditions":[2.1998074E1,2.1000402E1,2.2000235E1,-7.859929E-4,-1.8672898E-1,1.0928255E-1,1.4594294E-2],"split_indices":[8,8,8,0,0,0,0],"split_type":[0,0,0,0,0,0,0],"sum_hessian":[2.3117916E4,2.1801096E4,1.3168192E3,2.1696201E4,1.0489565E2,1.7266006E2,1.1441592E3],"tree_param":{"num_deleted":"0","num_feature":"9","num_nodes":"7","size_leaf_vector":"0"}},{"base_weights":[-4.5522937E-4,3.83662E-2,-1.14759654E-1,3.426571E-1,1.882132E-2,-1.8309666E-1,7.56312E-2],"categories":[],"categories_nodes":[],"categories_segments":[],"categories_sizes":[],"default_left":[1,1,1,0,0,0,0],"id":90,"left_children":[1,3,5,-1,-1,-1,-1],"loss_changes":[1.02577225E2,1.0261853E2,7.62641E1,0E0,0E0,0E0,0E0],"parents":[2147483647,0,0,1,1,2,2],"right_children":[2,4,6,-1,-1,-1,-1],"split_conditions":[3.5E0,5.000247E0,8.8991375E4,3.426571E-2,1.882132E-3,-1.8309666E-2,7.56312E-3],"split_indices":[2,8,4,0,0,0,0],"split_type":[0,0,0,0,0,0,0],"sum_hessian":[2.3114207E4,1.7254645E4,5.859563E3,1.040394E3,1.621425E4,4.3119224E3,1.5476405E3],"tree_param":{"num_deleted":"0","num_feature":"9","num_nodes":"7","size_leaf_vector":"0"}},{"base_weights":[-4.0665347E-4,-3.362232E-2,1.24041066E-1,7.466942E-3,-1.8379102E0,1.0353124E0,-6.165319E-3],"categories":[],"categories_nodes":[],"categories_segments":[],"categories_sizes":[],"default_left":[1,1,1,0,0,0,0],"id":91,"left_children":[1,3,5,-1,-1,-1,-1],"loss_changes":[9.5464165E1,1.3514653E3,5.7730786E2,0E0,0E0,0E0,0E0],"parents":[2147483647,0,0,1,1,2,2],"right_children":[2,4,6,-1,-1,-1,-1],"split_conditions":[1.5999834E1,1.5000084E1,1.600033E1,7.466942E-4,-1.8379103E-1,1.0353124E-1,-6.1653194E-4],"split_indices":[8,8,8,0,0,0,0],"split_type":[0,0,0,0,0,0,0],"sum_hessian":[2.3092592E4,1.8228146E4,4.864446E3,1.7823252E4,4.0489514E2,6.0728784E2,4.257158E3],"tree_param":{"num_deleted":"0","num_feature":"9","num_nodes":"7","size_leaf_vector":"0"}},{"base_weights":[-4.1027754E-4,-1.827629E-2,2.3033099E-1,-7.082409E-3,-1.8831292E0,9.8420906E-1,1.0196182E-1],"categories":[],"categories_nodes":[],"categories_segments":[],"categories_sizes":[],"default_left":[1,1,1,0,0,0,0],"id":92,"left_children":[1,3,5,-1,-1,-1,-1],"loss_changes":[9.513884E1,4.4712424E2,1.604017E2,0E0,0E0,0E0,0E0],"parents":[2147483647,0,0,1,1,2,2],"right_children":[2,4,6,-1,-1,-1,-1],"split_conditions":[2.0999924E1,2.0000069E1,2.1000402E1,-7.0824096E-4,-1.8831293E-1,9.842091E-2,1.0196182E-2],"split_indices":[8,8,8,0,0,0,0],"split_type":[0,0,0,0,0,0,0],"sum_hessian":[2.3076338E4,2.1418826E4,1.6575126E3,2.1292023E4,1.2680272E2,2.4020213E2,1.4173104E3],"tree_param":{"num_deleted":"0","num_feature":"9","num_nodes":"7","size_leaf_vector":"0"}},{"base_weights":[-3.840249E-4,6.312328E-2,-6.477453E-2,8.19709E-3,2.0521195E-1,-3.216382E-1,6.094079E-2],"categories":[],"categories_nodes":[],"categories_segments":[],"categories_sizes":[],"default_left":[1,1,1,0,0,0,0],"id":93,"left_children":[1,3,5,-1,-1,-1,-1],"loss_changes":[9.435332E1,9.0657E1,3.6998663E2,0E0,0E0,0E0,0E0],"parents":[2147483647,0,0,1,1,2,2],"right_children":[2,4,6,-1,-1,-1,-1],"split_conditions":[5E-1,5E-1,1.5E0,8.19709E-4,2.0521196E-2,-3.216382E-2,6.094079E-3],"split_indices":[3,1,3,0,0,0,0],"split_type":[0,0,0,0,0,0,0],"sum_hessian":[2.3071404E4,1.1615372E4,1.1456032E4,8.377861E3,3.2375112E3,3.7639363E3,7.692096E3],"tree_param":{"num_deleted":"0","num_feature":"9","num_nodes":"7","size_leaf_vector":"0"}},{"base_weights":[-3.663218E-4,4.312823E-2,-9.739567E-2,-2.42583E-2,1.8275276E-1,-1.8804327E-1,3.838869E-2],"categories":[],"categories_nodes":[],"categories_segments":[],"categories_sizes":[],"default_left":[1,1,1,0,0,0,0],"id":94,"left_children":[1,3,5,-1,-1,-1,-1],"loss_changes":[9.725392E1,1.4971658E2,8.780019E1,0E0,0E0,0E0,0E0],"parents":[2147483647,0,0,1,1,2,2],"right_children":[2,4,6,-1,-1,-1,-1],"split_conditions":[1.800007E4,7.01858E4,5E-1,-2.42583E-3,1.8275276E-2,-1.8804327E-2,3.8388693E-3],"split_indices":[0,4,1,0,0,0,0],"split_type":[0,0,0,0,0,0,0],"sum_hessian":[2.3042602E4,1.5910906E4,7.131696E3,1.0732123E4,5.178783E3,4.2764307E3,2.8552651E3],"tree_param":{"num_deleted":"0","num_feature":"9","num_nodes":"7","size_leaf_vector":"0"}},{"base_weights":[-3.2784417E-4,-2.8531883E-2,1.3651432E-1,1.5933625E-3,-1.8430469E0,1.1156667E0,-3.5586117E-3],"categories":[],"categories_nodes":[],"categories_segments":[],"categories_sizes":[],"default_left":[1,1,1,0,0,0,0],"id":95,"left_children":[1,3,5,-1,-1,-1,-1],"loss_changes":[8.8881226E1,1.0437233E3,5.397496E2,0E0,0E0,0E0,0E0],"parents":[2147483647,0,0,1,1,2,2],"right_children":[2,4,6,-1,-1,-1,-1],"split_conditions":[1.699984E1,1.600033E1,1.700003E1,1.5933625E-4,-1.843047E-1,1.1156668E-1,-3.5586118E-4],"split_indices":[8,8,8,0,0,0,0],"split_type":[0,0,0,0,0,0,0],"sum_hessian":[2.3027188E4,1.9092826E4,3.934361E3,1.8782E4,3.1082657E2,4.9152026E2,3.4428408E3],"tree_param":{"num_deleted":"0","num_feature":"9","num_nodes":"7","size_leaf_vector":"0"}},{"base_weights":[-3.2586788E-4,7.3885724E-2,-5.2038375E-2,-1.9515576E-2,6.284226E-1,-1.4653238E0,2.6959289E-2],"categories":[],"categories_nodes":[],"categories_segments":[],"categories_sizes":[],"default_left":[1,1,1,0,0,0,0],"id":96,"left_children":[1,3,5,-1,-1,-1,-1],"loss_changes":[8.832722E1,4.8956262E2,1.514417E3,0E0,0E0,0E0,0E0],"parents":[2147483647,0,0,1,1,2,2],"right_children":[2,4,6,-1,-1,-1,-1],"split_conditions":[1.0000105E1,9.999943E0,1.0999973E1,-1.9515576E-3,6.2842265E-2,-1.4653239E-1,2.695929E-3],"split_indices":[8,8,8,0,0,0,0],"split_type":[0,0,0,0,0,0,0],"sum_hessian":[2.301386E4,9.45079E3,1.3563069E4,8.0892695E3,1.3615204E3,7.170653E2,1.2846004E4],"tree_param":{"num_deleted":"0","num_feature":"9","num_nodes":"7","size_leaf_vector":"0"}},{"base_weights":[-4.148423E-4,9.0342134E-2,-4.4336937E-2,-1.2885739E-2,5.743732E-1,-1.3539304E0,8.9167785E-3],"categories":[],"categories_nodes":[],"categories_segments":[],"categories_sizes":[],"default_left":[1,1,1,0,0,0,0],"id":97,"left_children":[1,3,5,-1,-1,-1,-1],"loss_changes":[9.15204E1,3.7412494E2,1.0790107E3,0E0,0E0,0E0,0E0],"parents":[2147483647,0,0,1,1,2,2],"right_children":[2,4,6,-1,-1,-1,-1],"split_conditions":[9.0001335E0,8.999989E0,9.999943E0,-1.288574E-3,5.743732E-2,-1.3539304E-1,8.9167786E-4],"split_indices":[8,8,8,0,0,0,0],"split_type":[0,0,0,0,0,0,0],"sum_hessian":[2.2957092E4,7.486517E3,1.5470575E4,6.1713457E3,1.3151714E3,6.0356366E2,1.4867012E4],"tree_param":{"num_deleted":"0","num_feature":"9","num_nodes":"7","size_leaf_vector":"0"}},{"base_weights":[-4.7812154E-4,1.0992473E-1,-3.6599588E-2,-1.4098743E-2,5.3615916E-1,-1.3101302E0,3.6246937E-3],"categories":[],"categories_nodes":[],"categories_segments":[],"categories_sizes":[],"default_left":[1,1,1,0,0,0,0],"id":98,"left_children":[1,3,5,-1,-1,-1,-1],"loss_changes":[9.132667E1,2.9844965E2,8.839391E2,0E0,0E0,0E0,0E0],"parents":[2147483647,0,0,1,1,2,2],"right_children":[2,4,6,-1,-1,-1,-1],"split_conditions":[8.000065E0,7.999931E0,8.999989E0,-1.4098743E-3,5.3615917E-2,-1.3101302E-1,3.6246938E-4],"split_indices":[8,8,8,0,0,0,0],"split_type":[0,0,0,0,0,0,0],"sum_hessian":[2.289886E4,5.6445684E3,1.7254291E4,4.3730796E3,1.271489E3,5.273217E2,1.6726969E4],"tree_param":{"num_deleted":"0","num_feature":"9","num_nodes":"7","size_leaf_vector":"0"}},{"base_weights":[-5.2285806E-4,6.362383E-2,-6.34209E-2,-3.0760668E-2,7.8186345E-1,-1.6235039E0,4.2069573E-2],"categories":[],"categories_nodes":[],"categories_segments":[],"categories_sizes":[],"default_left":[1,1,1,0,0,0,0],"id":99,"left_children":[1,3,5,-1,-1,-1,-1],"loss_changes":[9.217723E1,7.667902E2,1.8984813E3,0E0,0E0,0E0,0E0],"parents":[2147483647,0,0,1,1,2,2],"right_children":[2,4,6,-1,-1,-1,-1],"split_conditions":[1.1000355E1,1.0999973E1,1.199985E1,-3.076067E-3,7.818635E-2,-1.623504E-1,4.2069573E-3],"split_indices":[8,8,8,0,0,0,0],"split_type":[0,0,0,0,0,0,0],"sum_hessian":[2.2844111E4,1.130979E4,1.1534322E4,9.997029E3,1.3127611E3,7.296244E2,1.0804697E4],"tree_param":{"num_deleted":"0","num_feature":"9","num_nodes":"7","size_leaf_vector":"0"}}]},"name":"gbtree"},"learner_model_param":{"base_score":"5E-1","num_class":"0","num_feature":"9","num_target":"1"},"objective":{"name":"binary:logistic","reg_loss_param":{"scale_pos_weight":"1"}}},"version":[1,6,2]}