{"learner":{"attributes":{"best_iteration":"97","best_ntree_limit":"98","best_score":"0.47484388061597943","scikit_learn":"{\"use_label_encoder\": false, \"n_estimators\": 100, \"objective\": \"binary:logistic\", \"max_depth\": 2, \"max_leaves\": null, \"max_bin\": null, \"grow_policy\": null, \"learning_rate\": 0.1, \"verbosity\": null, \"booster\": null, \"tree_method\": null, \"gamma\": null, \"min_child_weight\": null, \"max_delta_step\": null, \"subsample\": null, \"sampling_method\": null, \"colsample_bytree\": null, \"colsample_bylevel\": null, \"colsample_bynode\": null, \"reg_alpha\": null, \"reg_lambda\": null, \"scale_pos_weight\": null, \"base_score\": null, \"missing\": NaN, \"num_parallel_tree\": null, \"random_state\": null, \"n_jobs\": null, \"monotone_constraints\": null, \"interaction_constraints\": null, \"importance_type\": null, \"gpu_id\": null, \"validate_parameters\": null, \"predictor\": null, \"enable_categorical\": false, \"max_cat_to_onehot\": null, \"eval_metric\": null, \"early_stopping_rounds\": null, \"callbacks\": null, \"kwargs\": {\"nthread\": 4, \"seed\": 42}, \"classes_\": [0, 1], \"n_classes_\": 2, \"evals_result_\": {\"validation_0\": {\"logloss\": [0.657977785522143, 0.6293106118822098, 0.6057153289651871, 0.5861783588496844, 0.5699008968289693, 0.556309004710118, 0.5448762701062362, 0.5352627567644914, 0.5271654413918654, 0.5203307074463367, 0.5145676943890254, 0.5096801084470749, 0.5055394409529368, 0.5020358501629034, 0.49900952803293863, 0.4964616720143954, 0.4942743222934008, 0.49242803276499114, 0.49067611480454604, 0.4893125593473514, 0.48813767497976623, 0.4870330947499474, 0.4861500093569358, 0.48538353329867123, 0.4846600413925449, 0.4841069231340289, 0.4836061128142476, 0.48316249331404765, 0.48265830186009406, 0.4823258534093698, 0.48197893904447553, 0.4816944304104646, 0.4814325008336703, 0.48112038691173, 0.4809207512619098, 0.480721576457719, 0.4805212849737207, 0.48030394090841216, 0.4801451026823123, 0.4799986523739497, 0.4798685959662, 0.4797096280008554, 0.47959988820234933, 0.47942977855831387, 0.4793067131102085, 0.47922417498399816, 0.47913212200979394, 0.4790407408766945, 0.4789375309648613, 0.4788739514143268, 0.4788087079384426, 0.4787461382796367, 0.47866348485206567, 0.47859834969848397, 0.4785467795822521, 0.4784747589395444, 0.47842803232992687, 0.4783439635065695, 0.47828974735230206, 0.4782500998500486, 0.478197840440919, 0.47814822704186044, 0.4780842210574448, 0.4780410842905939, 0.4780101766658326, 0.4779768467245996, 0.4779365831087033, 0.47789946885312595, 0.47786802766278386, 0.47782435131594536, 0.4777986908480525, 0.4777679937750101, 0.47774508256942033, 0.47771531796231864, 0.47769257645423213, 0.47767489446406564, 0.4776535544497271, 0.47762807281961045, 0.47760387266938886, 0.47758843902428944, 0.4775641332827012, 0.47753911032835644, 0.4775251944949726, 0.47750786354959013, 0.4774908116770784, 0.4774711890050769, 0.47745083080500367, 0.477438549477011, 0.47742719797641037, 0.47740889094432193, 0.47739402075871823, 0.47738147186095514, 0.4773613907146951, 0.4773518609161178, 0.4773388851578037, 0.4773301161433756, 0.4773149511913955, 0.4772976066776117, 0.47728415886963405, 0.47726799689074356]}, \"validation_1\": {\"logloss\": [0.6576666428518295, 0.6286838032388687, 0.6048366218948364, 0.5850352166366577, 0.56854323417902, 0.5547703270792961, 0.543152497253418, 0.5333384777367115, 0.5250974522292614, 0.5181107959604263, 0.5122216307783127, 0.50715636125803, 0.5028691593933106, 0.499207277443409, 0.49610905440568925, 0.49347944129228594, 0.49126106808423997, 0.48930738972127436, 0.48756826161146166, 0.4861122283095121, 0.48496254566311836, 0.4838714981654286, 0.482898433419168, 0.4820842468869686, 0.4813789646348357, 0.48082402588546275, 0.48026004703849556, 0.47983178048968317, 0.47939248111873867, 0.4790372899246216, 0.4787356407752633, 0.47840372999608516, 0.47816350393503904, 0.477882555052042, 0.47766868867248297, 0.4774875197413564, 0.47729966034561394, 0.47714047862112524, 0.4769775419706106, 0.4768455695414543, 0.4767644460254908, 0.4766414043357968, 0.4765091028788686, 0.47637119272589684, 0.4762961795914173, 0.47619337623894215, 0.476118982501328, 0.476092218092978, 0.4760306981445849, 0.47595034901112315, 0.4759076374539733, 0.47585500863417984, 0.47577589521721003, 0.47571533272325994, 0.4756722539231181, 0.47563410653322935, 0.475587766456008, 0.4755429368811846, 0.4754900451204181, 0.4754339868210256, 0.47539890067219737, 0.4753308920897543, 0.47527825753048064, 0.47527135563760997, 0.47523389973923563, 0.4752175754080713, 0.4752041372951865, 0.4751692290405929, 0.475170311961472, 0.4751376841709018, 0.47510736479371785, 0.4751009585493803, 0.4750803932826221, 0.4750600184381008, 0.47505545745044947, 0.47506148031711576, 0.47502236386418345, 0.4749959451197088, 0.4749933557969332, 0.47498089625403284, 0.474971677891165, 0.47497037601187825, 0.4749695676167309, 0.47495780075713995, 0.47494512031406166, 0.474944855312258, 0.4749250760999322, 0.4749146951240301, 0.47490926381751897, 0.47491760457754134, 0.47490551347434523, 0.47488756901428103, 0.47486888263180854, 0.4748611162157357, 0.4748584744609892, 0.47485683909997345, 0.47485799281537533, 0.47484388061597943, 0.47485069796711205, 0.4748471938277781]}}, \"_estimator_type\": \"classifier\"}"},"feature_names":["loan_amnt","term","grade","home_ownership","annual_inc"],"feature_types":["float","int","int","int","float"],"gradient_booster":{"model":{"gbtree_model_param":{"num_parallel_tree":"1","num_trees":"100","size_leaf_vector":"0"},"tree_info":[0,0,0,0,0,0,0,0,0,0,0,0,0,0,0,0,0,0,0,0,0,0,0,0,0,0,0,0,0,0,0,0,0,0,0,0,0,0,0,0,0,0,0,0,0,0,0,0,0,0,0,0,0,0,0,0,0,0,0,0,0,0,0,0,0,0,0,0,0,0,0,0,0,0,0,0,0,0,0,0,0,0,0,0,0,0,0,0,0,0,0,0,0,0,0,0,0,0,0,0],"trees":[{"base_weights":[1.1516186E0,1.541082E0,8.5143745E-1,1.7510515E0,1.4242988E0,1.0375793E0,5.9385896E-1],"categories":[],"categories_nodes":[],"categories_segments":[],"categories_sizes":[],"default_left":[1,1,1,0,0,0,0],"id":0,"left_children":[1,3,5,-1,-1,-1,-1],"loss_changes":[2.1908613E3,1.9760938E2,5.0720508E2,0E0,0E0,0E0,0E0],"parents":[2147483647,0,0,1,1,2,2],"right_children":[2,4,6,-1,-1,-1,-1],"split_conditions":[2.5E0,1.5E0,3.5E0,1.7510515E-1,1.4242987E-1,1.0375793E-1,5.9385896E-2],"split_indices":[2,2,2,0,0,0,0],"split_type":[0,0,0,0,0,0,0],"sum_hessian":[1.875E4,8.1595E3,1.05905E4,2.91125E3,5.24825E3,6.146E3,4.4445E3],"tree_param":{"num_deleted":"0","num_feature":"5","num_nodes":"7","size_leaf_vector":"0"}},{"base_weights":[1.040491E0,1.3956604E0,7.6785135E-1,1.5885634E0,1.2886482E0,8.594577E-1,3.2497233E-1],"categories":[],"categories_nodes":[],"categories_segments":[],"categories_sizes":[],"default_left":[1,1,1,0,0,0,0],"id":1,"left_children":[1,3,5,-1,-1,-1,-1],"loss_changes":[1.8079531E3,1.654043E2,4.2859424E2,0E0,0E0,0E0,0E0],"parents":[2147483647,0,0,1,1,2,2],"right_children":[2,4,6,-1,-1,-1,-1],"split_conditions":[2.5E0,1.5E0,4.5E0,1.5885635E-1,1.2886482E-1,8.594577E-2,3.2497235E-2],"split_indices":[2,2,2,0,0,0,0],"split_type":[0,0,0,0,0,0,0],"sum_hessian":[1.8680842E4,8.1107705E3,1.0570072E4,2.8890476E3,5.2217227E3,8.75767E3,1.8124016E3],"tree_param":{"num_deleted":"0","num_feature":"5","num_nodes":"7","size_leaf_vector":"0"}},{"base_weights":[9.460439E-1,1.2770203E0,6.9469273E-1,1.4602295E0,1.1760806E0,8.5612863E-1,4.7242436E-1],"categories":[],"categories_nodes":[],"categories_segments":[],"categories_sizes":[],"default_left":[1,1,1,0,0,0,0],"id":2,"left_children":[1,3,5,-1,-1,-1,-1],"loss_changes":[1.5384238E3,1.4595801E2,3.7703467E2,0E0,0E0,0E0,0E0],"parents":[2147483647,0,0,1,1,2,2],"right_children":[2,4,6,-1,-1,-1,-1],"split_conditions":[2.5E0,1.5E0,3.5E0,1.4602296E-1,1.1760806E-1,8.561286E-2,4.7242437E-2],"split_indices":[2,2,2,0,0,0,0],"split_type":[0,0,0,0,0,0,0],"sum_hessian":[1.8502287E4,7.984416E3,1.0517871E4,2.8315623E3,5.1528535E3,6.091035E3,4.4268354E3],"tree_param":{"num_deleted":"0","num_feature":"5","num_nodes":"7","size_leaf_vector":"0"}},{"base_weights":[8.641318E-1,1.1772646E0,6.300126E-1,1.3553725E0,1.0801231E0,7.1015584E-1,2.4638462E-1],"categories":[],"categories_nodes":[],"categories_segments":[],"categories_sizes":[],"default_left":[1,1,1,0,0,0,0],"id":3,"left_children":[1,3,5,-1,-1,-1,-1],"loss_changes":[1.3370273E3,1.3358496E2,3.209126E2,0E0,0E0,0E0,0E0],"parents":[2147483647,0,0,1,1,2,2],"right_children":[2,4,6,-1,-1,-1,-1],"split_conditions":[2.5E0,1.5E0,4.5E0,1.3553725E-1,1.0801231E-1,7.101559E-2,2.4638463E-2],"split_indices":[2,2,2,0,0,0,0],"split_type":[0,0,0,0,0,0,0],"sum_hessian":[1.8247014E4,7.804511E3,1.0442503E4,2.7498071E3,5.0547036E3,8.637252E3,1.8052502E3],"tree_param":{"num_deleted":"0","num_feature":"5","num_nodes":"7","size_leaf_vector":"0"}},{"base_weights":[7.9183525E-1,1.0912801E0,5.7223606E-1,1.2672594E0,9.96514E-1,7.157615E-1,3.7696537E-1],"categories":[],"categories_nodes":[],"categories_segments":[],"categories_sizes":[],"default_left":[1,1,1,0,0,0,0],"id":4,"left_children":[1,3,5,-1,-1,-1,-1],"loss_changes":[1.179251E3,1.2531738E2,2.8990186E2,0E0,0E0,0E0,0E0],"parents":[2147483647,0,0,1,1,2,2],"right_children":[2,4,6,-1,-1,-1,-1],"split_conditions":[2.5E0,1.5E0,3.5E0,1.2672594E-1,9.96514E-2,7.157615E-2,3.7696537E-2],"split_indices":[2,2,2,0,0,0,0],"split_type":[0,0,0,0,0,0,0],"sum_hessian":[1.7941729E4,7.5891777E3,1.035255E4,2.6520269E3,4.937151E3,5.9653257E3,4.3872246E3],"tree_param":{"num_deleted":"0","num_feature":"5","num_nodes":"7","size_leaf_vector":"0"}},{"base_weights":[7.2722554E-1,1.0156158E0,5.2034575E-1,1.1914226E0,9.2234325E-1,6.483189E-1,3.3368066E-1],"categories":[],"categories_nodes":[],"categories_segments":[],"categories_sizes":[],"default_left":[1,1,1,0,0,0,0],"id":5,"left_children":[1,3,5,-1,-1,-1,-1],"loss_changes":[1.0498691E3,1.19476074E2,2.447251E2,0E0,0E0,0E0,0E0],"parents":[2147483647,0,0,1,1,2,2],"right_children":[2,4,6,-1,-1,-1,-1],"split_conditions":[2.5E0,1.5E0,1.5E0,1.1914226E-1,9.223433E-2,6.483189E-2,3.3368066E-2],"split_indices":[2,2,3,0,0,0,0],"split_type":[0,0,0,0,0,0,0],"sum_hessian":[1.7604766E4,7.3520737E3,1.0252691E4,2.5444128E3,4.8076606E3,6.0811357E3,4.1715557E3],"tree_param":{"num_deleted":"0","num_feature":"5","num_nodes":"7","size_leaf_vector":"0"}},{"base_weights":[6.6861564E-1,9.4786876E-1,4.731721E-1,1.124777E0,8.5557073E-1,6.08443E-1,2.9152834E-1],"categories":[],"categories_nodes":[],"categories_segments":[],"categories_sizes":[],"default_left":[1,1,1,0,0,0,0],"id":6,"left_children":[1,3,5,-1,-1,-1,-1],"loss_changes":[9.414541E2,1.15041016E2,2.4932764E2,0E0,0E0,0E0,0E0],"parents":[2147483647,0,0,1,1,2,2],"right_children":[2,4,6,-1,-1,-1,-1],"split_conditions":[2.5E0,1.5E0,3.5E0,1.124777E-1,8.555707E-2,6.0844302E-2,2.9152835E-2],"split_indices":[2,2,2,0,0,0,0],"split_type":[0,0,0,0,0,0,0],"sum_hessian":[1.725685E4,7.103458E3,1.0153392E4,2.4316028E3,4.6718555E3,5.8182017E3,4.33519E3],"tree_param":{"num_deleted":"0","num_feature":"5","num_nodes":"7","size_leaf_vector":"0"}},{"base_weights":[6.154466E-1,8.8632554E-1,4.3066397E-1,1.0651253E0,7.947357E-1,5.0046366E-1,1.0601166E-1],"categories":[],"categories_nodes":[],"categories_segments":[],"categories_sizes":[],"default_left":[1,1,1,0,0,0,0],"id":7,"left_children":[1,3,5,-1,-1,-1,-1],"loss_changes":[8.4546875E2,1.1136328E2,2.2763818E2,0E0,0E0,0E0,0E0],"parents":[2147483647,0,0,1,1,2,2],"right_children":[2,4,6,-1,-1,-1,-1],"split_conditions":[2.5E0,1.5E0,4.5E0,1.0651254E-1,7.947358E-2,5.0046366E-2,1.0601166E-2],"split_indices":[2,2,2,0,0,0,0],"split_type":[0,0,0,0,0,0,0],"sum_hessian":[1.6897854E4,6.850981E3,1.0046873E4,2.31705E3,4.5339307E3,8.268597E3,1.7782764E3],"tree_param":{"num_deleted":"0","num_feature":"5","num_nodes":"7","size_leaf_vector":"0"}},{"base_weights":[5.666797E-1,8.297442E-1,3.9196387E-1,1.0108627E0,7.387779E-1,5.123916E-1,2.177119E-1],"categories":[],"categories_nodes":[],"categories_segments":[],"categories_sizes":[],"default_left":[1,1,1,0,0,0,0],"id":8,"left_children":[1,3,5,-1,-1,-1,-1],"loss_changes":[7.6001025E2,1.0801367E2,2.0853162E2,0E0,0E0,0E0,0E0],"parents":[2147483647,0,0,1,1,2,2],"right_children":[2,4,6,-1,-1,-1,-1],"split_conditions":[2.5E0,1.5E0,1.5E0,1.01086274E-1,7.387779E-2,5.1239163E-2,2.177119E-2],"split_indices":[2,2,3,0,0,0,0],"split_type":[0,0,0,0,0,0,0],"sum_hessian":[1.6541875E4,6.6002793E3,9.941596E3,2.2032952E3,4.396984E3,5.877582E3,4.0640134E3],"tree_param":{"num_deleted":"0","num_feature":"5","num_nodes":"7","size_leaf_vector":"0"}},{"base_weights":[5.216142E-1,7.772148E-1,3.565202E-1,9.607959E-1,6.8691903E-1,4.7991657E-1,1.9430196E-1],"categories":[],"categories_nodes":[],"categories_segments":[],"categories_sizes":[],"default_left":[1,1,1,0,0,0,0],"id":9,"left_children":[1,3,5,-1,-1,-1,-1],"loss_changes":[6.833198E2,1.0470825E2,1.9696094E2,0E0,0E0,0E0,0E0],"parents":[2147483647,0,0,1,1,2,2],"right_children":[2,4,6,-1,-1,-1,-1],"split_conditions":[2.5E0,1.5E0,3.5E0,9.607959E-2,6.86919E-2,4.799166E-2,1.9430196E-2],"split_indices":[2,2,2,0,0,0,0],"split_type":[0,0,0,0,0,0,0],"sum_hessian":[1.6198704E4,6.3554326E3,9.843271E3,2.092175E3,4.263258E3,5.5894917E3,4.25378E3],"tree_param":{"num_deleted":"0","num_feature":"5","num_nodes":"7","size_leaf_vector":"0"}},{"base_weights":[4.801524E-1,7.2806567E-1,3.2438934E-1,9.140253E-1,6.385829E-1,4.3671384E-1,1.6337644E-1],"categories":[],"categories_nodes":[],"categories_segments":[],"categories_sizes":[],"default_left":[1,1,1,0,0,0,0],"id":10,"left_children":[1,3,5,-1,-1,-1,-1],"loss_changes":[6.1234546E2,1.0125952E2,1.7615955E2,0E0,0E0,0E0,0E0],"parents":[2147483647,0,0,1,1,2,2],"right_children":[2,4,6,-1,-1,-1,-1],"split_conditions":[2.5E0,1.5E0,1.5E0,9.140253E-2,6.385829E-2,4.3671384E-2,1.6337644E-2],"split_indices":[2,2,3,0,0,0,0],"split_type":[0,0,0,0,0,0,0],"sum_hessian":[1.586253E4,6.119318E3,9.743213E3,1.9849844E3,4.1343335E3,5.738356E3,4.004857E3],"tree_param":{"num_deleted":"0","num_feature":"5","num_nodes":"7","size_leaf_vector":"0"}},{"base_weights":[4.4160834E-1,6.818017E-1,2.9488608E-1,8.6986923E-1,5.933418E-1,4.0212882E-1,1.2183215E-1],"categories":[],"categories_nodes":[],"categories_segments":[],"categories_sizes":[],"default_left":[1,1,1,0,0,0,0],"id":11,"left_children":[1,3,5,-1,-1,-1,-1],"loss_changes":[5.477085E2,9.755371E1,1.7910449E2,0E0,0E0,0E0,0E0],"parents":[2147483647,0,0,1,1,2,2],"right_children":[2,4,6,-1,-1,-1,-1],"split_conditions":[2.5E0,1.5E0,5E-1,8.698692E-2,5.9334185E-2,4.021288E-2,1.2183215E-2],"split_indices":[2,2,1,0,0,0,0],"split_type":[0,0,0,0,0,0,0],"sum_hessian":[1.55461875E4,5.8938857E3,9.652302E3,1.8826016E3,4.011284E3,5.9584717E3,3.69383E3],"tree_param":{"num_deleted":"0","num_feature":"5","num_nodes":"7","size_leaf_vector":"0"}},{"base_weights":[4.0584826E-1,6.3805836E-1,2.679241E-1,8.278092E-1,5.508761E-1,3.314464E-1,-1.7822104E-2],"categories":[],"categories_nodes":[],"categories_segments":[],"categories_sizes":[],"default_left":[1,1,1,0,0,0,0],"id":12,"left_children":[1,3,5,-1,-1,-1,-1],"loss_changes":[4.8819922E2,9.353052E1,1.7367981E2,0E0,0E0,0E0,0E0],"parents":[2147483647,0,0,1,1,2,2],"right_children":[2,4,6,-1,-1,-1,-1],"split_conditions":[2.5E0,1.5E0,4.5E0,8.278092E-2,5.5087607E-2,3.314464E-2,-1.7822104E-3],"split_indices":[2,2,2,0,0,0,0],"split_type":[0,0,0,0,0,0,0],"sum_hessian":[1.524752E4,5.680374E3,9.5671455E3,1.7855846E3,3.8947896E3,7.827015E3,1.7401307E3],"tree_param":{"num_deleted":"0","num_feature":"5","num_nodes":"7","size_leaf_vector":"0"}},{"base_weights":[3.7280613E-1,5.9656894E-1,2.4344862E-1,7.874532E-1,5.109449E-1,4.4598863E-1,1.5869966E-1],"categories":[],"categories_nodes":[],"categories_segments":[],"categories_sizes":[],"default_left":[1,1,1,0,0,0,0],"id":13,"left_children":[1,3,5,-1,-1,-1,-1],"loss_changes":[4.3295044E2,8.9172E1,1.6270575E2,0E0,0E0,0E0,0E0],"parents":[2147483647,0,0,1,1,2,2],"right_children":[2,4,6,-1,-1,-1,-1],"split_conditions":[2.5E0,1.5E0,9.9875E3,7.874532E-2,5.109449E-2,4.4598863E-2,1.5869966E-2],"split_indices":[2,2,0,0,0,0,0],"split_type":[0,0,0,0,0,0,0],"sum_hessian":[1.4961498E4,5.4794775E3,9.4820205E3,1.6942461E3,3.7852314E3,2.795896E3,6.686124E3],"tree_param":{"num_deleted":"0","num_feature":"5","num_nodes":"7","size_leaf_vector":"0"}},{"base_weights":[3.4201962E-1,4.452992E-1,7.788365E-2,7.485103E-1,3.90769E-1,5.6987476E-1,3.2178044E-2],"categories":[],"categories_nodes":[],"categories_segments":[],"categories_sizes":[],"default_left":[1,1,1,0,0,0,0],"id":14,"left_children":[1,3,5,-1,-1,-1,-1],"loss_changes":[4.0097717E2,1.7443408E2,9.29267E1,0E0,0E0,0E0,0E0],"parents":[2147483647,0,0,1,1,2,2],"right_children":[2,4,6,-1,-1,-1,-1],"split_conditions":[3.5E0,1.5E0,4.7875E3,7.485103E-2,3.9076902E-2,5.6987476E-2,3.2178045E-3],"split_indices":[2,2,0,0,0,0,0],"split_type":[0,0,0,0,0,0,0],"sum_hessian":[1.4698927E4,1.0566603E4,4.132324E3,1.6087183E3,8.957884E3,3.5028336E2,3.7820408E3],"tree_param":{"num_deleted":"0","num_feature":"5","num_nodes":"7","size_leaf_vector":"0"}},{"base_weights":[3.13496E-1,5.23733E-1,1.9766372E-1,7.107682E-1,4.4420925E-1,3.0833068E-1,4.071483E-2],"categories":[],"categories_nodes":[],"categories_segments":[],"categories_sizes":[],"default_left":[1,1,1,0,0,0,0],"id":15,"left_children":[1,3,5,-1,-1,-1,-1],"loss_changes":[3.5188538E2,7.604651E1,1.6188507E2,0E0,0E0,0E0,0E0],"parents":[2147483647,0,0,1,1,2,2],"right_children":[2,4,6,-1,-1,-1,-1],"split_conditions":[2.5E0,1.5E0,1.5E0,7.1076825E-2,4.4420924E-2,3.083307E-2,4.071483E-3],"split_indices":[2,2,3,0,0,0,0],"split_type":[0,0,0,0,0,0,0],"sum_hessian":[1.4453074E4,5.1330337E3,9.32004E3,1.5289932E3,3.6040405E3,5.465366E3,3.8546738E3],"tree_param":{"num_deleted":"0","num_feature":"5","num_nodes":"7","size_leaf_vector":"0"}},{"base_weights":[2.8708023E-1,3.826501E-1,5.1108465E-2,5.027296E-1,2.5689143E-1,4.2956182E-1,-5.3567777E-4],"categories":[],"categories_nodes":[],"categories_segments":[],"categories_sizes":[],"default_left":[1,1,1,0,0,0,0],"id":16,"left_children":[1,3,5,-1,-1,-1,-1],"loss_changes":[3.2079248E2,1.5276514E2,8.0169525E1,0E0,0E0,0E0,0E0],"parents":[2147483647,0,0,1,1,2,2],"right_children":[2,4,6,-1,-1,-1,-1],"split_conditions":[3.5E0,5E-1,5.7375E3,5.027296E-2,2.5689144E-2,4.2956185E-2,-5.356778E-5],"split_indices":[2,3,0,0,0,0,0],"split_type":[0,0,0,0,0,0,0],"sum_hessian":[1.42245625E4,1.0123762E4,4.1008013E3,5.1772837E3,4.946478E3,4.915268E2,3.6092744E3],"tree_param":{"num_deleted":"0","num_feature":"5","num_nodes":"7","size_leaf_vector":"0"}},{"base_weights":[2.6246458E-1,4.6044934E-1,1.576833E-1,6.52835E-1,3.811498E-1,1.8944892E-1,-2.7613384E-1],"categories":[],"categories_nodes":[],"categories_segments":[],"categories_sizes":[],"default_left":[1,1,1,0,0,0,0],"id":17,"left_children":[1,3,5,-1,-1,-1,-1],"loss_changes":[2.9079016E2,7.377063E1,1.26419235E2,0E0,0E0,0E0,0E0],"parents":[2147483647,0,0,1,1,2,2],"right_children":[2,4,6,-1,-1,-1,-1],"split_conditions":[2.5E0,1.5E0,5.5E0,6.52835E-2,3.811498E-2,1.8944893E-2,-2.7613385E-2],"split_indices":[2,2,2,0,0,0,0],"split_type":[0,0,0,0,0,0,0],"sum_hessian":[1.4019795E4,4.850797E3,9.168998E3,1.4137406E3,3.4370562E3,8.543943E3,6.2505457E2],"tree_param":{"num_deleted":"0","num_feature":"5","num_nodes":"7","size_leaf_vector":"0"}},{"base_weights":[2.3990726E-1,3.274399E-1,1.7398503E-2,4.6594226E-1,2.1005243E-1,1.5464143E-1,-2.7481824E-1],"categories":[],"categories_nodes":[],"categories_segments":[],"categories_sizes":[],"default_left":[1,1,1,0,0,0,0],"id":18,"left_children":[1,3,5,-1,-1,-1,-1],"loss_changes":[2.692251E2,1.611936E2,1.5659885E2,0E0,0E0,0E0,0E0],"parents":[2147483647,0,0,1,1,2,2],"right_children":[2,4,6,-1,-1,-1,-1],"split_conditions":[5E-1,5E-1,1.5E0,4.659423E-2,2.1005243E-2,1.5464144E-2,-2.7481824E-2],"split_indices":[1,3,3,0,0,0,0],"split_type":[0,0,0,0,0,0,0],"sum_hessian":[1.3822169E4,9.919478E3,3.902692E3,4.549122E3,5.3703555E3,2.6558245E3,1.2468674E3],"tree_param":{"num_deleted":"0","num_feature":"5","num_nodes":"7","size_leaf_vector":"0"}},{"base_weights":[2.188519E-1,4.04329E-1,1.2420783E-1,5.9799194E-1,3.270579E-1,3.3688775E-1,6.517212E-2],"categories":[],"categories_nodes":[],"categories_segments":[],"categories_sizes":[],"default_left":[1,1,1,0,0,0,0],"id":19,"left_children":[1,3,5,-1,-1,-1,-1],"loss_changes":[2.3962952E2,6.8831116E1,1.1350595E2,0E0,0E0,0E0,0E0],"parents":[2147483647,0,0,1,1,2,2],"right_children":[2,4,6,-1,-1,-1,-1],"split_conditions":[2.5E0,1.5E0,7.9625E3,5.9799194E-2,3.270579E-2,3.3688776E-2,6.5172124E-3],"split_indices":[2,2,0,0,0,0,0],"split_type":[0,0,0,0,0,0,0],"sum_hessian":[1.3652612E4,4.6116787E3,9.040934E3,1.3133412E3,3.2983376E3,1.9633031E3,7.077631E3],"tree_param":{"num_deleted":"0","num_feature":"5","num_nodes":"7","size_leaf_vector":"0"}},{"base_weights":[1.9964895E-1,2.822072E-1,6.7570363E-3,3.92316E-1,1.7050391E-1,1.1041434E-1,-1.3334581E-1],"categories":[],"categories_nodes":[],"categories_segments":[],"categories_sizes":[],"default_left":[1,1,1,0,0,0,0],"id":20,"left_children":[1,3,5,-1,-1,-1,-1],"loss_changes":[2.1478204E2,1.1610077E2,5.873683E1,0E0,0E0,0E0,0E0],"parents":[2147483647,0,0,1,1,2,2],"right_children":[2,4,6,-1,-1,-1,-1],"split_conditions":[3.5E0,5E-1,1.5E0,3.9231602E-2,1.7050391E-2,1.10414345E-2,-1.3334582E-2],"split_indices":[2,3,3,0,0,0,0],"split_type":[0,0,0,0,0,0,0],"sum_hessian":[1.348637E4,9.443895E3,4.042475E3,4.7546255E3,4.689269E3,2.3235627E3,1.7189126E3],"tree_param":{"num_deleted":"0","num_feature":"5","num_nodes":"7","size_leaf_vector":"0"}},{"base_weights":[1.8188722E-1,2.598384E-1,-1.01566175E-2,3.838706E-1,1.5799345E-1,1.0767953E-1,-2.547798E-1],"categories":[],"categories_nodes":[],"categories_segments":[],"categories_sizes":[],"default_left":[1,1,1,0,0,0,0],"id":21,"left_children":[1,3,5,-1,-1,-1,-1],"loss_changes":[1.9967422E2,1.1978259E2,1.11058556E2,0E0,0E0,0E0,0E0],"parents":[2147483647,0,0,1,1,2,2],"right_children":[2,4,6,-1,-1,-1,-1],"split_conditions":[5E-1,5E-1,1.5E0,3.838706E-2,1.5799345E-2,1.07679535E-2,-2.547798E-2],"split_indices":[1,3,3,0,0,0,0],"split_type":[0,0,0,0,0,0,0],"sum_hessian":[1.3337074E4,9.48623E3,3.8508435E3,4.275965E3,5.2102656E3,2.5993054E3,1.2515381E3],"tree_param":{"num_deleted":"0","num_feature":"5","num_nodes":"7","size_leaf_vector":"0"}},{"base_weights":[1.6552149E-1,3.3333758E-1,8.3647184E-2,5.3008085E-1,2.5764155E-1,1.7998692E-1,-2.0778041E-2],"categories":[],"categories_nodes":[],"categories_segments":[],"categories_sizes":[],"default_left":[1,1,1,0,0,0,0],"id":22,"left_children":[1,3,5,-1,-1,-1,-1],"loss_changes":[1.8140631E2,6.434311E1,8.93026E1,0E0,0E0,0E0,0E0],"parents":[2147483647,0,0,1,1,2,2],"right_children":[2,4,6,-1,-1,-1,-1],"split_conditions":[2.5E0,1.5E0,1.49125E4,5.3008087E-2,2.5764156E-2,1.7998694E-2,-2.0778042E-3],"split_indices":[2,2,0,0,0,0,0],"split_type":[0,0,0,0,0,0,0],"sum_hessian":[1.3203984E4,4.328623E3,8.875361E3,1.2010204E3,3.1276025E3,4.616025E3,4.2593364E3],"tree_param":{"num_deleted":"0","num_feature":"5","num_nodes":"7","size_leaf_vector":"0"}},{"base_weights":[1.5062214E-1,2.2304711E-1,-1.2947895E-2,4.981249E-1,1.8289082E-1,3.7505385E-1,-4.7143538E-2],"categories":[],"categories_nodes":[],"categories_segments":[],"categories_sizes":[],"default_left":[1,1,1,0,0,0,0],"id":23,"left_children":[1,3,5,-1,-1,-1,-1],"loss_changes":[1.5490372E2,1.0001825E2,5.3271893E1,0E0,0E0,0E0,0E0],"parents":[2147483647,0,0,1,1,2,2],"right_children":[2,4,6,-1,-1,-1,-1],"split_conditions":[3.5E0,1.5E0,4.7875E3,4.9812492E-2,1.8289082E-2,3.7505385E-2,-4.714354E-3],"split_indices":[2,2,0,0,0,0,0],"split_type":[0,0,0,0,0,0,0],"sum_hessian":[1.30746045E4,9.061862E3,4.0127422E3,1.1528982E3,7.908964E3,3.2420248E2,3.6885398E3],"tree_param":{"num_deleted":"0","num_feature":"5","num_nodes":"7","size_leaf_vector":"0"}},{"base_weights":[1.3697347E-1,2.0350967E-1,-2.1918481E-2,3.2115507E-1,1.08828254E-1,8.487428E-2,-2.4055044E-1],"categories":[],"categories_nodes":[],"categories_segments":[],"categories_sizes":[],"default_left":[1,1,1,0,0,0,0],"id":24,"left_children":[1,3,5,-1,-1,-1,-1],"loss_changes":[1.3696861E2,1.01680084E2,8.932111E1,0E0,0E0,0E0,0E0],"parents":[2147483647,0,0,1,1,2,2],"right_children":[2,4,6,-1,-1,-1,-1],"split_conditions":[5E-1,5E-1,1.5E0,3.2115508E-2,1.0882826E-2,8.487429E-3,-2.4055045E-2],"split_indices":[1,3,3,0,0,0,0],"split_type":[0,0,0,0,0,0,0],"sum_hessian":[1.2954287E4,9.13057E3,3.8237178E3,4.0704646E3,5.0601055E3,2.5693213E3,1.2543964E3],"tree_param":{"num_deleted":"0","num_feature":"5","num_nodes":"7","size_leaf_vector":"0"}},{"base_weights":[1.24383986E-1,4.5266733E-1,9.395396E-2,4.7417665E-1,1.7471857E-1,1.7345177E-1,-1.6032126E-2],"categories":[],"categories_nodes":[],"categories_segments":[],"categories_sizes":[],"default_left":[1,1,1,0,0,0,0],"id":25,"left_children":[1,3,5,-1,-1,-1,-1],"loss_changes":[1.283465E2,6.433716E0,1.0285594E2,0E0,0E0,0E0,0E0],"parents":[2147483647,0,0,1,1,2,2],"right_children":[2,4,6,-1,-1,-1,-1],"split_conditions":[1.5E0,2.9975E4,1.5E0,4.7417667E-2,1.7471857E-2,1.7345177E-2,-1.6032126E-3],"split_indices":[2,0,3,0,0,0,0],"split_type":[0,0,0,0,0,0,0],"sum_hessian":[1.2851183E4,1.0890018E3,1.1762181E4,1.0101263E3,7.887558E1,6.8270327E3,4.9351475E3],"tree_param":{"num_deleted":"0","num_feature":"5","num_nodes":"7","size_leaf_vector":"0"}},{"base_weights":[1.1288096E-1,2.5510442E-1,4.7092848E-2,4.2321232E-1,1.9578758E-1,7.246457E-2,-2.8319848E-1],"categories":[],"categories_nodes":[],"categories_segments":[],"categories_sizes":[],"default_left":[1,1,1,0,0,0,0],"id":26,"left_children":[1,3,5,-1,-1,-1,-1],"loss_changes":[1.193676E2,4.0153015E1,7.313502E1,0E0,0E0,0E0,0E0],"parents":[2147483647,0,0,1,1,2,2],"right_children":[2,4,6,-1,-1,-1,-1],"split_conditions":[2.5E0,1.5E0,5.5E0,4.232123E-2,1.9578759E-2,7.246457E-3,-2.8319849E-2],"split_indices":[2,2,2,0,0,0,0],"split_type":[0,0,0,0,0,0,0],"sum_hessian":[1.275785E4,4.0340332E3,8.723817E3,1.0505552E3,2.983478E3,8.1022163E3,6.2160077E2],"tree_param":{"num_deleted":"0","num_feature":"5","num_nodes":"7","size_leaf_vector":"0"}},{"base_weights":[1.02446795E-1,1.6367845E-1,-3.1072576E-2,2.097188E-1,-9.0169994E-4,-1.14887804E-1,1.123123E-1],"categories":[],"categories_nodes":[],"categories_segments":[],"categories_sizes":[],"default_left":[1,1,1,0,0,0,0],"id":27,"left_children":[1,3,5,-1,-1,-1,-1],"loss_changes":[1.0355098E2,6.579646E1,4.787886E1,0E0,0E0,0E0,0E0],"parents":[2147483647,0,0,1,1,2,2],"right_children":[2,4,6,-1,-1,-1,-1],"split_conditions":[3.5E0,5E-1,7.6247E4,2.097188E-2,-9.017E-5,-1.148878E-2,1.1231231E-2],"split_indices":[2,1,4,0,0,0,0],"split_type":[0,0,0,0,0,0,0],"sum_hessian":[1.2664216E4,8.682306E3,3.98191E3,6.784193E3,1.8981133E3,2.5130894E3,1.4688206E3],"tree_param":{"num_deleted":"0","num_feature":"5","num_nodes":"7","size_leaf_vector":"0"}},{"base_weights":[9.288214E-2,1.7286669E-1,-3.040029E-3,8.342157E-2,3.3966222E-1,8.660665E-2,-1.7944056E-1],"categories":[],"categories_nodes":[],"categories_segments":[],"categories_sizes":[],"default_left":[1,1,1,0,0,0,0],"id":28,"left_children":[1,3,5,-1,-1,-1,-1],"loss_changes":[9.6542786E1,1.0234129E2,9.0510574E1,0E0,0E0,0E0,0E0],"parents":[2147483647,0,0,1,1,2,2],"right_children":[2,4,6,-1,-1,-1,-1],"split_conditions":[1.43875E4,6.5306E4,1.5E0,8.342157E-3,3.3966225E-2,8.660666E-3,-1.7944057E-2],"split_indices":[0,4,3,0,0,0,0],"split_type":[0,0,0,0,0,0,0],"sum_hessian":[1.2582237E4,6.860674E3,5.721564E3,4.466817E3,2.3938572E3,3.7939758E3,1.927588E3],"tree_param":{"num_deleted":"0","num_feature":"5","num_nodes":"7","size_leaf_vector":"0"}},{"base_weights":[8.412905E-2,3.7115029E-1,5.9510022E-2,3.9283386E-1,1.0068568E-1,2.1030678E-1,1.3727408E-2],"categories":[],"categories_nodes":[],"categories_segments":[],"categories_sizes":[],"default_left":[1,1,1,0,0,0,0],"id":29,"left_children":[1,3,5,-1,-1,-1,-1],"loss_changes":[8.84177E1,5.757889E0,7.958751E1,0E0,0E0,0E0,0E0],"parents":[2147483647,0,0,1,1,2,2],"right_children":[2,4,6,-1,-1,-1,-1],"split_conditions":[1.5E0,2.9975E4,7.7875E3,3.9283387E-2,1.0068568E-2,2.1030677E-2,1.3727408E-3],"split_indices":[2,0,0,0,0,0,0],"split_type":[0,0,0,0,0,0,0],"sum_hessian":[1.2514919E4,9.8754443E2,1.1527375E4,9.138289E2,7.3715546E1,2.6838464E3,8.843528E3],"tree_param":{"num_deleted":"0","num_feature":"5","num_nodes":"7","size_leaf_vector":"0"}},{"base_weights":[7.618802E-2,1.6366696E-1,-4.530235E-3,2.3840171E-1,6.2338285E-2,7.6559275E-2,-1.3475806E-1],"categories":[],"categories_nodes":[],"categories_segments":[],"categories_sizes":[],"default_left":[1,1,1,0,0,0,0],"id":30,"left_children":[1,3,5,-1,-1,-1,-1],"loss_changes":[8.79193E1,4.523477E1,6.840522E1,0E0,0E0,0E0,0E0],"parents":[2147483647,0,0,1,1,2,2],"right_children":[2,4,6,-1,-1,-1,-1],"split_conditions":[5E-1,1.62625E4,1.43875E4,2.3840172E-2,6.2338286E-3,7.6559274E-3,-1.34758055E-2],"split_indices":[3,0,0,0,0,0,0],"split_type":[0,0,0,0,0,0,0],"sum_hessian":[1.2450029E4,5.974307E3,6.475722E3,3.4375767E3,2.5367302E3,3.9910254E3,2.4846965E3],"tree_param":{"num_deleted":"0","num_feature":"5","num_nodes":"7","size_leaf_vector":"0"}},{"base_weights":[6.894433E-2,1.8654214E-1,1.688705E-2,2.608947E-1,6.913995E-2,2.7621767E-1,-8.500932E-3],"categories":[],"categories_nodes":[],"categories_segments":[],"categories_sizes":[],"default_left":[1,1,1,0,0,0,0],"id":31,"left_children":[1,3,5,-1,-1,-1,-1],"loss_changes":[7.5872314E1,3.3178726E1,5.6572918E1,0E0,0E0,0E0,0E0],"parents":[2147483647,0,0,1,1,2,2],"right_children":[2,4,6,-1,-1,-1,-1],"split_conditions":[2.5E0,1.5E0,4.7875E3,2.6089469E-2,6.913995E-3,2.7621767E-2,-8.500932E-4],"split_indices":[2,3,0,0,0,0,0],"split_type":[0,0,0,0,0,0,0],"sum_hessian":[1.2393261E4,3.8019778E3,8.591282E3,2.3270195E3,1.4749584E3,7.651923E2,7.8260903E3],"tree_param":{"num_deleted":"0","num_feature":"5","num_nodes":"7","size_leaf_vector":"0"}},{"base_weights":[6.2408254E-2,9.267504E-2,-1.2875259E-1,1.5545651E-1,4.231954E-3,5.274955E-1,-1.5413502E-1],"categories":[],"categories_nodes":[],"categories_segments":[],"categories_sizes":[],"default_left":[1,1,1,0,0,0,0],"id":32,"left_children":[1,3,5,-1,-1,-1,-1],"loss_changes":[7.138522E1,5.9135986E1,2.8175327E1,0E0,0E0,0E0,0E0],"parents":[2147483647,0,0,1,1,2,2],"right_children":[2,4,6,-1,-1,-1,-1],"split_conditions":[4.5E0,1.5E0,3.0125E3,1.5545651E-2,4.231954E-4,5.274955E-2,-1.5413502E-2],"split_indices":[2,3,0,0,0,0,0],"split_type":[0,0,0,0,0,0,0],"sum_hessian":[1.2334888E4,1.0649285E4,1.6856023E3,6.227749E3,4.421536E3,6.203151E1,1.6235708E3],"tree_param":{"num_deleted":"0","num_feature":"5","num_nodes":"7","size_leaf_vector":"0"}},{"base_weights":[5.6451038E-2,-2.919911E-3,1.4854327E-1,1.3152693E-1,-6.2158607E-2,2.8114417E-1,2.2401996E-2],"categories":[],"categories_nodes":[],"categories_segments":[],"categories_sizes":[],"default_left":[1,1,1,0,0,0,0],"id":33,"left_children":[1,3,5,-1,-1,-1,-1],"loss_changes":[6.716419E1,5.950134E1,8.053346E1,0E0,0E0,0E0,0E0],"parents":[2147483647,0,0,1,1,2,2],"right_children":[2,4,6,-1,-1,-1,-1],"split_conditions":[7.53615E4,7.7875E3,1.81125E4,1.3152693E-2,-6.2158606E-3,2.8114418E-2,2.2401996E-3],"split_indices":[4,0,0,0,0,0,0],"split_type":[0,0,0,0,0,0,0],"sum_hessian":[1.2282948E4,7.4688335E3,4.814115E3,2.2839685E3,5.184865E3,2.346365E3,2.46775E3],"tree_param":{"num_deleted":"0","num_feature":"5","num_nodes":"7","size_leaf_vector":"0"}},{"base_weights":[5.10382E-2,3.078296E-1,3.0181132E-2,-1.3320369E-1,3.2033008E-1,1.0452122E-1,-3.51397E-2],"categories":[],"categories_nodes":[],"categories_segments":[],"categories_sizes":[],"default_left":[1,1,1,0,0,0,0],"id":34,"left_children":[1,3,5,-1,-1,-1,-1],"loss_changes":[6.555853E1,5.1121445E0,5.4990623E1,0E0,0E0,0E0,0E0],"parents":[2147483647,0,0,1,1,2,2],"right_children":[2,4,6,-1,-1,-1,-1],"split_conditions":[1.5E0,3.11E4,5E-1,-1.3320369E-2,3.2033008E-2,1.0452122E-2,-3.51397E-3],"split_indices":[2,4,3,0,0,0,0],"split_type":[0,0,0,0,0,0,0],"sum_hessian":[1.2241134E4,9.1852545E2,1.1322608E4,2.5050682E1,8.9347473E2,5.2954185E3,6.0271904E3],"tree_param":{"num_deleted":"0","num_feature":"5","num_nodes":"7","size_leaf_vector":"0"}},{"base_weights":[4.6142284E-2,6.224009E-2,-2.5218326E-1,2.8463927E-1,4.3568198E-2,-3.4845543E-1,1.5552214E-1],"categories":[],"categories_nodes":[],"categories_segments":[],"categories_sizes":[],"default_left":[1,1,1,0,0,0,0],"id":35,"left_children":[1,3,5,-1,-1,-1,-1],"loss_changes":[5.8601654E1,4.805644E1,2.4577171E1,0E0,0E0,0E0,0E0],"parents":[2147483647,0,0,1,1,2,2],"right_children":[2,4,6,-1,-1,-1,-1],"split_conditions":[5.5E0,1.5E0,9.974E4,2.8463928E-2,4.3568197E-3,-3.4845542E-2,1.5552214E-2],"split_indices":[2,2,4,0,0,0,0],"split_type":[0,0,0,0,0,0,0],"sum_hessian":[1.2198341E4,1.15745625E4,6.237784E2,8.9539166E2,1.0679171E4,5.0473886E2,1.19039505E2],"tree_param":{"num_deleted":"0","num_feature":"5","num_nodes":"7","size_leaf_vector":"0"}},{"base_weights":[4.170301E-2,8.632707E-2,-5.862642E-2,3.641551E-2,2.0012416E-1,1.0227793E-2,-1.9334581E-1],"categories":[],"categories_nodes":[],"categories_segments":[],"categories_sizes":[],"default_left":[1,1,1,0,0,0,0],"id":36,"left_children":[1,3,5,-1,-1,-1,-1],"loss_changes":[5.443944E1,4.779281E1,3.4727283E1,0E0,0E0,0E0,0E0],"parents":[2147483647,0,0,1,1,2,2],"right_children":[2,4,6,-1,-1,-1,-1],"split_conditions":[5E-1,8.00225E4,1.5E0,3.6415511E-3,2.0012416E-2,1.0227793E-3,-1.9334583E-2],"split_indices":[1,4,3,0,0,0,0],"split_type":[0,0,0,0,0,0,0],"sum_hessian":[1.2157387E4,8.414822E3,3.7425652E3,5.850225E3,2.5645964E3,2.477338E3,1.2652273E3],"tree_param":{"num_deleted":"0","num_feature":"5","num_nodes":"7","size_leaf_vector":"0"}},{"base_weights":[3.7678726E-2,9.633099E-2,-3.402772E-2,3.9893806E-2,2.7533823E-1,2.4717545E-2,-1.4637063E-1],"categories":[],"categories_nodes":[],"categories_segments":[],"categories_sizes":[],"default_left":[1,1,1,0,0,0,0],"id":37,"left_children":[1,3,5,-1,-1,-1,-1],"loss_changes":[5.0984077E1,6.735408E1,3.6002228E1,0E0,0E0,0E0,0E0],"parents":[2147483647,0,0,1,1,2,2],"right_children":[2,4,6,-1,-1,-1,-1],"split_conditions":[1.49625E4,7.50128E4,1.5E0,3.989381E-3,2.7533824E-2,2.4717546E-3,-1.4637063E-2],"split_indices":[0,4,3,0,0,0,0],"split_type":[0,0,0,0,0,0,0],"sum_hessian":[1.2120702E4,6.667049E3,5.453654E3,5.069854E3,1.5971946E3,3.5815857E3,1.8720681E3],"tree_param":{"num_deleted":"0","num_feature":"5","num_nodes":"7","size_leaf_vector":"0"}},{"base_weights":[3.4037672E-2,2.2722204E-1,1.4142733E-2,1.8778224E-1,5.455174E-1,-6.4326026E-2,7.3201776E-2],"categories":[],"categories_nodes":[],"categories_segments":[],"categories_sizes":[],"default_left":[1,1,1,0,0,0,0],"id":38,"left_children":[1,3,5,-1,-1,-1,-1],"loss_changes":[4.6465492E1,1.4068111E1,5.0809196E1,0E0,0E0,0E0,0E0],"parents":[2147483647,0,0,1,1,2,2],"right_children":[2,4,6,-1,-1,-1,-1],"split_conditions":[4.7875E3,9.015E4,6.217E4,1.8778225E-2,5.455174E-2,-6.4326026E-3,7.3201777E-3],"split_indices":[0,4,4,0,0,0,0],"split_type":[0,0,0,0,0,0,0],"sum_hessian":[1.2089547E4,1.1278124E3,1.0961734E4,1.0048873E3,1.2292509E2,4.7072974E3,6.254437E3],"tree_param":{"num_deleted":"0","num_feature":"5","num_nodes":"7","size_leaf_vector":"0"}},{"base_weights":[3.0730506E-2,7.3162146E-2,-5.7215992E-2,1.06978394E-1,-4.1507203E-2,-1.0808899E-1,8.095179E-2],"categories":[],"categories_nodes":[],"categories_segments":[],"categories_sizes":[],"default_left":[1,1,1,0,0,0,0],"id":39,"left_children":[1,3,5,-1,-1,-1,-1],"loss_changes":[4.5032295E1,3.1567955E1,2.761558E1,0E0,0E0,0E0,0E0],"parents":[2147483647,0,0,1,1,2,2],"right_children":[2,4,6,-1,-1,-1,-1],"split_conditions":[3.5E0,5E-1,8.864331E4,1.069784E-2,-4.1507203E-3,-1.0808899E-2,8.095179E-3],"split_indices":[2,1,4,0,0,0,0],"split_type":[0,0,0,0,0,0,0],"sum_hessian":[1.2065334E4,8.1387773E3,3.9265564E3,6.2852964E3,1.853481E3,2.8700352E3,1.0565214E3],"tree_param":{"num_deleted":"0","num_feature":"5","num_nodes":"7","size_leaf_vector":"0"}},{"base_weights":[2.775566E-2,4.1348536E-2,-2.1951668E-1,1.0049888E-1,-1.1763286E-2,-2.989763E-1,1.2280595E-1],"categories":[],"categories_nodes":[],"categories_segments":[],"categories_sizes":[],"default_left":[1,1,1,0,0,0,0],"id":40,"left_children":[1,3,5,-1,-1,-1,-1],"loss_changes":[4.0458683E1,3.584112E1,1.7098104E1,0E0,0E0,0E0,0E0],"parents":[2147483647,0,0,1,1,2,2],"right_children":[2,4,6,-1,-1,-1,-1],"split_conditions":[5.5E0,5E-1,9.974E4,1.0049888E-2,-1.1763286E-3,-2.989763E-2,1.22805955E-2],"split_indices":[2,3,4,0,0,0,0],"split_type":[0,0,0,0,0,0,0],"sum_hessian":[1.2033481E4,1.1407244E4,6.26238E2,5.396405E3,6.010839E3,5.0836368E2,1.1787428E2],"tree_param":{"num_deleted":"0","num_feature":"5","num_nodes":"7","size_leaf_vector":"0"}},{"base_weights":[2.5048897E-2,7.806822E-2,-3.9249502E-2,1.6633004E-2,1.9891992E-1,-8.752513E-2,6.811459E-2],"categories":[],"categories_nodes":[],"categories_segments":[],"categories_sizes":[],"default_left":[1,1,1,0,0,0,0],"id":41,"left_children":[1,3,5,-1,-1,-1,-1],"loss_changes":[4.094264E1,4.886618E1,2.8139208E1,0E0,0E0,0E0,0E0],"parents":[2147483647,0,0,1,1,2,2],"right_children":[2,4,6,-1,-1,-1,-1],"split_conditions":[1.49625E4,6.5306E4,1.0165E5,1.6633004E-3,1.9891992E-2,-8.752513E-3,6.8114595E-3],"split_indices":[0,4,4,0,0,0,0],"split_type":[0,0,0,0,0,0,0],"sum_hessian":[1.200806E4,6.581148E3,5.426912E3,4.363892E3,2.2172559E3,3.7437444E3,1.6831677E3],"tree_param":{"num_deleted":"0","num_feature":"5","num_nodes":"7","size_leaf_vector":"0"}},{"base_weights":[2.2615373E-2,2.2717617E-1,7.1434407E-3,2.5016853E-1,-4.7518734E-2,1.9004531E-1,-1.1104772E-2],"categories":[],"categories_nodes":[],"categories_segments":[],"categories_sizes":[],"default_left":[1,1,1,0,0,0,0],"id":42,"left_children":[1,3,5,-1,-1,-1,-1],"loss_changes":[3.793769E1,5.335388E0,3.720154E1,0E0,0E0,0E0,0E0],"parents":[2147483647,0,0,1,1,2,2],"right_children":[2,4,6,-1,-1,-1,-1],"split_conditions":[1.5E0,2.9975E4,4.7875E3,2.5016854E-2,-4.7518737E-3,1.9004531E-2,-1.1104773E-3],"split_indices":[2,0,0,0,0,0,0],"split_type":[0,0,0,0,0,0,0],"sum_hessian":[1.198633E4,8.4187476E2,1.1144455E4,7.7693353E2,6.494119E1,1.01016406E3,1.0134291E4],"tree_param":{"num_deleted":"0","num_feature":"5","num_nodes":"7","size_leaf_vector":"0"}},{"base_weights":[2.0419726E-2,5.499107E-2,-5.941646E-2,1.28154345E-2,2.0925498E-1,-5.207047E-1,-3.4267407E-2],"categories":[],"categories_nodes":[],"categories_segments":[],"categories_sizes":[],"default_left":[1,1,1,0,0,0,0],"id":43,"left_children":[1,3,5,-1,-1,-1,-1],"loss_changes":[3.3029263E1,5.432711E1,4.1934216E1,0E0,0E0,0E0,0E0],"parents":[2147483647,0,0,1,1,2,2],"right_children":[2,4,6,-1,-1,-1,-1],"split_conditions":[1.90125E4,8.261E4,4.805E4,1.2815435E-3,2.0925498E-2,-5.207047E-2,-3.4267406E-3],"split_indices":[0,4,4,0,0,0,0],"split_type":[0,0,0,0,0,0,0],"sum_hessian":[1.1964748E4,8.349492E3,3.6152566E3,6.5577036E3,1.7917881E3,1.8589186E2,3.4293647E3],"tree_param":{"num_deleted":"0","num_feature":"5","num_nodes":"7","size_leaf_vector":"0"}},{"base_weights":[1.8430054E-2,7.366251E-2,-3.0480245E-2,1.05656534E-1,-9.884634E-2,8.038232E-2,-7.2927274E-2],"categories":[],"categories_nodes":[],"categories_segments":[],"categories_sizes":[],"default_left":[1,1,1,0,0,0,0],"id":44,"left_children":[1,3,5,-1,-1,-1,-1],"loss_changes":[3.2280216E1,3.098362E1,2.9829288E1,0E0,0E0,0E0,0E0],"parents":[2147483647,0,0,1,1,2,2],"right_children":[2,4,6,-1,-1,-1,-1],"split_conditions":[5E-1,2.8225E4,7.7625E3,1.0565653E-2,-9.884634E-3,8.038232E-3,-7.2927275E-3],"split_indices":[3,0,0,0,0,0,0],"split_type":[0,0,0,0,0,0,0],"sum_hessian":[1.194745E4,5.610843E3,6.3366074E3,4.7333657E3,8.774771E2,1.7541774E3,4.58243E3],"tree_param":{"num_deleted":"0","num_feature":"5","num_nodes":"7","size_leaf_vector":"0"}},{"base_weights":[1.6633604E-2,2.0175794E-1,2.9543391E-3,-2.0970069E-1,2.142246E-1,1.6142097E-1,-1.2590753E-2],"categories":[],"categories_nodes":[],"categories_segments":[],"categories_sizes":[],"default_left":[1,1,1,0,0,0,0],"id":45,"left_children":[1,3,5,-1,-1,-1,-1],"loss_changes":[3.0211632E1,4.2557144E0,2.7371513E1,0E0,0E0,0E0,0E0],"parents":[2147483647,0,0,1,1,2,2],"right_children":[2,4,6,-1,-1,-1,-1],"split_conditions":[1.5E0,3.11E4,4.7875E3,-2.0970069E-2,2.142246E-2,1.6142098E-2,-1.2590754E-3],"split_indices":[2,4,0,0,0,0,0],"split_type":[0,0,0,0,0,0,0],"sum_hessian":[1.1929441E4,8.1989417E2,1.1109547E4,2.3645966E1,7.9624817E2,9.9161743E2,1.011793E4],"tree_param":{"num_deleted":"0","num_feature":"5","num_nodes":"7","size_leaf_vector":"0"}},{"base_weights":[1.5012963E-2,2.6667124E-2,-1.9416368E-1,-6.5573424E-2,5.353928E-2,-2.6292095E-1,1.0500622E-1],"categories":[],"categories_nodes":[],"categories_segments":[],"categories_sizes":[],"default_left":[1,1,1,0,0,0,0],"id":46,"left_children":[1,3,5,-1,-1,-1,-1],"loss_changes":[2.904711E1,2.797677E1,1.2962795E1,0E0,0E0,0E0,0E0],"parents":[2147483647,0,0,1,1,2,2],"right_children":[2,4,6,-1,-1,-1,-1],"split_conditions":[5.5E0,4.51235E4,9.974E4,-6.5573426E-3,5.353928E-3,-2.6292095E-2,1.0500622E-2],"split_indices":[2,4,4,0,0,0,0],"split_type":[0,0,0,0,0,0,0],"sum_hessian":[1.1912279E4,1.1284445E4,6.278341E2,2.545477E3,8.738968E3,5.106046E2,1.1722951E2],"tree_param":{"num_deleted":"0","num_feature":"5","num_nodes":"7","size_leaf_vector":"0"}},{"base_weights":[1.3537258E-2,5.3651985E-2,-4.042871E-2,7.7383436E-2,-8.747482E-2,1.0758752E-2,-1.22554965E-1],"categories":[],"categories_nodes":[],"categories_segments":[],"categories_sizes":[],"default_left":[1,1,1,0,0,0,0],"id":47,"left_children":[1,3,5,-1,-1,-1,-1],"loss_changes":[2.5760715E1,2.286687E1,2.133154E1,0E0,0E0,0E0,0E0],"parents":[2147483647,0,0,1,1,2,2],"right_children":[2,4,6,-1,-1,-1,-1],"split_conditions":[1.5E0,2.91125E4,1.43875E4,7.738344E-3,-8.747483E-3,1.0758752E-3,-1.2255496E-2],"split_indices":[3,0,0,0,0,0,0],"split_type":[0,0,0,0,0,0,0],"sum_hessian":[1.1897646E4,6.824656E3,5.072991E3,5.842629E3,9.8202673E2,3.1256885E3,1.9473029E3],"tree_param":{"num_deleted":"0","num_feature":"5","num_nodes":"7","size_leaf_vector":"0"}},{"base_weights":[1.221174E-2,-1.8526306E-2,8.5423306E-2,1.9114181E-2,-9.275282E-2,1.8997379E-1,4.9584373E-3],"categories":[],"categories_nodes":[],"categories_segments":[],"categories_sizes":[],"default_left":[1,1,1,0,0,0,0],"id":48,"left_children":[1,3,5,-1,-1,-1,-1],"loss_changes":[2.674513E1,2.3388899E1,2.9563578E1,0E0,0E0,0E0,0E0],"parents":[2147483647,0,0,1,1,2,2],"right_children":[2,4,6,-1,-1,-1,-1],"split_conditions":[8.545E4,3.5E0,1.81125E4,1.9114182E-3,-9.275283E-3,1.8997379E-2,4.9584376E-4],"split_indices":[4,2,0,0,0,0,0],"split_type":[0,0,0,0,0,0,0],"sum_hessian":[1.1883013E4,8.369715E3,3.5132974E3,5.554005E3,2.81571E3,1.5273733E3,1.9859241E3],"tree_param":{"num_deleted":"0","num_feature":"5","num_nodes":"7","size_leaf_vector":"0"}},{"base_weights":[1.1024257E-2,1.7490917E-1,-8.0239255E-4,1.946258E-1,-4.707951E-2,1.4299263E-1,-1.4766707E-2],"categories":[],"categories_nodes":[],"categories_segments":[],"categories_sizes":[],"default_left":[1,1,1,0,0,0,0],"id":49,"left_children":[1,3,5,-1,-1,-1,-1],"loss_changes":[2.3002008E1,3.5053082E0,2.223027E1,0E0,0E0,0E0,0E0],"parents":[2147483647,0,0,1,1,2,2],"right_children":[2,4,6,-1,-1,-1,-1],"split_conditions":[1.5E0,2.9975E4,4.7875E3,1.946258E-2,-4.707951E-3,1.4299263E-2,-1.4766707E-3],"split_indices":[2,0,0,0,0,0,0],"split_type":[0,0,0,0,0,0,0],"sum_hessian":[1.1866586E4,7.9777826E2,1.1068808E4,7.3281433E2,6.496391E1,9.7895496E2,1.0089853E4],"tree_param":{"num_deleted":"0","num_feature":"5","num_nodes":"7","size_leaf_vector":"0"}},{"base_weights":[9.950343E-3,1.6223047E-2,-2.9269275E-1,-1.3111897E-2,8.6535804E-2,9.7866E-1,-3.0416736E-1],"categories":[],"categories_nodes":[],"categories_segments":[],"categories_sizes":[],"default_left":[1,1,1,0,0,0,0],"id":50,"left_children":[1,3,5,-1,-1,-1,-1],"loss_changes":[2.2509466E1,2.395819E1,3.8100624E0,0E0,0E0,0E0,0E0],"parents":[2147483647,0,0,1,1,2,2],"right_children":[2,4,6,-1,-1,-1,-1],"split_conditions":[6.5E0,8.545E4,1.94855E4,-1.3111897E-3,8.65358E-3,9.7866E-2,-3.0416736E-2],"split_indices":[2,4,4,0,0,0,0],"split_type":[0,0,0,0,0,0,0],"sum_hessian":[1.185363E4,1.1613862E4,2.3976726E2,8.195472E3,3.418391E3,1.390722E0,2.3837654E2],"tree_param":{"num_deleted":"0","num_feature":"5","num_nodes":"7","size_leaf_vector":"0"}},{"base_weights":[8.976639E-3,3.5544747E-1,3.852812E-3,1.509901E-1,5.1352906E-1,4.991952E-2,-3.6842056E-2],"categories":[],"categories_nodes":[],"categories_segments":[],"categories_sizes":[],"default_left":[1,1,1,0,0,0,0],"id":51,"left_children":[1,3,5,-1,-1,-1,-1],"loss_changes":[2.1026403E1,5.5012627E0,2.188555E1,0E0,0E0,0E0,0E0],"parents":[2147483647,0,0,1,1,2,2],"right_children":[2,4,6,-1,-1,-1,-1],"split_conditions":[1.9875E3,4.3505E4,5E-1,1.509901E-2,5.1352907E-2,4.991952E-3,-3.6842057E-3],"split_indices":[0,4,3,0,0,0,0],"split_type":[0,0,0,0,0,0,0],"sum_hessian":[1.184392E4,1.7160635E2,1.1672313E4,7.56798E1,9.592655E1,5.4747046E3,6.1976084E3],"tree_param":{"num_deleted":"0","num_feature":"5","num_nodes":"7","size_leaf_vector":"0"}},{"base_weights":[8.10257E-3,4.5972675E-2,-3.6947854E-2,-6.091619E-2,8.629839E-2,-7.375206E-2,4.6227995E-2],"categories":[],"categories_nodes":[],"categories_segments":[],"categories_sizes":[],"default_left":[1,1,1,0,0,0,0],"id":52,"left_children":[1,3,5,-1,-1,-1,-1],"loss_changes":[2.0195002E1,2.7725273E1,1.655294E1,0E0,0E0,0E0,0E0],"parents":[2147483647,0,0,1,1,2,2],"right_children":[2,4,6,-1,-1,-1,-1],"split_conditions":[1.49625E4,4.1305E4,1.0165E5,-6.091619E-3,8.629839E-3,-7.3752063E-3,4.6228E-3],"split_indices":[0,4,4,0,0,0,0],"split_type":[0,0,0,0,0,0,0],"sum_hessian":[1.1835192E4,6.430006E3,5.405186E3,1.7611981E3,4.668808E3,3.7472092E3,1.6579769E3],"tree_param":{"num_deleted":"0","num_feature":"5","num_nodes":"7","size_leaf_vector":"0"}},{"base_weights":[7.3126317E-3,3.422077E-2,-5.1182408E-2,6.087815E-2,-4.5454875E-2,-2.3400216E-1,-2.9207893E-2],"categories":[],"categories_nodes":[],"categories_segments":[],"categories_sizes":[],"default_left":[1,1,1,0,0,0,0],"id":53,"left_children":[1,3,5,-1,-1,-1,-1],"loss_changes":[1.861619E1,1.7208271E1,1.4963998E1,0E0,0E0,0E0,0E0],"parents":[2147483647,0,0,1,1,2,2],"right_children":[2,4,6,-1,-1,-1,-1],"split_conditions":[5E-1,3.5E0,4.328371E4,6.087815E-3,-4.5454875E-3,-2.3400215E-2,-2.9207894E-3],"split_indices":[1,2,4,0,0,0,0],"split_type":[0,0,0,0,0,0,0],"sum_hessian":[1.1825255E4,8.099734E3,3.7255208E3,6.069331E3,2.030403E3,3.987147E2,3.3268062E3],"tree_param":{"num_deleted":"0","num_feature":"5","num_nodes":"7","size_leaf_vector":"0"}},{"base_weights":[6.5968926E-3,3.2388997E-1,2.0119213E-3,-7.5351554E-1,3.47839E-1,3.6266193E-2,-4.4033106E-2],"categories":[],"categories_nodes":[],"categories_segments":[],"categories_sizes":[],"default_left":[1,1,1,0,0,0,0],"id":54,"left_children":[1,3,5,-1,-1,-1,-1],"loss_changes":[1.7183924E1,4.6035805E0,1.836892E1,0E0,0E0,0E0,0E0],"parents":[2147483647,0,0,1,1,2,2],"right_children":[2,4,6,-1,-1,-1,-1],"split_conditions":[1.9875E3,1.47E4,1.5E0,-7.535156E-2,3.47839E-2,3.6266192E-3,-4.403311E-3],"split_indices":[0,4,3,0,0,0,0],"split_type":[0,0,0,0,0,0,0],"sum_hessian":[1.1811494E4,1.6725606E2,1.1644238E4,2.9745674E0,1.642815E2,6.6771323E3,4.967106E3],"tree_param":{"num_deleted":"0","num_feature":"5","num_nodes":"7","size_leaf_vector":"0"}},{"base_weights":[5.9466567E-3,1.9664595E-2,-1.0054801E-1,-1.31754065E-2,1.0548789E-1,-1.9229074E-1,-2.1954503E-2],"categories":[],"categories_nodes":[],"categories_segments":[],"categories_sizes":[],"default_left":[1,1,1,0,0,0,0],"id":55,"left_children":[1,3,5,-1,-1,-1,-1],"loss_changes":[1.7248093E1,2.9479218E1,9.710371E0,0E0,0E0,0E0,0E0],"parents":[2147483647,0,0,1,1,2,2],"right_children":[2,4,6,-1,-1,-1,-1],"split_conditions":[2.91125E4,8.00195E4,1.016E5,-1.3175406E-3,1.0548789E-2,-1.9229075E-2,-2.1954502E-3],"split_indices":[0,4,4,0,0,0,0],"split_type":[0,0,0,0,0,0,0],"sum_hessian":[1.1804233E4,1.0457928E4,1.3463058E3,7.564314E3,2.8936135E3,6.205208E2,7.257849E2],"tree_param":{"num_deleted":"0","num_feature":"5","num_nodes":"7","size_leaf_vector":"0"}},{"base_weights":[5.3658755E-3,1.0777287E-2,-2.5333264E-1,-5.8787342E-2,3.142611E-2,9.475804E-1,-2.6409832E-1],"categories":[],"categories_nodes":[],"categories_segments":[],"categories_sizes":[],"default_left":[1,1,1,0,0,0,0],"id":56,"left_children":[1,3,5,-1,-1,-1,-1],"loss_changes":[1.651946E1,1.6603395E1,3.37613E0,0E0,0E0,0E0,0E0],"parents":[2147483647,0,0,1,1,2,2],"right_children":[2,4,6,-1,-1,-1,-1],"split_conditions":[6.5E0,4.51235E4,1.94855E4,-5.8787344E-3,3.142611E-3,9.475804E-2,-2.6409833E-2],"split_indices":[2,4,4,0,0,0,0],"split_type":[0,0,0,0,0,0,0],"sum_hessian":[1.1797304E4,1.1556525E4,2.4077908E2,2.644733E3,8.911792E3,1.3661506E0,2.3941293E2],"tree_param":{"num_deleted":"0","num_feature":"5","num_nodes":"7","size_leaf_vector":"0"}},{"base_weights":[4.8423265E-3,3.0087972E-2,-5.2455958E-2,2.7101366E-3,1.2954658E-1,-5.2622074E-1,-3.6799118E-2],"categories":[],"categories_nodes":[],"categories_segments":[],"categories_sizes":[],"default_left":[1,1,1,0,0,0,0],"id":57,"left_children":[1,3,5,-1,-1,-1,-1],"loss_changes":[1.7059128E1,2.2290169E1,2.6735369E1,0E0,0E0,0E0,0E0],"parents":[2147483647,0,0,1,1,2,2],"right_children":[2,4,6,-1,-1,-1,-1],"split_conditions":[1.90125E4,8.00195E4,4.37275E4,2.7101368E-4,1.2954659E-2,-5.2622076E-2,-3.6799118E-3],"split_indices":[0,4,4,0,0,0,0],"split_type":[0,0,0,0,0,0,0],"sum_hessian":[1.1791028E4,8.1851313E3,3.605897E3,6.419164E3,1.7659673E3,1.14311226E2,3.491586E3],"tree_param":{"num_deleted":"0","num_feature":"5","num_nodes":"7","size_leaf_vector":"0"}},{"base_weights":[4.370247E-3,7.2448276E-2,-1.5474991E-2,2.9749486E-1,5.7563465E-2,-3.0774938E-2,1.1161361E-1],"categories":[],"categories_nodes":[],"categories_segments":[],"categories_sizes":[],"default_left":[1,1,1,0,0,0,0],"id":58,"left_children":[1,3,5,-1,-1,-1,-1],"loss_changes":[1.5923052E1,8.893938E0,1.7748245E1,0E0,0E0,0E0,0E0],"parents":[2147483647,0,0,1,1,2,2],"right_children":[2,4,6,-1,-1,-1,-1],"split_conditions":[7.7625E3,1.9875E3,1.3079E5,2.9749487E-2,5.7563465E-3,-3.0774937E-3,1.1161361E-2],"split_indices":[0,0,4,0,0,0,0],"split_type":[0,0,0,0,0,0,0],"sum_hessian":[1.1784079E4,2.6591968E3,9.124883E3,1.6379274E2,2.495404E3,8.1450713E3,9.7981134E2],"tree_param":{"num_deleted":"0","num_feature":"5","num_nodes":"7","size_leaf_vector":"0"}},{"base_weights":[3.9491593E-3,1.3934892E-1,-5.5330745E-3,-3.09112E-1,1.480788E-1,1.0559115E-1,-1.6090762E-2],"categories":[],"categories_nodes":[],"categories_segments":[],"categories_sizes":[],"default_left":[1,1,1,0,0,0,0],"id":59,"left_children":[1,3,5,-1,-1,-1,-1],"loss_changes":[1.5124009E1,3.0641022E0,1.2917912E1,0E0,0E0,0E0,0E0],"parents":[2147483647,0,0,1,1,2,2],"right_children":[2,4,6,-1,-1,-1,-1],"split_conditions":[1.5E0,2.97155E4,4.7875E3,-3.0911202E-2,1.480788E-2,1.0559115E-2,-1.6090762E-3],"split_indices":[2,4,0,0,0,0,0],"split_type":[0,0,0,0,0,0,0],"sum_hessian":[1.1778211E4,7.6996375E2,1.1008248E4,1.404513E1,7.5591864E2,9.5434576E2,1.0053901E4],"tree_param":{"num_deleted":"0","num_feature":"5","num_nodes":"7","size_leaf_vector":"0"}},{"base_weights":[3.5656139E-3,3.9484743E-2,-2.7601315E-2,-9.155245E-2,6.1255425E-2,8.216035E-3,-8.216442E-2],"categories":[],"categories_nodes":[],"categories_segments":[],"categories_sizes":[],"default_left":[1,1,1,0,0,0,0],"id":60,"left_children":[1,3,5,-1,-1,-1,-1],"loss_changes":[1.3179327E1,1.5608267E1,1.2319355E1,0E0,0E0,0E0,0E0],"parents":[2147483647,0,0,1,1,2,2],"right_children":[2,4,6,-1,-1,-1,-1],"split_conditions":[5E-1,4.577E4,1.43875E4,-9.1552455E-3,6.125543E-3,8.2160346E-4,-8.216443E-3],"split_indices":[3,4,0,0,0,0,0],"split_type":[0,0,0,0,0,0,0],"sum_hessian":[1.1770655E4,5.4683027E3,6.3023525E3,7.786176E2,4.689685E3,3.8052727E3,2.4970798E3],"tree_param":{"num_deleted":"0","num_feature":"5","num_nodes":"7","size_leaf_vector":"0"}},{"base_weights":[3.2183893E-3,1.6763728E-2,-7.767754E-2,-5.0098147E-2,3.6483925E-2,3.8415876E-1,-9.4121225E-2],"categories":[],"categories_nodes":[],"categories_segments":[],"categories_sizes":[],"default_left":[1,1,1,0,0,0,0],"id":61,"left_children":[1,3,5,-1,-1,-1,-1],"loss_changes":[1.2893058E1,1.3290625E1,1.2852273E1,0E0,0E0,0E0,0E0],"parents":[2147483647,0,0,1,1,2,2],"right_children":[2,4,6,-1,-1,-1,-1],"split_conditions":[4.5E0,4.51235E4,3.0125E3,-5.0098146E-3,3.6483926E-3,3.8415875E-2,-9.412123E-3],"split_indices":[2,4,0,0,0,0,0],"split_type":[0,0,0,0,0,0,0],"sum_hessian":[1.1764098E4,1.0077499E4,1.6865989E3,2.2949312E3,7.7825674E3,5.7217922E1,1.629381E3],"tree_param":{"num_deleted":"0","num_feature":"5","num_nodes":"7","size_leaf_vector":"0"}},{"base_weights":[2.9074359E-3,2.4791945E-2,-4.66645E-2,3.5869097E-3,1.2013411E-1,-3.079067E-1,-2.4142494E-2],"categories":[],"categories_nodes":[],"categories_segments":[],"categories_sizes":[],"default_left":[1,1,1,0,0,0,0],"id":62,"left_children":[1,3,5,-1,-1,-1,-1],"loss_changes":[1.2756278E1,1.6491257E1,2.1181032E1,0E0,0E0,0E0,0E0],"parents":[2147483647,0,0,1,1,2,2],"right_children":[2,4,6,-1,-1,-1,-1],"split_conditions":[1.91375E4,8.50005E4,5.171E4,3.5869097E-4,1.2013411E-2,-3.079067E-2,-2.4142496E-3],"split_indices":[0,4,4,0,0,0,0],"split_type":[0,0,0,0,0,0,0],"sum_hessian":[1.1756416E4,8.1562007E3,3.6002156E3,6.6730796E3,1.483121E3,2.8473886E2,3.3154768E3],"tree_param":{"num_deleted":"0","num_feature":"5","num_nodes":"7","size_leaf_vector":"0"}},{"base_weights":[2.6259937E-3,1.0734279E-2,-1.21043414E-1,-1.5870553E-2,6.1539963E-2,-1.3295248E-1,7.0970005E-1],"categories":[],"categories_nodes":[],"categories_segments":[],"categories_sizes":[],"default_left":[1,1,1,0,0,0,0],"id":63,"left_children":[1,3,5,-1,-1,-1,-1],"loss_changes":[1.1785323E1,1.4909401E1,7.2489185E0,0E0,0E0,0E0,0E0],"parents":[2147483647,0,0,1,1,2,2],"right_children":[2,4,6,-1,-1,-1,-1],"split_conditions":[3.48625E4,7.53615E4,4.825E5,-1.5870553E-3,6.1539966E-3,-1.3295248E-2,7.097001E-2],"split_indices":[0,4,4,0,0,0,0],"split_type":[0,0,0,0,0,0,0],"sum_hessian":[1.1750745E4,1.1028579E4,7.221666E2,7.2386733E3,3.7899055E3,7.1278845E2,9.378171E0],"tree_param":{"num_deleted":"0","num_feature":"5","num_nodes":"7","size_leaf_vector":"0"}},{"base_weights":[2.3765988E-3,1.2052904E-1,-5.7594213E-3,1.3860789E-1,-7.58569E-2,-1.1515556E-3,-2.0983751E-1],"categories":[],"categories_nodes":[],"categories_segments":[],"categories_sizes":[],"default_left":[1,1,1,0,0,0,0],"id":64,"left_children":[1,3,5,-1,-1,-1,-1],"loss_changes":[1.1294239E1,2.6979055E0,1.0336616E1,0E0,0E0,0E0,0E0],"parents":[2147483647,0,0,1,1,2,2],"right_children":[2,4,6,-1,-1,-1,-1],"split_conditions":[1.5E0,2.9975E4,6.5E0,1.3860789E-2,-7.5856904E-3,-1.15155555E-4,-2.0983752E-2],"split_indices":[2,0,2,0,0,0,0],"split_type":[0,0,0,0,0,0,0],"sum_hessian":[1.1747313E4,7.5592004E2,1.0991394E4,6.9246735E2,6.3452747E1,1.0749683E4,2.4171074E2],"tree_param":{"num_deleted":"0","num_feature":"5","num_nodes":"7","size_leaf_vector":"0"}},{"base_weights":[2.1443847E-3,2.5912037E-1,-1.4084382E-3,8.158596E-2,4.0506175E-1,2.5775759E-2,-3.7633326E-2],"categories":[],"categories_nodes":[],"categories_segments":[],"categories_sizes":[],"default_left":[1,1,1,0,0,0,0],"id":65,"left_children":[1,3,5,-1,-1,-1,-1],"loss_changes":[1.0720397E1,4.1157618E0,1.1406819E1,0E0,0E0,0E0,0E0],"parents":[2147483647,0,0,1,1,2,2],"right_children":[2,4,6,-1,-1,-1,-1],"split_conditions":[1.9875E3,4.3505E4,1.5E0,8.158596E-3,4.0506177E-2,2.5775759E-3,-3.7633327E-3],"split_indices":[0,4,3,0,0,0,0],"split_type":[0,0,0,0,0,0,0],"sum_hessian":[1.1740673E4,1.5912624E2,1.1581547E4,7.249578E1,8.663045E1,6.616571E3,4.9649766E3],"tree_param":{"num_deleted":"0","num_feature":"5","num_nodes":"7","size_leaf_vector":"0"}},{"base_weights":[1.9411353E-3,2.2262609E-2,-4.178069E-2,3.370319E-2,-1.03522256E-1,-5.5224586E-2,1.5329115E-1],"categories":[],"categories_nodes":[],"categories_segments":[],"categories_sizes":[],"default_left":[1,1,1,0,0,0,0],"id":66,"left_children":[1,3,5,-1,-1,-1,-1],"loss_changes":[1.0429694E1,1.1535784E1,9.7768135E0,0E0,0E0,0E0,0E0],"parents":[2147483647,0,0,1,1,2,2],"right_children":[2,4,6,-1,-1,-1,-1],"split_conditions":[5E-1,2.83125E4,1.517664E5,3.370319E-3,-1.0352226E-2,-5.522459E-3,1.5329115E-2],"split_indices":[1,0,4,0,0,0,0],"split_type":[0,0,0,0,0,0,0],"sum_hessian":[1.1736602E4,8.0128154E3,3.7237866E3,7.345452E3,6.673629E2,3.484369E3,2.394177E2],"tree_param":{"num_deleted":"0","num_feature":"5","num_nodes":"7","size_leaf_vector":"0"}},{"base_weights":[1.7544077E-3,5.394942E-2,-1.329507E-2,-7.5932457E-3,9.017571E-2,-2.0288007E-1,-5.075513E-3],"categories":[],"categories_nodes":[],"categories_segments":[],"categories_sizes":[],"default_left":[1,1,1,0,0,0,0],"id":67,"left_children":[1,3,5,-1,-1,-1,-1],"loss_changes":[9.216377E0,5.854966E0,1.4190818E1,0E0,0E0,0E0,0E0],"parents":[2147483647,0,0,1,1,2,2],"right_children":[2,4,6,-1,-1,-1,-1],"split_conditions":[7.7625E3,4.2008E4,3.2254E4,-7.593246E-4,9.017571E-3,-2.0288007E-2,-5.075513E-4],"split_indices":[0,4,4,0,0,0,0],"split_type":[0,0,0,0,0,0,0],"sum_hessian":[1.1731106E4,2.6248713E3,9.106235E3,9.728854E2,1.651986E3,3.774158E2,8.728819E3],"tree_param":{"num_deleted":"0","num_feature":"5","num_nodes":"7","size_leaf_vector":"0"}},{"base_weights":[1.5847709E-3,8.160051E-3,-1.1377061E-1,3.118082E-2,-2.2312108E-2,-1.4651433E-1,2.756105E-1],"categories":[],"categories_nodes":[],"categories_segments":[],"categories_sizes":[],"default_left":[1,1,1,0,0,0,0],"id":68,"left_children":[1,3,5,-1,-1,-1,-1],"loss_changes":[8.896781E0,7.785002E0,8.105032E0,0E0,0E0,0E0,0E0],"parents":[2147483647,0,0,1,1,2,2],"right_children":[2,4,6,-1,-1,-1,-1],"split_conditions":[5.5E0,1.5E0,1.268745E5,3.118082E-3,-2.231211E-3,-1.4651433E-2,2.7561052E-2],"split_indices":[2,3,4,0,0,0,0],"split_type":[0,0,0,0,0,0,0],"sum_hessian":[1.1727311E4,1.1095778E4,6.315323E2,6.3206787E3,4.7750996E3,5.831204E2,4.841186E1],"tree_param":{"num_deleted":"0","num_feature":"5","num_nodes":"7","size_leaf_vector":"0"}},{"base_weights":[1.4312164E-3,2.08918E-2,-3.6421597E-2,-4.016346E-3,7.868287E-2,-3.4152848E-1,-2.433435E-2],"categories":[],"categories_nodes":[],"categories_segments":[],"categories_sizes":[],"default_left":[1,1,1,0,0,0,0],"id":69,"left_children":[1,3,5,-1,-1,-1,-1],"loss_changes":[8.63606E0,1.1145907E1,1.46722355E1,0E0,0E0,0E0,0E0],"parents":[2147483647,0,0,1,1,2,2],"right_children":[2,4,6,-1,-1,-1,-1],"split_conditions":[1.79125E4,7.0102E4,4.369E4,-4.0163458E-4,7.868287E-3,-3.4152847E-2,-2.433435E-3],"split_indices":[0,4,4,0,0,0,0],"split_type":[0,0,0,0,0,0,0],"sum_hessian":[1.1721584E4,7.741853E3,3.979731E3,5.4107373E3,2.3311155E3,1.5061612E2,3.829115E3],"tree_param":{"num_deleted":"0","num_feature":"5","num_nodes":"7","size_leaf_vector":"0"}},{"base_weights":[1.292642E-3,2.308186E-1,-1.8146302E-3,-7.1939236E-1,2.5424194E-1,-1.0130062E-2,8.3262265E-2],"categories":[],"categories_nodes":[],"categories_segments":[],"categories_sizes":[],"default_left":[1,1,1,0,0,0,0],"id":70,"left_children":[1,3,5,-1,-1,-1,-1],"loss_changes":[8.357915E0,3.6667805E0,8.180949E0,0E0,0E0,0E0,0E0],"parents":[2147483647,0,0,1,1,2,2],"right_children":[2,4,6,-1,-1,-1,-1],"split_conditions":[1.9875E3,1.47E4,1.3079E5,-7.193924E-2,2.5424195E-2,-1.0130062E-3,8.326227E-3],"split_indices":[0,4,4,0,0,0,0],"split_type":[0,0,0,0,0,0,0],"sum_hessian":[1.1717314E4,1.5552882E2,1.1561785E4,3.0268404E0,1.5250198E2,1.0533153E4,1.0286315E3],"tree_param":{"num_deleted":"0","num_feature":"5","num_nodes":"7","size_leaf_vector":"0"}},{"base_weights":[1.1651742E-3,8.004305E-3,-1.0202894E-1,-2.2706186E-2,3.7598435E-2,-1.1252368E-1,6.645136E-1],"categories":[],"categories_nodes":[],"categories_segments":[],"categories_sizes":[],"default_left":[1,1,1,0,0,0,0],"id":71,"left_children":[1,3,5,-1,-1,-1,-1],"loss_changes":[8.269749E0,9.98828E0,5.9337525E0,0E0,0E0,0E0,0E0],"parents":[2147483647,0,0,1,1,2,2],"right_children":[2,4,6,-1,-1,-1,-1],"split_conditions":[3.48625E4,6.217E4,4.825E5,-2.2706187E-3,3.7598435E-3,-1.1252369E-2,6.645136E-2],"split_indices":[0,4,4,0,0,0,0],"split_type":[0,0,0,0,0,0,0],"sum_hessian":[1.1715383E4,1.0988076E4,7.273061E2,5.392447E3,5.59563E3,7.183247E2,8.981385E0],"tree_param":{"num_deleted":"0","num_feature":"5","num_nodes":"7","size_leaf_vector":"0"}},{"base_weights":[1.0587287E-3,1.0181624E-1,-5.767901E-3,1.0895826E-1,-3.0898938E-1,1.1971576E0,-6.3518328E-3],"categories":[],"categories_nodes":[],"categories_segments":[],"categories_sizes":[],"default_left":[1,1,1,0,0,0,0],"id":72,"left_children":[1,3,5,-1,-1,-1,-1],"loss_changes":[8.057975E0,2.2146745E0,7.7144723E0,0E0,0E0,0E0,0E0],"parents":[2147483647,0,0,1,1,2,2],"right_children":[2,4,6,-1,-1,-1,-1],"split_conditions":[1.5E0,5E-1,7.37E3,1.0895826E-2,-3.0898938E-2,1.19715765E-1,-6.351833E-4],"split_indices":[2,1,4,0,0,0,0],"split_type":[0,0,0,0,0,0,0],"sum_hessian":[1.1713142E4,7.423612E2,1.097078E4,7.303977E2,1.1963485E1,4.3286853E0,1.0966451E4],"tree_param":{"num_deleted":"0","num_feature":"5","num_nodes":"7","size_leaf_vector":"0"}},{"base_weights":[9.663279E-4,2.4427587E-2,-2.6504913E-2,9.850139E-3,1.2300659E-1,-2.947603E-2,4.0007126E-1],"categories":[],"categories_nodes":[],"categories_segments":[],"categories_sizes":[],"default_left":[1,1,1,0,0,0,0],"id":73,"left_children":[1,3,5,-1,-1,-1,-1],"loss_changes":[7.548351E0,9.07637E0,6.8492804E0,0E0,0E0,0E0,0E0],"parents":[2147483647,0,0,1,1,2,2],"right_children":[2,4,6,-1,-1,-1,-1],"split_conditions":[1.49625E4,9.001E4,3.505E5,9.850139E-4,1.2300659E-2,-2.9476031E-3,4.0007126E-2],"split_indices":[0,4,4,0,0,0,0],"split_type":[0,0,0,0,0,0,0],"sum_hessian":[1.1709764E4,6.315904E3,5.3938594E3,5.503212E3,8.1269196E2,5.3574756E3,3.6384094E1],"tree_param":{"num_deleted":"0","num_feature":"5","num_nodes":"7","size_leaf_vector":"0"}},{"base_weights":[8.8006567E-4,4.4893348E-3,-1.691564E-1,3.249446E-2,-1.9595463E-2,9.57153E-1,-1.7938256E-1],"categories":[],"categories_nodes":[],"categories_segments":[],"categories_sizes":[],"default_left":[1,1,1,0,0,0,0],"id":74,"left_children":[1,3,5,-1,-1,-1,-1],"loss_changes":[7.185737E0,7.73384E0,2.9747748E0,0E0,0E0,0E0,0E0],"parents":[2147483647,0,0,1,1,2,2],"right_children":[2,4,6,-1,-1,-1,-1],"split_conditions":[6.5E0,5E-1,1.94855E4,3.249446E-3,-1.9595462E-3,9.571531E-2,-1.7938256E-2],"split_indices":[2,3,4,0,0,0,0],"split_type":[0,0,0,0,0,0,0],"sum_hessian":[1.1706497E4,1.1464128E4,2.4236903E2,5.300503E3,6.163625E3,1.3475828E0,2.4102145E2],"tree_param":{"num_deleted":"0","num_feature":"5","num_nodes":"7","size_leaf_vector":"0"}},{"base_weights":[8.0135796E-4,1.1458801E0,2.860503E-4,9.137695E-3,-6.704955E-2],"categories":[],"categories_nodes":[],"categories_segments":[],"categories_sizes":[],"default_left":[1,0,1,0,0],"id":75,"left_children":[1,-1,3,-1,-1],"loss_changes":[6.9055305E0,0E0,6.973716E0,0E0,0E0],"parents":[2147483647,0,0,2,2],"right_children":[2,-1,4,-1,-1],"split_conditions":[7.37E3,1.14588015E-1,2.91125E4,9.137695E-4,-6.704955E-3],"split_indices":[4,0,0,0,0],"split_type":[0,0,0,0,0],"sum_hessian":[1.1702497E4,4.264182E0,1.1698233E4,1.0339864E4,1.3583691E3],"tree_param":{"num_deleted":"0","num_feature":"5","num_nodes":"5","size_leaf_vector":"0"}},{"base_weights":[7.329723E-4,2.093682E-1,-2.0471872E-3,1.7406976E-1,8.646372E-1,3.5686996E-2,-1.717928E-2],"categories":[],"categories_nodes":[],"categories_segments":[],"categories_sizes":[],"default_left":[1,1,1,0,0,0,0],"id":76,"left_children":[1,3,5,-1,-1,-1,-1],"loss_changes":[6.7882233E0,3.4091396E0,6.5952907E0,0E0,0E0,0E0,0E0],"parents":[2147483647,0,0,1,1,2,2],"right_children":[2,4,6,-1,-1,-1,-1],"split_conditions":[1.9875E3,1.057435E5,2.5E0,1.7406976E-2,8.646372E-2,3.5686996E-3,-1.7179281E-3],"split_indices":[0,4,2,0,0,0,0],"split_type":[0,0,0,0,0,0,0],"sum_hessian":[1.1701303E4,1.5289757E2,1.1548405E4,1.4628314E2,6.6144257E0,3.3051501E3,8.243255E3],"tree_param":{"num_deleted":"0","num_feature":"5","num_nodes":"7","size_leaf_vector":"0"}},{"base_weights":[6.735082E-4,-6.5566157E-3,7.595145E-2,3.9293244E-2,-2.4401478E-2,1.5610346E-1,1.4985559E-2],"categories":[],"categories_nodes":[],"categories_segments":[],"categories_sizes":[],"default_left":[1,1,1,0,0,0,0],"id":77,"left_children":[1,3,5,-1,-1,-1,-1],"loss_changes":[6.3669972E0,8.733633E0,5.0068974E0,0E0,0E0,0E0,0E0],"parents":[2147483647,0,0,1,1,2,2],"right_children":[2,4,6,-1,-1,-1,-1],"split_conditions":[1.3079E5,2.5E0,2.22375E4,3.9293244E-3,-2.4401478E-3,1.5610347E-2,1.4985559E-3],"split_indices":[4,2,0,0,0,0,0],"split_type":[0,0,0,0,0,0,0],"sum_hessian":[1.1696343E4,1.0672233E4,1.0241095E3,2.989621E3,7.6826123E3,4.417626E2,5.8234686E2],"tree_param":{"num_deleted":"0","num_feature":"5","num_nodes":"7","size_leaf_vector":"0"}},{"base_weights":[6.1313336E-4,7.5506166E-2,-6.4852955E-3,6.667763E-2,6.928221E-1,-1.3085406E-1,-9.25663E-4],"categories":[],"categories_nodes":[],"categories_segments":[],"categories_sizes":[],"default_left":[1,1,1,0,0,0,0],"id":78,"left_children":[1,3,5,-1,-1,-1,-1],"loss_changes":[6.215983E0,5.470712E0,7.384692E0,0E0,0E0,0E0,0E0],"parents":[2147483647,0,0,1,1,2,2],"right_children":[2,4,6,-1,-1,-1,-1],"split_conditions":[4.7875E3,4.6125E3,5.0375E3,6.667763E-3,6.928221E-2,-1.3085405E-2,-9.25663E-5],"split_indices":[0,0,0,0,0,0,0],"split_type":[0,0,0,0,0,0,0],"sum_hessian":[1.1690545E4,1.01127716E3,1.0679268E4,9.981107E2,1.3166462E1,4.5600125E2,1.0223267E4],"tree_param":{"num_deleted":"0","num_feature":"5","num_nodes":"7","size_leaf_vector":"0"}},{"base_weights":[5.6202046E-4,1.1027815E0,8.6487955E-5,-4.937494E-2,1.0440269E-2],"categories":[],"categories_nodes":[],"categories_segments":[],"categories_sizes":[],"default_left":[1,0,1,0,0],"id":79,"left_children":[1,-1,3,-1,-1],"loss_changes":[6.127597E0,0E0,5.9855146E0,0E0,0E0],"parents":[2147483647,0,0,2,2],"right_children":[2,-1,4,-1,-1],"split_conditions":[7.37E3,1.1027815E-1,4.1337E4,-4.937494E-3,1.0440269E-3],"split_indices":[4,0,4,0,0],"split_type":[0,0,0,0,0],"sum_hessian":[1.1689918E4,4.0415797E0,1.1685877E4,2.0221277E3,9.663749E3],"tree_param":{"num_deleted":"0","num_feature":"5","num_nodes":"5","size_leaf_vector":"0"}},{"base_weights":[5.171489E-4,4.2802494E-2,-1.1587651E-2,1.1100446E-2,8.459103E-2,-1.6783814E-1,-4.7192043E-3],"categories":[],"categories_nodes":[],"categories_segments":[],"categories_sizes":[],"default_left":[1,1,1,0,0,0,0],"id":80,"left_children":[1,3,5,-1,-1,-1,-1],"loss_changes":[5.9842095E0,3.446056E0,9.753831E0,0E0,0E0,0E0,0E0],"parents":[2147483647,0,0,1,1,2,2],"right_children":[2,4,6,-1,-1,-1,-1],"split_conditions":[7.7625E3,5.1875E3,3.2254E4,1.1100447E-3,8.459103E-3,-1.6783815E-2,-4.7192044E-4],"split_indices":[0,0,4,0,0,0,0],"split_type":[0,0,0,0,0,0,0],"sum_hessian":[1.1689237E4,2.600934E3,9.088303E3,1.4796741E3,1.12126E3,3.816942E2,8.706608E3],"tree_param":{"num_deleted":"0","num_feature":"5","num_nodes":"7","size_leaf_vector":"0"}},{"base_weights":[4.6880482E-4,2.4173275E-2,-1.985645E-2,4.1325618E-2,-6.2953986E-2,3.070435E-2,-3.8877048E-2],"categories":[],"categories_nodes":[],"categories_segments":[],"categories_sizes":[],"default_left":[1,1,1,0,0,0,0],"id":81,"left_children":[1,3,5,-1,-1,-1,-1],"loss_changes":[5.6317973E0,8.066547E0,6.0532646E0,0E0,0E0,0E0,0E0],"parents":[2147483647,0,0,1,1,2,2],"right_children":[2,4,6,-1,-1,-1,-1],"split_conditions":[5E-1,2.8225E4,7.9625E3,4.132562E-3,-6.295399E-3,3.070435E-3,-3.8877048E-3],"split_indices":[3,0,0,0,0,0,0],"split_type":[0,0,0,0,0,0,0],"sum_hessian":[1.1687096E4,5.394977E3,6.2921187E3,4.508028E3,8.8694904E2,1.7198301E3,4.5722886E3],"tree_param":{"num_deleted":"0","num_feature":"5","num_nodes":"7","size_leaf_vector":"0"}},{"base_weights":[4.260344E-4,1.0685196E0,-1.7511671E-5,-6.659343E-3,6.9372445E-2],"categories":[],"categories_nodes":[],"categories_segments":[],"categories_sizes":[],"default_left":[1,0,1,0,0],"id":82,"left_children":[1,-1,3,-1,-1],"loss_changes":[5.535346E0,0E0,5.383613E0,0E0,0E0],"parents":[2147483647,0,0,2,2],"right_children":[2,-1,4,-1,-1],"split_conditions":[7.37E3,1.0685196E-1,1.3079E5,-6.659343E-4,6.9372444E-3],"split_indices":[4,0,4,0,0],"split_type":[0,0,0,0,0],"sum_hessian":[1.16831E4,3.8500462E0,1.167925E4,1.0659822E4,1.01942725E3],"tree_param":{"num_deleted":"0","num_feature":"5","num_nodes":"5","size_leaf_vector":"0"}},{"base_weights":[3.953782E-4,3.505135E-3,-1.4558966E-1,2.6256116E-3,5.622053E-1,-1.316139E-1,-9.7164667E-1],"categories":[],"categories_nodes":[],"categories_segments":[],"categories_sizes":[],"default_left":[1,1,1,0,0,0,0],"id":83,"left_children":[1,3,5,-1,-1,-1,-1],"loss_changes":[5.304507E0,5.620352E0,2.6857014E0,0E0,0E0,0E0,0E0],"parents":[2147483647,0,0,1,1,2,2],"right_children":[2,4,6,-1,-1,-1,-1],"split_conditions":[6.5E0,4.675E5,3.9E4,2.6256117E-4,5.622053E-2,-1.316139E-2,-9.716467E-2],"split_indices":[2,4,0,0,0,0,0],"split_type":[0,0,0,0,0,0,0],"sum_hessian":[1.1682379E4,1.1439668E4,2.4271053E2,1.1422691E4,1.6977257E1,2.3981255E2,2.8979757E0],"tree_param":{"num_deleted":"0","num_feature":"5","num_nodes":"7","size_leaf_vector":"0"}},{"base_weights":[3.5299582E-4,1.838916E-1,-2.0484568E-3,-6.859167E-1,2.0656432E-1,1.6378742E-2,-2.6361356E-2],"categories":[],"categories_nodes":[],"categories_segments":[],"categories_sizes":[],"default_left":[1,1,1,0,0,0,0],"id":84,"left_children":[1,3,5,-1,-1,-1,-1],"loss_changes":[5.149124E0,3.1171875E0,5.166831E0,0E0,0E0,0E0,0E0],"parents":[2147483647,0,0,1,1,2,2],"right_children":[2,4,6,-1,-1,-1,-1],"split_conditions":[1.9875E3,1.47E4,1.5E0,-6.859168E-2,2.0656433E-2,1.6378742E-3,-2.6361356E-3],"split_indices":[0,4,3,0,0,0,0],"split_type":[0,0,0,0,0,0,0],"sum_hessian":[1.1680542E4,1.4988045E2,1.1530662E4,3.0644388E0,1.4681601E2,6.559455E3,4.971207E3],"tree_param":{"num_deleted":"0","num_feature":"5","num_nodes":"7","size_leaf_vector":"0"}},{"base_weights":[3.166683E-4,5.6864377E-3,-7.9819575E-2,-1.8924307E-2,2.955989E-2,-8.802146E-2,5.785837E-1],"categories":[],"categories_nodes":[],"categories_segments":[],"categories_sizes":[],"default_left":[1,1,1,0,0,0,0],"id":85,"left_children":[1,3,5,-1,-1,-1,-1],"loss_changes":[5.0262E0,6.4322515E0,4.0120635E0,0E0,0E0,0E0,0E0],"parents":[2147483647,0,0,1,1,2,2],"right_children":[2,4,6,-1,-1,-1,-1],"split_conditions":[3.48625E4,6.217E4,4.825E5,-1.8924307E-3,2.955989E-3,-8.802146E-3,5.7858374E-2],"split_indices":[0,4,4,0,0,0,0],"split_type":[0,0,0,0,0,0,0],"sum_hessian":[1.1678275E4,1.0945752E4,7.3252386E2,5.3897524E3,5.555999E3,7.243666E2,8.1572895E0],"tree_param":{"num_deleted":"0","num_feature":"5","num_nodes":"7","size_leaf_vector":"0"}},{"base_weights":[2.9258E-4,1.9625535E-2,-2.2240993E-2,-2.9390417E-2,3.897018E-2,-7.624009E-3,-8.595165E-2],"categories":[],"categories_nodes":[],"categories_segments":[],"categories_sizes":[],"default_left":[1,1,1,0,0,0,0],"id":86,"left_children":[1,3,5,-1,-1,-1,-1],"loss_changes":[5.087737E0,5.961294E0,5.02159E0,0E0,0E0,0E0,0E0],"parents":[2147483647,0,0,1,1,2,2],"right_children":[2,4,6,-1,-1,-1,-1],"split_conditions":[1.49625E4,4.1305E4,4.5E0,-2.9390417E-3,3.897018E-3,-7.624009E-4,-8.595165E-3],"split_indices":[0,4,2,0,0,0,0],"split_type":[0,0,0,0,0,0,0],"sum_hessian":[1.1676748E4,6.284776E3,5.391972E3,1.7783156E3,4.5064604E3,4.3866685E3,1.0053032E3],"tree_param":{"num_deleted":"0","num_feature":"5","num_nodes":"7","size_leaf_vector":"0"}},{"base_weights":[2.6525604E-4,1.0331511E0,-1.4647473E-4,7.749849E-2,-5.3000757E-3],"categories":[],"categories_nodes":[],"categories_segments":[],"categories_sizes":[],"default_left":[1,0,1,0,0],"id":87,"left_children":[1,-1,3,-1,-1],"loss_changes":[4.9644203E0,0E0,4.6699905E0,0E0,0E0],"parents":[2147483647,0,0,2,2],"right_children":[2,-1,4,-1,-1],"split_conditions":[7.37E3,1.03315115E-1,1.5E0,7.749849E-3,-5.300076E-4],"split_indices":[4,0,2,0,0],"split_type":[0,0,0,0,0],"sum_hessian":[1.1672191E4,3.6514754E0,1.166854E4,7.25407E2,1.0943133E4],"tree_param":{"num_deleted":"0","num_feature":"5","num_nodes":"5","size_leaf_vector":"0"}},{"base_weights":[2.5083256E-4,9.983558E-1,-1.2955537E-4,1.3286087E-2,-2.8710652E-2],"categories":[],"categories_nodes":[],"categories_segments":[],"categories_sizes":[],"default_left":[1,0,1,0,0],"id":88,"left_children":[1,-1,3,-1,-1],"loss_changes":[4.4311905E0,0E0,4.474081E0,0E0,0E0],"parents":[2147483647,0,0,2,2],"right_children":[2,-1,4,-1,-1],"split_conditions":[7.37E3,9.983558E-2,5E-1,1.3286087E-3,-2.8710652E-3],"split_indices":[4,0,1,0,0],"split_type":[0,0,0,0,0],"sum_hessian":[1.1669911E4,3.446338E0,1.1666465E4,7.940037E3,3.726428E3],"tree_param":{"num_deleted":"0","num_feature":"5","num_nodes":"5","size_leaf_vector":"0"}},{"base_weights":[2.3587393E-4,-5.596547E-3,6.150366E-2,-6.217934E-4,-1.1278726E-1,-3.2148387E-2,1.0987718E-1],"categories":[],"categories_nodes":[],"categories_segments":[],"categories_sizes":[],"default_left":[1,1,1,0,0,0,0],"id":89,"left_children":[1,3,5,-1,-1,-1,-1],"loss_changes":[4.1699796E0,5.6818013E0,4.598714E0,0E0,0E0,0E0,0E0],"parents":[2147483647,0,0,1,1,2,2],"right_children":[2,4,6,-1,-1,-1,-1],"split_conditions":[1.3079E5,3.45375E4,2.5E0,-6.217934E-5,-1.1278726E-2,-3.2148387E-3,1.0987718E-2],"split_indices":[4,0,2,0,0,0,0],"split_type":[0,0,0,0,0,0,0],"sum_hessian":[1.1667553E4,1.0654227E4,1.01332635E3,1.0182652E4,4.715742E2,3.452504E2,6.680759E2],"tree_param":{"num_deleted":"0","num_feature":"5","num_nodes":"7","size_leaf_vector":"0"}},{"base_weights":[2.1470373E-4,1.6596882E-1,-1.9258704E-3,1.3299388E-1,8.208303E-1,4.391322E-1,-2.7998395E-3],"categories":[],"categories_nodes":[],"categories_segments":[],"categories_sizes":[],"default_left":[1,1,1,0,0,0,0],"id":90,"left_children":[1,3,5,-1,-1,-1,-1],"loss_changes":[4.1403484E0,3.1035275E0,4.442071E0,0E0,0E0,0E0,0E0],"parents":[2147483647,0,0,1,1,2,2],"right_children":[2,4,6,-1,-1,-1,-1],"split_conditions":[1.9875E3,1.057435E5,1.31975E4,1.3299388E-2,8.208303E-2,4.3913223E-2,-2.7998394E-4],"split_indices":[0,4,4,0,0,0,0],"split_type":[0,0,0,0,0,0,0],"sum_hessian":[1.1667331E4,1.477769E2,1.1519554E4,1.4183788E2,5.939031E0,2.1789495E1,1.1497765E4],"tree_param":{"num_deleted":"0","num_feature":"5","num_nodes":"7","size_leaf_vector":"0"}},{"base_weights":[2.0803069E-4,-8.878961E-4,3.1564128E-1,1.2092665E-2,-3.0063482E-2,1.9768386E-1,6.4497834E-1],"categories":[],"categories_nodes":[],"categories_segments":[],"categories_sizes":[],"default_left":[1,1,1,0,0,0,0],"id":91,"left_children":[1,3,5,-1,-1,-1,-1],"loss_changes":[4.033771E0,4.40425E0,1.4419785E0,0E0,0E0,0E0,0E0],"parents":[2147483647,0,0,1,1,2,2],"right_children":[2,4,6,-1,-1,-1,-1],"split_conditions":[3.505E5,1.91375E4,1.5E0,1.2092665E-3,-3.0063482E-3,1.9768385E-2,6.4497836E-2],"split_indices":[4,0,3,0,0,0,0],"split_type":[0,0,0,0,0,0,0],"sum_hessian":[1.1666883E4,1.1627482E4,3.9400806E1,8.047597E3,3.5798848E3,3.018854E1,9.212268E0],"tree_param":{"num_deleted":"0","num_feature":"5","num_nodes":"7","size_leaf_vector":"0"}},{"base_weights":[1.9633152E-4,1.9930353E-2,-1.6661068E-2,-9.688369E-2,3.2400463E-2,1.7023578E-2,-3.618317E-2],"categories":[],"categories_nodes":[],"categories_segments":[],"categories_sizes":[],"default_left":[1,1,1,0,0,0,0],"id":92,"left_children":[1,3,5,-1,-1,-1,-1],"loss_changes":[3.8814E0,7.8330803E0,4.138493E0,0E0,0E0,0E0,0E0],"parents":[2147483647,0,0,1,1,2,2],"right_children":[2,4,6,-1,-1,-1,-1],"split_conditions":[5E-1,4.0002E4,9.9875E3,-9.688369E-3,3.2400463E-3,1.7023579E-3,-3.6183172E-3],"split_indices":[3,4,0,0,0,0,0],"split_type":[0,0,0,0,0,0,0],"sum_hessian":[1.166562E4,5.374182E3,6.291438E3,5.177141E2,4.856468E3,2.3084402E3,3.982998E3],"tree_param":{"num_deleted":"0","num_feature":"5","num_nodes":"7","size_leaf_vector":"0"}},{"base_weights":[1.7939718E-4,9.550486E-1,-1.6332284E-4,6.882019E-2,-4.706572E-3],"categories":[],"categories_nodes":[],"categories_segments":[],"categories_sizes":[],"default_left":[1,0,1,0,0],"id":93,"left_children":[1,-1,3,-1,-1],"loss_changes":[3.8171322E0,0E0,3.6548352E0,0E0,0E0],"parents":[2147483647,0,0,2,2],"right_children":[2,-1,4,-1,-1],"split_conditions":[7.37E3,9.5504865E-2,1.5E0,6.8820193E-3,-4.706572E-4],"split_indices":[4,0,2,0,0],"split_type":[0,0,0,0,0],"sum_hessian":[1.1662693E4,3.1849816E0,1.1659508E4,7.195716E2,1.0939937E4],"tree_param":{"num_deleted":"0","num_feature":"5","num_nodes":"5","size_leaf_vector":"0"}},{"base_weights":[1.7229545E-4,2.747419E-3,-1.203682E-1,2.0328467E-3,4.888761E-1,9.355452E-1,-1.2997107E-1],"categories":[],"categories_nodes":[],"categories_segments":[],"categories_sizes":[],"default_left":[1,1,1,0,0,0,0],"id":94,"left_children":[1,3,5,-1,-1,-1,-1],"loss_changes":[3.620197E0,3.965583E0,2.5951152E0,0E0,0E0,0E0,0E0],"parents":[2147483647,0,0,1,1,2,2],"right_children":[2,4,6,-1,-1,-1,-1],"split_conditions":[6.5E0,4.675E5,1.94855E4,2.0328467E-4,4.888761E-2,9.355452E-2,-1.2997108E-2],"split_indices":[2,4,4,0,0,0,0],"split_type":[0,0,0,0,0,0,0],"sum_hessian":[1.1660689E4,1.1417748E4,2.4294174E2,1.1401992E4,1.575588E1,1.320483E0,2.4162126E2],"tree_param":{"num_deleted":"0","num_feature":"5","num_nodes":"7","size_leaf_vector":"0"}},{"base_weights":[1.6750795E-4,9.252302E-1,-1.4992793E-4,5.6062873E-2,-5.4153763E-3],"categories":[],"categories_nodes":[],"categories_segments":[],"categories_sizes":[],"default_left":[1,0,1,0,0],"id":95,"left_children":[1,-1,3,-1,-1],"loss_changes":[3.4241316E0,0E0,3.4506643E0,0E0,0E0],"parents":[2147483647,0,0,2,2],"right_children":[2,-1,4,-1,-1],"split_conditions":[7.37E3,9.252302E-2,4.7875E3,5.6062876E-3,-5.4153765E-4],"split_indices":[4,0,0,0,0],"split_type":[0,0,0,0,0],"sum_hessian":[1.1659191E4,2.9999917E0,1.1656191E4,9.974954E2,1.0658695E4],"tree_param":{"num_deleted":"0","num_feature":"5","num_nodes":"5","size_leaf_vector":"0"}},{"base_weights":[1.6074207E-4,-4.9917423E-3,5.4473814E-2,3.7779997E-3,-5.5715125E-2,-3.248527E-2,9.9618375E-2],"categories":[],"categories_nodes":[],"categories_segments":[],"categories_sizes":[],"default_left":[1,1,1,0,0,0,0],"id":96,"left_children":[1,3,5,-1,-1,-1,-1],"loss_changes":[3.2630992E0,4.7376566E0,3.9694917E0,0E0,0E0,0E0,0E0],"parents":[2147483647,0,0,1,1,2,2],"right_children":[2,4,6,-1,-1,-1,-1],"split_conditions":[1.3079E5,4.5E0,2.5E0,3.7779997E-4,-5.5715125E-3,-3.248527E-3,9.961838E-3],"split_indices":[4,2,2,0,0,0,0],"split_type":[0,0,0,0,0,0,0],"sum_hessian":[1.1658315E4,1.0648992E4,1.00932324E3,9.080038E3,1.5689539E3,3.4501785E2,6.643054E2],"tree_param":{"num_deleted":"0","num_feature":"5","num_nodes":"7","size_leaf_vector":"0"}},{"base_weights":[1.4670654E-4,1.4511956E-2,-1.8600201E-2,-1.1418671E-1,2.186136E-2,-2.0132085E-2,5.3399247E-1],"categories":[],"categories_nodes":[],"categories_segments":[],"categories_sizes":[],"default_left":[1,1,1,0,0,0,0],"id":97,"left_children":[1,3,5,-1,-1,-1,-1],"loss_changes":[3.139513E0,6.24541E0,4.292056E0,0E0,0E0,0E0,0E0],"parents":[2147483647,0,0,1,1,2,2],"right_children":[2,4,6,-1,-1,-1,-1],"split_conditions":[1.5E0,3.3581E4,3.055E5,-1.1418671E-2,2.186136E-3,-2.0132086E-3,5.3399246E-2],"split_indices":[3,4,4,0,0,0,0],"split_type":[0,0,0,0,0,0,0],"sum_hessian":[1.1655874E4,6.5992627E3,5.056611E3,3.557111E2,6.243552E3,5.043593E3,1.3018152E1],"tree_param":{"num_deleted":"0","num_feature":"5","num_nodes":"7","size_leaf_vector":"0"}},{"base_weights":[1.3858812E-4,4.4840653E-3,-6.427567E-2,-1.0423112E-2,3.3495452E-2,-7.059897E-2,4.8998123E-1],"categories":[],"categories_nodes":[],"categories_segments":[],"categories_sizes":[],"default_left":[1,1,1,0,0,0,0],"id":98,"left_children":[1,3,5,-1,-1,-1,-1],"loss_changes":[3.262734E0,4.7228575E0,2.616379E0,0E0,0E0,0E0,0E0],"parents":[2147483647,0,0,1,1,2,2],"right_children":[2,4,6,-1,-1,-1,-1],"split_conditions":[3.48625E4,7.53615E4,4.825E5,-1.0423112E-3,3.3495452E-3,-7.059897E-3,4.8998125E-2],"split_indices":[0,4,4,0,0,0,0],"split_type":[0,0,0,0,0,0,0],"sum_hessian":[1.165431E4,1.0918652E4,7.3565735E2,7.2129824E3,3.7056697E3,7.28222E2,7.4353757E0],"tree_param":{"num_deleted":"0","num_feature":"5","num_nodes":"7","size_leaf_vector":"0"}},{"base_weights":[1.3086443E-4,1.546677E-2,-1.767891E-2,4.068239E-3,1.0017563E-1,-1.1576903E-1,-1.1006263E-2],"categories":[],"categories_nodes":[],"categories_segments":[],"categories_sizes":[],"default_left":[1,1,1,0,0,0,0],"id":99,"left_children":[1,3,5,-1,-1,-1,-1],"loss_changes":[3.1833093E0,6.046313E0,3.5282583E0,0E0,0E0,0E0,0E0],"parents":[2147483647,0,0,1,1,2,2],"right_children":[2,4,6,-1,-1,-1,-1],"split_conditions":[1.49625E4,1.21625E4,4.4153676E4,4.068239E-4,1.0017563E-2,-1.1576903E-2,-1.1006263E-3],"split_indices":[0,0,4,0,0,0,0],"split_type":[0,0,0,0,0,0,0],"sum_hessian":[1.1652964E4,6.2614194E3,5.3915444E3,5.519726E3,7.416933E2,3.423619E2,5.0491826E3],"tree_param":{"num_deleted":"0","num_feature":"5","num_nodes":"7","size_leaf_vector":"0"}}]},"name":"gbtree"},"learner_model_param":{"base_score":"5E-1","num_class":"0","num_feature":"5","num_target":"1"},"objective":{"name":"binary:logistic","reg_loss_param":{"scale_pos_weight":"1"}}},"version":[1,6,2]}